0.000000
0.000000
0.400000
0.200000
0.500000
0.500000
0.400000
-0.300000
0.400000
-0.400000
-0.200000
0.500000
0.500000
0.300000
0.200000
0.200000
0.500000
-0.200000
-0.100000
-0.300000
-0.200000
0.500000
0.300000
0.300000
0.100000
0.100000
0.500000
-0.400000
0.400000
-0.400000
0.400000
0.100000
0.100000
-0.100000
0.300000
-0.300000
0.100000
0.200000
-0.300000
-0.100000
0.100000
-0.300000
-0.200000
-0.100000
-0.300000
0.500000
0.500000
-0.100000
0.100000
0.500000
0.400000
-0.400000
-0.400000
-0.100000
0.500000
0.200000
0.000000
0.200000
-0.400000
-0.100000
0.000000
0.200000
0.000000
0.000000
0.300000
-0.100000
0.000000
0.200000
-0.400000
-0.100000
-0.400000
0.400000
0.500000
-0.100000
-0.300000
0.400000
-0.100000
-0.300000
-0.400000
-0.400000
-0.100000
0.400000
0.400000
0.300000
0.400000
0.200000
0.000000
0.400000
0.400000
-0.200000
-0.400000
0.300000
0.500000
0.100000
-0.300000
-0.200000
-0.400000
-0.400000
0.200000
0.300000
0.300000
0.100000
0.300000
0.300000
-0.400000
0.400000
-0.400000
-0.300000
-0.300000
-0.400000
0.400000
0.200000
0.100000
-0.200000
-0.100000
0.100000
0.100000
-0.400000
0.200000
-0.200000
-0.300000
0.100000
-0.400000
-0.400000
0.500000
0.400000
-0.200000
-0.200000
-0.200000
-0.300000
0.200000
-0.100000
0.300000
-0.200000
-0.300000
-0.200000
0.100000
-0.400000
0.100000
-0.300000
-0.400000
-0.200000
0.100000
-0.100000
0.400000
0.100000
0.300000
0.500000
0.100000
-0.200000
0.200000
-0.300000
0.500000
-0.100000
0.400000
0.500000
0.100000
0.300000
0.000000
-0.200000
0.200000
-0.200000
-0.400000
0.100000
-0.400000
-0.100000
0.400000
-0.400000
0.300000
0.500000
0.300000
0.200000
0.500000
-0.300000
0.300000
-0.100000
0.100000
0.400000
0.300000
-0.200000
0.500000
0.200000
0.100000
0.200000
0.400000
0.100000
0.100000
0.100000
-0.200000
-0.300000
0.300000
-0.300000
-0.200000
0.100000
0.200000
-0.300000
0.500000
-0.200000
-0.100000
0.000000
0.400000
-0.300000
0.200000
0.100000
0.500000
-0.300000
0.500000
-0.400000
0.100000
-0.100000
0.400000
-0.100000
0.100000
-0.400000
0.300000
-0.300000
0.300000
-0.200000
0.500000
0.300000
-0.400000
0.100000
0.500000
-0.200000
0.000000
-0.200000
0.500000
0.400000
0.100000
0.400000
0.400000
0.100000
-0.100000
0.400000
-0.200000
-0.400000
-0.100000
-0.200000
0.300000
0.400000
-0.200000
0.000000
0.400000
0.100000
-0.200000
0.200000
0.400000
-0.300000
0.200000
0.000000
-0.200000
0.200000
0.200000
0.200000
-0.400000
0.400000
-0.200000
-0.100000
-0.100000
0.000000
-0.300000
-0.400000
0.300000
0.200000
-0.300000
-0.300000
-0.200000
-0.200000
0.100000
0.000000
-0.300000
-0.400000
0.100000
-0.300000
0.100000
-0.200000
0.500000
-0.200000
0.100000
-0.200000
-0.100000
0.200000
0.300000
0.100000
-0.200000
0.500000
0.200000
-0.400000
-0.300000
0.200000
-0.200000
-0.100000
-0.100000
0.400000
0.100000
0.500000
-0.200000
0.000000
0.200000
-0.100000
0.100000
0.300000
-0.400000
0.000000
0.400000
0.400000
-0.400000
0.300000
-0.400000
0.000000
-0.200000
0.400000
-0.200000
-0.200000
0.400000
0.100000
0.200000
-0.200000
0.200000
-0.100000
-0.100000
0.500000
-0.300000
0.500000
-0.100000
0.100000
-0.400000
0.500000
-0.100000
-0.100000
0.400000
0.400000
-0.400000
0.100000
0.000000
0.300000
-0.300000
0.500000
-0.100000
0.200000
-0.300000
0.200000
-0.100000
-0.400000
-0.400000
0.000000
0.400000
-0.200000
-0.100000
-0.400000
0.300000
-0.200000
-0.100000
0.200000
0.000000
-0.300000
-0.200000
0.300000
-0.300000
-0.200000
0.400000
0.200000
-0.400000
-0.400000
-0.300000
0.000000
0.200000
-0.400000
0.000000
0.200000
-0.400000
0.200000
0.300000
-0.100000
0.300000
-0.100000
0.200000
0.400000
0.300000
-0.300000
-0.100000
-0.300000
0.500000
0.000000
0.200000
-0.300000
0.100000
-0.100000
-0.300000
0.100000
0.000000
0.100000
0.000000
0.500000
0.500000
0.000000
-0.100000
0.300000
-0.400000
0.200000
0.000000
-0.400000
-0.100000
0.500000
0.400000
0.100000
0.000000
0.300000
0.300000
0.000000
-0.300000
0.400000
-0.200000
0.200000
0.000000
-0.100000
0.100000
0.300000
0.300000
-0.200000
0.000000
-0.300000
0.100000
-0.400000
0.200000
-0.400000
-0.400000
0.500000
0.000000
0.400000
-0.400000
0.400000
-0.300000
0.500000
0.500000
0.500000
0.200000
0.000000
-0.200000
0.000000
0.100000
0.000000
0.500000
0.400000
-0.200000
0.100000
-0.400000
-0.200000
0.400000
-0.200000
0.100000
0.200000
0.000000
0.000000
-0.100000
-0.200000
0.400000
0.100000
-0.300000
0.500000
0.400000
0.100000
-0.100000
0.500000
0.300000
-0.300000
0.100000
-0.400000
0.100000
-0.400000
-0.400000
-0.100000
0.200000
0.400000
0.100000
0.500000
0.400000
0.100000
0.200000
-0.100000
-0.100000
-0.400000
0.200000
0.200000
-0.400000
-0.100000
-0.400000
0.000000
-0.300000
-0.400000
0.200000
0.100000
0.500000
0.400000
0.300000
0.200000
0.300000
-0.400000
0.500000
0.100000
-0.400000
0.300000
0.200000
0.200000
0.500000
0.200000
0.100000
-0.300000
0.100000
-0.400000
0.200000
-0.200000
0.400000
-0.100000
-0.300000
-0.100000
-0.400000
-0.100000
0.200000
-0.300000
-0.100000
-0.200000
0.100000
0.100000
0.500000
0.100000
-0.100000
0.200000
0.400000
0.000000
0.500000
-0.200000
-0.300000
-0.100000
-0.400000
0.200000
0.500000
0.500000
0.400000
-0.100000
0.500000
-0.300000
0.000000
0.000000
-0.300000
-0.100000
0.100000
0.000000
0.300000
-0.300000
0.000000
-0.400000
0.100000
-0.100000
-0.300000
0.300000
-0.400000
0.500000
0.100000
0.500000
-0.400000
-0.300000
-0.300000
0.200000
0.100000
-0.400000
0.500000
0.400000
0.000000
0.300000
0.400000
0.300000
0.000000
-0.400000
-0.400000
0.200000
0.000000
0.400000
-0.100000
0.000000
-0.200000
0.300000
-0.400000
0.100000
0.200000
0.000000
-0.100000
0.200000
-0.100000
0.300000
0.100000
-0.200000
0.000000
0.300000
0.000000
0.000000
0.500000
-0.200000
-0.400000
0.300000
-0.100000
0.400000
-0.300000
-0.400000
0.200000
-0.200000
0.000000
0.200000
-0.100000
0.200000
0.200000
0.200000
0.300000
0.000000
0.400000
0.500000
-0.400000
0.000000
-0.300000
-0.300000
-0.100000
-0.300000
0.200000
-0.300000
-0.200000
0.300000
-0.300000
0.200000
-0.200000
0.400000
-0.300000
0.200000
-0.100000
-0.400000
-0.400000
-0.400000
0.200000
0.100000
-0.100000
-0.100000
-0.200000
0.000000
0.100000
-0.100000
-0.100000
0.000000
0.100000
0.000000
0.000000
0.100000
-0.100000
0.200000
0.100000
-0.400000
0.400000
-0.400000
-0.300000
0.000000
0.500000
-0.400000
0.400000
-0.400000
0.400000
0.000000
0.000000
0.500000
-0.300000
0.400000
0.400000
-0.200000
-0.200000
0.100000
0.500000
0.200000
-0.400000
0.500000
0.400000
-0.100000
-0.100000
0.200000
-0.300000
0.500000
-0.100000
0.100000
-0.300000
0.000000
0.300000
0.400000
0.400000
0.400000
0.100000
0.300000
0.500000
0.000000
0.400000
0.400000
0.300000
0.100000
-0.300000
0.400000
-0.400000
-0.100000
0.000000
-0.100000
-0.300000
0.200000
-0.100000
-0.100000
0.500000
-0.400000
0.500000
-0.400000
0.300000
0.100000
0.400000
-0.100000
0.300000
-0.100000
0.400000
0.000000
0.100000
-0.400000
0.000000
0.400000
-0.300000
0.400000
0.500000
0.400000
0.500000
-0.200000
-0.400000
0.000000
-0.300000
-0.200000
-0.300000
0.300000
-0.300000
0.000000
0.000000
0.500000
-0.100000
-0.400000
-0.200000
-0.300000
-0.300000
0.200000
0.200000
-0.200000
-0.400000
-0.100000
0.500000
0.000000
-0.100000
0.400000
-0.300000
0.100000
0.200000
0.200000
0.100000
0.500000
0.000000
-0.300000
-0.200000
0.000000
-0.200000
0.300000
-0.300000
-0.200000
0.400000
0.000000
0.000000
-0.100000
0.200000
0.200000
0.500000
-0.300000
0.200000
-0.200000
0.100000
0.100000
0.500000
0.200000
0.000000
-0.300000
0.100000
0.400000
0.500000
-0.200000
0.400000
-0.400000
-0.200000
0.500000
-0.100000
-0.400000
0.000000
0.200000
0.300000
-0.200000
-0.300000
0.500000
0.000000
0.400000
-0.400000
0.300000
-0.300000
-0.300000
-0.400000
0.000000
-0.200000
0.200000
0.200000
0.200000
-0.300000
0.400000
-0.400000
0.300000
0.500000
0.400000
0.300000
-0.200000
0.300000
-0.400000
0.100000
-0.200000
-0.100000
0.200000
0.200000
0.100000
0.000000
0.200000
0.500000
-0.300000
-0.100000
0.400000
0.000000
-0.300000
0.000000
0.100000
-0.400000
-0.100000
0.300000
0.200000
0.100000
-0.100000
0.100000
0.500000
-0.300000
-0.100000
0.000000
0.500000
0.100000
-0.300000
-0.100000
-0.300000
-0.400000
0.100000
-0.200000
0.300000
-0.100000
-0.300000
0.400000
0.000000
0.300000
0.300000
0.200000
0.400000
-0.200000
-0.200000
-0.200000
0.400000
-0.200000
-0.200000
0.400000
0.400000
-0.100000
0.300000
-0.300000
-0.400000
0.000000
-0.300000
-0.300000
-0.100000
0.300000
0.000000
0.400000
0.300000
-0.300000
0.300000
-0.200000
-0.200000
0.100000
0.300000
0.500000
-0.200000
0.000000
0.300000
-0.200000
-0.200000
0.000000
0.100000
0.400000
0.300000
0.400000
-0.400000
-0.400000
-0.200000
-0.300000
0.100000
0.300000
0.500000
-0.300000
0.000000
-0.200000
-0.100000
0.400000
0.400000
0.100000
0.300000
0.000000
0.400000
-0.200000
0.400000
0.200000
-0.300000
-0.100000
-0.300000
0.000000
0.200000
-0.300000
-0.300000
-0.300000
0.500000
-0.100000
-0.400000
0.200000
0.100000
-0.200000
0.400000
0.000000
-0.100000
0.000000
-0.200000
0.400000
0.500000
0.000000
0.000000
-0.200000
-0.200000
-0.300000
0.100000
-0.300000
0.400000
-0.300000
0.100000
0.300000
0.200000
-0.400000
-0.100000
-0.400000
0.000000
0.000000
0.300000
0.500000
-0.400000
0.100000
0.300000
-0.100000
0.500000
0.100000
-0.200000
-0.400000
-0.100000
0.100000
0.100000
0.200000
-0.200000
-0.100000
0.200000
-0.300000
-0.100000
0.300000
0.200000
0.300000
0.000000
-0.400000
0.000000
-0.400000
-0.200000
-0.300000
0.400000
0.400000
0.200000
-0.200000
0.300000
0.000000
0.500000
-0.400000
0.200000
0.300000
0.500000
-0.100000
-0.200000
0.100000
0.000000
0.200000
0.000000
-0.100000
0.400000
-0.400000
0.200000
0.200000
-0.300000
0.500000
-0.200000
0.100000
0.000000
0.100000
0.500000
0.300000
0.100000
-0.300000
0.000000
0.200000
0.200000
0.300000
-0.200000
0.100000
0.100000
0.200000
0.300000
0.400000
0.400000
-0.400000
0.500000
0.100000
0.000000
0.000000
0.500000
0.300000
0.300000
0.200000
0.100000
-0.300000
0.300000
0.300000
-0.200000
-0.400000
0.300000
-0.400000
-0.400000
0.500000
0.500000
0.200000
0.300000
0.500000
-0.300000
-0.400000
-0.100000
-0.300000
-0.100000
0.300000
0.400000
0.500000
-0.200000
-0.300000
-0.100000
0.100000
0.200000
0.400000
-0.400000
0.300000
0.400000
0.300000
0.200000
0.400000
0.100000
-0.400000
0.200000
-0.400000
-0.300000
0.100000
-0.400000
0.000000
-0.300000
0.100000
-0.400000
0.500000
0.200000
0.200000
-0.300000
0.200000
0.400000
0.300000
0.500000
0.400000
0.500000
-0.300000
0.400000
-0.200000
0.100000
-0.200000
0.400000
-0.400000
0.100000
0.200000
0.000000
-0.400000
0.000000
-0.300000
-0.100000
0.100000
0.000000
-0.200000
-0.100000
0.200000
0.100000
0.300000
0.500000
0.200000
0.300000
0.100000
-0.200000
0.400000
0.500000
-0.300000
0.100000
0.300000
0.200000
0.200000
-0.400000
-0.300000
-0.200000
-0.400000
-0.400000
0.000000
0.100000
0.000000
0.100000
0.000000
0.400000
-0.100000
0.300000
-0.400000
0.400000
0.500000
0.500000
-0.200000
-0.400000
0.200000
0.100000
-0.100000
0.300000
-0.200000
-0.100000
-0.100000
0.300000
0.200000
0.000000
0.100000
-0.300000
-0.100000
-0.300000
0.200000
-0.200000
0.100000
-0.200000
0.100000
0.100000
-0.300000
0.200000
0.200000
0.000000
0.200000
-0.100000
-0.100000
0.300000
0.200000
-0.400000
0.000000
0.100000
0.100000
0.500000
-0.200000
0.000000
0.000000
0.400000
0.100000
0.400000
-0.100000
0.200000
0.500000
0.100000
0.500000
0.100000
-0.200000
-0.100000
0.500000
0.300000
0.300000
-0.200000
0.500000
0.300000
0.000000
-0.100000
0.400000
-0.100000
-0.400000
-0.400000
0.300000
0.000000
-0.300000
0.400000
0.000000
0.300000
-0.300000
0.300000
-0.300000
-0.200000
0.000000
0.100000
0.400000
0.100000
-0.300000
0.500000
-0.400000
-0.200000
0.100000
0.400000
-0.400000
0.500000
0.000000
0.100000
0.100000
-0.400000
0.400000
-0.100000
0.300000
0.500000
0.400000
-0.200000
-0.200000
0.400000
-0.300000
0.500000
-0.400000
0.500000
-0.300000
0.200000
-0.100000
0.100000
-0.400000
-0.300000
-0.100000
-0.100000
0.500000
-0.200000
0.100000
0.300000
0.100000
0.100000
0.000000
-0.400000
0.100000
-0.300000
0.200000
-0.300000
0.500000
-0.100000
-0.300000
-0.100000
-0.100000
0.300000
-0.100000
0.300000
-0.200000
-0.400000
0.400000
-0.300000
0.100000
0.200000
-0.100000
0.200000
-0.100000
0.100000
0.100000
0.200000
0.500000
0.500000
-0.300000
0.100000
0.500000
0.300000
0.000000
-0.400000
0.500000
-0.300000
0.300000
-0.400000
0.300000
-0.300000
-0.200000
0.500000
0.400000
-0.200000
0.200000
0.300000
0.100000
0.100000
0.200000
-0.100000
0.500000
0.400000
0.400000
0.200000
-0.100000
0.000000
-0.100000
-0.200000
-0.100000
-0.300000
-0.400000
-0.200000
0.500000
0.200000
-0.400000
0.000000
-0.400000
0.300000
0.100000
0.300000
-0.200000
0.000000
-0.300000
0.000000
-0.100000
-0.100000
-0.100000
0.300000
0.400000
-0.100000
-0.100000
-0.400000
-0.100000
0.500000
-0.100000
-0.300000
0.200000
-0.100000
-0.400000
0.300000
0.300000
0.300000
-0.400000
0.500000
0.500000
0.100000
0.300000
-0.200000
0.000000
-0.200000
0.000000
-0.400000
-0.300000
0.000000
-0.100000
0.300000
-0.400000
0.000000
-0.100000
0.500000
0.200000
0.500000
0.500000
0.100000
0.500000
-0.200000
-0.300000
0.200000
0.300000
-0.100000
0.400000
0.300000
0.100000
0.100000
-0.400000
0.000000
0.300000
0.500000
-0.400000
0.500000
0.100000
0.100000
0.200000
0.500000
0.200000
-0.400000
0.300000
0.200000
0.000000
0.400000
0.300000
-0.300000
0.500000
0.500000
-0.300000
-0.200000
-0.300000
-0.300000
0.000000
-0.100000
-0.300000
0.100000
0.000000
-0.300000
-0.400000
0.400000
-0.300000
-0.100000
0.000000
-0.100000
-0.400000
0.300000
-0.200000
0.100000
-0.400000
0.100000
0.000000
-0.100000
-0.100000
0.400000
0.500000
-0.200000
0.500000
0.100000
-0.100000
-0.400000
-0.200000
0.000000
-0.100000
0.300000
0.000000
0.500000
0.400000
-0.100000
0.100000
-0.100000
-0.100000
0.300000
0.200000
-0.400000
0.100000
0.000000
0.300000
0.500000
-0.200000
-0.100000
0.500000
0.200000
-0.300000
-0.400000
-0.400000
0.500000
-0.100000
0.000000
-0.400000
-0.300000
0.300000
0.400000
-0.400000
-0.100000
-0.100000
0.400000
0.400000
-0.400000
-0.200000
-0.400000
-0.300000
-0.100000
0.300000
0.300000
-0.200000
0.100000
0.000000
0.400000
0.100000
-0.100000
-0.100000
-0.400000
0.100000
-0.100000
0.500000
-0.200000
-0.100000
0.500000
0.100000
0.500000
-0.300000
0.400000
0.100000
0.500000
0.200000
0.300000
-0.200000
0.300000
0.100000
0.300000
0.400000
-0.400000
0.100000
0.300000
-0.200000
-0.300000
0.100000
0.100000
-0.300000
0.200000
0.400000
-0.300000
0.300000
0.100000
0.500000
0.300000
-0.100000
0.000000
0.400000
0.400000
-0.200000
0.300000
0.200000
0.200000
-0.100000
-0.300000
-0.100000
0.200000
-0.100000
-0.400000
0.100000
0.300000
0.000000
-0.100000
-0.100000
-0.300000
0.200000
0.000000
0.500000
0.000000
-0.200000
0.200000
0.200000
0.500000
-0.400000
-0.200000
-0.200000
0.000000
-0.300000
-0.300000
-0.100000
0.400000
-0.200000
-0.400000
-0.200000
-0.400000
-0.400000
0.400000
-0.300000
-0.200000
0.300000
-0.200000
-0.100000
0.200000
0.400000
0.200000
0.500000
-0.300000
0.200000
-0.300000
-0.100000
-0.100000
-0.200000
0.000000
0.100000
-0.300000
-0.100000
0.200000
-0.200000
0.400000
-0.400000
0.500000
0.300000
0.100000
0.100000
0.100000
0.500000
0.000000
0.400000
0.300000
0.100000
0.500000
-0.200000
-0.200000
0.000000
0.400000
0.300000
0.000000
0.000000
0.500000
0.300000
-0.300000
-0.200000
0.300000
0.200000
0.300000
-0.200000
-0.200000
0.500000
0.500000
-0.400000
0.400000
0.200000
0.300000
0.300000
-0.400000
0.300000
-0.100000
-0.200000
-0.100000
0.300000
-0.200000
0.400000
0.400000
0.500000
0.000000
0.000000
0.400000
0.100000
0.100000
0.400000
-0.400000
-0.200000
0.400000
-0.200000
0.000000
0.400000
0.000000
0.200000
0.400000
0.300000
0.500000
0.500000
0.100000
0.100000
0.000000
-0.300000
0.100000
0.200000
-0.100000
-0.400000
0.500000
0.400000
-0.200000
0.400000
-0.100000
0.400000
0.500000
-0.200000
0.000000
-0.200000
-0.200000
0.100000
-0.400000
0.400000
0.100000
0.000000
-0.200000
0.200000
0.300000
0.400000
0.100000
0.200000
-0.100000
0.300000
0.300000
0.200000
0.500000
-0.200000
0.500000
0.500000
-0.400000
0.100000
0.400000
0.100000
0.000000
0.200000
0.100000
0.500000
0.300000
-0.200000
-0.300000
0.500000
0.300000
0.500000
-0.300000
0.200000
-0.400000
0.300000
0.500000
-0.200000
-0.200000
-0.200000
0.200000
-0.300000
0.000000
0.300000
0.500000
-0.300000
-0.300000
0.100000
0.500000
-0.300000
-0.400000
0.000000
-0.100000
0.300000
-0.400000
0.200000
0.500000
0.500000
0.100000
0.100000
-0.300000
0.400000
0.500000
0.500000
0.300000
-0.300000
-0.300000
0.300000
-0.300000
-0.100000
0.000000
-0.300000
0.300000
0.500000
0.000000
0.100000
0.500000
0.400000
-0.100000
0.000000
0.100000
-0.200000
0.100000
0.200000
0.500000
0.000000
0.000000
0.500000
0.300000
0.400000
0.300000
-0.200000
-0.100000
0.400000
0.000000
0.000000
0.200000
-0.400000
0.100000
0.300000
0.500000
0.500000
0.100000
0.500000
0.000000
0.300000
-0.100000
0.400000
0.300000
-0.200000
0.200000
0.400000
0.300000
0.000000
-0.200000
0.300000
-0.200000
-0.200000
0.200000
0.000000
0.300000
0.000000
0.000000
0.100000
-0.300000
0.500000
0.500000
0.300000
-0.400000
0.000000
0.500000
0.000000
0.300000
0.200000
0.200000
-0.300000
-0.100000
0.200000
0.400000
0.100000
0.300000
0.100000
-0.200000
0.400000
0.500000
0.100000
-0.100000
-0.200000
0.100000
0.000000
-0.400000
0.100000
-0.200000
0.300000
-0.300000
-0.300000
-0.100000
-0.300000
-0.300000
-0.400000
-0.100000
-0.100000
-0.300000
-0.400000
0.000000
0.500000
-0.100000
-0.200000
0.300000
0.400000
-0.100000
0.400000
0.100000
0.100000
0.200000
-0.400000
0.100000
0.400000
0.300000
0.300000
0.000000
-0.200000
0.100000
0.500000
0.500000
-0.200000
0.500000
0.300000
-0.200000
-0.300000
-0.100000
0.100000
-0.100000
0.100000
-0.400000
0.300000
-0.200000
0.200000
-0.200000
-0.200000
0.200000
0.100000
0.300000
-0.400000
0.300000
0.100000
0.200000
-0.100000
-0.200000
-0.200000
-0.300000
-0.300000
-0.100000
-0.300000
-0.200000
0.100000
-0.200000
0.400000
0.300000
-0.300000
0.400000
-0.100000
0.000000
-0.100000
0.000000
-0.400000
0.400000
0.200000
0.200000
0.200000
0.400000
0.000000
0.000000
-0.300000
0.200000
-0.300000
-0.200000
0.400000
0.000000
0.400000
-0.400000
0.500000
-0.200000
-0.100000
0.200000
-0.300000
0.300000
-0.300000
0.000000
-0.100000
0.300000
-0.300000
0.200000
-0.200000
0.000000
-0.300000
0.300000
-0.300000
0.000000
0.400000
-0.200000
0.200000
0.200000
-0.200000
0.000000
-0.300000
-0.200000
-0.200000
-0.200000
0.200000
0.500000
0.100000
0.300000
-0.100000
0.500000
0.100000
-0.300000
0.200000
0.100000
-0.100000
-0.300000
-0.300000
0.400000
-0.100000
-0.200000
0.200000
0.200000
0.500000
0.200000
0.200000
-0.400000
0.400000
0.000000
-0.300000
0.400000
0.500000
0.400000
-0.200000
-0.200000
0.400000
0.200000
0.300000
0.200000
-0.100000
0.200000
-0.400000
0.200000
0.000000
-0.400000
0.300000
0.000000
-0.400000
-0.100000
-0.400000
0.400000
-0.300000
-0.300000
0.100000
0.200000
-0.200000
0.300000
-0.300000
-0.100000
0.300000
0.300000
-0.300000
-0.400000
0.200000
0.400000
0.000000
0.500000
-0.400000
0.500000
0.500000
0.300000
0.400000
-0.100000
-0.100000
0.400000
0.200000
-0.300000
0.200000
0.400000
0.100000
0.400000
0.500000
0.100000
0.300000
-0.300000
0.200000
0.000000
0.500000
-0.400000
0.100000
-0.200000
-0.300000
0.500000
-0.400000
-0.100000
-0.100000
-0.400000
-0.100000
-0.100000
0.200000
-0.100000
0.400000
-0.400000
0.000000
0.200000
0.000000
-0.300000
0.200000
0.400000
-0.100000
-0.300000
-0.300000
0.200000
-0.300000
-0.400000
0.300000
0.400000
0.300000
0.300000
0.400000
-0.100000
-0.100000
0.200000
-0.200000
-0.100000
0.200000
0.500000
-0.100000
0.000000
-0.300000
0.400000
0.400000
0.000000
0.200000
0.200000
0.500000
-0.300000
0.500000
0.400000
-0.100000
0.200000
-0.100000
0.500000
-0.100000
-0.100000
-0.200000
-0.200000
-0.100000
-0.200000
0.000000
-0.200000
-0.200000
0.400000
0.300000
0.400000
0.300000
0.100000
-0.200000
0.300000
0.500000
-0.200000
-0.100000
0.300000
0.500000
-0.200000
-0.100000
0.300000
0.200000
-0.100000
0.500000
-0.300000
-0.200000
-0.100000
-0.400000
0.300000
-0.100000
-0.100000
0.200000
-0.200000
0.500000
-0.100000
0.100000
0.200000
0.000000
0.500000
0.100000
0.200000
0.500000
-0.200000
0.500000
-0.400000
-0.300000
0.000000
0.300000
0.000000
0.400000
-0.300000
-0.200000
0.200000
0.100000
-0.200000
0.500000
0.100000
0.100000
0.500000
-0.200000
0.500000
0.500000
-0.400000
-0.300000
0.300000
0.500000
0.200000
0.100000
0.200000
-0.400000
0.300000
0.000000
0.300000
0.400000
0.400000
0.000000
0.300000
0.000000
0.100000
-0.300000
0.000000
-0.400000
0.400000
0.000000
0.000000
0.000000
0.000000
0.100000
0.300000
0.200000
0.400000
-0.200000
0.000000
0.000000
0.300000
0.500000
-0.100000
-0.100000
-0.100000
-0.100000
-0.400000
0.500000
0.000000
0.000000
-0.200000
0.100000
0.300000
0.500000
0.100000
0.100000
-0.100000
-0.200000
0.400000
0.500000
0.100000
-0.400000
0.400000
0.000000
-0.400000
0.300000
-0.300000
0.500000
-0.400000
0.000000
-0.300000
-0.100000
-0.200000
0.300000
0.000000
-0.300000
-0.300000
-0.300000
-0.400000
-0.300000
0.200000
-0.300000
0.400000
0.500000
-0.300000
0.100000
-0.300000
-0.400000
-0.200000
0.300000
0.300000
0.000000
-0.200000
-0.200000
-0.300000
-0.400000
0.200000
-0.300000
0.400000
-0.400000
-0.100000
0.500000
-0.400000
0.200000
-0.100000
0.200000
0.300000
0.000000
-0.200000
0.300000
0.100000
0.300000
0.100000
0.500000
0.500000
0.400000
-0.200000
0.400000
0.400000
-0.100000
0.200000
-0.200000
0.000000
0.000000
-0.100000
0.500000
-0.200000
-0.400000
-0.200000
-0.300000
0.200000
-0.300000
-0.100000
0.500000
0.300000
0.200000
-0.200000
-0.200000
-0.200000
0.100000
0.500000
0.400000
0.500000
0.200000
0.500000
0.100000
-0.300000
-0.100000
0.100000
-0.400000
0.000000
-0.100000
0.100000
-0.100000
-0.100000
0.100000
-0.400000
0.500000
0.200000
0.500000
0.400000
0.300000
0.000000
-0.300000
0.300000
-0.400000
0.400000
-0.400000
0.500000
0.300000
0.000000
0.100000
0.400000
0.000000
-0.300000
-0.200000
-0.400000
0.400000
-0.200000
0.100000
-0.400000
0.200000
0.000000
0.500000
0.300000
0.300000
-0.300000
0.100000
0.300000
0.200000
-0.200000
-0.400000
-0.200000
-0.300000
-0.400000
-0.100000
0.500000
0.300000
0.100000
0.400000
-0.400000
0.200000
0.000000
-0.200000
-0.100000
-0.100000
0.400000
0.000000
-0.200000
-0.200000
-0.400000
-0.400000
-0.300000
0.400000
0.300000
0.200000
0.000000
0.400000
0.200000
0.300000
-0.200000
0.300000
0.400000
0.100000
-0.300000
-0.300000
-0.300000
0.200000
0.400000
0.400000
0.300000
0.500000
0.500000
0.500000
-0.300000
-0.200000
0.300000
-0.400000
-0.200000
0.200000
-0.100000
0.500000
0.200000
0.000000
0.100000
-0.200000
0.400000
0.000000
-0.400000
-0.400000
0.500000
0.000000
0.100000
0.000000
0.300000
0.500000
-0.400000
0.300000
-0.200000
0.400000
-0.400000
0.000000
-0.300000
-0.400000
0.100000
-0.200000
-0.200000
0.000000
0.400000
0.300000
-0.300000
0.500000
0.500000
0.100000
0.400000
0.200000
-0.400000
0.200000
-0.200000
0.100000
-0.400000
0.500000
-0.200000
-0.100000
-0.200000
-0.300000
0.300000
0.500000
-0.300000
-0.300000
-0.200000
0.200000
-0.400000
0.300000
-0.300000
-0.300000
0.200000
-0.200000
-0.300000
-0.300000
0.300000
0.400000
-0.400000
-0.400000
0.300000
0.500000
0.500000
-0.300000
0.500000
0.500000
0.000000
-0.300000
-0.400000
-0.200000
0.000000
-0.200000
0.500000
-0.400000
-0.400000
0.300000
0.300000
0.000000
-0.200000
0.200000
0.300000
0.500000
0.000000
0.000000
0.000000
0.300000
0.500000
0.500000
0.400000
0.400000
0.300000
0.200000
-0.100000
-0.100000
-0.100000
0.200000
-0.300000
0.200000
0.500000
-0.200000
0.500000
-0.400000
0.000000
-0.300000
-0.300000
0.400000
0.500000
0.500000
0.400000
0.500000
-0.400000
-0.400000
0.100000
0.300000
0.000000
0.000000
-0.300000
0.200000
0.300000
-0.100000
-0.400000
0.400000
0.300000
0.500000
0.100000
0.500000
0.200000
-0.200000
0.000000
-0.100000
0.100000
-0.200000
-0.400000
0.500000
-0.100000
-0.400000
0.400000
0.000000
0.500000
0.200000
-0.200000
-0.200000
0.500000
0.200000
0.100000
-0.100000
-0.100000
0.400000
-0.100000
0.500000
-0.200000
-0.400000
0.100000
-0.300000
0.100000
0.500000
-0.300000
0.400000
-0.300000
0.300000
0.100000
0.400000
-0.300000
-0.100000
0.500000
-0.300000
0.000000
0.500000
-0.200000
0.200000
0.000000
0.300000
0.500000
0.100000
0.500000
-0.300000
-0.300000
0.300000
0.100000
-0.100000
0.000000
0.200000
0.400000
0.000000
0.500000
-0.300000
0.200000
-0.100000
0.300000
-0.100000
0.100000
0.300000
0.400000
0.500000
0.300000
0.500000
0.000000
0.400000
0.300000
-0.200000
-0.100000
0.400000
0.500000
0.100000
-0.300000
-0.300000
0.100000
-0.300000
-0.300000
0.000000
0.000000
0.000000
0.200000
-0.200000
0.300000
0.000000
0.400000
-0.200000
0.100000
0.000000
0.300000
-0.400000
-0.400000
0.500000
0.000000
0.500000
-0.300000
0.000000
-0.200000
0.300000
0.500000
0.300000
0.500000
-0.400000
-0.200000
0.100000
0.000000
0.000000
0.300000
0.200000
-0.200000
-0.400000
0.300000
-0.300000
0.100000
-0.100000
0.500000
0.500000
0.000000
-0.400000
-0.300000
0.100000
0.300000
-0.100000
0.400000
0.000000
0.500000
-0.100000
0.200000
-0.200000
0.400000
0.400000
0.500000
0.200000
-0.100000
0.500000
0.300000
0.300000
-0.300000
0.200000
0.000000
-0.300000
0.000000
-0.300000
0.400000
-0.200000
-0.100000
-0.100000
0.000000
0.100000
-0.200000
-0.300000
0.500000
0.200000
0.200000
-0.300000
-0.200000
-0.400000
-0.400000
0.300000
-0.300000
0.300000
-0.200000
-0.100000
-0.400000
0.100000
0.000000
0.500000
0.300000
-0.300000
-0.200000
-0.400000
-0.300000
0.300000
0.500000
-0.400000
0.200000
0.000000
0.100000
0.300000
0.100000
-0.100000
0.100000
0.000000
-0.200000
0.400000
0.200000
-0.200000
0.000000
0.200000
0.200000
0.500000
-0.400000
0.100000
0.100000
0.100000
-0.300000
0.300000
-0.400000
0.400000
0.500000
0.000000
0.200000
0.200000
-0.100000
-0.400000
0.500000
-0.100000
0.400000
0.200000
0.500000
0.500000
0.100000
-0.200000
-0.300000
-0.300000
0.000000
-0.400000
-0.100000
0.400000
-0.300000
-0.100000
-0.400000
0.300000
0.500000
0.100000
0.300000
0.100000
0.300000
0.500000
0.400000
-0.200000
0.200000
0.100000
-0.400000
-0.400000
0.300000
0.100000
-0.200000
0.100000
-0.400000
-0.400000
0.000000
-0.100000
-0.400000
0.200000
0.300000
-0.200000
-0.200000
0.400000
0.300000
0.100000
0.400000
0.100000
0.100000
-0.200000
-0.300000
-0.400000
0.400000
0.100000
0.500000
0.000000
-0.200000
0.100000
-0.100000
0.400000
-0.200000
0.300000
0.100000
-0.100000
-0.100000
0.400000
-0.400000
-0.300000
0.100000
0.000000
0.500000
0.000000
-0.300000
0.300000
0.000000
-0.400000
-0.200000
0.000000
-0.400000
0.100000
0.500000
0.000000
-0.200000
0.300000
-0.200000
0.300000
-0.200000
-0.200000
0.200000
-0.200000
0.400000
-0.200000
0.400000
-0.100000
0.000000
0.200000
0.500000
0.400000
-0.400000
0.200000
-0.100000
0.100000
0.200000
0.000000
0.300000
0.300000
0.000000
-0.300000
-0.200000
-0.200000
0.200000
0.100000
0.100000
0.300000
0.500000
0.400000
-0.100000
0.500000
-0.100000
0.500000
-0.200000
0.400000
-0.100000
0.200000
0.400000
0.100000
0.100000
-0.400000
0.000000
0.200000
0.200000
-0.100000
0.300000
0.200000
-0.300000
0.000000
-0.300000
-0.300000
0.100000
0.000000
-0.300000
0.500000
-0.100000
0.400000
-0.100000
0.200000
0.400000
0.100000
0.300000
0.100000
0.000000
-0.200000
0.400000
0.400000
-0.300000
0.200000
0.000000
0.300000
0.500000
-0.200000
-0.300000
0.400000
0.100000
-0.100000
-0.300000
0.100000
-0.200000
0.200000
-0.100000
0.500000
-0.200000
0.000000
0.300000
0.500000
-0.200000
-0.100000
0.300000
-0.100000
0.500000
0.500000
-0.100000
-0.100000
0.200000
0.200000
0.200000
0.200000
0.200000
-0.100000
0.300000
0.300000
0.500000
-0.300000
0.400000
0.300000
0.200000
0.500000
0.000000
-0.400000
0.400000
0.500000
-0.200000
0.500000
0.300000
-0.100000
-0.400000
-0.200000
-0.100000
-0.400000
0.300000
-0.300000
-0.100000
-0.100000
-0.100000
-0.300000
0.000000
0.200000
0.500000
0.200000
0.300000
-0.300000
0.100000
0.200000
0.400000
-0.400000
0.300000
-0.300000
0.500000
0.300000
-0.300000
0.100000
0.100000
0.300000
0.400000
-0.300000
0.000000
0.500000
0.300000
0.100000
0.300000
0.400000
0.100000
-0.300000
0.100000
-0.300000
0.000000
-0.100000
-0.300000
-0.100000
0.500000
-0.100000
0.500000
-0.300000
0.000000
-0.400000
0.500000
0.200000
0.000000
0.400000
0.300000
-0.100000
0.000000
0.000000
0.400000
-0.200000
-0.400000
-0.200000
0.000000
0.200000
0.400000
0.300000
-0.100000
-0.200000
-0.300000
0.200000
-0.100000
0.200000
-0.100000
0.100000
-0.200000
0.100000
-0.100000
0.100000
0.500000
-0.400000
-0.200000
-0.100000
0.500000
0.500000
0.300000
0.300000
-0.400000
0.400000
-0.400000
0.100000
0.100000
-0.100000
0.500000
-0.400000
0.300000
0.500000
-0.300000
0.500000
-0.400000
0.400000
-0.300000
0.400000
0.100000
0.500000
0.400000
0.300000
-0.400000
0.200000
0.200000
-0.200000
0.200000
-0.400000
-0.300000
-0.400000
0.100000
-0.300000
0.300000
0.400000
-0.400000
-0.100000
0.100000
-0.400000
0.300000
-0.100000
0.100000
-0.100000
-0.200000
0.000000
0.200000
-0.200000
0.300000
-0.100000
-0.100000
0.500000
0.200000
-0.400000
0.500000
0.300000
0.400000
0.500000
0.400000
-0.300000
-0.200000
0.400000
-0.100000
0.000000
0.500000
0.100000
-0.400000
0.100000
-0.200000
-0.100000
-0.100000
-0.100000
-0.300000
-0.400000
0.000000
-0.400000
-0.200000
-0.100000
0.500000
0.500000
-0.100000
0.200000
-0.300000
0.500000
0.400000
-0.400000
-0.200000
0.100000
0.500000
-0.100000
-0.300000
0.400000
0.200000
0.500000
0.400000
0.200000
0.000000
-0.400000
0.100000
0.500000
-0.300000
-0.300000
-0.300000
-0.400000
-0.400000
-0.300000
0.000000
0.300000
-0.200000
0.400000
-0.200000
0.300000
0.500000
-0.100000
0.200000
0.300000
0.400000
0.000000
-0.100000
0.000000
-0.300000
0.000000
-0.300000
-0.300000
0.400000
0.300000
0.200000
-0.200000
0.100000
-0.300000
0.000000
0.400000
0.500000
0.500000
0.100000
0.000000
-0.100000
0.300000
0.500000
-0.300000
-0.300000
-0.400000
-0.100000
-0.300000
0.300000
0.100000
0.000000
0.400000
-0.300000
-0.200000
0.100000
0.500000
0.300000
0.400000
-0.200000
0.300000
-0.100000
0.000000
0.100000
0.000000
0.300000
-0.400000
0.000000
0.000000
0.300000
0.300000
0.400000
0.200000
0.300000
-0.400000
-0.400000
0.500000
0.200000
0.100000
0.500000
0.200000
-0.400000
-0.200000
-0.300000
0.500000
0.200000
0.500000
0.200000
-0.300000
0.100000
0.000000
-0.300000
-0.100000
-0.100000
-0.200000
-0.300000
-0.400000
-0.100000
-0.300000
-0.100000
0.400000
-0.300000
0.200000
-0.200000
-0.200000
0.500000
-0.100000
-0.200000
0.000000
0.200000
0.100000
0.000000
0.000000
-0.200000
0.300000
0.300000
-0.400000
0.400000
-0.400000
0.500000
-0.200000
0.300000
-0.400000
-0.200000
-0.100000
0.100000
-0.400000
0.100000
0.400000
0.000000
0.200000
-0.100000
0.400000
0.300000
-0.300000
0.200000
0.000000
0.500000
0.000000
-0.300000
0.200000
-0.300000
0.400000
-0.200000
0.100000
0.400000
0.500000
0.400000
0.000000
0.400000
0.100000
-0.400000
0.000000
0.400000
-0.200000
0.000000
-0.100000
-0.400000
0.400000
-0.100000
0.300000
0.100000
0.300000
0.500000
0.100000
0.400000
-0.200000
-0.400000
-0.100000
-0.400000
-0.200000
0.200000
0.500000
-0.200000
0.300000
0.300000
0.100000
-0.200000
0.000000
-0.400000
0.100000
0.100000
0.000000
-0.200000
0.400000
0.100000
-0.200000
0.300000
0.500000
0.300000
0.200000
0.300000
0.300000
-0.200000
0.400000
0.200000
0.300000
-0.300000
0.200000
-0.400000
-0.100000
-0.400000
-0.400000
-0.100000
0.300000
-0.400000
0.100000
0.300000
0.300000
-0.300000
-0.100000
0.300000
0.100000
0.500000
-0.200000
0.100000
0.000000
0.400000
-0.300000
-0.400000
-0.400000
-0.100000
0.300000
0.100000
-0.200000
-0.200000
0.000000
-0.400000
0.000000
-0.300000
0.000000
-0.200000
0.200000
-0.300000
0.400000
-0.400000
0.400000
0.400000
0.000000
-0.200000
0.400000
0.000000
-0.400000
-0.400000
-0.100000
-0.100000
0.400000
0.500000
0.200000
-0.400000
0.200000
-0.300000
-0.200000
0.000000
0.300000
-0.100000
-0.400000
0.200000
0.400000
-0.200000
-0.300000
0.100000
-0.400000
-0.400000
0.200000
0.400000
-0.100000
0.300000
0.000000
0.500000
0.300000
0.400000
-0.200000
0.300000
0.400000
-0.300000
0.100000
0.400000
0.100000
-0.100000
-0.300000
0.500000
-0.300000
-0.100000
0.300000
-0.100000
-0.100000
-0.200000
-0.200000
0.100000
0.100000
-0.400000
-0.400000
0.500000
-0.100000
0.100000
0.400000
0.200000
0.000000
0.400000
0.500000
-0.400000
-0.300000
-0.100000
-0.300000
0.500000
0.000000
0.400000
-0.300000
0.500000
-0.100000
0.100000
-0.200000
-0.400000
0.100000
-0.400000
0.200000
0.100000
0.400000
0.100000
0.500000
-0.200000
-0.100000
0.400000
0.400000
0.500000
0.200000
-0.200000
-0.100000
0.100000
0.500000
-0.400000
-0.400000
0.000000
0.200000
-0.300000
-0.300000
0.200000
0.400000
0.500000
0.300000
0.500000
0.500000
0.400000
0.300000
-0.300000
0.300000
0.100000
-0.100000
0.300000
-0.200000
0.000000
0.400000
0.400000
0.000000
-0.200000
-0.100000
0.200000
-0.100000
0.300000
-0.300000
0.500000
-0.400000
0.300000
0.400000
0.400000
0.500000
-0.300000
-0.300000
-0.100000
-0.300000
0.400000
-0.200000
0.100000
0.400000
0.100000
0.200000
-0.300000
0.300000
-0.400000
-0.100000
0.200000
0.400000
0.000000
0.000000
-0.200000
0.500000
-0.200000
0.500000
0.400000
0.000000
0.300000
0.200000
0.300000
-0.100000
0.000000
0.300000
0.500000
0.400000
0.500000
0.000000
0.000000
0.200000
-0.100000
-0.100000
-0.200000
-0.400000
-0.200000
0.300000
-0.100000
-0.200000
-0.400000
0.400000
0.100000
0.100000
-0.300000
-0.200000
-0.100000
-0.100000
-0.200000
0.300000
-0.400000
0.200000
-0.400000
-0.400000
-0.100000
-0.300000
0.200000
-0.300000
0.100000
0.000000
-0.300000
-0.200000
-0.200000
-0.300000
0.000000
0.200000
0.400000
0.400000
0.000000
-0.400000
-0.300000
0.200000
0.100000
-0.200000
-0.300000
0.400000
0.300000
-0.300000
-0.200000
-0.300000
0.400000
0.500000
-0.100000
-0.200000
-0.400000
0.000000
-0.400000
0.400000
0.300000
-0.100000
0.300000
0.200000
0.300000
-0.100000
-0.200000
-0.300000
-0.100000
0.500000
-0.200000
0.400000
-0.200000
0.000000
0.000000
0.000000
0.500000
0.200000
0.300000
0.100000
-0.400000
0.400000
-0.300000
0.200000
-0.200000
0.300000
-0.200000
0.300000
0.500000
0.300000
-0.100000
-0.400000
0.500000
-0.100000
-0.200000
0.000000
-0.300000
-0.300000
0.300000
0.500000
0.300000
0.000000
-0.200000
0.300000
-0.100000
0.400000
-0.400000
-0.100000
-0.400000
-0.200000
0.400000
-0.200000
-0.200000
0.200000
0.100000
0.200000
0.300000
-0.200000
-0.400000
0.200000
-0.300000
-0.100000
-0.300000
-0.200000
0.000000
0.100000
0.100000
0.500000
-0.300000
0.200000
0.200000
0.100000
0.400000
-0.200000
0.200000
0.000000
0.200000
0.400000
0.200000
-0.100000
0.200000
0.300000
-0.400000
-0.400000
-0.300000
0.500000
0.100000
0.300000
0.500000
-0.200000
-0.100000
0.300000
-0.100000
0.400000
0.100000
-0.200000
-0.200000
-0.400000
0.100000
0.000000
0.300000
0.300000
-0.300000
0.000000
-0.300000
0.200000
0.500000
-0.100000
0.500000
-0.200000
0.000000
-0.300000
-0.300000
0.100000
0.000000
-0.200000
0.000000
0.300000
0.400000
-0.200000
-0.400000
-0.100000
0.400000
-0.200000
0.100000
0.200000
0.200000
-0.300000
-0.400000
-0.400000
0.400000
0.500000
0.000000
0.300000
0.100000
-0.200000
-0.300000
-0.400000
-0.400000
0.000000
0.500000
0.500000
-0.300000
0.000000
-0.100000
0.000000
-0.100000
0.500000
0.300000
0.100000
0.300000
-0.400000
0.200000
0.400000
0.100000
-0.400000
0.000000
0.000000
-0.300000
0.000000
0.100000
0.300000
-0.100000
0.400000
-0.400000
-0.400000
-0.100000
-0.400000
-0.200000
-0.400000
0.200000
-0.400000
0.200000
0.100000
-0.200000
-0.400000
-0.300000
0.500000
-0.200000
0.100000
0.500000
-0.300000
0.100000
-0.300000
-0.300000
-0.100000
0.200000
-0.200000
-0.100000
0.000000
-0.400000
0.500000
0.500000
-0.400000
-0.200000
-0.200000
-0.100000
-0.400000
0.400000
0.500000
0.000000
-0.400000
0.200000
-0.200000
0.400000
0.200000
0.200000
-0.300000
-0.300000
0.200000
0.200000
-0.200000
0.100000
-0.300000
-0.300000
0.400000
0.500000
-0.100000
0.200000
-0.200000
-0.400000
-0.200000
-0.200000
-0.100000
0.500000
-0.300000
0.000000
0.100000
-0.300000
0.200000
0.400000
0.500000
0.400000
0.300000
0.200000
0.300000
0.100000
0.500000
0.400000
-0.200000
0.500000
-0.300000
-0.400000
0.000000
-0.100000
0.000000
0.500000
-0.200000
0.000000
0.400000
-0.400000
0.300000
-0.100000
0.500000
-0.100000
-0.300000
-0.100000
-0.300000
0.300000
-0.100000
-0.200000
0.000000
0.100000
-0.400000
0.100000
-0.300000
0.000000
0.000000
-0.100000
-0.400000
-0.100000
-0.200000
0.100000
-0.300000
0.300000
0.100000
0.500000
-0.200000
0.200000
0.100000
-0.300000
0.400000
0.300000
-0.200000
0.000000
-0.300000
0.500000
-0.400000
-0.100000
0.400000
-0.200000
0.400000
0.000000
0.000000
-0.300000
0.100000
0.300000
0.400000
-0.200000
-0.300000
0.200000
-0.100000
0.200000
0.400000
0.100000
0.200000
0.100000
-0.300000
-0.200000
0.000000
0.200000
-0.300000
0.000000
-0.200000
-0.200000
-0.300000
-0.300000
0.500000
0.500000
0.000000
0.300000
-0.200000
0.200000
0.300000
0.100000
-0.100000
-0.200000
0.200000
0.100000
-0.300000
-0.100000
-0.200000
0.200000
0.500000
-0.300000
-0.100000
0.300000
0.000000
-0.100000
0.400000
0.300000
-0.400000
0.100000
-0.100000
0.400000
0.200000
-0.300000
0.100000
0.000000
0.500000
-0.400000
-0.100000
0.100000
0.000000
0.400000
0.000000
-0.100000
0.500000
0.500000
0.300000
0.500000
0.000000
-0.200000
0.400000
0.300000
0.200000
0.500000
-0.300000
0.500000
-0.400000
0.100000
0.400000
0.000000
0.000000
-0.200000
-0.200000
-0.300000
-0.300000
0.200000
0.300000
0.300000
0.500000
0.000000
-0.400000
0.300000
-0.400000
0.300000
0.400000
0.300000
-0.200000
-0.400000
-0.400000
0.100000
0.400000
-0.200000
-0.200000
0.500000
0.100000
-0.100000
0.400000
0.500000
0.100000
-0.100000
-0.300000
0.400000
-0.100000
0.000000
0.300000
0.000000
0.500000
0.200000
0.100000
-0.100000
0.200000
-0.100000
0.200000
0.400000
-0.100000
0.300000
-0.200000
0.300000
0.100000
0.400000
-0.400000
-0.300000
0.100000
0.400000
0.100000
0.300000
0.200000
0.200000
-0.300000
0.000000
-0.100000
-0.400000
0.200000
-0.300000
0.100000
0.300000
-0.300000
-0.300000
0.000000
-0.300000
-0.200000
0.200000
0.400000
0.200000
0.400000
-0.200000
0.300000
0.500000
0.000000
0.200000
0.300000
-0.100000
0.400000
0.500000
0.300000
0.200000
0.100000
-0.300000
0.100000
0.300000
-0.100000
0.000000
-0.400000
0.500000
-0.200000
-0.100000
-0.100000
0.500000
0.400000
-0.300000
0.300000
0.000000
0.000000
0.400000
-0.400000
0.500000
-0.400000
-0.200000
-0.200000
0.500000
-0.100000
0.500000
0.000000
-0.300000
0.000000
-0.100000
0.500000
0.200000
-0.200000
0.300000
0.300000
0.100000
-0.200000
0.200000
0.000000
-0.200000
0.000000
-0.200000
-0.300000
-0.100000
0.400000
0.400000
0.400000
0.400000
0.000000
0.500000
-0.400000
-0.100000
0.000000
-0.300000
0.300000
0.200000
0.200000
-0.200000
0.000000
0.100000
-0.200000
-0.100000
0.500000
-0.300000
-0.200000
0.300000
0.000000
-0.100000
0.300000
0.100000
-0.300000
0.300000
-0.400000
0.400000
-0.100000
0.100000
0.000000
0.300000
-0.300000
0.200000
0.100000
-0.100000
-0.400000
-0.100000
-0.200000
-0.300000
0.400000
0.400000
-0.100000
-0.100000
0.500000
0.400000
0.000000
-0.400000
0.400000
0.300000
-0.300000
-0.100000
0.500000
0.100000
-0.100000
0.200000
0.100000
0.100000
0.200000
-0.100000
-0.200000
0.400000
-0.100000
0.200000
0.300000
-0.300000
0.300000
-0.200000
-0.300000
0.400000
-0.400000
0.200000
-0.300000
-0.200000
-0.100000
-0.100000
0.400000
0.400000
0.500000
-0.400000
-0.400000
0.300000
-0.300000
0.200000
0.200000
-0.200000
-0.400000
0.000000
0.000000
0.400000
-0.100000
0.100000
-0.400000
0.100000
0.100000
0.200000
0.000000
-0.300000
-0.100000
0.400000
0.100000
-0.300000
-0.200000
-0.300000
0.000000
0.100000
-0.100000
-0.300000
-0.100000
-0.100000
0.500000
-0.100000
-0.100000
0.400000
-0.100000
0.300000
0.300000
-0.200000
0.300000
0.300000
-0.100000
0.300000
-0.200000
-0.400000
-0.300000
-0.300000
0.300000
0.100000
0.200000
-0.300000
0.300000
-0.200000
0.400000
-0.300000
-0.300000
0.500000
0.200000
-0.300000
0.300000
-0.300000
0.000000
0.200000
-0.200000
-0.300000
0.200000
0.500000
-0.200000
-0.200000
0.300000
0.300000
-0.300000
0.200000
-0.300000
0.200000
-0.300000
0.100000
0.100000
-0.100000
0.000000
-0.300000
-0.400000
0.500000
0.400000
-0.200000
-0.100000
0.100000
0.000000
-0.400000
-0.400000
0.100000
0.000000
-0.200000
-0.400000
-0.300000
-0.100000
0.400000
-0.100000
-0.100000
-0.300000
0.400000
-0.200000
0.200000
0.200000
0.400000
0.500000
-0.300000
0.100000
0.400000
0.300000
0.000000
-0.200000
0.200000
0.000000
-0.100000
0.500000
-0.100000
0.300000
0.100000
0.200000
0.100000
-0.200000
-0.100000
0.100000
0.200000
0.300000
0.100000
0.500000
0.200000
0.500000
-0.100000
0.000000
0.300000
-0.400000
0.000000
0.500000
0.500000
0.500000
0.200000
-0.300000
0.200000
0.200000
0.100000
0.200000
0.400000
-0.100000
0.000000
0.200000
0.000000
-0.300000
-0.400000
0.300000
0.000000
0.400000
0.200000
0.000000
-0.100000
-0.200000
0.500000
0.400000
0.300000
0.200000
0.400000
0.300000
-0.100000
0.400000
-0.300000
-0.400000
0.200000
-0.200000
0.300000
0.000000
0.000000
0.200000
-0.200000
0.300000
0.000000
-0.100000
0.500000
-0.400000
0.100000
-0.200000
0.500000
0.400000
0.500000
0.000000
0.400000
-0.300000
0.100000
0.100000
0.000000
-0.400000
0.200000
0.000000
0.200000
0.300000
-0.400000
-0.400000
0.100000
0.000000
-0.300000
0.200000
-0.300000
0.200000
-0.400000
0.100000
0.400000
0.300000
-0.300000
-0.200000
-0.100000
-0.400000
0.400000
-0.300000
0.500000
-0.300000
-0.400000
0.100000
0.400000
0.500000
0.000000
-0.400000
-0.100000
0.400000
0.000000
0.400000
-0.200000
-0.100000
0.000000
0.000000
0.500000
-0.200000
0.000000
-0.100000
0.300000
-0.300000
-0.200000
0.100000
-0.300000
0.300000
0.500000
0.500000
0.100000
-0.200000
-0.400000
-0.100000
0.500000
-0.100000
0.100000
0.200000
-0.100000
-0.300000
-0.200000
-0.200000
-0.300000
0.200000
-0.100000
0.400000
0.300000
-0.400000
0.100000
0.100000
0.500000
0.000000
0.500000
-0.200000
0.000000
0.400000
0.500000
0.300000
0.000000
0.200000
-0.100000
0.000000
0.500000
-0.300000
0.000000
0.500000
0.200000
-0.300000
-0.200000
0.500000
0.000000
0.000000
0.300000
-0.100000
0.500000
-0.200000
-0.400000
0.000000
0.000000
0.500000
0.500000
0.300000
0.000000
0.100000
-0.300000
0.500000
-0.400000
0.400000
-0.100000
-0.200000
0.300000
-0.400000
0.100000
-0.200000
-0.300000
0.200000
0.200000
-0.200000
-0.100000
0.100000
0.300000
-0.400000
-0.400000
-0.400000
0.000000
0.000000
-0.100000
0.000000
0.100000
-0.400000
-0.400000
-0.400000
-0.300000
0.300000
-0.200000
0.500000
-0.400000
0.200000
-0.400000
-0.200000
0.500000
0.200000
0.000000
0.500000
0.500000
-0.100000
-0.200000
0.100000
0.500000
0.200000
0.300000
0.400000
0.500000
-0.300000
0.100000
-0.100000
0.100000
0.300000
0.000000
0.100000
-0.200000
0.300000
0.400000
-0.300000
0.100000
0.300000
0.300000
0.300000
0.500000
-0.100000
-0.100000
0.000000
0.300000
-0.100000
0.500000
0.200000
0.500000
-0.300000
-0.400000
-0.100000
-0.300000
0.500000
0.100000
0.000000
0.200000
0.500000
-0.400000
-0.300000
-0.300000
0.200000
-0.300000
0.200000
0.300000
-0.400000
0.100000
-0.300000
-0.100000
-0.300000
0.200000
0.200000
0.000000
0.100000
-0.200000
-0.100000
-0.400000
0.300000
0.500000
0.400000
0.300000
0.300000
0.000000
0.000000
0.200000
0.300000
-0.100000
0.400000
0.100000
-0.200000
0.400000
0.400000
-0.300000
-0.400000
0.500000
0.300000
-0.400000
0.100000
0.300000
0.300000
0.300000
0.200000
0.000000
-0.300000
0.200000
-0.300000
-0.400000
0.100000
0.200000
-0.100000
0.400000
0.400000
0.500000
0.100000
0.300000
-0.300000
-0.200000
0.500000
-0.200000
0.500000
0.300000
0.400000
-0.200000
-0.200000
-0.100000
-0.100000
-0.100000
-0.200000
0.000000
-0.400000
0.100000
-0.300000
-0.300000
0.000000
0.100000
0.400000
0.300000
0.300000
-0.100000
-0.100000
-0.300000
-0.100000
-0.100000
0.400000
0.200000
-0.300000
-0.200000
-0.300000
0.300000
-0.100000
-0.300000
0.500000
-0.400000
0.000000
-0.400000
0.500000
0.100000
-0.100000
0.400000
-0.300000
0.500000
0.500000
0.300000
-0.200000
0.300000
0.300000
-0.100000
-0.300000
-0.100000
0.100000
0.400000
0.400000
-0.300000
-0.300000
-0.100000
0.400000
0.000000
0.000000
0.000000
0.200000
0.300000
0.300000
-0.300000
0.500000
0.400000
0.500000
0.000000
0.300000
-0.400000
-0.100000
0.300000
0.500000
-0.200000
-0.100000
-0.200000
0.300000
0.500000
0.400000
-0.300000
0.500000
0.300000
0.300000
0.500000
0.400000
0.500000
-0.400000
0.400000
-0.200000
0.200000
0.200000
0.500000
0.300000
-0.400000
0.000000
-0.100000
0.400000
0.200000
0.300000
0.200000
0.000000
-0.100000
0.500000
0.400000
-0.400000
-0.400000
-0.300000
-0.400000
0.000000
-0.400000
0.000000
-0.300000
0.100000
-0.200000
-0.200000
0.100000
0.400000
-0.300000
-0.300000
0.000000
-0.100000
0.100000
-0.100000
0.000000
0.200000
0.000000
0.500000
-0.400000
-0.400000
0.300000
0.200000
-0.400000
0.400000
-0.200000
0.300000
-0.200000
-0.400000
0.500000
-0.100000
0.100000
-0.300000
0.100000
-0.300000
0.000000
-0.200000
-0.200000
0.200000
0.000000
0.400000
0.000000
-0.400000
0.300000
-0.100000
0.300000
-0.200000
0.100000
-0.400000
0.200000
0.400000
0.300000
0.000000
-0.100000
-0.100000
0.500000
0.500000
-0.200000
-0.200000
-0.100000
0.200000
0.500000
-0.300000
-0.300000
0.500000
-0.200000
0.100000
0.500000
0.400000
-0.400000
0.100000
-0.100000
-0.300000
-0.400000
0.100000
-0.100000
-0.400000
0.400000
0.100000
-0.200000
-0.400000
-0.200000
-0.100000
-0.200000
0.100000
-0.100000
-0.400000
0.300000
0.300000
0.500000
0.200000
0.000000
-0.100000
0.400000
-0.300000
0.500000
-0.200000
-0.200000
0.200000
-0.300000
0.200000
0.400000
0.000000
0.300000
-0.200000
0.200000
0.400000
0.500000
0.000000
0.300000
-0.300000
-0.200000
0.300000
0.000000
-0.300000
-0.400000
0.100000
-0.100000
0.500000
-0.300000
-0.300000
-0.300000
0.200000
-0.100000
-0.300000
0.400000
0.200000
0.300000
0.200000
-0.100000
0.200000
-0.300000
0.500000
0.200000
-0.400000
0.000000
-0.100000
0.400000
-0.100000
0.200000
0.000000
-0.300000
0.400000
0.200000
0.500000
0.200000
-0.200000
0.400000
-0.400000
0.100000
-0.400000
0.300000
-0.400000
-0.200000
-0.400000
0.100000
0.400000
0.200000
-0.400000
0.300000
0.300000
-0.100000
0.200000
0.100000
0.500000
0.000000
0.300000
0.100000
0.500000
-0.400000
-0.400000
-0.300000
-0.200000
0.400000
0.000000
0.300000
-0.400000
0.400000
0.000000
-0.300000
0.500000
0.500000
-0.200000
-0.100000
-0.200000
0.200000
0.400000
0.300000
0.500000
-0.100000
0.500000
0.500000
0.400000
-0.200000
0.500000
0.400000
-0.400000
0.200000
-0.300000
0.400000
-0.100000
0.100000
0.500000
0.000000
0.400000
0.300000
-0.200000
0.200000
0.300000
0.400000
0.400000
-0.200000
-0.100000
-0.300000
0.000000
0.400000
-0.200000
0.300000
0.500000
0.500000
0.100000
0.300000
0.000000
0.400000
-0.300000
0.300000
-0.300000
0.200000
0.500000
-0.400000
0.100000
0.000000
0.100000
0.200000
-0.400000
0.400000
0.000000
0.000000
0.000000
0.100000
-0.100000
0.200000
0.200000
0.000000
-0.300000
-0.300000
0.200000
-0.300000
-0.100000
0.100000
0.500000
-0.400000
0.500000
-0.300000
0.500000
0.000000
0.300000
-0.400000
0.200000
0.200000
0.100000
0.200000
0.100000
0.300000
0.000000
-0.100000
-0.100000
0.200000
0.100000
0.500000
-0.100000
-0.200000
0.500000
-0.100000
-0.400000
-0.200000
0.100000
-0.300000
0.400000
-0.200000
0.500000
0.300000
0.300000
0.400000
-0.200000
0.500000
0.300000
0.100000
0.300000
0.400000
-0.300000
0.000000
0.300000
0.400000
-0.300000
0.000000
-0.100000
-0.100000
-0.400000
-0.300000
-0.400000
-0.200000
-0.300000
0.000000
0.100000
0.300000
0.100000
-0.300000
0.000000
0.400000
0.200000
-0.100000
0.100000
0.100000
0.300000
0.400000
0.000000
-0.300000
0.400000
-0.100000
0.200000
-0.100000
0.400000
-0.100000
-0.100000
0.400000
-0.300000
-0.200000
0.200000
0.000000
0.200000
0.000000
-0.200000
0.500000
0.000000
0.100000
-0.200000
-0.200000
0.500000
-0.200000
0.100000
0.000000
-0.100000
0.300000
-0.100000
-0.200000
-0.300000
-0.400000
-0.100000
0.300000
0.200000
0.300000
-0.400000
-0.400000
0.100000
0.400000
-0.100000
-0.300000
0.200000
-0.400000
0.500000
-0.400000
0.200000
-0.100000
-0.300000
0.200000
0.300000
0.200000
0.100000
0.100000
0.400000
0.300000
-0.200000
0.400000
-0.100000
0.000000
0.200000
-0.300000
0.400000
0.300000
0.400000
-0.200000
0.000000
-0.100000
0.100000
-0.100000
-0.300000
0.000000
0.100000
0.300000
0.500000
0.100000
-0.100000
0.300000
0.000000
0.100000
0.100000
0.500000
0.400000
-0.400000
-0.200000
-0.400000
0.500000
0.500000
0.000000
0.500000
0.000000
-0.100000
-0.100000
-0.400000
-0.200000
-0.200000
0.000000
0.400000
-0.400000
-0.200000
-0.100000
0.400000
0.000000
-0.200000
-0.100000
-0.200000
-0.200000
0.200000
0.100000
0.100000
-0.200000
0.000000
0.500000
-0.400000
0.100000
-0.400000
-0.300000
0.500000
0.300000
0.300000
0.300000
0.100000
0.300000
0.300000
0.200000
0.100000
-0.100000
-0.100000
-0.200000
0.000000
0.500000
0.400000
0.400000
0.200000
-0.200000
-0.200000
0.300000
-0.400000
0.500000
0.200000
-0.400000
0.000000
-0.100000
-0.400000
-0.200000
0.400000
-0.300000
-0.300000
-0.100000
0.000000
0.400000
-0.200000
0.000000
-0.200000
0.000000
-0.300000
-0.400000
-0.300000
-0.400000
0.000000
0.200000
0.200000
0.500000
0.200000
-0.200000
-0.400000
0.200000
-0.300000
0.300000
0.100000
-0.400000
0.100000
-0.100000
0.200000
-0.300000
-0.200000
-0.400000
0.500000
0.000000
0.500000
-0.300000
0.400000
0.200000
-0.100000
-0.400000
0.100000
0.200000
0.000000
0.200000
-0.100000
0.100000
-0.200000
-0.400000
-0.300000
-0.200000
-0.100000
0.200000
0.400000
-0.300000
-0.200000
0.300000
0.000000
-0.400000
0.200000
0.000000
0.300000
-0.400000
0.500000
0.000000
-0.100000
0.200000
0.500000
-0.100000
0.100000
0.500000
0.100000
0.100000
0.300000
-0.400000
-0.100000
0.000000
0.300000
0.400000
-0.100000
0.200000
0.300000
0.300000
0.000000
-0.100000
0.100000
-0.200000
-0.400000
0.500000
-0.400000
0.400000
-0.200000
-0.300000
-0.200000
0.500000
-0.200000
0.300000
0.000000
0.200000
-0.300000
0.000000
0.200000
-0.400000
-0.300000
0.100000
0.400000
0.300000
0.300000
-0.400000
-0.400000
0.400000
0.400000
-0.200000
0.000000
0.000000
-0.400000
0.400000
0.500000
-0.200000
-0.200000
0.200000
0.500000
0.000000
0.400000
0.100000
0.300000
-0.200000
-0.200000
-0.100000
-0.200000
0.200000
0.500000
0.100000
-0.300000
-0.100000
0.300000
0.100000
0.500000
0.300000
0.000000
0.100000
0.000000
0.000000
0.400000
-0.400000
0.200000
0.000000
0.400000
0.100000
0.000000
-0.200000
0.300000
0.500000
-0.400000
-0.400000
0.500000
0.500000
0.100000
-0.300000
-0.300000
-0.300000
0.100000
-0.100000
0.400000
0.300000
0.500000
-0.400000
0.000000
0.200000
0.200000
0.200000
0.300000
-0.400000
-0.100000
0.200000
-0.400000
0.400000
-0.100000
-0.100000
0.300000
-0.300000
0.100000
-0.100000
-0.400000
0.300000
0.100000
0.200000
-0.200000
0.100000
-0.100000
0.300000
0.300000
0.400000
-0.300000
0.300000
-0.100000
0.400000
0.300000
-0.400000
-0.300000
0.300000
0.300000
0.200000
0.500000
0.000000
0.300000
-0.400000
0.300000
-0.200000
-0.400000
-0.100000
0.300000
-0.400000
-0.300000
0.400000
-0.200000
0.000000
-0.400000
0.000000
0.000000
0.000000
0.200000
0.400000
0.300000
0.400000
-0.100000
0.200000
0.500000
0.400000
-0.300000
-0.100000
0.300000
0.100000
-0.400000
0.100000
0.500000
0.200000
0.000000
0.400000
0.000000
0.400000
-0.300000
-0.100000
-0.100000
0.100000
-0.300000
0.000000
0.200000
-0.200000
0.100000
-0.300000
0.500000
-0.300000
0.500000
-0.300000
-0.100000
-0.200000
0.300000
-0.300000
0.100000
-0.100000
0.100000
-0.200000
0.300000
-0.400000
-0.300000
0.100000
0.000000
0.200000
-0.400000
0.000000
-0.400000
0.100000
0.200000
0.500000
0.200000
0.100000
0.200000
0.300000
0.200000
-0.400000
-0.400000
0.400000
0.000000
0.400000
-0.400000
0.400000
-0.400000
0.500000
0.200000
0.200000
0.300000
0.300000
-0.400000
-0.400000
-0.200000
0.000000
-0.400000
0.000000
0.100000
0.400000
0.100000
-0.300000
-0.200000
0.200000
-0.200000
-0.300000
0.300000
-0.400000
-0.400000
-0.300000
-0.300000
-0.100000
-0.100000
0.100000
-0.200000
-0.400000
-0.200000
0.300000
-0.100000
0.300000
0.400000
0.000000
0.500000
-0.400000
0.400000
-0.200000
-0.300000
0.200000
-0.100000
-0.100000
-0.300000
0.500000
0.400000
-0.200000
0.000000
0.000000
0.500000
0.100000
0.100000
-0.300000
-0.300000
0.400000
-0.400000
0.200000
0.100000
0.400000
0.200000
0.000000
-0.200000
-0.100000
-0.300000
-0.200000
-0.200000
0.300000
-0.200000
-0.300000
0.400000
0.200000
0.100000
0.300000
-0.400000
0.300000
0.300000
-0.400000
0.300000
0.300000
-0.100000
-0.300000
-0.400000
-0.400000
-0.100000
-0.400000
0.400000
0.500000
-0.200000
0.400000
0.200000
0.400000
0.500000
-0.400000
-0.400000
0.400000
0.100000
-0.300000
-0.400000
0.300000
0.000000
-0.300000
0.400000
0.400000
0.200000
-0.200000
0.000000
0.400000
-0.400000
0.300000
0.500000
-0.400000
0.300000
0.300000
-0.400000
-0.300000
0.200000
0.200000
0.300000
0.100000
0.000000
-0.300000
0.100000
-0.100000
0.200000
0.400000
0.100000
0.400000
-0.300000
0.300000
-0.300000
0.500000
0.000000
0.500000
0.100000
0.000000
0.500000
0.500000
0.500000
-0.200000
0.400000
-0.300000
-0.100000
0.400000
-0.200000
0.500000
0.100000
0.400000
0.000000
0.200000
0.200000
0.400000
0.500000
0.100000
0.500000
0.500000
0.000000
0.100000
0.300000
0.200000
0.200000
0.300000
0.300000
0.500000
0.300000
0.300000
-0.300000
-0.300000
0.200000
-0.200000
-0.300000
0.400000
-0.200000
-0.100000
-0.300000
0.500000
0.400000
0.200000
0.000000
-0.100000
-0.200000
-0.400000
0.300000
0.000000
0.400000
0.100000
0.000000
0.300000
0.000000
-0.200000
-0.200000
0.300000
0.400000
0.500000
0.300000
-0.100000
0.000000
0.300000
-0.400000
0.400000
0.500000
0.300000
0.400000
-0.400000
0.500000
0.500000
0.300000
0.500000
0.300000
0.300000
0.100000
0.000000
0.000000
-0.300000
0.000000
0.300000
0.000000
-0.400000
0.200000
-0.300000
0.500000
-0.400000
0.200000
-0.400000
-0.200000
0.100000
-0.100000
0.400000
-0.400000
0.400000
0.100000
0.000000
0.500000
0.000000
0.400000
-0.200000
0.000000
0.000000
0.200000
-0.300000
0.200000
0.200000
0.300000
-0.400000
0.100000
0.000000
-0.100000
0.200000
-0.300000
0.400000
0.100000
-0.400000
0.100000
-0.300000
0.000000
0.000000
0.400000
0.500000
-0.200000
0.400000
-0.300000
0.100000
0.200000
-0.300000
0.300000
0.500000
-0.100000
-0.100000
0.200000
-0.300000
-0.300000
-0.200000
-0.400000
0.100000
0.400000
-0.200000
0.300000
0.100000
0.400000
0.500000
0.000000
0.500000
0.100000
-0.400000
-0.300000
0.200000
-0.400000
0.400000
0.100000
0.300000
0.400000
-0.300000
0.200000
-0.100000
0.400000
-0.400000
0.300000
-0.400000
0.300000
0.100000
0.400000
0.200000
0.000000
0.100000
-0.400000
-0.200000
-0.100000
0.400000
0.000000
0.100000
0.000000
0.000000
0.300000
0.400000
-0.300000
0.300000
0.200000
0.400000
-0.300000
-0.100000
0.200000
0.100000
-0.100000
-0.200000
0.300000
-0.400000
-0.100000
0.300000
-0.400000
0.100000
0.500000
-0.200000
0.300000
0.000000
0.000000
0.400000
-0.400000
0.300000
-0.100000
-0.200000
-0.400000
0.000000
0.500000
0.000000
0.200000
0.500000
0.100000
0.400000
0.300000
0.100000
0.400000
0.000000
-0.300000
-0.100000
0.100000
-0.100000
0.400000
0.200000
-0.400000
0.200000
0.000000
0.400000
-0.100000
-0.300000
-0.100000
-0.200000
-0.300000
-0.300000
0.100000
0.400000
-0.300000
0.200000
0.000000
0.100000
0.100000
-0.200000
-0.200000
-0.200000
0.000000
0.300000
0.100000
0.200000
-0.300000
-0.200000
-0.100000
0.100000
0.000000
-0.300000
0.000000
-0.100000
0.500000
-0.200000
-0.200000
-0.200000
-0.100000
0.000000
0.100000
0.200000
-0.100000
-0.200000
-0.200000
-0.300000
0.400000
0.500000
0.000000
0.100000
0.400000
-0.400000
0.400000
0.100000
-0.400000
-0.400000
-0.100000
0.100000
-0.200000
0.100000
0.200000
-0.100000
0.100000
0.200000
0.400000
0.100000
0.200000
0.300000
0.400000
-0.200000
0.500000
0.000000
-0.400000
0.200000
-0.200000
-0.100000
0.000000
-0.200000
0.000000
-0.300000
0.200000
-0.400000
0.200000
0.200000
0.400000
-0.300000
0.200000
0.000000
-0.400000
-0.300000
-0.300000
0.500000
-0.100000
0.300000
0.500000
0.400000
0.500000
0.400000
0.300000
0.100000
-0.100000
0.300000
-0.100000
0.300000
0.100000
0.300000
0.200000
0.400000
-0.200000
0.100000
-0.400000
-0.400000
0.300000
-0.100000
-0.300000
-0.100000
0.500000
0.300000
0.200000
-0.100000
-0.200000
-0.100000
0.200000
-0.400000
-0.400000
-0.100000
-0.200000
0.000000
-0.200000
-0.400000
0.400000
0.400000
0.000000
0.300000
0.500000
0.100000
0.500000
0.400000
-0.100000
0.300000
-0.100000
-0.100000
-0.400000
-0.100000
-0.300000
-0.100000
0.500000
-0.300000
0.100000
0.100000
0.500000
0.500000
-0.200000
0.300000
-0.300000
-0.100000
0.200000
-0.300000
-0.300000
-0.200000
0.300000
0.300000
0.200000
-0.100000
-0.200000
0.400000
-0.300000
0.100000
-0.300000
0.400000
0.500000
0.400000
0.200000
0.300000
-0.400000
0.400000
0.500000
0.400000
-0.400000
-0.400000
0.100000
0.400000
0.100000
0.500000
0.200000
0.100000
0.000000
0.100000
0.000000
0.200000
0.200000
0.100000
-0.200000
0.100000
0.400000
0.500000
-0.200000
-0.300000
0.500000
0.500000
-0.400000
0.300000
0.300000
0.500000
0.500000
-0.400000
-0.400000
0.400000
-0.200000
-0.200000
0.100000
-0.400000
0.100000
-0.100000
0.500000
0.400000
0.500000
0.000000
0.400000
0.200000
0.300000
-0.100000
0.300000
-0.300000
0.200000
0.100000
0.400000
0.400000
0.400000
0.100000
0.500000
-0.100000
-0.400000
0.100000
-0.300000
-0.100000
0.500000
-0.200000
0.000000
-0.300000
0.400000
-0.100000
-0.200000
-0.200000
0.200000
0.200000
0.300000
0.000000
0.300000
0.200000
0.100000
0.200000
0.400000
-0.200000
-0.400000
0.200000
0.500000
-0.400000
0.500000
0.000000
-0.100000
0.400000
-0.400000
0.400000
-0.200000
0.000000
-0.200000
-0.100000
-0.100000
0.300000
0.200000
-0.100000
0.400000
0.100000
0.400000
-0.300000
0.100000
-0.200000
0.000000
0.300000
0.400000
-0.300000
-0.300000
0.100000
0.000000
0.200000
-0.300000
0.500000
0.200000
-0.100000
-0.100000
0.300000
0.500000
-0.300000
0.400000
-0.300000
-0.400000
-0.400000
0.300000
-0.200000
0.200000
-0.400000
-0.200000
-0.100000
0.400000
-0.400000
0.400000
-0.300000
0.200000
0.500000
-0.200000
-0.100000
-0.200000
-0.300000
0.000000
-0.400000
-0.300000
0.000000
0.200000
0.200000
0.400000
0.000000
0.200000
0.400000
0.500000
-0.300000
0.300000
0.400000
0.300000
0.500000
0.400000
0.200000
-0.100000
-0.400000
-0.400000
0.100000
0.300000
-0.200000
0.200000
0.200000
0.400000
0.200000
-0.300000
-0.400000
0.400000
0.300000
-0.400000
0.500000
0.000000
0.000000
0.200000
-0.100000
0.400000
0.300000
-0.400000
0.400000
0.500000
-0.400000
0.500000
0.500000
0.300000
-0.300000
0.300000
-0.400000
0.300000
0.000000
-0.400000
0.400000
-0.300000
-0.300000
0.200000
0.400000
0.500000
0.000000
-0.300000
-0.400000
0.400000
-0.200000
0.100000
-0.200000
-0.100000
0.300000
0.100000
0.300000
-0.100000
0.500000
0.500000
0.400000
0.000000
0.300000
0.200000
0.400000
-0.300000
-0.400000
0.100000
-0.200000
0.100000
-0.400000
-0.300000
0.000000
-0.100000
0.100000
0.100000
-0.200000
0.000000
0.300000
-0.400000
-0.300000
-0.200000
-0.400000
0.100000
0.400000
0.000000
0.500000
-0.400000
-0.200000
0.100000
0.300000
-0.300000
-0.300000
0.500000
0.100000
0.200000
0.100000
-0.400000
0.400000
0.300000
0.200000
0.100000
0.400000
0.500000
0.100000
-0.200000
0.200000
0.200000
0.400000
0.100000
0.000000
0.000000
0.400000
-0.200000
0.500000
0.400000
-0.300000
-0.400000
-0.300000
-0.400000
0.000000
-0.100000
-0.200000
0.100000
-0.400000
0.000000
-0.200000
0.300000
0.300000
0.200000
0.500000
-0.100000
0.500000
-0.200000
0.200000
0.400000
0.400000
0.100000
-0.400000
-0.100000
-0.200000
-0.100000
-0.400000
0.100000
-0.200000
-0.100000
0.500000
0.500000
0.000000
-0.400000
0.200000
-0.100000
0.400000
0.100000
-0.400000
0.100000
-0.200000
0.200000
0.300000
0.200000
0.300000
0.400000
0.300000
0.200000
-0.300000
0.200000
-0.200000
0.000000
-0.100000
0.500000
-0.300000
0.100000
-0.100000
0.500000
0.500000
-0.400000
0.000000
0.200000
0.000000
0.000000
0.400000
0.500000
-0.400000
-0.300000
0.400000
0.300000
-0.300000
-0.200000
-0.200000
0.100000
-0.100000
0.300000
-0.100000
0.000000
0.200000
-0.400000
-0.400000
0.400000
-0.400000
0.100000
-0.100000
-0.300000
-0.400000
0.000000
0.000000
0.200000
-0.300000
0.300000
0.000000
-0.200000
0.000000
0.300000
-0.400000
0.000000
0.400000
-0.100000
-0.100000
-0.400000
0.100000
-0.100000
-0.100000
-0.200000
-0.400000
-0.200000
0.500000
0.300000
-0.100000
0.300000
0.400000
0.200000
0.200000
0.300000
0.000000
-0.200000
0.000000
0.000000
0.100000
-0.100000
-0.100000
0.400000
-0.200000
0.000000
0.300000
0.200000
-0.400000
-0.100000
0.500000
0.200000
0.500000
-0.100000
-0.400000
0.200000
0.500000
0.300000
-0.200000
0.300000
-0.100000
0.100000
-0.300000
0.500000
-0.400000
-0.200000
0.200000
-0.200000
0.200000
-0.200000
-0.400000
0.300000
-0.400000
-0.300000
-0.200000
-0.300000
0.500000
0.400000
-0.100000
-0.300000
-0.200000
0.300000
0.300000
-0.200000
0.200000
0.500000
0.400000
0.300000
-0.200000
-0.100000
0.400000
0.400000
0.400000
-0.100000
-0.400000
-0.200000
0.500000
0.000000
-0.400000
-0.300000
0.400000
0.200000
-0.400000
-0.100000
0.200000
-0.300000
0.100000
-0.200000
0.200000
0.000000
-0.400000
0.000000
-0.200000
0.100000
0.100000
0.400000
0.100000
0.300000
-0.100000
0.500000
0.300000
-0.100000
0.100000
0.100000
0.300000
0.000000
-0.100000
0.200000
0.500000
0.100000
-0.300000
0.400000
0.400000
-0.100000
0.000000
0.400000
0.100000
0.500000
0.300000
0.300000
-0.300000
-0.300000
-0.200000
0.300000
-0.100000
-0.400000
0.500000
0.200000
-0.400000
-0.100000
-0.300000
0.100000
0.000000
-0.200000
-0.200000
0.000000
0.400000
0.100000
0.500000
0.300000
-0.400000
0.500000
0.400000
-0.300000
0.000000
0.400000
0.500000
0.500000
0.300000
0.000000
-0.400000
0.400000
-0.200000
0.500000
0.300000
0.300000
0.000000
-0.300000
0.000000
0.400000
0.000000
-0.300000
0.400000
0.100000
-0.300000
-0.100000
0.400000
-0.300000
-0.100000
0.300000
0.000000
0.000000
0.200000
0.200000
-0.400000
0.200000
-0.200000
0.000000
0.400000
0.000000
0.000000
-0.100000
-0.400000
0.500000
0.500000
0.300000
0.100000
0.300000
-0.400000
0.300000
0.100000
0.400000
0.500000
0.000000
0.500000
-0.400000
-0.100000
-0.200000
0.100000
0.400000
0.200000
-0.400000
-0.300000
0.300000
-0.400000
-0.100000
0.500000
0.500000
-0.100000
0.400000
0.100000
0.000000
-0.100000
0.100000
0.200000
-0.300000
-0.400000
-0.400000
-0.100000
0.500000
-0.300000
0.300000
-0.200000
-0.400000
0.300000
0.400000
0.500000
0.200000
0.400000
0.400000
0.500000
-0.400000
-0.400000
-0.300000
-0.200000
-0.100000
-0.200000
0.400000
0.300000
0.200000
-0.400000
0.300000
0.100000
-0.200000
0.100000
0.500000
0.300000
-0.400000
0.200000
0.300000
0.400000
0.000000
0.000000
-0.400000
-0.400000
0.200000
-0.300000
-0.200000
-0.300000
0.500000
0.100000
0.500000
-0.100000
0.300000
0.300000
0.200000
-0.200000
-0.300000
0.200000
-0.400000
0.500000
0.500000
0.100000
0.100000
0.100000
0.200000
0.100000
0.400000
0.500000
0.200000
-0.200000
0.100000
0.100000
-0.400000
-0.300000
0.500000
0.100000
0.000000
-0.300000
-0.100000
0.100000
0.300000
0.000000
-0.200000
0.400000
0.300000
-0.100000
0.100000
-0.400000
-0.300000
-0.300000
0.000000
0.200000
0.400000
0.400000
-0.100000
0.500000
0.400000
0.400000
-0.100000
-0.300000
-0.100000
0.200000
0.400000
-0.400000
-0.100000
-0.400000
-0.200000
0.400000
-0.200000
0.500000
0.400000
0.100000
0.400000
0.500000
0.300000
0.200000
0.400000
0.500000
-0.300000
-0.200000
0.500000
0.400000
0.200000
0.100000
-0.200000
0.500000
-0.300000
0.200000
0.000000
0.300000
0.000000
0.000000
0.100000
0.200000
-0.300000
-0.100000
-0.400000
-0.400000
0.200000
0.400000
-0.100000
0.200000
0.200000
0.400000
0.200000
0.300000
0.000000
0.200000
0.200000
0.200000
-0.300000
-0.100000
0.400000
0.500000
-0.300000
-0.400000
-0.100000
0.100000
0.200000
0.100000
0.400000
-0.100000
0.400000
0.400000
0.400000
0.400000
-0.200000
0.500000
0.100000
0.100000
-0.200000
-0.400000
0.500000
0.000000
-0.300000
-0.300000
-0.300000
-0.200000
0.300000
0.100000
0.100000
0.200000
-0.400000
0.200000
-0.100000
-0.200000
0.100000
0.300000
0.000000
0.500000
-0.200000
0.400000
0.100000
-0.300000
0.500000
-0.400000
-0.400000
0.500000
0.200000
0.300000
-0.300000
0.100000
0.300000
-0.400000
0.400000
0.500000
-0.200000
0.100000
-0.400000
-0.400000
0.100000
-0.100000
0.300000
-0.300000
0.500000
0.300000
0.000000
0.400000
0.500000
0.400000
-0.200000
0.100000
0.400000
0.400000
0.500000
-0.400000
-0.300000
0.300000
-0.400000
0.300000
-0.300000
0.200000
0.400000
0.500000
0.200000
0.000000
0.000000
0.400000
-0.100000
0.000000
-0.100000
0.000000
0.200000
0.400000
0.100000
0.000000
0.000000
0.000000
0.000000
0.300000
0.300000
0.300000
0.500000
-0.300000
0.500000
0.000000
-0.300000
0.200000
-0.300000
0.100000
-0.300000
0.200000
-0.400000
0.400000
0.100000
-0.300000
0.200000
-0.200000
0.100000
-0.100000
0.100000
-0.200000
-0.100000
-0.200000
-0.200000
0.500000
0.500000
-0.100000
0.500000
0.400000
0.500000
0.500000
0.000000
-0.200000
0.300000
-0.300000
0.300000
-0.200000
-0.300000
0.300000
0.400000
0.300000
-0.100000
-0.100000
-0.200000
0.500000
-0.200000
0.500000
-0.200000
0.400000
-0.300000
-0.300000
0.000000
-0.100000
-0.300000
0.000000
0.400000
0.000000
0.300000
0.400000
0.400000
-0.400000
0.300000
-0.400000
0.100000
0.300000
0.300000
0.400000
0.300000
0.000000
-0.200000
0.400000
0.400000
-0.300000
-0.100000
-0.100000
0.300000
0.500000
-0.300000
-0.400000
0.400000
0.200000
0.400000
-0.200000
0.100000
0.100000
0.100000
0.500000
-0.400000
0.300000
0.000000
-0.100000
-0.400000
0.300000
0.000000
-0.300000
0.100000
0.400000
0.400000
0.200000
0.500000
-0.300000
0.200000
0.400000
-0.100000
-0.400000
0.100000
-0.400000
0.300000
0.200000
-0.200000
0.400000
0.300000
-0.300000
-0.100000
0.200000
0.100000
-0.400000
-0.300000
-0.200000
0.300000
0.200000
0.100000
0.100000
-0.300000
0.200000
0.000000
-0.300000
0.100000
-0.100000
0.000000
0.500000
0.000000
-0.200000
0.000000
0.400000
0.400000
0.300000
-0.100000
-0.400000
0.300000
-0.200000
-0.100000
-0.200000
0.000000
-0.200000
0.400000
-0.400000
0.400000
0.200000
0.500000
0.100000
0.000000
-0.200000
0.100000
0.300000
-0.300000
0.100000
0.300000
0.400000
-0.200000
-0.300000
0.000000
-0.400000
-0.200000
-0.400000
-0.200000
0.400000
-0.300000
0.000000
-0.100000
0.400000
0.500000
-0.100000
-0.400000
-0.200000
-0.400000
-0.400000
0.400000
-0.200000
0.300000
0.500000
0.300000
0.000000
0.000000
0.500000
0.100000
-0.200000
0.400000
0.000000
0.300000
0.200000
0.100000
-0.300000
-0.400000
-0.100000
-0.200000
0.300000
0.500000
-0.200000
0.500000
-0.400000
0.200000
0.400000
-0.400000
0.100000
0.500000
0.400000
0.200000
-0.300000
-0.300000
-0.100000
0.200001
0.300162
-0.399998
0.300000
0.000000
-0.400046
0.300121
0.300000
-0.100000
-0.199755
0.500002
0.299984
-0.199994
-0.000000
0.200001
-0.299642
-0.100019
-0.200000
0.299965
-0.200005
0.400000
0.300125
0.399988
-0.200006
0.100000
0.200006
-0.300000
-0.099993
-0.100000
0.200009
0.400000
0.100104
0.400000
0.499968
-0.200039
-0.400000
0.200001
0.000002
0.300000
-0.100000
-0.400000
0.399960
0.099997
0.000000
0.399960
-0.400077
-0.199999
-0.000065
0.100013
-0.000001
0.099908
0.200000
0.400000
0.200000
0.200000
-0.000000
0.500306
-0.100000
-0.199999
-0.100002
-0.400002
0.099999
-0.100001
-0.200000
-0.100000
0.400001
0.499995
-0.099966
-0.100022
0.400000
-0.000093
-0.099997
0.200000
0.200003
-0.400000
0.300002
-0.199999
-0.299996
0.399956
0.200000
0.500003
0.100114
0.300000
0.200000
-0.400000
0.200000
-0.299845
-0.300000
0.100000
0.300000
0.400000
0.400000
-0.399850
0.200004
0.100000
-0.100000
0.000000
0.500001
0.300000
0.399955
0.300000
0.200000
0.000000
0.200000
0.499991
-0.300000
0.300007
-0.200000
-0.300001
0.400000
-0.399995
0.400000
0.499993
-0.000014
-0.300000
0.200008
-0.100008
-0.099999
0.499986
-0.399927
0.199999
-0.099982
-0.100000
0.300000
-0.400023
-0.100319
-0.400000
-0.200004
-0.400000
-0.399998
-0.400000
0.100001
-0.400003
0.400000
-0.400000
0.099994
-0.200017
0.400000
0.499953
0.200000
-0.000000
-0.200000
0.400000
-0.199947
0.199999
-0.300000
-0.299998
-0.300111
0.499995
0.000000
0.500000
0.500000
0.100000
-0.300000
0.300076
0.400000
-0.199922
0.300000
0.500000
0.500035
-0.400000
0.300000
-0.000000
0.200000
-0.300256
0.000489
-0.099999
-0.200001
-0.399958
-0.099959
0.500011
-0.199943
-0.199994
0.400009
-0.300000
0.500000
0.000000
0.500001
0.100002
0.000010
-0.200011
0.200000
-0.400000
0.200000
-0.300011
-0.300000
-0.200015
0.500222
-0.300000
0.400036
-0.200000
0.100008
-0.100000
-0.100000
0.099999
-0.100000
-0.300000
-0.400000
0.200000
-0.300001
0.400011
0.500167
0.100009
0.200000
0.000000
0.195171
0.301690
0.299992
-0.399105
-0.299080
-0.299809
0.299906
0.100121
0.500000
0.502871
0.100351
0.199948
-0.400000
0.400685
-0.299927
-0.400000
-0.200903
-0.200060
-0.200374
0.500000
-0.301106
-0.300000
0.100006
-0.299999
-0.000018
0.399997
-0.099597
0.100000
0.299958
0.299816
0.200033
-0.099961
-0.199998
0.100000
-0.200001
0.500001
0.500439
-0.295973
-0.200000
-0.200816
-0.400452
0.099811
0.501343
-0.099861
0.299981
-0.300548
0.302112
-0.000002
-0.400000
-0.100000
-0.400002
-0.099692
0.400000
-0.399989
-0.300079
-0.000001
-0.200418
0.499999
-0.300000
0.200000
0.500046
0.500038
0.100325
-0.199999
-0.400000
0.200152
-0.298583
-0.400000
0.300385
0.200000
0.200262
-0.400006
-0.400361
-0.398533
0.300000
0.100017
0.400274
0.200154
0.300001
-0.400000
0.100000
0.100271
0.400000
-0.300001
0.400000
0.300000
-0.099958
-0.199077
0.400232
-0.400000
-0.400001
0.000054
0.200001
-0.403037
0.299907
-0.101187
-0.000000
0.300002
-0.000001
0.397951
-0.400001
-0.199983
-0.099989
0.000132
0.300000
0.299981
-0.300000
0.299993
-0.399953
-0.299994
0.300009
-0.100053
-0.299972
-0.000009
0.000251
0.000001
0.200024
-0.000000
0.300000
-0.100124
0.398881
-0.100000
0.399904
0.100000
0.299976
-0.200000
0.400071
-0.099988
0.400000
0.300000
-0.400009
-0.200079
0.500000
-0.098554
-0.100000
-0.300000
0.000000
0.399999
-0.099874
0.000003
-0.199821
-0.000023
0.199148
-0.400013
0.300001
-0.400000
-0.100000
0.400000
0.499946
0.100445
0.200000
0.198403
-0.300000
0.100005
-0.099882
-0.199999
0.199999
0.100000
0.400000
0.299669
-0.199441
0.400010
0.500009
0.100087
0.500092
-0.299965
-0.299876
-0.400369
0.200011
-0.100000
0.500000
-0.300000
-0.000655
-0.300006
0.200161
-0.300599
-0.200000
0.200000
0.500000
0.399970
0.100000
-0.200025
0.200321
0.100000
0.400576
-0.400000
0.099896
0.100012
0.100003
-0.300053
0.400000
-0.400000
0.200000
0.300000
-0.300001
-0.099485
-0.299832
-0.397232
-0.100001
-0.300000
-0.104767
-0.396928
0.100312
0.300895
-0.299080
0.400173
0.099906
0.105748
0.200000
0.102873
-0.199594
0.499914
-0.400000
0.300688
0.300073
-0.300000
-0.200035
0.299937
-0.200516
0.400000
0.098901
-0.399499
-0.095571
-0.300002
0.000778
0.099995
-0.093729
-0.300000
-0.097514
0.199820
0.100031
-0.099961
-0.099999
0.300000
0.199999
-0.400000
0.201273
0.104033
0.500000
-0.000815
-0.100469
-0.100189
-0.098360
0.500143
-0.300019
0.199450
0.102121
0.299999
0.500000
-0.099996
0.399996
0.201237
-0.300001
0.399587
-0.100079
0.399997
0.499554
-0.000520
-0.100001
0.400000
0.300046
-0.299966
-0.199445
0.400000
0.100003
0.400158
0.101417
0.300001
-0.299481
0.406085
0.100261
0.199994
-0.399185
0.301467
0.207839
0.300016
-0.299728
-0.299849
-0.300005
0.300019
0.300000
-0.399740
0.499998
-0.400001
0.400001
-0.399994
0.200015
-0.398486
0.400232
0.500000
0.499999
-0.099976
-0.400000
0.497047
-0.400209
0.499277
0.200000
0.300139
0.399989
-0.203144
-0.100001
-0.199980
0.100027
0.200116
-0.000002
0.101079
-0.200001
0.499983
-0.199956
-0.299993
0.400008
0.099948
0.100028
-0.300157
0.200251
0.400004
0.400035
-0.200002
0.199999
0.499862
-0.401120
-0.400000
-0.300095
0.300000
0.099968
0.099999
0.000126
0.200009
-0.299998
0.000000
0.299991
-0.300080
0.301517
-0.298546
0.099651
0.100000
0.200000
-0.300026
0.300115
-0.400010
0.200181
0.199905
0.399148
-0.399433
0.200001
0.200049
0.200000
0.200000
0.299947
0.300445
0.199999
-0.201598
0.300004
-0.100089
0.000121
0.300000
-0.000008
-0.100003
0.200000
0.199613
0.401956
-0.198595
0.500007
0.500093
-0.099907
0.200036
-0.299806
0.499642
0.504337
0.100000
0.500000
-0.000027
0.299339
0.301006
-0.099841
0.199398
-0.000257
-0.100011
-0.298730
-0.300030
0.500000
-0.200026
0.501666
0.301914
0.100253
-0.199991
0.304317
0.200012
0.200087
0.199944
-0.000005
-0.200004
0.300000
-0.300000
-0.176772
0.320916
-0.200048
0.303554
0.099506
-0.000005
0.099017
-0.273975
0.103642
0.402731
0.504879
0.201801
0.099741
0.022081
0.000002
0.508067
-0.099475
-0.308377
-0.000170
-0.086886
-0.388030
-0.300648
0.095425
-0.297251
0.198858
0.099917
0.200705
-0.099468
0.504429
-0.300040
-0.405077
0.194438
0.013897
-0.300298
-0.399488
0.100655
-0.388432
-0.104212
0.199990
0.300000
0.500009
-0.102418
0.298948
-0.351296
0.300000
0.497074
0.499216
0.000610
0.119951
0.100627
-0.000429
-0.213833
-0.368220
-0.099630
0.399996
0.299425
0.099991
-0.396800
0.099995
-0.000857
0.099656
0.399997
-0.100693
-0.400582
-0.200022
0.099996
0.400063
0.008204
-0.099430
0.224038
0.099863
-0.385140
-0.277893
0.000630
-0.002397
0.406086
0.200276
-0.100106
0.087006
0.001600
0.507843
-0.000029
0.499118
0.510884
-0.399066
0.002412
-0.000001
0.200781
-0.000036
-0.399143
0.301691
0.100055
0.302368
-0.095731
0.000145
0.099998
-0.002672
0.038291
-0.300005
-0.320836
0.099321
0.396008
0.300000
0.400163
0.199862
-0.008845
0.201107
0.399767
0.002714
0.218151
0.100376
0.500875
0.499995
-0.303388
0.100454
0.200007
0.300057
-0.103328
0.001080
-0.300088
0.203603
0.299980
0.396309
-0.100009
0.299986
-0.301484
0.506263
0.300000
0.506005
0.000025
-0.106860
-0.400153
0.400530
-0.200075
0.099966
0.202428
0.400151
0.494908
-0.298482
0.323706
-0.100388
-0.400007
0.400073
0.499101
0.192756
-0.100016
-0.393716
0.398736
-0.406855
0.200719
0.100365
0.500049
0.399973
-0.300000
-0.294269
-0.299464
0.303154
0.312600
-0.199994
0.499518
0.510289
-0.000021
0.499929
-0.000004
0.199998
-0.112826
0.113413
0.101709
0.099995
0.003397
-0.290692
-0.299705
-0.290755
0.294559
-0.397746
-0.300001
-0.200005
0.299978
0.296671
0.400650
0.400211
-0.398257
-0.400366
0.400022
0.201719
0.088853
0.500007
-0.299220
-0.408471
0.201992
0.102688
-0.200001
0.204192
-0.299990
0.100087
0.097935
-0.200008
0.199994
-0.300000
0.500000
0.424429
-0.278987
0.299785
-0.393078
0.399118
-0.200076
-0.400774
-0.276052
0.303387
0.201545
0.303280
0.001539
0.499771
0.121622
-0.299998
0.402912
-0.199523
0.391533
0.499830
0.222018
0.414813
0.099331
0.094425
-0.195366
-0.301154
0.199917
0.401605
0.400484
0.204424
-0.400029
0.291019
0.194203
0.114001
-0.100299
0.100234
0.101378
0.111946
0.395737
0.499993
0.000000
-0.199994
-0.002433
0.098753
0.153511
0.300000
0.298668
0.199152
0.100922
-0.181384
0.401400
-0.300571
-0.014106
-0.262925
-0.299496
0.299993
0.199422
-0.200010
0.206542
-0.100004
0.299297
-0.400747
0.399998
0.099493
0.299426
-0.300023
-0.200005
-0.300241
0.208226
0.500115
0.527920
-0.300119
0.015063
0.533375
0.200607
-0.102843
0.306074
0.100214
-0.100100
-0.212564
-0.099537
-0.292159
0.400069
0.098845
-0.089144
0.001005
-0.297590
-0.000001
-0.400320
0.099987
0.200812
0.201689
-0.199944
0.098909
-0.096289
0.299723
0.499998
0.197473
0.341426
0.399995
0.476268
-0.402454
-0.004635
-0.000000
-0.199836
0.299984
-0.308401
0.001716
0.399931
0.303034
0.418012
-0.199604
0.300993
-0.300005
0.196502
-0.399896
-0.299939
-0.099875
0.395881
0.401063
0.199826
0.104336
0.300230
0.396310
-0.100009
0.099987
-0.301543
-0.193831
-0.000000
-0.393771
-0.099975
-0.307447
0.399846
0.200333
0.499904
0.099966
0.402701
0.200207
0.394656
0.401922
-0.172905
0.299607
0.499993
-0.099929
-0.401173
0.392670
0.099969
0.306175
-0.402162
-0.007560
0.304934
-0.299639
0.400049
-0.000029
-0.200000
0.205950
0.399979
0.503114
0.314265
0.300006
0.299134
-0.389018
0.199982
-0.400152
-0.300005
0.199998
-0.405999
0.112940
-0.397625
0.399979
-0.395820
-0.090676
0.301456
0.210725
0.294068
0.302234
0.399997
-0.100005
-0.100022
0.497233
0.201698
0.000085
-0.195421
-0.000366
-0.199978
-0.399029
0.088535
0.200006
-0.199105
0.091224
0.501990
-0.097894
-0.000001
-0.195737
-0.100051
0.300085
0.297323
-0.000008
-0.300006
0.100000
0.099999
0.405317
-0.199194
0.500174
0.410394
-0.403668
0.399916
0.090598
0.213925
-0.201575
-0.298230
0.303019
0.201522
0.299215
0.217680
-0.400000
-0.201199
0.200243
-0.306554
0.500001
0.227874
0.109069
0.499332
-0.001315
-0.295984
-0.301434
0.399996
-0.100523
0.400131
0.004428
0.300018
-0.217913
0.497941
0.418901
-0.300006
-0.298086
-0.102252
0.500423
0.199505
-0.399999
0.400000
0.199982
0.399975
-0.098145
0.234214
0.399997
-0.413668
-0.001641
0.502243
0.116157
0.201427
0.399195
0.182440
-0.363773
-0.299388
0.199992
-0.400245
0.099736
0.205145
-0.199994
-0.099477
0.295417
-0.000019
-0.200605
0.099495
-0.000014
-0.400001
0.099481
0.499829
0.398503
0.314879
-0.199963
-0.172822
0.135867
-0.200145
-0.098551
-0.293922
0.500271
0.499998
-0.399200
-0.096225
-0.292110
0.199567
0.100323
0.509859
0.200414
-0.299357
0.000000
0.299936
-0.399974
0.500233
0.199937
-0.399996
0.096123
0.501687
0.299280
0.099999
0.498955
-0.185678
0.300574
-0.141716
-0.008153
-0.403133
0.100000
-0.399836
0.100085
0.467595
0.201337
0.199339
0.400522
0.413923
0.500013
0.101229
-0.400002
-0.400272
-0.404893
-0.300254
0.100171
-0.202944
0.500920
-0.400441
0.303845
0.400257
-0.300115
-0.000004
0.499999
-0.401321
0.000732
-0.200000
0.404448
0.500003
-0.405038
0.499877
-0.099754
0.500233
-0.199997
0.300875
0.300212
-0.008128
0.501957
-0.075672
0.199525
-0.200000
0.000259
-0.400765
0.398698
0.099376
-0.396074
-0.001742
0.187299
-0.395243
-0.198784
-0.299951
0.199985
0.400000
-0.399418
-0.302341
-0.300210
-0.000079
0.400005
-0.201296
0.506865
0.001648
0.099970
0.499996
-0.100000
0.406050
0.423898
-0.298264
0.499502
0.305201
0.200639
0.402109
0.509503
-0.411326
0.505081
0.399998
0.100000
-0.100017
-0.001367
0.003019
0.200084
-0.196031
-0.400315
0.200035
0.500531
-0.007122
0.199999
-0.099451
-0.103492
-0.195081
0.317697
0.100009
-0.395565
-0.000116
0.200090
0.298054
0.199994
-0.100005
0.100000
0.099999
0.404396
0.500711
-0.199809
-0.291448
-0.403246
0.099913
-0.308498
0.311588
-0.404692
-0.098263
0.303556
0.302912
-0.100891
0.317443
0.100000
-0.202211
0.500109
0.093950
0.300001
0.021404
-0.192018
0.299884
0.398976
-0.096750
0.299026
0.199977
-0.400487
-0.299870
-0.195572
0.500014
-0.417106
0.097027
0.418205
0.299994
-0.197753
0.196294
-0.299587
-0.300317
-0.399995
0.300000
-0.000018
0.499984
0.201638
0.124505
0.299997
0.086233
0.502214
-0.097094
-0.184774
-0.291502
-0.300758
0.482886
-0.167476
0.200503
-0.400007
0.199835
0.199737
0.105082
0.200006
0.405738
-0.002628
-0.000019
-0.000456
0.399548
0.099996
-0.000001
-0.200514
-0.000324
-0.203284
-0.086148
0.200012
-0.175058
-0.269460
0.499848
0.100242
0.106078
0.000243
-0.199984
0.500779
-0.097150
0.007890
0.299572
0.200359
-0.190866
-0.299763
0.200574
0.100000
-0.100954
0.400033
-0.299718
0.199940
0.500003
0.296618
0.101349
0.399318
-0.400001
0.199699
0.508857
-0.199425
0.158167
-0.208879
0.093568
-0.000000
0.100095
-0.299836
-0.235886
0.398771
-0.100696
-0.199601
-0.290878
-0.199980
0.001236
-0.200002
-0.300245
0.494954
0.199752
-0.399884
0.398571
-0.399077
0.199547
0.203364
0.500371
-0.200029
-0.000005
0.099999
0.401092
0.402962
-0.100000
-0.095837
0.500000
0.097256
-0.000007
0.099678
0.300219
0.400003
0.000811
0.100196
0.292129
-0.198041
0.019053
0.199531
0.100000
-0.399758
0.199519
-0.000527
-0.400725
-0.397474
0.398694
0.188252
0.204769
-0.298906
0.200051
-0.000005
0.100000
-0.299455
-0.402340
0.200811
0.399819
0.200005
0.499145
0.006504
-0.098340
0.499973
-0.100005
0.500000
-0.192677
0.418275
0.101720
-0.100490
-0.095695
0.000627
0.302021
0.107600
-0.019786
-0.394922
0.299997
0.100000
0.199980
-0.301080
-0.396919
-0.199932
0.103867
0.099734
0.500036
-0.199472
-0.005241
0.399999
0.299864
0.498703
-0.395077
0.116670
-0.399991
0.404205
-0.200116
0.200090
0.498273
-0.100006
-0.300005
-0.400000
-0.100013
0.497640
-0.099352
-0.200069
0.411974
-0.100037
-0.000020
-0.106021
0.168201
0.296762
0.201761
0.301361
0.004895
-0.202949
0.107536
0.299980
-0.199858
-0.199319
-0.422258
0.200001
0.156739
-0.374482
0.482130
-0.200646
-0.299792
0.194316
0.185347
0.386913
0.386109
0.504427
-0.200014
-0.188056
-0.205667
0.418645
0.499589
0.502731
0.093606
0.400113
0.199833
-0.299989
-0.100000
-0.000398
0.098838
-0.103474
-0.081462
0.399990
0.396432
0.102764
-0.082030
0.521559
0.207840
-0.002510
0.168473
-0.291026
0.403984
-0.400005
-0.203137
0.197082
0.201952
-0.399868
0.014573
0.297830
0.199953
-0.000810
-0.200462
0.099862
0.099999
-0.402222
0.003729
0.197276
-0.391219
0.203092
0.351466
0.038812
0.500342
-0.244615
0.006459
0.201266
0.299976
-0.399317
-0.389082
-0.392037
0.099046
-0.401732
0.230935
0.501931
0.417831
0.099998
-0.400240
-0.002021
0.111703
0.001740
0.000037
0.199565
-0.103861
0.299412
0.099956
-0.142187
-0.165429
0.100072
0.068790
-0.402383
0.265765
0.100000
-0.393319
-0.199743
0.265605
0.218635
0.099903
0.405856
0.305648
0.099998
-0.298824
0.499998
-0.001849
0.178965
-0.401235
-0.400015
0.191865
0.001433
0.098382
-0.370811
0.200115
-0.302068
-0.000047
0.399996
0.395629
-0.274431
0.400000
0.506168
-0.399936
-0.105188
-0.300007
0.301062
-0.402094
0.100010
-0.392123
0.399673
-0.105380
0.401495
0.058804
0.091826
-0.400003
0.003683
-0.302073
0.198547
0.005491
0.110412
-0.203094
0.088063
0.000604
0.101740
-0.199954
-0.200276
0.000000
-0.398753
-0.301933
0.001250
-0.287839
0.300005
-0.301115
0.210394
0.401334
0.398621
-0.000023
-0.100004
-0.000186
0.168819
0.403190
-0.306817
0.208411
0.405064
0.510063
0.535277
0.353447
0.103623
-0.000040
0.499999
-0.100022
-0.001872
0.103073
0.195189
-0.294025
-0.301489
-0.300248
0.301232
0.168478
0.400001
0.099883
-0.430262
0.304763
-0.092326
-0.000022
-0.095508
0.496999
-0.299657
-0.412598
0.399994
0.399954
-0.400010
-0.202116
0.165248
0.508942
0.117290
0.556438
-0.012942
-0.200090
0.182084
-0.031387
-0.302926
-0.344044
0.507285
-0.386455
0.074608
-0.393826
-0.100020
0.493720
-0.398946
0.014595
0.499992
-0.198704
-0.353386
0.462331
0.216071
0.217616
-0.094082
0.185952
-0.319413
0.425420
-0.401453
-0.188012
0.098738
0.089471
0.613058
-0.200509
0.111581
-0.422518
0.400068
-0.005521
-0.300532
-0.099955
-0.013151
-0.177677
-0.258186
0.609788
0.103906
0.170453
0.496277
-0.376095
-0.251488
-0.458477
0.080041
0.452770
0.319225
0.286065
-0.200036
0.258976
0.254396
-0.002234
0.199967
-0.340401
-0.200676
-0.300022
0.299592
0.122801
0.499760
0.499999
0.087060
0.398623
0.440719
0.529589
0.558706
-0.143422
-0.204725
0.467405
-0.036404
0.015853
0.002372
-0.200112
0.401389
0.104398
0.003446
-0.434995
-0.492565
0.547761
0.124410
0.046940
-0.200026
0.491410
0.469687
0.095956
0.324143
-0.000007
0.179589
-0.311127
-0.249585
0.082069
0.400998
0.092461
0.216144
0.018608
0.399282
-0.417278
-0.099993
-0.375357
-0.200615
-0.395339
-0.261245
0.299876
0.232853
-0.295548
0.100957
-0.230216
0.300011
-0.312601
-0.118105
-0.384449
0.400041
-0.355879
0.101802
-0.397542
-0.275957
0.399014
0.161226
-0.403059
0.199931
-0.431492
-0.185936
0.099998
-0.397739
-0.424673
0.196816
-0.099785
0.074315
0.195036
-0.000008
0.529143
-0.119131
0.394237
0.194792
-0.335207
-0.407942
-0.200004
0.337882
0.395556
0.146090
0.425824
0.260171
0.453353
0.487097
-0.202455
-0.111949
-0.399812
-0.100595
0.299947
-0.362815
-0.121393
0.197114
0.303986
-0.099978
-0.199069
-0.040644
0.108502
-0.409648
-0.200065
0.099995
-0.460690
0.462662
0.478616
0.082076
-0.078587
-0.080264
0.386432
0.249927
-0.339631
0.501420
-0.102773
-0.100001
0.399996
0.189949
-0.057130
0.490227
-0.382597
-0.320333
-0.399817
-0.119761
0.452734
0.197035
-0.299681
-0.430465
-0.204236
-0.368202
-0.400087
0.305670
-0.439441
-0.072696
0.265645
-0.400006
-0.300088
0.399970
0.097911
0.470258
0.524088
-0.182611
-0.147326
-0.000897
-0.000072
0.108928
-0.350287
0.302065
0.059453
0.402309
0.410908
-0.221768
-0.094858
0.399983
-0.103733
-0.199274
-0.066264
-0.100000
-0.109507
0.138968
0.250772
0.412757
0.522684
0.209265
-0.300598
-0.082823
0.483468
0.299457
0.406249
-0.360452
0.221155
0.202173
0.499839
0.027244
-0.210640
0.110859
-0.405193
0.099373
-0.199959
-0.313846
-0.382466
-0.158001
0.160299
-0.396089
0.374210
0.393476
-0.086054
-0.054552
-0.367796
-0.015239
-0.322027
0.377771
-0.417438
0.499978
-0.320665
-0.345294
0.497552
0.500355
-0.406338
-0.393143
0.499995
0.199257
-0.007183
0.000098
0.399999
-0.012986
0.091037
0.148402
-0.264946
-0.346712
-0.170771
0.662025
0.468593
-0.146593
0.540181
-0.300947
-0.400117
0.298324
0.299289
0.224632
-0.336588
-0.209765
0.644631
0.325365
0.444239
0.199968
-0.007604
-0.124542
0.393731
0.341115
0.399875
-0.008080
0.050193
-0.046457
0.183372
0.415492
0.077309
0.014157
-0.363651
0.518106
-0.004216
-0.199993
0.518171
0.299621
0.111956
-0.055684
-0.000022
-0.060374
0.401463
0.301112
-0.328594
-0.399992
-0.109753
0.094630
0.313550
0.000171
-0.239267
-0.199153
0.099188
-0.392387
0.098794
0.253704
-0.200444
-0.300070
-0.416646
0.007953
-0.400002
0.402080
0.475274
-0.374471
0.002915
0.374767
-0.003650
0.399980
-0.069546
0.382989
0.096009
0.282138
-0.157355
-0.300738
0.100025
-0.467110
0.300732
0.350150
-0.169276
-0.236309
-0.050707
0.094070
0.394211
-0.112323
0.499926
0.399542
-0.100071
0.123266
-0.221206
-0.004001
-0.396716
-0.099983
-0.399883
-0.251162
0.194577
0.094118
0.399971
0.299997
-0.268095
0.256566
0.275436
0.087209
0.217029
0.314659
0.458517
-0.358872
0.070409
-0.398588
-0.302839
0.099998
0.400090
0.391325
-0.362716
-0.209557
0.521981
0.394019
-0.399534
-0.108869
-0.237659
-0.002371
0.296723
-0.420729
0.193561
-0.077673
0.399918
-0.394303
-0.428649
-0.170987
-0.128151
0.400004
-0.401096
-0.100030
-0.099927
0.065369
0.124171
-0.399766
0.535068
0.399114
-0.300038
-0.070820
0.301251
0.297500
0.419219
-0.193404
-0.092647
-0.101812
-0.092438
-0.400004
-0.302933
-0.000637
0.450892
-0.199995
0.210332
0.310294
-0.139187
0.211280
0.422982
-0.288191
0.000557
-0.192256
0.105650
0.000096
0.085822
0.089218
-0.272174
0.223940
0.399888
0.423563
-0.202136
0.310704
0.296498
0.499401
0.500043
0.291196
0.219568
0.242156
0.468802
-0.196070
0.276376
-0.301416
-0.397844
0.312035
-0.065073
-0.401503
0.098388
-0.332604
0.082292
0.299981
-0.340936
0.159716
0.099220
0.500396
0.082796
-0.394690
-0.099980
-0.100108
0.292656
-0.099778
0.299999
-0.211982
-0.408347
0.124920
0.131421
-0.346862
0.510781
0.337242
0.367699
0.505451
-0.260289
0.097824
-0.400058
0.137939
0.481568
-0.276341
-0.037617
-0.508450
0.275669
-0.186761
-0.176707
-0.100026
-0.302204
-0.418164
-0.116307
0.141917
-0.100101
0.000195
0.079669
-0.034336
0.083404
0.150879
0.063701
0.214207
0.339629
-0.104230
0.391491
0.300010
0.206813
0.099382
-0.388619
0.423285
-0.200017
0.339027
-0.298544
0.401156
0.171390
-0.199991
-0.103162
-0.293644
0.014955
-0.199826
0.163720
-0.199636
-0.099335
0.196797
0.299804
-0.151931
-0.107667
-0.400066
-0.116050
0.498947
-0.100002
-0.200678
0.175276
-0.073289
0.403632
0.474814
0.100168
0.099981
0.021501
-0.403232
-0.205194
0.177345
0.206699
0.504549
0.400029
0.128427
0.101489
-0.240225
-0.169558
-0.159439
0.352946
-0.101900
0.394475
0.300472
-0.000067
0.499811
-0.000062
0.423198
0.463049
-0.404211
-0.196558
0.200017
-0.299166
-0.467988
0.488704
-0.004852
-0.200009
-0.200000
0.096635
0.083168
-0.115002
0.496459
0.503479
0.210991
0.449741
0.320193
0.097876
-0.087610
-0.402727
0.399999
-0.199910
-0.007365
0.479299
0.194611
-0.186209
-0.098632
0.200444
0.488040
-0.314636
0.497630
-0.102156
0.098675
0.105582
0.406594
-0.300016
-0.401965
-0.015396
0.528472
-0.004202
-0.299993
-0.301061
-0.300000
0.299995
-0.400552
0.200003
0.200014
0.505182
0.099999
-0.100012
-0.404909
0.199666
0.092231
-0.400914
-0.398219
0.307177
-0.007307
0.201089
-0.300000
0.100574
0.500304
-0.201133
-0.099997
0.299608
0.000246
0.300347
-0.281678
-0.099704
0.099615
0.200002
-0.118013
0.397641
0.100021
0.099952
-0.300484
-0.201237
0.518399
0.399999
-0.200479
-0.404175
0.200000
-0.003618
0.400000
-0.099998
-0.100233
0.301164
-0.391702
0.002495
0.099930
-0.307406
0.099243
0.300037
-0.401101
-0.099804
-0.000561
-0.103186
0.501838
-0.097450
-0.000033
-0.000297
0.097392
-0.399612
0.099999
-0.198044
-0.304878
-0.200001
-0.003575
0.400117
0.199995
0.500000
0.299874
0.400477
-0.403301
-0.100925
0.400030
0.014509
0.007116
0.499955
0.400102
-0.400015
-0.299742
0.400003
0.500084
0.396976
-0.399621
-0.000627
0.002840
0.202215
-0.400409
-0.281440
-0.200000
-0.201550
-0.200035
-0.102002
0.301245
0.399998
0.400002
0.400568
-0.300429
0.499991
-0.000737
-0.199731
0.399723
-0.216426
-0.109401
-0.101517
-0.400000
-0.194559
0.199997
0.297744
-0.400826
-0.199739
-0.399791
-0.199786
-0.199998
0.300001
-0.300000
0.499699
-0.401783
0.499960
0.099999
0.398195
-0.299990
0.499908
-0.099927
-0.397606
0.009604
-0.300073
0.499996
-0.104883
0.295484
-0.400000
-0.004715
-0.400001
0.200281
-0.400012
0.198423
-0.101659
0.300000
0.299773
-0.200450
-0.103598
-0.299396
0.394743
-0.099257
-0.200000
-0.099989
-0.300085
-0.101247
0.495186
-0.296934
0.199875
0.493197
0.000006
0.012748
-0.100001
-0.200001
-0.200000
0.000094
0.493742
0.500001
0.403030
0.000014
0.302532
0.201752
0.406898
-0.103411
-0.100007
-0.300000
0.105385
0.108954
-0.299984
0.395353
0.398936
0.000049
0.100824
0.412594
0.198991
-0.300020
-0.000076
-0.300000
-0.000002
0.199055
0.000942
0.000287
0.294896
-0.001903
-0.200322
0.099939
-0.003495
-0.200001
0.001780
0.100530
0.400642
-0.097854
0.499991
-0.399892
0.492959
-0.099996
0.196398
0.400000
-0.200021
0.400000
-0.100007
0.295531
-0.399927
0.500002
-0.390722
0.499961
0.500000
0.182194
0.299300
-0.411259
-0.102090
0.503525
-0.296507
0.295393
-0.397697
0.100000
-0.402327
-0.100758
0.299813
-0.299991
-0.201962
-0.399940
0.099923
0.009107
0.201383
0.394253
0.000012
-0.212328
0.488703
-0.199985
0.400262
0.499760
-0.401364
0.110747
-0.200000
-0.100798
0.096341
0.299998
0.199777
0.300001
0.200002
-0.000115
-0.398155
-0.093899
-0.298261
0.399997
-0.409725
-0.396590
0.500043
0.094957
-0.098185
-0.102070
-0.302617
0.502907
-0.100035
0.399994
0.096682
-0.399856
0.006321
0.400002
-0.380314
-0.301574
0.199987
0.189894
0.211386
-0.200006
-0.300000
0.500377
-0.199618
0.185812
-0.002494
-0.399764
0.503184
-0.398796
0.096061
0.403140
-0.199385
-0.099749
0.100002
0.400763
-0.001871
0.501223
-0.099684
0.103905
0.101397
0.299290
0.305432
-0.399988
-0.000081
0.300084
-0.300718
-0.302658
-0.299954
0.399928
0.004648
0.099803
-0.000044
0.298082
-0.299754
0.500009
0.292443
-0.102714
-0.002104
0.400000
0.005892
-0.099856
0.290946
-0.406952
-0.398681
0.099975
0.100037
-0.300309
0.102708
-0.100000
0.399840
-0.400772
0.399964
-0.400001
0.099739
0.400002
0.499176
0.400108
0.002877
0.100350
0.199231
-0.300001
0.097339
-0.203762
-0.400000
0.392166
0.300000
-0.400135
0.399995
0.194700
-0.302844
-0.399851
0.299985
-0.001396
-0.101993
-0.099051
-0.207777
-0.000274
0.100000
0.200068
-0.400053
0.298766
0.100065
-0.198710
-0.400443
-0.206895
-0.399964
0.113427
-0.300000
0.499954
-0.099999
0.200506
-0.207229
-0.199993
0.404290
0.000159
-0.197658
0.007132
-0.296916
0.496723
-0.200028
-0.300003
-0.393895
0.000423
0.101021
-0.299894
-0.099955
-0.399989
-0.191913
0.301062
-0.200652
0.100938
0.299928
0.100000
0.099999
-0.302970
-0.190303
0.500159
0.199381
-0.309154
0.199471
-0.201229
0.399898
-0.400005
0.499343
0.400674
-0.192923
-0.195055
0.400005
0.499924
0.399733
-0.399953
-0.099610
0.300000
0.200000
0.100000
-0.400004
0.295578
-0.099929
0.100001
-0.090326
-0.400039
0.400000
0.082316
-0.400914
0.390344
0.098243
0.502881
-0.396659
0.195675
0.102033
-0.300000
-0.102282
0.199220
-0.400170
0.200007
-0.102070
-0.099971
0.200001
0.509034
-0.399022
-0.105635
-0.200041
-0.311991
-0.110298
0.400022
0.200250
0.299654
0.299761
-0.189302
-0.400000
0.399162
-0.003327
-0.300002
-0.000074
-0.299998
0.500002
-0.300121
-0.198165
0.406085
0.301504
-0.000002
-0.009724
0.403512
0.300078
0.094670
0.001666
0.097999
-0.401635
-0.297377
0.499964
0.499993
0.396708
-0.099956
0.006335
0.300002
0.018943
-0.101046
0.399986
-0.110127
-0.088627
-0.000001
-0.200000
-0.399683
0.300004
0.485878
0.097601
-0.299773
-0.396873
-0.198989
-0.303923
0.403116
-0.199409
-0.299866
0.200001
-0.199236
-0.201654
-0.099141
-0.199914
0.003359
-0.198686
0.099650
-0.194662
0.400012
-0.000132
0.100025
0.499401
0.297347
0.200046
0.399939
-0.095356
-0.000200
-0.200043
-0.201846
0.400009
0.400008
0.392593
-0.002404
-0.001499
-0.400000
0.305892
0.300142
-0.108973
-0.106401
0.101325
0.499967
-0.299952
0.399684
0.402689
-0.100000
-0.400070
0.099175
0.099971
-0.400001
0.299820
0.100000
-0.000779
-0.099947
0.402867
0.400372
0.099233
0.500000
0.397233
-0.203615
0.200000
0.392227
0.500000
-0.000112
0.099996
0.194594
0.397230
-0.399851
0.499985
-0.401349
-0.002068
0.300845
-0.407829
-0.400267
0.100000
-0.099938
0.099949
-0.101083
-0.099677
0.401264
0.099554
0.293784
0.500035
-0.086589
-0.300000
0.399945
0.200001
-0.099639
0.492786
-0.299994
0.004302
0.400159
0.302387
0.406879
0.002983
0.496835
-0.200026
-0.400003
0.505974
-0.200057
0.401125
-0.399962
0.300078
0.000006
0.207877
0.501023
0.299701
0.300906
0.499991
0.000000
0.099999
-0.002932
0.209667
-0.099882
0.499442
0.190842
0.299506
-0.401418
0.299901
-0.000005
-0.000653
0.400410
0.006811
0.504815
-0.099994
-0.300016
0.399816
0.200042
-0.199596
-0.200000
0.500000
-0.100000
0.099998
-0.204562
-0.299997
0.400000
0.107895
0.200000
0.100000
-0.312474
0.199092
0.191207
0.499277
0.002847
-0.396903
0.095677
-0.000829
0.100000
-0.402421
0.500205
-0.200163
0.300000
-0.403232
0.399989
0.300003
-0.300826
-0.202216
0.497579
-0.000045
-0.311802
0.390837
0.000011
0.500207
0.299657
0.299783
-0.399787
0.500000
0.099260
-0.203267
0.300000
-0.200073
0.399999
-0.199998
0.499904
-0.298175
0.006127
0.499919
-0.400003
0.493340
-0.096438
0.000082
0.394207
0.101622
-0.301992
-0.200286
0.000685
-0.200035
-0.100006
-0.401435
0.000066
-0.094801
0.000000
0.416696
0.099048
0.099989
-0.110005
0.410255
0.400000
0.000000
0.500313
0.100004
-0.314115
0.499433
0.200117
-0.397224
-0.400191
0.296028
0.501018
-0.401599
0.300124
-0.300000
0.200152
0.299023
-0.299978
0.300074
-0.096674
0.401659
-0.300346
0.505012
-0.399999
-0.200095
0.100025
-0.300565
-0.002629
-0.099998
0.200012
0.400041
-0.200184
-0.400032
-0.000460
0.400009
0.500004
0.292552
-0.300684
0.298636
0.400000
-0.194084
0.100142
-0.308124
-0.405482
-0.099066
0.499906
0.099912
0.500014
-0.300028
0.100000
-0.200051
0.499176
-0.300032
-0.200001
0.299859
-0.200000
-0.200678
0.000053
0.102878
0.000209
0.499373
-0.300000
0.497271
-0.402809
-0.200000
0.392278
0.400000
0.200084
-0.200003
0.294688
0.497237
0.500000
-0.000010
0.198664
0.098173
0.400629
-0.207690
0.199953
-0.100000
0.100039
0.400000
-0.401236
0.300503
0.401642
-0.400320
-0.205753
0.300002
0.313002
-0.200000
-0.200015
-0.200000
0.499909
-0.407083
0.000000
-0.295331
-0.399963
-0.097230
0.306862
-0.397121
-0.299927
0.399996
-0.100002
-0.295396
0.499970
-0.399733
-0.399958
0.400029
0.100003
0.107878
-0.198578
-0.000012
-0.201448
0.499993
0.000000
0.300000
-0.102117
0.204092
0.000111
-0.200434
-0.006774
-0.400267
0.298929
0.299892
-0.000005
-0.199934
0.499908
-0.094121
0.503829
-0.299993
-0.000470
0.499838
-0.200002
-0.299595
0.400000
0.400000
-0.200000
-0.200000
-0.302765
0.303486
0.499918
-0.200213
-0.101075
0.299991
0.098966
-0.172878
0.391907
0.400009
0.198496
0.005429
0.498751
0.100756
-0.200002
-0.000016
-0.300005
-0.302505
-0.099991
0.328183
-0.398682
-0.203320
0.497078
-0.288770
-0.300079
-0.096787
0.098625
-0.102150
-0.400023
0.199972
0.297271
0.403036
0.315382
-0.300031
0.098664
0.198494
0.199874
-0.100972
0.499804
0.200000
0.199988
-0.299674
-0.006223
0.027907
-0.200000
-0.309873
-0.000024
0.201784
-0.298796
-0.295277
-0.001556
-0.006195
0.543921
0.300042
-0.199996
0.278841
-0.200026
0.500038
-0.299999
0.100067
0.098843
-0.200006
0.499968
-0.400001
0.299996
0.399998
0.200034
0.399882
0.000004
0.304550
0.199992
0.102747
-0.286920
-0.000068
0.000798
0.099985
0.199986
0.100003
0.200055
0.003385
0.300003
-0.399874
-0.397023
-0.095759
0.200062
-0.379790
0.500000
-0.302629
-0.200006
-0.399524
0.499948
0.499998
0.097369
-0.195758
-0.300791
-0.400003
0.477531
0.125374
-0.300378
-0.020846
-0.103766
-0.400493
-0.200000
0.000002
-0.100003
0.199743
0.399935
-0.099375
-0.087728
-0.388836
0.000025
0.299997
0.300000
0.500567
0.399227
0.100429
0.199996
-0.201796
-0.300152
-0.100002
0.300178
0.099997
0.100986
-0.200042
0.500000
0.300599
0.509295
0.500000
-0.000039
0.300001
0.191696
-0.099995
0.100008
0.299987
-0.399999
0.100814
0.399941
0.299573
0.399900
0.506788
-0.108063
0.300000
0.203476
0.298638
-0.203170
-0.300003
0.404311
0.500218
0.384008
-0.202106
-0.295643
0.300000
0.299979
-0.100000
-0.198203
0.499837
0.401473
0.198430
-0.100000
0.498958
0.299984
-0.099236
0.400509
0.499999
0.200000
-0.300113
0.114903
0.300172
0.099029
-0.198529
0.296810
-0.099112
0.408295
-0.416932
0.308410
-0.100040
0.299986
0.200000
0.092009
0.300010
0.297824
0.494252
0.199932
0.099993
0.299900
0.391573
-0.300084
-0.399736
-0.010110
-0.199993
-0.099269
-0.300003
0.500054
-0.200125
0.300000
0.198079
-0.200001
-0.100002
0.200000
0.200000
0.397201
-0.396514
-0.000082
0.199383
-0.301075
-0.200009
0.298979
-0.172647
-0.207940
-0.299974
0.198489
0.305374
-0.101247
-0.199257
-0.000002
0.300000
-0.099999
0.097502
-0.199991
0.128257
0.301312
-0.003320
0.496792
0.211322
-0.000080
-0.396787
-0.401222
0.198062
-0.200034
-0.100029
0.497325
-0.096897
0.315357
0.399969
-0.001302
-0.001494
-0.200126
0.399032
0.199804
0.200000
-0.300001
-0.299666
0.093738
-0.072085
0.200000
0.390423
-0.300007
0.001783
0.001340
0.104745
0.398445
0.393835
-0.056071
0.200042
0.100004
0.178889
0.099977
-0.199986
0.000001
0.500005
-0.101160
0.199996
0.399978
0.400007
-0.100004
0.499998
-0.199963
0.199881
-0.300000
-0.095545
0.300004
0.302820
0.213107
-0.300062
0.300831
-0.100000
0.099981
-0.199998
0.199995
0.003374
-0.400000
0.100142
-0.397019
0.504238
-0.299978
-0.279767
0.500000
-0.102629
-0.100006
0.400497
-0.300053
0.300000
0.097367
0.304241
-0.300787
-0.000004
0.177597
0.325374
-0.200377
0.379178
-0.203714
-0.000473
0.200000
0.000002
0.500000
0.399738
0.500006
0.200608
0.112272
-0.088869
0.400029
0.000015
-0.100000
-0.299432
-0.200736
0.300429
0.299996
-0.001796
0.099848
-0.400000
0.400178
-0.300002
0.000986
-0.100040
-0.000000
0.300602
-0.190671
0.300000
0.399958
-0.299999
0.391687
0.500005
0.300000
-0.400005
-0.399999
0.000814
0.499928
-0.100450
0.499900
0.506791
-0.308054
-0.100000
0.503475
0.098638
-0.003168
0.300003
0.104317
-0.199776
-0.315935
-0.202111
0.104318
0.300000
-0.000012
-0.100000
0.101804
0.299834
0.501473
-0.101619
-0.100000
-0.101042
0.199971
0.500783
0.100747
0.099999
-0.100000
0.399878
0.214964
-0.099942
0.099029
-0.298537
-0.203192
0.400885
0.108261
0.483036
-0.191544
0.199960
-0.300014
0.100000
0.392045
0.300003
-0.402186
0.394250
-0.000006
0.500000
-0.400000
-0.308427
-0.300083
-0.199738
-0.210128
0.000004
0.000726
-0.400003
-0.000034
0.199871
0.400000
-0.101922
0.299999
0.199998
-0.400000
-0.400000
0.300000
-0.200000
-0.200000
0.000000
0.100000
0.100000
-0.200000
0.200000
-0.200000
-0.100000
0.500000
0.200000
0.500000
-0.100000
-0.300000
0.200000
-0.400000
0.200000
0.100000
0.500000
0.300000
0.300000
0.500000
-0.400000
0.500000
-0.200000
0.100000
-0.100000
0.400000
0.300000
-0.100000
-0.300000
0.100000
-0.300000
0.400000
-0.300000
-0.100000
-0.100000
-0.300000
0.300000
-0.200000
-0.400000
0.400000
0.000000
0.000000
-0.200000
0.100000
0.500000
-0.400000
0.400000
0.100000
-0.400000
0.100000
0.200000
0.000000
-0.200000
0.500000
-0.200000
-0.100000
-0.300000
-0.200000
-0.200000
-0.200000
0.000000
-0.300000
0.100000
0.300000
0.500000
-0.100000
0.000000
0.000000
0.000000
0.200000
0.000000
0.400000
-0.100000
-0.100000
0.200000
-0.200000
0.200000
-0.100000
-0.200000
0.200000
0.300000
0.000000
0.400000
0.500000
-0.100000
0.200000
-0.300000
0.300000
0.300000
-0.100000
-0.200000
0.000000
-0.100000
0.000000
0.500000
0.100000
0.200000
0.400000
-0.100000
0.400000
0.400000
-0.200000
-0.200000
0.000000
0.400000
-0.400000
0.400000
-0.400000
-0.100000
0.400000
-0.400000
0.500000
0.100000
0.500000
0.300000
-0.200000
0.100000
0.100000
-0.100000
0.300000
0.500000
0.000000
-0.400000
0.100000
-0.200000
0.100000
0.000000
-0.100000
-0.300000
-0.300000
0.400000
0.300000
-0.100000
-0.400000
-0.200000
-0.100000
-0.100000
0.500000
-0.200000
-0.200000
0.200000
0.000000
0.300000
-0.400000
-0.100000
0.200000
0.300000
-0.100000
-0.300000
0.200000
-0.100000
-0.200000
-0.200000
0.300000
-0.300000
0.500000
0.100000
-0.400000
0.500000
-0.400000
0.400000
0.300000
-0.400000
0.500000
-0.200000
0.200000
-0.400000
0.100000
-0.300000
-0.200000
0.300000
0.500000
0.500000
-0.300000
-0.100000
-0.200000
0.100000
0.500000
-0.300000
0.300000
-0.300000
0.200000
0.100000
0.300000
0.500000
0.200000
-0.400000
0.500000
-0.400000
-0.300000
0.300000
-0.400000
0.000000
0.100000
0.500000
0.500000
0.500000
-0.400000
-0.400000
-0.300000
-0.400000
0.300000
-0.200000
-0.200000
-0.100000
0.500000
-0.300000
-0.400000
0.000000
0.100000
-0.200000
0.500000
0.100000
