0.400000
-0.200000
0.100000
0.500000
-0.400000
0.100000
-0.300000
-0.300000
0.300000
0.100000
0.000000
0.000000
0.400000
-0.200000
0.400000
0.400000
0.000000
0.300000
-0.200000
-0.100000
0.400000
0.100000
0.300000
0.200000
0.300000
0.300000
0.400000
-0.100000
-0.300000
0.000000
-0.200000
-0.100000
0.400000
-0.300000
-0.400000
0.300000
-0.200000
-0.400000
0.000000
0.100000
0.200000
0.400000
0.300000
0.200000
0.200000
0.100000
0.400000
0.400000
0.200000
-0.300000
-0.200000
0.100000
0.300000
-0.200000
-0.200000
-0.400000
0.200000
0.400000
-0.400000
-0.300000
-0.100000
0.000000
0.500000
0.300000
-0.300000
-0.100000
0.500000
0.300000
0.100000
-0.300000
-0.100000
0.000000
0.500000
-0.400000
0.500000
0.500000
-0.100000
0.400000
0.200000
-0.300000
-0.400000
0.200000
0.100000
0.100000
-0.100000
0.500000
-0.100000
-0.100000
0.400000
-0.300000
0.100000
-0.400000
-0.100000
0.200000
-0.200000
-0.300000
-0.300000
0.300000
-0.400000
0.400000
0.200000
0.000000
-0.400000
-0.300000
0.100000
0.500000
-0.200000
-0.100000
0.200000
-0.100000
0.400000
0.000000
0.100000
0.300000
0.500000
-0.400000
-0.200000
0.200000
-0.200000
0.300000
-0.100000
0.500000
0.400000
-0.100000
0.000000
-0.200000
0.000000
0.100000
0.400000
0.300000
0.500000
0.500000
0.400000
0.100000
-0.100000
0.500000
-0.200000
0.400000
-0.200000
-0.200000
-0.200000
-0.200000
0.200000
0.200000
0.000000
-0.400000
-0.400000
-0.300000
0.400000
-0.300000
0.300000
-0.100000
-0.100000
0.500000
0.200000
-0.300000
0.500000
0.400000
0.300000
0.000000
0.500000
-0.400000
0.100000
-0.200000
-0.300000
0.200000
0.000000
0.400000
0.300000
0.500000
0.400000
-0.100000
0.100000
0.500000
-0.100000
0.400000
-0.300000
-0.400000
-0.300000
0.100000
0.400000
0.100000
0.200000
-0.400000
-0.300000
-0.300000
0.500000
-0.300000
-0.200000
-0.200000
-0.300000
0.200000
-0.300000
0.200000
-0.200000
0.400000
0.500000
-0.200000
0.200000
0.100000
-0.400000
-0.100000
0.000000
0.400000
0.500000
-0.400000
-0.400000
-0.100000
-0.300000
0.200000
0.100000
-0.300000
0.100000
-0.400000
-0.400000
0.300000
0.000000
0.000000
0.200000
0.200000
0.200000
-0.200000
0.100000
0.200000
-0.300000
0.500000
-0.300000
-0.300000
0.500000
-0.100000
-0.300000
0.400000
-0.400000
-0.300000
-0.400000
-0.200000
0.300000
0.300000
-0.300000
0.300000
-0.300000
-0.400000
0.500000
-0.200000
-0.300000
0.400000
0.000000
-0.300000
-0.100000
0.400000
0.300000
0.100000
0.300000
0.000000
-0.300000
-0.100000
0.300000
-0.100000
0.000000
0.200000
-0.400000
0.300000
0.100000
-0.100000
0.400000
-0.300000
0.300000
0.400000
0.400000
-0.400000
-0.200000
-0.100000
0.300000
-0.400000
0.000000
0.300000
0.500000
0.500000
0.200000
-0.400000
0.400000
-0.300000
0.400000
-0.400000
0.000000
0.200000
0.300000
0.000000
0.300000
0.000000
-0.300000
-0.100000
-0.200000
-0.200000
0.300000
0.300000
-0.400000
0.100000
0.400000
-0.400000
-0.100000
-0.400000
-0.300000
0.300000
0.000000
0.000000
0.100000
-0.400000
0.400000
0.300000
0.000000
0.500000
-0.300000
0.200000
-0.400000
0.200000
-0.400000
-0.100000
-0.200000
-0.400000
-0.400000
-0.200000
-0.100000
-0.400000
0.200000
0.000000
-0.200000
-0.100000
-0.100000
0.000000
-0.300000
0.300000
0.000000
0.100000
0.100000
0.400000
-0.100000
0.400000
-0.100000
0.200000
0.200000
0.000000
0.000000
0.200000
0.300000
-0.300000
0.300000
0.000000
0.200000
-0.100000
0.400000
-0.300000
-0.100000
0.300000
0.400000
0.100000
-0.100000
0.300000
-0.400000
0.400000
0.000000
0.500000
0.200000
-0.100000
0.100000
-0.400000
0.300000
-0.400000
0.200000
0.100000
0.100000
0.500000
0.000000
-0.400000
-0.100000
0.200000
0.100000
0.300000
-0.300000
-0.300000
-0.200000
0.000000
-0.300000
0.400000
0.300000
0.000000
-0.200000
0.100000
0.100000
0.100000
0.100000
0.100000
0.300000
-0.400000
0.200000
0.500000
-0.200000
-0.200000
-0.300000
-0.200000
0.200000
0.500000
0.200000
-0.300000
0.300000
0.000000
0.300000
0.500000
0.200000
-0.200000
0.300000
-0.400000
-0.200000
0.000000
0.200000
0.100000
0.200000
0.300000
0.400000
0.400000
0.200000
0.300000
0.000000
0.200000
0.000000
0.400000
0.300000
0.300000
0.300000
-0.100000
0.100000
0.500000
-0.200000
0.500000
0.200000
0.100000
0.500000
0.500000
0.000000
0.200000
0.400000
0.500000
-0.100000
-0.200000
0.000000
0.500000
0.500000
0.100000
0.000000
0.100000
-0.400000
0.000000
-0.100000
0.100000
-0.300000
0.300000
0.400000
-0.100000
-0.300000
0.200000
0.400000
0.100000
-0.300000
0.100000
-0.400000
0.300000
0.500000
-0.200000
0.500000
-0.100000
0.500000
-0.200000
0.500000
0.000000
-0.100000
-0.200000
0.200000
-0.300000
0.100000
-0.400000
0.300000
-0.100000
0.000000
-0.200000
-0.200000
0.100000
0.000000
-0.200000
-0.400000
-0.300000
0.200000
0.500000
0.300000
0.300000
0.200000
-0.100000
-0.200000
0.400000
0.000000
0.000000
0.100000
0.500000
0.300000
-0.100000
0.500000
-0.100000
0.400000
0.400000
0.400000
-0.200000
0.200000
0.500000
0.500000
0.100000
-0.300000
0.200000
0.500000
0.400000
0.300000
-0.400000
0.500000
0.200000
-0.300000
-0.300000
0.000000
-0.200000
-0.200000
0.500000
-0.300000
-0.400000
0.200000
0.500000
-0.200000
0.100000
-0.200000
-0.300000
0.200000
-0.200000
0.400000
0.500000
0.500000
-0.300000
0.200000
0.100000
0.000000
0.500000
0.400000
0.100000
0.000000
-0.100000
0.300000
0.500000
0.200000
0.000000
-0.100000
-0.100000
-0.100000
-0.200000
-0.100000
-0.200000
-0.200000
0.400000
-0.400000
0.400000
-0.100000
0.300000
-0.200000
0.300000
-0.200000
-0.100000
0.000000
0.400000
0.200000
-0.400000
-0.400000
0.000000
-0.400000
0.300000
-0.100000
0.000000
0.200000
0.300000
0.100000
0.100000
0.100000
0.300000
-0.200000
-0.400000
0.300000
0.200000
-0.200000
0.200000
0.400000
0.000000
-0.200000
-0.300000
0.000000
-0.300000
0.200000
0.300000
0.100000
0.400000
0.400000
0.000000
-0.400000
0.000000
0.400000
0.500000
-0.100000
0.100000
0.000000
0.200000
0.500000
-0.300000
-0.400000
0.400000
0.200000
0.100000
-0.200000
0.100000
-0.100000
0.200000
-0.100000
0.000000
0.300000
-0.300000
0.400000
0.500000
0.200000
0.400000
0.000000
0.000000
0.300000
0.300000
0.400000
-0.200000
0.100000
-0.300000
0.300000
0.200000
-0.100000
0.200000
0.500000
0.200000
0.000000
0.300000
-0.300000
0.500000
-0.200000
0.300000
0.300000
0.000000
-0.400000
0.400000
0.500000
-0.300000
0.000000
0.500000
-0.200000
-0.400000
0.500000
0.000000
0.200000
0.100000
0.400000
0.500000
0.100000
-0.300000
0.000000
-0.400000
0.300000
0.000000
0.100000
0.400000
0.200000
-0.400000
0.000000
-0.300000
0.300000
-0.200000
-0.400000
-0.100000
0.400000
-0.200000
-0.200000
0.400000
-0.400000
0.500000
0.200000
0.100000
0.400000
-0.200000
0.000000
0.200000
0.200000
0.300000
0.100000
0.400000
0.300000
-0.400000
0.500000
-0.300000
-0.200000
0.100000
0.000000
-0.100000
-0.300000
0.500000
-0.200000
-0.200000
0.100000
0.200000
0.400000
0.200000
-0.100000
0.200000
0.500000
0.400000
-0.400000
0.500000
0.100000
0.300000
-0.400000
0.200000
0.400000
0.100000
-0.300000
0.300000
0.500000
0.000000
0.000000
-0.400000
0.200000
0.300000
-0.300000
-0.200000
0.100000
-0.300000
0.400000
0.100000
0.200000
0.000000
0.000000
0.300000
-0.100000
-0.300000
-0.400000
0.300000
-0.400000
0.000000
-0.400000
0.100000
0.000000
0.500000
0.000000
-0.300000
-0.300000
0.500000
0.400000
0.200000
0.300000
0.300000
0.300000
-0.200000
0.500000
0.200000
0.400000
0.200000
0.200000
-0.200000
0.500000
-0.400000
0.000000
0.000000
-0.300000
0.200000
-0.200000
-0.300000
0.200000
-0.200000
-0.400000
0.200000
-0.400000
0.400000
-0.300000
0.300000
-0.300000
0.500000
0.400000
-0.300000
0.100000
-0.300000
-0.100000
0.500000
-0.400000
0.200000
0.500000
0.500000
-0.300000
-0.200000
-0.100000
0.200000
0.000000
-0.100000
0.000000
-0.300000
0.200000
-0.400000
0.100000
-0.300000
0.200000
-0.400000
-0.200000
-0.100000
0.100000
0.000000
-0.300000
-0.100000
0.400000
0.000000
0.000000
0.400000
-0.400000
-0.100000
0.100000
0.000000
0.100000
0.300000
0.000000
0.200000
0.300000
-0.100000
-0.300000
0.300000
-0.100000
-0.100000
0.200000
-0.400000
0.100000
0.000000
-0.100000
0.300000
0.000000
0.200000
0.000000
-0.100000
-0.100000
0.400000
0.100000
0.100000
-0.100000
0.300000
-0.100000
-0.300000
0.300000
0.000000
0.000000
0.400000
0.500000
0.400000
0.000000
0.400000
-0.200000
-0.100000
0.500000
0.500000
0.300000
0.100000
0.200000
0.200000
-0.100000
0.300000
-0.300000
0.300000
0.200000
0.100000
0.200000
0.100000
0.200000
-0.100000
-0.300000
0.100000
-0.200000
0.200000
-0.400000
-0.300000
0.500000
0.500000
-0.300000
-0.300000
0.500000
0.000000
0.400000
0.100000
0.200000
-0.100000
0.200000
-0.400000
0.300000
0.400000
-0.400000
-0.300000
0.300000
0.200000
0.100000
0.500000
0.300000
0.200000
0.400000
-0.400000
-0.300000
-0.400000
-0.300000
-0.400000
0.400000
0.200000
0.000000
0.400000
0.100000
0.300000
0.000000
0.200000
-0.300000
-0.400000
0.300000
-0.300000
-0.200000
0.500000
0.400000
0.100000
-0.300000
0.400000
-0.400000
0.200000
0.000000
-0.400000
-0.200000
-0.400000
-0.300000
0.500000
0.400000
0.100000
-0.200000
0.000000
0.000000
0.000000
0.500000
-0.400000
0.300000
-0.300000
0.300000
0.100000
0.000000
0.500000
0.100000
0.100000
0.500000
0.000000
0.400000
0.400000
0.000000
-0.400000
0.500000
-0.300000
0.200000
-0.300000
-0.200000
0.300000
-0.100000
-0.400000
0.200000
-0.300000
0.400000
0.500000
0.200000
0.200000
-0.300000
0.100000
-0.300000
0.500000
0.400000
0.000000
0.100000
0.400000
0.200000
-0.200000
0.200000
0.000000
-0.300000
0.000000
-0.100000
-0.400000
0.500000
-0.300000
-0.400000
0.200000
-0.100000
0.500000
-0.100000
-0.400000
-0.200000
-0.300000
-0.400000
0.100000
0.400000
0.000000
-0.100000
-0.100000
-0.100000
-0.100000
-0.100000
-0.200000
0.400000
0.100000
0.500000
-0.100000
0.400000
0.300000
0.400000
0.100000
-0.400000
0.000000
0.300000
0.200000
0.100000
0.400000
0.000000
0.300000
0.200000
0.400000
-0.100000
-0.300000
-0.300000
0.300000
-0.200000
-0.200000
0.400000
0.300000
-0.100000
0.500000
0.100000
-0.400000
0.100000
-0.100000
0.500000
0.200000
-0.100000
0.300000
0.100000
0.000000
-0.300000
-0.300000
0.400000
0.300000
0.400000
0.100000
-0.400000
-0.300000
0.300000
0.100000
0.000000
0.300000
-0.400000
-0.400000
-0.300000
0.200000
-0.300000
-0.100000
-0.400000
-0.300000
-0.100000
-0.100000
0.300000
0.200000
-0.300000
0.300000
-0.100000
0.300000
-0.200000
0.000000
-0.200000
-0.300000
0.300000
-0.200000
-0.300000
0.500000
0.300000
0.500000
-0.300000
-0.400000
0.300000
-0.300000
0.300000
0.500000
0.000000
0.000000
0.300000
-0.200000
-0.100000
-0.200000
-0.300000
-0.200000
-0.300000
0.400000
-0.100000
0.500000
-0.400000
0.000000
-0.300000
-0.400000
0.500000
0.500000
0.500000
-0.200000
0.300000
0.000000
0.000000
0.300000
0.400000
0.100000
-0.300000
-0.100000
0.100000
-0.100000
-0.300000
-0.400000
-0.300000
0.200000
0.000000
0.000000
0.400000
0.000000
0.000000
-0.300000
0.100000
0.500000
0.000000
0.100000
-0.200000
0.300000
0.400000
0.100000
-0.400000
-0.400000
0.500000
0.200000
0.500000
0.200000
0.000000
0.500000
-0.200000
-0.100000
-0.200000
-0.300000
0.200000
-0.100000
0.100000
0.100000
0.400000
-0.400000
0.000000
0.000000
-0.200000
0.100000
-0.200000
0.200000
0.100000
0.500000
-0.300000
-0.300000
0.400000
0.000000
0.300000
0.200000
0.300000
0.100000
-0.100000
-0.100000
-0.100000
0.300000
-0.400000
0.500000
0.100000
-0.400000
0.200000
0.400000
0.400000
-0.400000
-0.400000
0.000000
0.000000
0.000000
-0.100000
0.500000
0.000000
-0.400000
0.100000
-0.100000
0.200000
0.100000
-0.400000
0.500000
0.000000
0.200000
-0.400000
0.400000
0.300000
-0.300000
-0.300000
0.400000
-0.300000
-0.100000
0.500000
0.300000
0.100000
-0.400000
0.500000
0.300000
0.300000
0.400000
0.000000
0.100000
0.100000
0.100000
0.300000
0.000000
0.500000
0.100000
0.300000
0.400000
0.300000
-0.200000
-0.200000
-0.400000
0.000000
0.000000
0.100000
0.500000
0.200000
0.100000
0.400000
0.300000
0.300000
-0.400000
-0.300000
0.300000
0.300000
-0.200000
-0.300000
0.000000
-0.300000
0.200000
-0.400000
0.100000
0.100000
-0.100000
-0.400000
-0.300000
0.000000
-0.100000
-0.100000
0.500000
-0.200000
0.300000
-0.200000
0.300000
-0.100000
0.100000
-0.200000
0.400000
0.200000
0.300000
0.400000
-0.100000
0.200000
-0.300000
0.200000
0.300000
-0.300000
-0.100000
0.500000
0.400000
0.300000
-0.100000
0.500000
0.000000
0.100000
-0.100000
-0.200000
-0.400000
0.200000
0.100000
-0.200000
-0.300000
-0.300000
0.400000
-0.100000
0.200000
-0.300000
-0.200000
-0.100000
0.400000
-0.200000
0.300000
0.200000
-0.200000
-0.300000
0.000000
-0.300000
0.000000
-0.300000
-0.200000
0.200000
0.200000
0.400000
0.500000
-0.300000
0.400000
0.500000
-0.400000
0.300000
0.100000
-0.400000
0.400000
0.000000
-0.200000
0.200000
0.200000
0.100000
0.300000
0.300000
0.500000
0.400000
0.300000
-0.200000
-0.200000
0.500000
0.300000
0.100000
0.400000
0.500000
0.200000
-0.200000
0.200000
-0.400000
0.000000
-0.400000
-0.200000
0.300000
0.500000
0.300000
-0.300000
-0.100000
-0.200000
0.500000
-0.300000
0.400000
-0.300000
0.200000
0.500000
0.200000
-0.100000
0.300000
0.500000
0.300000
-0.300000
0.100000
0.400000
-0.300000
0.200000
-0.200000
0.000000
-0.300000
0.400000
-0.200000
0.500000
0.100000
-0.300000
-0.300000
0.400000
0.200000
-0.100000
-0.200000
-0.300000
-0.400000
0.000000
0.000000
0.000000
-0.100000
-0.100000
0.200000
0.500000
0.500000
-0.300000
-0.300000
0.300000
0.200000
0.500000
-0.100000
0.000000
0.500000
-0.400000
-0.200000
0.300000
0.300000
-0.300000
0.300000
-0.400000
0.100000
0.100000
-0.300000
0.300000
-0.200000
0.300000
0.000000
-0.300000
0.100000
-0.200000
0.200000
-0.400000
0.000000
0.400000
-0.400000
0.500000
0.300000
-0.300000
0.200000
0.400000
0.100000
0.200000
0.400000
0.500000
0.100000
0.500000
-0.200000
-0.400000
0.500000
-0.300000
0.400000
0.100000
0.500000
-0.200000
-0.400000
0.000000
0.200000
-0.300000
0.300000
0.200000
0.300000
0.400000
0.500000
0.100000
0.500000
-0.200000
0.000000
-0.400000
0.500000
0.000000
0.400000
0.300000
0.500000
-0.400000
-0.300000
-0.400000
0.400000
-0.200000
0.200000
0.200000
0.500000
-0.200000
-0.100000
-0.100000
0.500000
0.300000
-0.300000
-0.400000
-0.300000
-0.400000
-0.400000
-0.400000
0.100000
0.300000
0.500000
-0.300000
-0.200000
-0.300000
-0.200000
0.200000
0.500000
-0.200000
-0.100000
0.100000
0.300000
0.400000
-0.400000
0.400000
-0.100000
0.500000
0.200000
0.200000
-0.100000
0.300000
0.300000
0.400000
0.100000
0.200000
0.300000
-0.100000
0.500000
0.000000
0.100000
-0.400000
-0.100000
0.500000
-0.300000
0.300000
-0.200000
0.100000
0.500000
-0.200000
-0.100000
0.500000
0.400000
0.300000
-0.400000
0.200000
-0.300000
0.000000
0.400000
0.000000
-0.100000
-0.100000
-0.300000
-0.300000
-0.400000
-0.300000
-0.200000
0.500000
-0.200000
-0.400000
0.400000
0.000000
-0.300000
-0.100000
0.200000
-0.400000
0.100000
0.000000
0.200000
-0.300000
0.300000
0.200000
-0.400000
0.100000
-0.300000
0.000000
0.400000
0.200000
0.300000
-0.300000
0.400000
-0.100000
0.100000
-0.100000
-0.200000
-0.200000
-0.400000
-0.100000
0.100000
0.400000
-0.400000
0.300000
-0.100000
0.200000
0.400000
0.000000
-0.400000
-0.200000
0.500000
0.300000
-0.100000
0.400000
-0.200000
-0.100000
0.300000
0.000000
0.200000
0.100000
0.500000
-0.200000
0.000000
0.000000
0.200000
0.400000
-0.300000
-0.300000
-0.300000
0.500000
0.400000
-0.200000
0.000000
0.500000
0.000000
-0.400000
0.500000
-0.400000
0.200000
0.000000
0.100000
0.300000
-0.200000
0.300000
-0.100000
-0.200000
0.300000
0.300000
0.500000
0.400000
0.400000
-0.200000
0.000000
-0.400000
0.400000
-0.300000
0.400000
-0.200000
-0.300000
-0.100000
-0.100000
-0.400000
-0.400000
0.300000
-0.100000
-0.100000
0.000000
-0.300000
0.100000
0.500000
0.200000
-0.200000
-0.300000
0.200000
0.400000
0.400000
0.300000
0.000000
-0.200000
-0.100000
0.300000
0.400000
-0.100000
0.400000
0.400000
0.000000
-0.200000
0.100000
-0.300000
0.000000
-0.100000
0.100000
-0.400000
-0.300000
0.100000
0.200000
0.300000
0.000000
0.200000
-0.300000
0.200000
0.300000
-0.200000
0.500000
-0.100000
-0.300000
0.500000
0.400000
0.400000
-0.400000
0.000000
0.200000
-0.100000
0.200000
0.400000
0.000000
0.200000
0.100000
0.500000
0.200000
0.400000
-0.200000
-0.400000
0.500000
0.200000
0.000000
0.300000
-0.400000
0.400000
0.300000
-0.100000
0.400000
-0.200000
0.500000
0.400000
0.000000
0.300000
0.300000
-0.400000
0.500000
0.000000
0.400000
-0.300000
0.200000
-0.100000
-0.300000
-0.300000
-0.100000
0.400000
-0.100000
-0.100000
-0.200000
0.500000
0.100000
-0.400000
-0.300000
-0.400000
0.100000
-0.400000
-0.300000
-0.200000
0.000000
-0.100000
0.100000
-0.300000
-0.100000
-0.300000
-0.200000
-0.300000
0.500000
-0.400000
0.000000
-0.100000
-0.400000
0.500000
0.500000
0.400000
0.200000
0.000000
0.000000
-0.300000
0.500000
0.400000
-0.200000
-0.200000
0.100000
-0.100000
-0.200000
0.500000
-0.200000
0.100000
0.400000
0.300000
0.400000
-0.300000
0.200000
0.000000
-0.200000
0.400000
0.100000
-0.200000
-0.100000
-0.300000
0.300000
0.200000
0.500000
0.300000
-0.200000
-0.300000
-0.300000
0.000000
-0.400000
-0.200000
0.400000
0.200000
0.100000
-0.200000
0.400000
0.200000
-0.200000
0.400000
0.300000
-0.200000
0.000000
0.200000
0.100000
0.100000
0.000000
0.000000
0.400000
0.100000
0.400000
0.300000
-0.100000
-0.100000
0.200000
0.200000
0.500000
0.500000
-0.300000
0.400000
0.200000
-0.300000
0.400000
-0.100000
-0.400000
-0.300000
0.500000
0.400000
0.200000
-0.400000
0.200000
-0.400000
0.200000
-0.100000
0.000000
0.000000
0.100000
0.500000
0.000000
0.500000
-0.100000
0.000000
0.000000
0.400000
-0.300000
-0.400000
-0.100000
0.300000
0.300000
0.000000
0.500000
0.000000
0.300000
0.000000
0.300000
0.500000
-0.100000
-0.200000
0.300000
-0.300000
0.500000
0.500000
-0.100000
-0.300000
0.200000
0.500000
-0.100000
0.100000
0.200000
-0.200000
0.500000
0.000000
0.300000
0.500000
-0.200000
0.000000
-0.100000
0.400000
-0.300000
0.400000
-0.300000
0.000000
-0.100000
0.000000
-0.400000
0.300000
-0.100000
0.000000
0.300000
0.200000
0.300000
0.400000
0.300000
0.300000
-0.300000
-0.300000
-0.300000
-0.200000
0.100000
0.500000
0.500000
0.000000
-0.400000
-0.400000
0.000000
0.200000
0.500000
-0.400000
-0.400000
0.000000
0.400000
0.400000
0.400000
0.300000
0.200000
0.200000
-0.400000
-0.200000
0.300000
0.200000
0.200000
0.500000
0.100000
-0.300000
0.100000
0.200000
-0.400000
0.300000
0.100000
-0.400000
0.500000
0.000000
-0.200000
0.100000
-0.200000
-0.100000
-0.100000
0.200000
0.500000
-0.400000
0.500000
-0.300000
0.500000
0.400000
0.000000
0.400000
0.500000
0.200000
-0.400000
0.000000
-0.300000
-0.400000
-0.100000
0.300000
0.000000
-0.200000
-0.100000
0.200000
-0.300000
0.000000
-0.400000
0.200000
0.500000
0.300000
0.000000
0.400000
0.000000
-0.200000
-0.200000
-0.400000
0.100000
0.400000
-0.200000
-0.300000
0.000000
-0.200000
-0.300000
-0.300000
0.100000
0.300000
0.200000
-0.300000
0.100000
0.400000
0.200000
0.500000
0.100000
0.400000
-0.200000
-0.200000
0.300000
0.400000
0.200000
0.400000
0.200000
0.400000
0.000000
0.400000
0.000000
0.500000
0.000000
0.400000
0.300000
0.300000
0.400000
0.000000
0.000000
0.200000
-0.300000
-0.400000
0.300000
-0.300000
0.100000
0.300000
-0.200000
0.000000
-0.300000
0.100000
0.500000
-0.400000
0.100000
0.100000
0.200000
0.000000
-0.300000
0.100000
0.400000
0.500000
0.200000
0.200000
0.100000
0.500000
-0.100000
-0.200000
0.000000
0.000000
-0.100000
0.500000
-0.400000
-0.300000
0.200000
0.000000
-0.200000
-0.400000
0.500000
0.100000
-0.300000
-0.200000
0.100000
0.500000
0.300000
0.200000
0.000000
0.100000
0.400000
-0.100000
-0.100000
0.100000
0.000000
0.300000
-0.400000
0.400000
0.300000
0.100000
-0.400000
-0.400000
0.200000
-0.200000
-0.100000
0.000000
-0.300000
-0.200000
-0.300000
-0.400000
-0.200000
-0.200000
0.400000
-0.100000
0.000000
0.500000
0.400000
0.200000
0.300000
-0.100000
0.500000
0.000000
-0.200000
0.100000
0.100000
-0.400000
0.500000
-0.100000
0.400000
0.400000
-0.400000
0.500000
0.100000
0.300000
0.400000
-0.400000
-0.200000
0.500000
-0.400000
0.200000
0.200000
0.200000
0.400000
0.200000
0.000000
-0.100000
-0.400000
0.000000
-0.400000
-0.300000
-0.300000
0.200000
-0.400000
0.000000
0.400000
0.200000
-0.100000
0.300000
-0.300000
-0.300000
0.400000
-0.400000
-0.300000
0.400000
0.200000
0.200000
0.100000
0.200000
-0.400000
0.300000
-0.200000
0.300000
0.400000
-0.200000
-0.100000
0.400000
-0.200000
0.200000
0.500000
-0.100000
0.500000
0.300000
0.000000
-0.100000
0.500000
-0.200000
0.300000
0.500000
-0.400000
0.000000
0.100000
0.200000
0.300000
0.000000
-0.100000
0.500000
-0.300000
-0.300000
0.400000
0.000000
-0.200000
0.000000
-0.200000
-0.400000
0.300000
0.200000
-0.200000
0.300000
-0.200000
-0.400000
0.200000
-0.100000
0.200000
-0.300000
0.400000
0.500000
-0.100000
-0.300000
-0.200000
-0.100000
0.000000
0.400000
0.300000
-0.400000
0.000000
-0.100000
0.400000
0.000000
0.100000
0.400000
0.200000
-0.300000
0.000000
0.500000
-0.400000
0.300000
0.400000
0.200000
0.200000
0.000000
0.300000
-0.400000
0.500000
0.100000
-0.300000
0.000000
-0.200000
0.200000
0.200000
0.500000
0.200000
0.500000
0.200000
0.300000
0.400000
0.400000
0.500000
-0.300000
0.400000
-0.300000
-0.200000
0.300000
-0.300000
-0.400000
0.300000
0.200000
0.500000
0.300000
-0.300000
0.300000
0.000000
0.000000
-0.300000
0.400000
0.300000
0.100000
-0.400000
-0.300000
-0.300000
0.300000
-0.200000
0.400000
-0.200000
-0.400000
0.000000
0.500000
0.200000
0.100000
0.500000
0.400000
0.000000
0.200000
0.100000
0.300000
0.200000
0.300000
-0.400000
0.100000
-0.400000
0.300000
0.100000
-0.400000
0.500000
0.100000
0.100000
-0.400000
-0.300000
0.000000
0.200000
0.300000
0.200000
0.500000
0.400000
-0.200000
0.400000
-0.400000
-0.300000
-0.300000
0.200000
0.300000
-0.400000
0.200000
0.200000
0.300000
-0.300000
0.200000
0.100000
0.500000
0.300000
0.500000
0.400000
0.300000
0.400000
0.500000
-0.200000
-0.100000
-0.100000
-0.300000
0.500000
0.000000
-0.300000
-0.300000
-0.400000
0.000000
-0.200000
0.200000
0.300000
0.300000
0.300000
0.500000
0.500000
0.300000
0.200000
0.400000
-0.100000
-0.300000
-0.200000
-0.200000
0.300000
-0.300000
-0.200000
-0.400000
0.000000
-0.400000
0.300000
-0.400000
0.400000
0.200000
0.500000
-0.300000
0.400000
-0.400000
0.300000
0.500000
0.300000
0.100000
-0.200000
0.000000
-0.300000
0.400000
0.500000
0.500000
-0.200000
0.400000
-0.100000
-0.400000
0.200000
0.500000
0.200000
-0.200000
0.200000
0.500000
0.100000
0.200000
0.300000
0.200000
0.400000
0.500000
0.300000
-0.200000
-0.200000
0.400000
0.200000
0.500000
-0.200000
0.500000
0.200000
-0.100000
0.200000
0.400000
-0.400000
0.000000
-0.100000
0.400000
0.000000
0.400000
0.500000
-0.400000
-0.200000
0.200000
0.500000
-0.300000
0.400000
0.000000
0.400000
-0.200000
0.400000
-0.200000
-0.400000
0.100000
-0.400000
-0.300000
0.500000
0.500000
0.400000
-0.300000
0.000000
0.500000
-0.300000
-0.400000
0.300000
-0.300000
0.500000
-0.300000
0.000000
0.400000
0.100000
-0.200000
0.200000
-0.100000
0.400000
-0.100000
-0.300000
0.500000
-0.300000
-0.100000
0.000000
-0.200000
0.400000
0.500000
0.300000
-0.300000
0.200000
0.000000
0.000000
-0.100000
0.400000
0.100000
-0.400000
0.200000
-0.300000
0.200000
0.300000
0.200000
0.200000
-0.200000
0.200000
0.500000
0.400000
0.100000
-0.300000
-0.200000
-0.300000
-0.400000
-0.300000
-0.400000
-0.200000
-0.400000
0.400000
-0.400000
0.000000
-0.300000
-0.400000
-0.100000
-0.400000
0.200000
0.200000
0.400000
0.100000
0.400000
0.100000
0.000000
-0.200000
-0.100000
0.200000
0.100000
-0.100000
0.200000
-0.300000
0.200000
0.100000
0.300000
-0.200000
-0.300000
-0.400000
0.500000
0.400000
0.100000
0.500000
-0.200000
0.200000
0.100000
-0.400000
0.100000
0.000000
-0.100000
-0.300000
-0.400000
-0.300000
-0.400000
-0.400000
-0.200000
0.500000
-0.300000
0.100000
0.000000
-0.100000
-0.400000
0.200000
-0.100000
0.300000
0.500000
0.500000
-0.100000
0.000000
0.400000
-0.100000
0.400000
-0.400000
-0.200000
0.200000
0.000000
0.500000
0.500000
-0.100000
0.000000
0.400000
-0.300000
0.300000
-0.200000
0.300000
0.100000
0.000000
0.300000
0.300000
0.000000
-0.300000
-0.100000
-0.400000
-0.300000
0.200000
0.000000
0.000000
0.500000
0.000000
-0.300000
0.400000
0.000000
0.500000
-0.200000
0.200000
0.100000
0.400000
0.000000
-0.100000
0.100000
0.400000
-0.200000
0.500000
0.100000
0.500000
-0.100000
0.400000
0.500000
0.000000
0.000000
0.300000
0.000000
-0.300000
0.200000
0.300000
-0.200000
-0.300000
0.000000
0.300000
-0.200000
0.300000
-0.400000
-0.200000
-0.100000
0.200000
0.400000
0.000000
-0.400000
-0.300000
-0.400000
0.000000
0.100000
-0.400000
0.000000
0.300000
0.000000
0.300000
0.300000
0.200000
0.500000
-0.300000
-0.200000
0.300000
-0.300000
0.200000
-0.200000
0.000000
0.100000
0.400000
-0.300000
0.300000
-0.400000
-0.100000
-0.300000
-0.400000
-0.300000
0.400000
-0.100000
0.200000
-0.200000
0.000000
0.100000
0.400000
0.500000
0.400000
0.300000
0.300000
-0.300000
0.000000
0.100000
-0.100000
-0.200000
-0.200000
0.200000
0.100000
0.100000
-0.400000
0.400000
-0.300000
0.200000
-0.300000
-0.200000
-0.400000
-0.200000
0.400000
0.400000
0.100000
0.200000
0.000000
0.300000
-0.400000
0.400000
0.000000
0.000000
-0.100000
-0.200000
-0.400000
0.500000
0.300000
0.200000
0.400000
-0.400000
-0.300000
-0.200000
-0.300000
0.100000
0.100000
0.100000
0.200000
0.000000
-0.300000
0.500000
0.300000
-0.400000
0.100000
-0.400000
-0.300000
0.200000
0.000000
0.500000
0.100000
0.200000
0.000000
0.300000
0.000000
-0.200000
-0.200000
-0.200000
0.100000
0.100000
0.500000
0.100000
0.400000
0.400000
0.000000
0.100000
0.500000
0.300000
-0.300000
-0.100000
-0.300000
0.400000
0.100000
-0.200000
-0.100000
0.100000
-0.400000
-0.300000
-0.200000
0.200000
-0.300000
-0.100000
0.300000
-0.300000
0.500000
-0.400000
-0.300000
0.500000
0.100000
-0.400000
-0.100000
-0.300000
0.300000
-0.300000
0.100000
-0.200000
-0.400000
0.100000
0.500000
-0.200000
0.100000
-0.300000
0.400000
-0.300000
0.300000
0.300000
0.400000
0.100000
-0.100000
-0.100000
-0.400000
0.200000
-0.300000
0.400000
0.200000
-0.100000
0.100000
0.000000
0.300000
0.300000
0.500000
0.400000
0.500000
0.200000
-0.300000
-0.200000
0.200000
0.200000
0.400000
0.100000
0.000000
-0.100000
0.400000
0.300000
0.400000
-0.400000
0.400000
-0.300000
0.500000
0.100000
-0.200000
-0.200000
0.100000
0.400000
0.400000
-0.400000
-0.300000
0.400000
0.500000
0.200000
0.300000
0.000000
0.500000
0.200000
0.300000
0.300000
-0.100000
0.200000
0.200000
-0.100000
0.400000
0.000000
-0.300000
0.300000
0.400000
-0.400000
0.200000
-0.400000
-0.200000
0.300000
0.400000
0.200000
0.300000
0.500000
-0.400000
0.300000
-0.200000
0.100000
0.000000
0.500000
0.200000
0.300000
-0.400000
-0.200000
-0.300000
0.500000
0.400000
0.400000
0.100000
-0.200000
0.100000
0.200000
-0.400000
-0.400000
-0.100000
-0.200000
-0.100000
0.300000
0.500000
-0.400000
-0.100000
0.300000
0.200000
0.500000
0.200000
0.000000
0.400000
-0.400000
-0.100000
-0.200000
-0.400000
0.300000
-0.200000
0.000000
-0.100000
-0.300000
0.300000
0.100000
-0.100000
0.200000
0.500000
-0.400000
0.400000
-0.300000
-0.200000
-0.100000
-0.300000
0.100000
0.500000
0.200000
-0.200000
-0.400000
-0.100000
0.300000
0.300000
-0.200000
0.200000
0.500000
-0.200000
0.200000
0.500000
-0.200000
0.200000
-0.100000
0.100000
-0.100000
-0.200000
0.100000
0.500000
0.400000
0.300000
0.100000
0.100000
-0.100000
0.200000
0.100000
0.000000
0.500000
0.300000
0.500000
0.400000
-0.100000
-0.400000
0.200000
-0.200000
-0.400000
0.400000
0.000000
0.300000
0.100000
0.100000
0.400000
0.200000
0.100000
-0.100000
-0.300000
-0.300000
-0.200000
0.500000
0.200000
0.100000
0.100000
-0.100000
-0.200000
0.400000
-0.300000
0.400000
0.300000
0.400000
0.300000
0.200000
0.400000
0.400000
0.400000
0.500000
-0.300000
-0.400000
0.400000
0.500000
-0.400000
-0.200000
-0.200000
0.100000
0.000000
0.400000
-0.100000
-0.200000
-0.300000
0.200000
-0.400000
0.200000
0.400000
0.200000
-0.400000
-0.100000
0.200000
-0.200000
0.000000
0.300000
0.500000
-0.200000
0.400000
-0.200000
0.500000
-0.100000
-0.200000
0.400000
-0.200000
0.000000
0.100000
-0.300000
0.400000
-0.200000
0.000000
0.300000
0.400000
-0.200000
0.000000
0.200000
0.400000
0.500000
0.500000
0.500000
0.000000
0.500000
0.500000
-0.200000
-0.300000
-0.100000
0.100000
-0.400000
0.400000
0.100000
-0.300000
0.500000
-0.300000
-0.400000
-0.400000
-0.200000
-0.400000
-0.400000
-0.400000
-0.100000
0.500000
-0.100000
0.200000
-0.300000
0.500000
0.200000
-0.100000
-0.400000
0.100000
0.300000
0.500000
0.100000
0.100000
0.200000
-0.100000
-0.400000
0.400000
-0.300000
-0.400000
0.400000
0.400000
-0.300000
-0.100000
0.200000
0.000000
0.500000
-0.400000
0.400000
0.500000
-0.300000
0.300000
0.300000
-0.100000
-0.300000
-0.400000
-0.200000
-0.200000
-0.300000
-0.400000
0.200000
0.500000
0.000000
-0.100000
0.200000
-0.400000
-0.200000
-0.200000
0.100000
0.200000
0.000000
-0.300000
0.200000
0.200000
0.200000
-0.100000
0.400000
0.500000
0.100000
-0.200000
0.100000
0.300000
-0.200000
0.400000
0.000000
-0.200000
0.300000
0.300000
-0.200000
0.500000
0.200000
-0.100000
0.500000
-0.400000
-0.300000
-0.400000
-0.100000
0.100000
0.500000
0.300000
-0.400000
0.500000
0.200000
0.300000
0.300000
0.100000
-0.200000
-0.200000
0.100000
0.000000
0.200000
0.400000
0.200000
0.200000
0.100000
0.200000
0.000000
0.300000
0.400000
-0.100000
-0.400000
-0.300000
-0.300000
0.100000
0.400000
0.100000
0.000000
-0.200000
0.200000
0.500000
0.300000
-0.200000
-0.200000
-0.200000
0.500000
0.300000
0.500000
0.500000
-0.300000
-0.100000
0.100000
0.000000
0.500000
0.400000
0.000000
-0.200000
0.200000
0.300000
-0.200000
-0.400000
0.400000
0.400000
0.100000
0.500000
0.200000
0.200000
0.400000
0.000000
-0.300000
0.200000
0.500000
0.000000
0.400000
0.500000
0.300000
0.000000
0.400000
0.500000
0.100000
0.500000
-0.100000
0.100000
-0.300000
-0.400000
0.000000
-0.100000
0.300000
0.300000
0.300000
0.400000
-0.200000
0.100000
-0.200000
-0.300000
-0.100000
0.500000
0.500000
0.300000
0.400000
0.200000
-0.400000
0.300000
0.100000
0.400000
0.000000
0.100000
0.500000
-0.100000
-0.100000
-0.300000
0.400000
0.200000
0.200000
0.400000
0.500000
0.000000
-0.300000
-0.400000
0.200000
-0.300000
-0.400000
-0.300000
0.100000
0.200000
-0.400000
-0.400000
-0.100000
-0.400000
-0.200000
-0.200000
0.300000
0.000000
0.300000
0.200000
0.300000
-0.300000
0.200000
0.200000
-0.300000
0.000000
-0.200000
-0.300000
-0.300000
0.400000
0.200000
0.000000
0.400000
0.300000
0.500000
-0.300000
-0.100000
0.000000
0.000000
0.200000
-0.400000
0.000000
0.200000
0.000000
0.100000
-0.300000
0.000000
0.500000
0.200000
0.000000
0.500000
-0.300000
0.100000
0.200000
0.000000
-0.300000
0.400000
0.300000
-0.100000
0.500000
0.300000
0.300000
0.400000
-0.100000
0.000000
0.500000
0.400000
-0.200000
-0.200000
0.200000
-0.300000
0.200000
0.000000
0.400000
0.200000
0.300000
0.400000
-0.400000
0.100000
0.300000
0.200000
0.500000
0.400000
0.100000
-0.300000
-0.100000
-0.100000
0.400000
0.200000
-0.300000
-0.200000
-0.400000
0.100000
0.100000
0.200000
0.000000
0.100000
0.100000
0.300000
-0.200000
-0.200000
0.000000
-0.100000
-0.100000
-0.400000
0.500000
-0.200000
0.500000
-0.400000
-0.300000
-0.100000
-0.200000
0.200000
0.300000
0.500000
0.400000
0.000000
0.200000
0.000000
-0.100000
0.000000
0.100000
-0.100000
-0.300000
0.400000
0.000000
-0.300000
0.000000
0.200000
0.200000
0.300000
-0.300000
-0.200000
-0.100000
-0.400000
-0.100000
0.100000
-0.100000
0.200000
0.300000
0.400000
0.500000
0.000000
-0.300000
-0.200000
0.500000
0.500000
0.200000
-0.200000
0.200000
0.100000
-0.100000
0.300000
0.500000
0.400000
0.400000
-0.100000
0.000000
0.200000
0.100000
-0.400000
0.000000
0.200000
0.100000
0.200000
-0.200000
-0.200000
0.500000
-0.400000
0.400000
0.000000
0.100000
0.500000
0.500000
-0.200000
0.400000
0.300000
0.200000
-0.200000
-0.200000
0.200000
0.200000
0.200000
-0.400000
0.400000
0.000000
-0.300000
-0.300000
-0.300000
0.500000
0.300000
0.100000
0.100000
0.200000
0.200000
-0.100000
-0.200000
-0.100000
-0.100000
0.400000
0.100000
-0.300000
0.400000
-0.100000
0.000000
-0.400000
-0.100000
-0.300000
-0.200000
0.400000
-0.400000
0.400000
-0.100000
-0.200000
-0.100000
0.200000
-0.200000
0.400000
0.300000
-0.200000
-0.400000
0.100000
-0.200000
0.400000
-0.300000
0.300000
0.100000
-0.300000
-0.300000
0.400000
-0.100000
0.300000
0.500000
0.100000
-0.300000
0.000000
-0.400000
0.100000
0.100000
0.100000
-0.400000
-0.400000
0.100000
0.000000
0.200000
0.300000
0.400000
-0.200000
0.100000
0.200000
0.400000
-0.400000
0.500000
-0.200000
0.200000
-0.300000
0.100000
0.300000
-0.100000
-0.400000
-0.300000
-0.200000
-0.200000
0.100000
-0.300000
-0.200000
-0.300000
0.200000
0.300000
0.400000
-0.400000
0.200000
-0.200000
0.100000
0.100000
0.100000
0.200000
0.000000
0.400000
0.200000
0.300000
-0.300000
0.500000
-0.400000
0.500000
0.200000
0.100000
-0.400000
0.100000
0.100000
0.200000
-0.400000
-0.300000
0.000000
0.200000
-0.300000
0.400000
0.300000
0.200000
-0.300000
-0.400000
-0.300000
0.000000
0.400000
0.500000
-0.100000
0.400000
-0.300000
0.400000
-0.300000
-0.200000
-0.200000
0.300000
-0.300000
0.300000
0.200000
-0.100000
-0.100000
-0.400000
-0.100000
0.000000
0.400000
0.200000
-0.300000
0.500000
-0.200000
-0.100000
0.400000
-0.100000
0.500000
0.200000
0.400000
0.500000
0.100000
0.200000
0.400000
0.000000
-0.300000
-0.400000
0.000000
0.100000
0.000000
-0.200000
0.100000
0.100000
-0.100000
-0.200000
-0.200000
0.000000
0.300000
-0.100000
-0.300000
-0.300000
-0.400000
0.400000
-0.400000
-0.300000
0.500000
0.000000
0.500000
0.300000
-0.400000
-0.100000
0.500000
0.300000
0.300000
-0.400000
0.300000
-0.100000
-0.200000
0.200000
-0.100000
0.500000
0.000000
0.300000
0.400000
-0.200000
0.400000
0.400000
0.000000
0.200000
0.300000
-0.100000
-0.100000
-0.300000
0.400000
0.000000
-0.300000
-0.100000
-0.400000
0.100000
-0.100000
-0.100000
0.300000
-0.300000
-0.300000
0.400000
-0.100000
-0.300000
-0.200000
-0.300000
-0.400000
-0.200000
-0.400000
0.500000
0.000000
-0.300000
0.300000
-0.100000
-0.400000
-0.200000
0.400000
-0.200000
0.000000
0.400000
-0.100000
0.100000
0.100000
-0.400000
-0.400000
-0.100000
0.400000
0.000000
0.000000
-0.100000
0.500000
-0.200000
0.000000
0.500000
-0.200000
-0.400000
0.000000
-0.100000
-0.300000
0.000000
0.200000
-0.200000
0.500000
-0.200000
0.000000
0.300000
0.200000
0.500000
0.100000
-0.400000
-0.300000
0.000000
-0.300000
0.500000
0.500000
-0.400000
-0.200000
-0.200000
0.100000
0.100000
-0.200000
0.000000
-0.400000
0.300000
0.200000
0.300000
0.300000
0.200000
0.400000
-0.400000
-0.200000
0.200000
0.500000
0.100000
0.200000
-0.200000
-0.300000
0.500000
-0.300000
-0.300000
0.400000
0.300000
-0.200000
0.100000
-0.400000
0.400000
-0.400000
0.200000
-0.100000
0.300000
0.500000
-0.200000
0.300000
0.500000
0.500000
0.000000
0.200000
0.000000
-0.200000
-0.200000
0.100000
0.100000
0.200000
0.200000
-0.300000
-0.100000
0.100000
0.100000
0.000000
-0.400000
0.300000
0.100000
0.100000
0.300000
0.100000
0.300000
0.000000
0.200000
0.300000
0.200000
0.100000
0.500000
0.300000
0.200000
-0.200000
0.300000
0.500000
-0.200000
-0.200000
-0.100000
0.400000
-0.200000
0.000000
-0.100000
-0.200000
-0.400000
0.500000
-0.300000
0.000000
-0.200000
0.100000
0.300000
0.000000
-0.100000
0.000000
-0.300000
-0.300000
0.300000
-0.300000
0.000000
0.300000
-0.200000
-0.100000
-0.200000
0.200000
0.200000
0.000000
-0.100000
-0.400000
0.100000
0.100000
0.000000
-0.400000
-0.100000
-0.400000
0.300000
-0.400000
0.000000
-0.100000
0.400000
-0.200000
-0.300000
0.200000
-0.200000
0.300000
-0.100000
-0.400000
0.400000
0.500000
0.500000
0.100000
0.000000
-0.100000
0.200000
-0.100000
0.100000
-0.100000
-0.200000
-0.100000
0.200000
-0.400000
0.400000
0.100000
-0.200000
0.000000
0.500000
0.500000
0.000000
0.000000
-0.300000
-0.300000
-0.100000
-0.400000
-0.300000
0.400000
0.000000
-0.100000
0.500000
-0.100000
0.500000
0.100000
-0.200000
-0.300000
-0.100000
0.100000
0.500000
0.200000
0.100000
0.400000
0.500000
0.500000
0.100000
0.200000
-0.100000
0.400000
0.500000
0.000000
-0.100000
-0.300000
-0.100000
-0.200000
-0.100000
-0.200000
-0.300000
-0.400000
0.100000
0.000000
0.400000
0.500000
0.300000
-0.300000
-0.100000
-0.200000
0.500000
-0.200000
-0.200000
0.100000
-0.100000
0.300000
0.300000
-0.400000
-0.100000
0.000000
-0.100000
0.100000
0.500000
-0.100000
-0.400000
-0.100000
0.300000
-0.400000
0.400000
0.300000
-0.100000
0.100000
-0.200000
0.500000
-0.300000
0.300000
0.100000
0.400000
0.500000
0.500000
0.200000
-0.100000
0.400000
-0.200000
-0.400000
-0.300000
0.500000
0.300000
-0.400000
-0.300000
-0.400000
-0.200000
0.100000
-0.200000
-0.200000
0.000000
0.200000
-0.400000
0.400000
0.300000
-0.400000
-0.100000
0.400000
0.400000
0.100000
-0.400000
-0.300000
-0.100000
-0.400000
-0.200000
0.100000
-0.300000
0.300000
0.000000
-0.300000
0.300000
0.000000
-0.100000
0.400000
-0.400000
0.200000
-0.200000
0.400000
0.200000
0.300000
0.500000
-0.100000
-0.300000
-0.400000
-0.400000
0.200000
-0.400000
0.400000
0.400000
0.200000
0.100000
-0.300000
0.300000
0.100000
-0.400000
0.400000
0.100000
0.200000
-0.400000
0.100000
-0.400000
0.000000
0.300000
0.400000
-0.100000
-0.200000
0.300000
0.000000
0.400000
-0.300000
0.500000
-0.200000
0.000000
-0.200000
0.100000
0.300000
-0.400000
0.400000
-0.300000
0.100000
0.100000
-0.300000
0.400000
0.300000
-0.300000
0.100000
-0.100000
-0.200000
0.200000
0.400000
0.000000
-0.300000
0.000000
0.100000
0.300000
-0.100000
-0.100000
0.100000
-0.100000
0.400000
0.100000
0.500000
0.100000
-0.100000
-0.100000
-0.200000
0.000000
-0.300000
0.400000
0.400000
0.000000
0.400000
0.400000
-0.400000
0.500000
-0.200000
-0.100000
0.200000
0.100000
0.100000
0.000000
-0.200000
0.300000
-0.100000
0.000000
-0.100000
0.300000
-0.400000
-0.100000
0.000000
0.200000
0.300000
0.400000
-0.100000
0.200000
0.100000
-0.400000
0.500000
0.000000
-0.100000
0.000000
0.500000
-0.100000
0.000000
0.200000
0.200000
0.300000
-0.100000
-0.100000
0.500000
-0.100000
0.300000
0.500000
0.500000
0.000000
0.300000
0.500000
0.000000
-0.100000
0.400000
0.500000
0.100000
-0.400000
0.100000
0.500000
0.300000
-0.100000
-0.100000
0.100000
0.500000
-0.200000
0.300000
-0.100000
-0.100000
-0.300000
0.000000
0.400000
0.500000
0.500000
0.300000
0.400000
0.200000
-0.300000
0.100000
0.200000
0.000000
0.500000
-0.300000
-0.200000
0.500000
0.000000
0.200000
0.000000
-0.100000
0.200000
0.500000
0.300000
-0.400000
-0.400000
0.200000
-0.200000
-0.400000
0.200000
-0.400000
0.200000
0.500000
0.300000
0.000000
0.400000
0.400000
-0.300000
0.200000
0.200000
-0.200000
0.100000
-0.100000
-0.200000
0.400000
-0.400000
0.100000
-0.100000
0.400000
0.300000
-0.300000
0.300000
0.000000
-0.200000
-0.200000
-0.300000
0.100000
0.300000
0.500000
-0.100000
0.000000
0.500000
0.000000
-0.100000
0.500000
-0.200000
0.300000
0.100000
0.100000
0.100000
0.500000
0.000000
0.500000
-0.100000
-0.100000
0.300000
-0.100000
0.200000
0.400000
-0.200000
0.000000
0.000000
0.000000
0.100000
-0.300000
-0.400000
-0.400000
-0.300000
0.400000
0.300000
-0.200000
-0.200000
-0.400000
0.300000
0.400000
-0.300000
0.300000
-0.400000
-0.200000
-0.400000
-0.400000
0.500000
0.500000
-0.100000
0.100000
0.300000
0.000000
0.200000
0.000000
0.400000
-0.400000
-0.200000
-0.300000
0.100000
-0.400000
0.400000
-0.400000
-0.300000
-0.200000
-0.400000
-0.100000
-0.400000
0.000000
-0.100000
0.100000
-0.200000
0.100000
0.100000
-0.300000
-0.100000
0.000000
0.400000
0.100000
-0.400000
-0.300000
-0.300000
-0.200000
0.200000
0.100000
0.000000
-0.200000
-0.200000
0.000000
0.400000
0.200000
0.200000
-0.200000
-0.400000
-0.100000
0.000000
0.200000
0.100000
0.500000
0.300000
0.100000
-0.400000
-0.300000
0.500000
0.100000
0.300000
-0.100000
0.400000
0.000000
-0.100000
0.400000
0.500000
0.000000
0.500000
0.100000
-0.300000
-0.200000
0.500000
-0.300000
0.400000
-0.200000
0.300000
-0.300000
0.500000
0.400000
0.400000
-0.400000
0.400000
0.500000
0.200000
0.300000
0.200000
0.300000
0.300000
-0.300000
0.400000
-0.300000
-0.200000
0.000000
-0.100000
0.300000
-0.100000
0.100000
-0.200000
0.100000
0.200000
-0.200000
0.500000
0.000000
0.100000
0.200000
-0.200000
0.200000
-0.300000
0.500000
0.000000
-0.100000
-0.300000
0.300000
-0.100000
-0.300000
0.400000
0.300000
-0.100000
-0.100000
0.300000
0.100000
0.200000
0.500000
0.300000
0.500000
0.000000
0.400000
0.500000
0.000000
-0.300000
0.500000
0.400000
0.200000
-0.300000
0.300000
-0.300000
0.100000
0.000000
-0.200000
0.300000
0.200000
-0.300000
-0.400000
0.400000
-0.100000
0.300000
0.300000
0.400000
0.200000
-0.300000
0.000000
-0.100000
-0.100000
-0.300000
-0.400000
0.200000
0.000000
-0.200000
-0.100000
-0.400000
0.000000
-0.200000
-0.200000
0.500000
0.500000
0.300000
0.000000
-0.400000
0.200000
0.500000
0.200000
-0.200000
-0.100000
0.400000
0.000000
0.300000
0.000000
-0.400000
0.000000
0.200000
0.000000
0.000000
0.200000
-0.100000
-0.100000
-0.300000
0.000000
0.300000
0.400000
0.500000
0.300000
-0.100000
-0.300000
-0.400000
-0.100000
0.300000
0.000000
-0.300000
-0.300000
-0.100000
-0.100000
0.400000
-0.100000
-0.200000
0.400000
0.300000
0.000000
0.300000
0.100000
-0.400000
0.300000
-0.200000
0.500000
0.500000
0.100000
-0.400000
0.500000
-0.300000
0.400000
0.500000
0.500000
0.400000
-0.200000
0.200000
0.000000
-0.100000
-0.400000
0.000000
0.500000
-0.100000
-0.100000
0.300000
0.200000
-0.100000
-0.200000
0.000000
0.300000
0.000000
-0.100000
-0.100000
-0.100000
-0.200000
-0.300000
-0.100000
0.100000
0.000000
0.000000
-0.300000
0.500000
0.500000
0.100000
0.100000
0.300000
0.300000
-0.300000
-0.100000
0.000000
0.500000
-0.400000
-0.400000
-0.400000
0.200000
-0.300000
-0.200000
0.400000
0.000000
0.400000
-0.400000
-0.400000
-0.300000
0.000000
0.300000
0.200000
0.400000
0.500000
-0.200000
0.200000
-0.300000
-0.300000
0.000000
-0.400000
-0.100000
-0.400000
0.200000
0.400000
0.400000
-0.400000
0.400000
0.300000
0.100000
-0.100000
-0.300000
0.500000
-0.300000
-0.400000
0.000000
0.500000
0.100000
-0.100000
-0.300000
-0.100000
-0.200000
0.200000
0.200000
0.400000
-0.200000
0.200000
0.400000
0.200000
0.100000
0.300000
-0.200000
-0.200000
0.200000
0.200000
-0.100000
0.000000
0.000000
0.200000
-0.100000
0.500000
-0.400000
0.000000
-0.100000
0.200000
0.200000
0.300000
-0.400000
-0.400000
-0.100000
0.200000
0.000000
0.000000
0.400000
0.100000
-0.200000
0.400000
-0.200000
-0.400000
-0.400000
-0.100000
0.000000
0.300000
0.300000
0.200000
-0.200000
0.500000
-0.400000
-0.200000
-0.100000
-0.400000
0.000000
-0.100000
-0.400000
-0.400000
0.200000
0.000000
-0.300000
0.400000
-0.300000
-0.400000
-0.100000
0.400000
-0.300000
0.100000
0.000000
0.200000
0.100000
-0.100000
0.100000
0.400000
0.000000
0.300000
0.400000
-0.200000
0.000000
0.100000
-0.300000
0.200000
-0.300000
0.000000
0.300000
0.200000
0.400000
0.200000
0.300000
0.500000
0.500000
0.500000
-0.300000
0.000000
0.300000
-0.300000
-0.300000
-0.200000
0.400000
0.500000
-0.300000
-0.100000
0.200000
0.300000
0.300000
0.300000
-0.200000
0.500000
-0.300000
0.100000
-0.200000
0.100000
0.200000
0.100000
0.100000
0.100000
-0.100000
0.500000
0.000000
0.000000
0.200000
-0.200000
0.300000
0.400000
-0.400000
0.500000
-0.300000
-0.300000
-0.300000
0.500000
-0.400000
0.400000
-0.100000
-0.200000
-0.300000
-0.100000
0.000000
-0.400000
-0.300000
0.500000
0.000000
0.100000
-0.100000
-0.200000
-0.100000
0.100000
0.500000
0.400000
-0.300000
-0.300000
0.100000
-0.400000
0.100000
-0.100000
0.100000
0.500000
-0.400000
0.300000
-0.400000
0.400000
0.300000
0.100000
0.200000
-0.400000
-0.400000
-0.200000
-0.200000
-0.100000
-0.100000
-0.200000
-0.400000
0.200000
-0.400000
0.100000
0.000000
0.100000
-0.100000
-0.400000
-0.300000
-0.100000
-0.300000
0.300000
-0.100000
-0.200000
0.000000
-0.300000
-0.100000
-0.300000
0.300000
0.100000
0.200000
0.000000
-0.100000
-0.100000
0.300000
-0.100000
0.100000
-0.400000
0.300000
0.100000
0.300000
-0.400000
-0.100000
-0.100000
0.300000
0.300000
0.000000
-0.100000
0.000000
0.300000
-0.400000
0.000000
-0.200000
0.100000
0.100000
0.200000
0.100000
-0.400000
0.300000
0.400000
0.200000
0.200000
-0.200000
0.200000
0.200000
0.500000
0.000000
0.100000
0.000000
0.400000
0.300000
-0.300000
0.000000
-0.100000
0.500000
0.400000
-0.300000
-0.400000
0.300000
-0.200000
0.200000
-0.300000
0.100000
0.300000
-0.100000
-0.200000
-0.100000
0.200000
0.500000
0.300000
-0.400000
0.200000
-0.400000
-0.400000
0.300000
0.300000
0.300000
-0.400000
0.100000
-0.400000
0.100000
-0.300000
0.100000
-0.100000
0.200000
0.100000
0.300000
-0.300000
0.200000
0.200000
-0.200000
-0.300000
0.200000
-0.200000
0.000000
-0.400000
0.400000
0.100000
-0.400000
0.400000
-0.200000
-0.100000
0.300000
0.000000
0.300000
0.300000
-0.300000
-0.100000
0.400000
0.000000
0.000000
-0.400000
-0.100000
0.300000
-0.100000
-0.300000
-0.400000
0.500000
-0.100000
0.100000
0.500000
-0.100000
-0.100000
0.200000
0.000000
0.100000
0.400000
-0.300000
-0.300000
0.100000
0.100000
-0.200000
0.200000
0.300000
0.100000
0.200000
0.300000
0.000000
0.400000
0.300000
0.100000
-0.400000
0.000000
0.500000
-0.100000
-0.300000
0.000000
0.100000
0.400000
-0.400000
0.400000
-0.400000
0.300000
0.200000
0.300000
0.300000
0.300000
-0.400000
0.400000
-0.200000
0.000000
0.500000
-0.400000
-0.400000
-0.300000
-0.400000
-0.300000
0.500000
0.400000
-0.300000
0.500000
-0.100000
-0.300000
0.100000
0.000000
0.000000
0.500000
-0.300000
-0.100000
0.500000
0.000000
0.100000
-0.100000
0.300000
-0.400000
0.200000
0.300000
0.000000
-0.100000
0.200000
0.000000
-0.200000
0.300000
-0.300000
0.000000
0.100000
-0.300000
-0.400000
0.300000
-0.300000
-0.100000
-0.300000
-0.300000
-0.300000
0.000000
-0.400000
-0.400000
0.100000
0.300000
-0.400000
-0.400000
-0.300000
-0.200000
-0.300000
0.200000
0.400000
0.200000
0.500000
-0.100000
-0.100000
0.200000
0.100000
0.500000
-0.300000
0.200000
-0.200000
-0.100000
-0.100000
0.500000
0.000000
0.300000
0.500000
-0.200000
0.200000
-0.100000
-0.300000
-0.200000
-0.400000
0.100000
-0.300000
0.500000
-0.300000
0.000000
-0.200000
0.300000
0.100000
0.300000
-0.400000
0.300000
0.500000
0.400000
0.000000
0.500000
0.400000
0.100000
0.500000
0.500000
0.000000
-0.200000
0.100000
-0.200000
-0.200000
0.000000
0.300000
-0.300000
0.200000
0.000000
-0.400000
-0.200000
-0.300000
-0.400000
-0.100000
0.500000
-0.400000
0.500000
0.400000
-0.400000
0.400000
-0.100000
0.500000
0.400000
0.100000
0.200000
0.100000
-0.200000
-0.400000
-0.100000
-0.400000
0.500000
-0.200000
0.000000
0.000000
0.100000
-0.400000
0.100000
0.300000
0.500000
-0.400000
-0.200000
0.200000
0.200000
-0.200000
-0.200000
0.500000
0.000000
0.200000
0.400000
0.300000
-0.100000
0.100000
0.300000
0.100000
-0.100000
0.500000
0.200000
0.000000
0.300000
-0.200000
0.400000
0.400000
0.100000
-0.400000
-0.100000
0.000000
-0.400000
-0.300000
-0.200000
-0.300000
0.100000
0.500000
0.300000
-0.400000
0.500000
0.000000
-0.300000
0.300000
-0.100000
0.300000
-0.400000
-0.100000
-0.400000
-0.300000
0.200000
-0.400000
0.000000
-0.200000
0.500000
0.400000
0.300000
0.500000
-0.200000
-0.100000
0.000000
-0.100000
0.200000
0.300000
-0.300000
0.000000
0.000000
-0.300000
-0.300000
0.500000
0.400000
-0.400000
0.100000
0.000000
-0.100000
-0.200000
-0.200000
0.400000
-0.300000
0.200000
-0.100000
0.200000
0.200000
-0.300000
0.200000
0.000000
-0.400000
-0.100000
0.400000
0.400000
-0.400000
0.100000
0.200000
-0.400000
0.400000
-0.400000
0.300000
-0.100000
0.500000
-0.200000
0.500000
-0.400000
0.200000
-0.300000
-0.200000
0.200000
0.500000
-0.300000
-0.100000
-0.300000
0.200000
0.500000
-0.100000
-0.300000
0.000000
0.200000
-0.400000
-0.300000
-0.100000
0.500000
0.000000
-0.100000
0.200000
-0.300000
-0.400000
-0.100000
0.500000
0.000000
-0.400000
-0.400000
0.400000
-0.200000
0.000000
0.100000
-0.300000
-0.300000
0.100000
0.400000
0.400000
-0.200000
0.500000
0.300000
0.000000
-0.100000
-0.300000
-0.300000
0.500000
0.000000
0.200000
0.100000
0.200000
-0.200000
0.000000
-0.100000
0.500000
-0.100000
0.400000
0.500000
-0.400000
-0.300000
-0.200000
-0.400000
0.000000
0.200000
-0.200000
0.400000
0.400000
-0.200000
0.200000
0.400000
-0.100000
-0.400000
0.400000
0.100000
0.300000
-0.200000
0.500000
-0.300000
-0.100000
0.100000
-0.400000
-0.200000
0.500000
0.400000
0.200000
0.400000
0.400000
-0.400000
-0.400000
-0.400000
0.000000
-0.400000
0.200000
0.000000
-0.100000
0.400000
0.100000
0.200000
-0.400000
0.000000
0.100000
0.000000
0.000000
0.500000
0.200000
-0.200000
0.300000
0.300000
0.100000
0.200000
0.500000
0.000000
-0.300000
0.500000
0.200000
0.500000
-0.100000
0.000000
0.100000
0.500000
-0.300000
-0.300000
0.100000
-0.300000
0.400000
-0.200000
-0.200000
-0.300000
0.500000
-0.400000
0.500000
0.500000
0.500000
0.300000
0.500000
0.100000
0.000000
0.100000
0.300000
0.400000
-0.100000
-0.300000
0.100000
-0.100000
-0.100000
-0.100000
0.300000
-0.300000
-0.300000
0.000000
0.300000
-0.200000
-0.100000
-0.400000
0.300000
0.400000
-0.100000
0.500000
-0.200000
-0.100000
0.500000
0.500000
0.000000
0.000000
-0.300000
0.100000
0.100000
0.200000
-0.400000
-0.100000
0.200000
-0.100000
-0.300000
0.100000
0.400000
0.400000
0.000000
0.000000
0.100000
0.300000
-0.400000
0.300000
0.100000
0.500000
0.000000
-0.200000
-0.100000
0.500000
0.100000
0.100000
-0.200000
0.000000
0.000000
-0.400000
0.400000
-0.300000
0.100000
0.100000
-0.100000
0.000000
0.400000
0.500000
0.100000
-0.400000
-0.400000
0.000000
-0.300000
-0.200000
0.000000
0.100000
-0.300000
-0.100000
0.500000
0.300000
-0.100000
0.300000
-0.200000
0.200000
0.400000
0.000000
-0.400000
0.000000
-0.400000
-0.300000
-0.400000
-0.200000
0.100000
0.500000
-0.300000
0.100000
-0.200000
0.300000
0.500000
-0.300000
-0.300000
-0.100000
0.500000
0.300000
0.200000
-0.400000
0.400000
0.200000
-0.200000
-0.400000
0.200000
0.200000
0.400000
0.300000
0.000000
-0.100000
0.300000
0.500000
-0.100000
0.400000
-0.200000
-0.200000
0.500000
0.000000
-0.100000
0.400000
0.300000
0.300000
-0.100000
0.400000
0.500000
0.000000
0.000000
0.200000
0.200000
0.400000
0.300000
0.000000
-0.200000
0.300000
0.400000
-0.200000
0.400000
0.300000
0.300000
-0.300000
0.500000
-0.400000
0.100000
-0.400000
0.200000
0.400000
0.100000
0.400000
0.100000
0.200000
0.500000
0.100000
-0.300000
-0.200000
0.200000
0.300000
-0.300000
0.300000
0.200000
-0.400000
-0.300000
0.000000
0.500000
-0.300000
0.200000
0.000000
0.400000
0.000000
-0.300000
0.200000
-0.200000
0.400000
-0.100000
0.500000
-0.400000
0.500000
0.000000
0.200000
0.400000
0.100000
0.300000
0.500000
0.400000
0.000000
-0.400000
0.500000
0.100000
0.300000
-0.100000
0.500000
0.000000
0.300000
0.100000
0.300000
0.200000
-0.300000
0.000000
0.500000
0.000000
0.200000
0.300000
-0.400000
-0.200000
0.200000
-0.200000
0.100000
-0.400000
-0.300000
-0.300000
-0.300000
0.500000
-0.400000
-0.200000
0.200000
0.500000
-0.200000
-0.100000
0.400000
0.300000
0.100000
0.300000
-0.300000
-0.100000
0.200000
-0.400000
-0.300000
0.200000
0.000000
0.400000
0.500000
-0.400000
-0.100000
0.300000
0.000000
0.100000
-0.300000
0.000000
0.200000
0.400000
-0.200000
0.500000
-0.300000
0.500000
0.100000
-0.100000
-0.400000
-0.100000
-0.300000
0.000000
0.300000
0.300000
0.300000
0.400000
-0.200000
-0.300000
0.000000
-0.400000
-0.400000
0.300000
-0.400000
-0.100000
-0.400000
0.000000
0.500000
-0.100000
0.300000
0.000000
0.300000
0.200000
0.400000
-0.100000
0.400000
0.500000
0.300000
0.300000
0.400000
0.500000
0.200000
0.000000
0.000000
0.500000
0.500000
-0.300000
0.500000
0.400000
-0.100000
0.100000
0.100000
-0.400000
0.500000
-0.400000
0.300000
0.000000
0.400000
0.100000
0.500000
0.300000
0.400000
0.000000
0.400000
-0.100000
0.200000
0.500000
-0.300000
0.300000
0.000000
-0.100000
0.100000
0.300000
0.100000
0.000000
0.300000
0.400000
0.400000
0.000000
0.500000
0.000000
0.400000
-0.200000
0.300000
0.200000
-0.200000
0.200000
0.500000
-0.400000
-0.300000
0.100000
0.100000
-0.400000
0.000000
0.500000
0.000000
0.400000
0.300000
0.100000
0.500000
-0.100000
0.500000
0.400000
-0.400000
-0.400000
0.200000
-0.200000
0.500000
0.000000
-0.100000
0.500000
-0.300000
0.000000
-0.200000
-0.400000
0.400000
0.500000
0.300000
-0.100000
-0.400000
0.500000
-0.400000
0.000000
-0.400000
-0.400000
0.400000
0.400000
0.100000
-0.200000
0.000000
0.400000
0.200000
-0.400000
-0.300000
0.100000
0.200000
0.100000
0.100000
0.500000
0.400000
-0.200000
0.100000
0.400000
-0.200000
0.000000
0.500000
-0.400000
0.000000
-0.300000
0.400000
0.300000
-0.200000
0.500000
-0.400000
-0.100000
-0.200000
-0.300000
-0.300000
0.100000
-0.300000
0.000000
0.400000
0.200000
0.000000
0.400000
0.100000
-0.200000
0.300000
0.100000
-0.100000
0.100000
-0.300000
0.400000
0.100000
-0.300000
-0.100000
-0.100000
-0.100000
0.500000
-0.400000
-0.200000
-0.400000
-0.400000
0.200000
0.100000
0.400000
0.100000
0.500000
-0.200000
-0.100000
0.300000
0.300000
-0.300000
-0.100000
0.300000
0.200000
-0.300000
-0.400000
0.200000
-0.200000
0.200000
-0.200000
-0.100000
0.100000
0.400000
0.200000
0.500000
0.200000
0.300000
0.500000
0.300000
0.200000
0.100000
0.200000
-0.200000
0.000000
0.300000
0.500000
-0.200000
-0.100000
0.500000
-0.300000
-0.100000
-0.300000
-0.400000
0.100000
0.200000
-0.400000
0.200000
0.200000
0.500000
0.500000
-0.200000
0.500000
-0.200000
0.300000
0.200000
-0.200000
0.200000
0.400000
0.000000
-0.400000
0.400000
-0.300000
0.400000
-0.300000
0.200000
-0.300000
-0.300000
-0.300000
0.100000
-0.200000
0.300000
0.400000
0.300000
-0.100000
-0.200000
0.500000
-0.300000
0.200000
0.100000
0.400000
-0.400000
0.300000
0.300000
0.400000
0.400000
0.200000
0.000000
0.400000
0.400000
0.500000
-0.300000
0.400000
0.300000
0.100000
0.100000
0.000000
0.500000
0.000000
0.000000
0.200000
0.500000
-0.300000
-0.400000
0.500000
-0.200000
0.300000
-0.300000
0.500000
0.000000
-0.400000
-0.300000
-0.400000
0.400000
0.400000
0.000000
0.200000
-0.200000
-0.400000
0.500000
-0.200000
0.100000
0.100000
-0.200000
0.300000
0.400000
0.100000
-0.100000
0.300000
-0.200000
0.400000
0.400000
0.300000
0.000000
-0.300000
0.000000
-0.300000
0.100000
-0.100000
-0.300000
0.000000
-0.300000
0.000000
-0.400000
-0.200000
0.300000
0.400000
-0.400000
-0.200000
0.300000
0.200000
0.000000
0.300000
-0.200000
-0.400000
-0.100000
0.000000
0.300000
-0.300000
0.200000
0.000000
-0.200000
0.200000
0.000000
-0.400000
-0.200000
-0.400000
0.400000
0.500000
0.200000
-0.300000
0.300000
-0.300000
-0.100000
0.400000
0.000000
-0.100000
-0.400000
0.400000
-0.300000
-0.400000
0.300000
-0.400000
-0.300000
-0.300000
0.100000
0.300000
-0.300000
-0.100000
0.400000
-0.200000
0.200000
0.400000
0.100000
-0.400000
-0.200000
0.000000
-0.400000
-0.300000
0.400000
0.000000
0.000000
0.300000
0.300000
-0.100000
-0.200000
0.200000
-0.200000
-0.400000
0.100000
-0.200000
0.300000
0.100000
-0.400000
0.200000
-0.200000
0.100000
0.300000
0.400000
-0.400000
-0.100000
-0.200000
-0.400000
-0.400000
0.100000
-0.100000
0.300000
-0.200000
-0.200000
0.200000
0.400000
0.300000
-0.400000
-0.200000
0.400000
0.300000
-0.100000
-0.100000
0.200000
-0.200000
0.100000
0.300000
0.300000
0.000000
-0.100000
0.100000
0.400000
0.000000
0.200000
0.300000
0.200000
0.300000
-0.400000
0.300000
-0.400000
-0.200000
-0.400000
0.000000
-0.400000
0.100000
0.300000
-0.400000
0.500000
0.300000
0.000000
0.200000
0.400000
-0.400000
0.500000
0.100000
-0.200000
0.000000
-0.400000
0.500000
-0.300000
-0.300000
0.300000
-0.300000
0.000000
0.100000
0.100000
0.400000
0.100000
-0.200000
0.000000
-0.400000
0.400000
0.100000
-0.400000
0.500000
-0.100000
0.500000
-0.200000
0.200000
0.400000
0.400000
-0.300000
-0.100000
0.500000
0.200000
0.400000
-0.100000
-0.300000
0.100000
0.400000
0.000000
0.300000
-0.100000
0.500000
0.100000
0.200000
0.500000
-0.100000
-0.400000
0.000000
-0.100000
0.200000
0.000000
0.300000
-0.300000
0.000000
0.500000
-0.100000
0.000000
-0.100000
0.100000
0.300000
0.300000
0.000000
0.000000
-0.100000
0.400000
0.200000
-0.100000
0.500000
0.200000
0.500000
0.400000
0.100000
0.200000
-0.200000
0.500000
-0.400000
0.300000
0.000000
0.300000
0.300000
-0.300000
0.100000
0.300000
-0.300000
0.000000
-0.300000
0.300000
-0.200000
0.300000
0.300000
0.500000
0.200000
-0.400000
0.400000
0.500000
0.400000
0.000000
0.100000
0.100000
0.000000
-0.400000
-0.400000
0.300000
-0.100000
-0.400000
0.500000
0.200000
0.000000
-0.100000
-0.300000
-0.300000
-0.400000
0.000000
-0.100000
-0.400000
0.400000
0.100000
0.300000
0.500000
-0.200000
-0.300000
-0.200000
-0.300000
0.400000
-0.300000
0.200000
0.200000
0.000000
0.400000
-0.200000
0.300000
0.000000
0.400000
0.000000
-0.300000
0.300000
0.100000
0.500000
-0.300000
0.400000
0.000000
0.200000
0.200000
0.000000
-0.300000
0.000000
-0.200000
-0.400000
-0.400000
0.300000
0.100000
0.100000
0.400000
-0.100000
-0.400000
0.300000
-0.100000
-0.300000
0.000000
0.300000
0.500000
0.400000
0.300000
-0.300000
0.300000
-0.400000
-0.200000
-0.100000
-0.300000
-0.300000
-0.200000
-0.300000
0.000000
0.100000
0.000000
-0.400000
0.400000
0.500000
0.500000
-0.100000
0.400000
-0.300000
-0.200000
0.400000
-0.200000
0.400000
0.500000
-0.200000
-0.200000
-0.400000
0.200000
-0.100000
0.500000
0.200000
0.100000
0.100000
-0.400000
-0.100000
0.000000
-0.400000
-0.300000
0.500000
0.200000
-0.300000
-0.100000
0.100000
0.200000
0.400000
0.100000
0.200000
0.400000
0.300000
0.500000
-0.200000
0.100000
-0.300000
0.100000
-0.400000
0.200000
-0.400000
-0.200000
0.400000
0.000000
-0.200000
0.200000
0.300000
-0.300000
0.000000
-0.400000
-0.200000
-0.400000
0.200000
-0.200000
0.000000
0.500000
0.400000
-0.400000
-0.300000
0.100000
-0.100000
0.300000
0.400000
0.200000
-0.400000
0.500000
-0.200000
0.300000
-0.300000
0.500000
-0.400000
0.300000
0.500000
-0.400000
0.100000
0.300000
0.500000
-0.100000
-0.100000
0.100000
-0.100000
0.400000
0.200000
-0.100000
0.100000
0.000000
-0.300000
-0.400000
-0.200000
0.100000
0.100000
0.400000
-0.100000
-0.200000
0.000000
0.100000
0.500000
0.300000
0.200000
0.200000
0.300000
0.300000
0.200000
-0.400000
-0.300000
-0.400000
0.200000
-0.400000
-0.200000
0.000000
0.000000
0.300000
-0.400000
0.000000
-0.300000
-0.400000
-0.200000
0.500000
0.100000
0.400000
0.500000
0.200000
-0.300000
0.300000
-0.200000
0.200000
0.300000
0.200000
0.000000
-0.100000
0.500000
-0.200000
0.300000
-0.400000
-0.100000
-0.100000
0.100000
0.300000
-0.200000
0.000000
-0.400000
-0.100000
0.500000
-0.200000
-0.100000
0.400000
0.000000
0.500000
0.300000
0.000000
-0.200000
-0.300000
0.100000
0.400000
-0.400000
0.300000
0.000000
0.300000
-0.400000
0.200000
0.500000
0.300000
0.300000
-0.100000
0.500000
-0.400000
0.300000
0.000000
0.400000
-0.100000
0.000000
0.100000
-0.200000
0.100000
-0.400000
0.300000
0.400000
-0.400000
-0.200000
0.400000
-0.100000
0.100000
0.200000
0.400000
-0.200000
0.000000
0.000000
0.000000
0.300000
-0.400000
0.500000
-0.300000
0.200000
-0.400000
-0.400000
0.300000
0.100000
0.100000
0.300000
0.000000
0.000000
0.200000
-0.100000
0.300000
-0.300000
0.100000
0.400000
0.300000
-0.100000
-0.100000
-0.400000
0.400000
0.100000
0.200000
0.100000
-0.100000
-0.300000
0.100000
0.200000
-0.300000
0.100000
-0.200000
0.100000
-0.100000
0.100000
-0.100000
-0.100000
0.200000
-0.300000
0.500000
-0.100000
0.400000
0.400000
-0.100000
-0.400000
0.500000
0.000000
-0.300000
0.400000
0.400000
0.400000
0.000000
-0.300000
0.200000
0.100000
-0.400000
0.500000
-0.300000
0.400000
-0.400000
0.200000
-0.300000
-0.200000
0.100000
-0.200000
0.500000
-0.200000
-0.100000
0.200000
-0.400000
0.300000
-0.100000
-0.400000
-0.300000
-0.400000
0.000000
0.400000
-0.200000
0.500000
0.500000
-0.200000
0.400000
0.300000
-0.100000
-0.400000
0.100000
0.200000
0.500000
0.300000
0.300000
0.300000
0.200000
0.200000
0.200000
0.400000
0.500000
0.300000
0.200000
0.500000
-0.400000
-0.400000
0.300000
-0.100000
0.000000
-0.100000
-0.100000
0.200000
0.100000
-0.300000
-0.300000
-0.300000
-0.300000
0.200000
0.000000
0.400000
0.200000
-0.200000
0.200000
-0.200000
0.100000
0.500000
-0.100000
0.400000
-0.400000
0.100000
-0.100000
0.300000
0.100000
0.200000
0.500000
0.400000
0.200000
0.000000
-0.300000
0.200000
-0.200000
0.100000
-0.200000
0.400000
0.300000
0.200000
-0.400000
0.500000
-0.300000
0.300000
-0.300000
-0.100000
0.500000
-0.200000
-0.300000
0.400000
-0.100000
0.000000
0.400000
0.100000
0.500000
0.000000
-0.200000
-0.400000
0.500000
0.000000
0.200000
-0.400000
0.100000
-0.300000
0.100000
0.200000
-0.300000
-0.300000
0.500000
-0.200000
0.100000
0.200000
0.200000
0.300000
0.500000
-0.300000
-0.100000
0.100000
-0.100000
-0.400000
-0.200000
-0.200000
-0.200000
-0.400000
0.300000
0.000000
0.000000
-0.100000
-0.200000
-0.100000
0.100000
0.000000
0.500000
-0.100000
0.300000
0.000000
0.200000
-0.100000
-0.100000
-0.300000
-0.100000
0.200000
0.100000
-0.400000
0.400000
0.000000
0.100000
0.100000
0.100000
0.200000
-0.400000
-0.100000
-0.200000
0.100000
-0.200000
-0.100000
0.200000
0.100000
0.300000
0.400000
-0.400000
0.000000
-0.400000
-0.100000
0.400000
0.400000
-0.300000
0.200000
-0.100000
0.500000
-0.100000
-0.400000
0.500000
-0.400000
0.100000
-0.100000
-0.400000
0.200000
-0.100000
0.400000
0.200000
-0.100000
0.200000
0.500000
-0.200000
0.000000
0.300000
-0.200000
-0.400000
0.000000
0.200000
0.200000
0.400000
-0.100000
-0.400000
0.000000
-0.300000
0.200000
-0.300000
-0.200000
0.400000
0.400000
0.100000
0.200000
0.000000
-0.200000
0.500000
0.400000
-0.200000
-0.300000
-0.100000
0.000000
0.400000
-0.100000
-0.400000
-0.400000
0.400000
0.400000
0.300000
-0.400000
0.000000
0.200000
0.500000
0.100000
-0.100000
0.200000
0.300000
-0.300000
-0.400000
0.000000
0.500000
0.500000
-0.300000
0.400000
-0.300000
0.000000
-0.200000
0.500000
0.100000
-0.200000
0.100000
0.200000
0.100000
0.300000
0.000000
0.100000
0.500000
0.300000
0.100000
-0.400000
0.100000
-0.100000
0.200000
-0.300000
-0.300000
-0.400000
0.400000
-0.400000
0.200000
0.300000
0.500000
-0.100000
0.500000
-0.300000
-0.300000
0.500000
0.200000
0.400000
0.300000
0.100000
-0.400000
0.000000
0.000000
0.300000
-0.400000
-0.300000
0.300000
-0.400000
0.500000
0.500000
-0.100000
-0.200000
0.100000
0.300000
-0.100000
0.200000
0.100000
0.200000
-0.100000
0.400000
0.400000
0.100000
0.400000
0.300000
-0.400000
0.300000
-0.100000
0.500000
-0.400000
-0.300000
-0.400000
0.000000
0.300000
0.500000
-0.200000
0.100000
0.500000
-0.400000
0.300000
0.000000
0.200000
0.000000
-0.300000
0.300000
0.100000
-0.100000
-0.300000
0.200000
0.400000
-0.200000
-0.300000
-0.200000
0.300000
0.000000
0.500000
-0.300000
0.000000
0.200000
0.500000
-0.100000
0.400000
-0.400000
0.000000
0.400000
-0.200000
0.100000
0.500000
0.200000
-0.400000
0.500000
-0.300000
0.200000
0.500000
-0.300000
0.400000
0.100000
0.200000
0.100000
0.300000
-0.100000
0.100000
-0.100000
0.000000
0.100000
-0.300000
0.300000
0.500000
-0.400000
-0.300000
0.300000
0.400000
0.100000
0.500000
-0.100000
0.300000
0.100000
0.300000
0.500000
-0.100000
-0.100000
-0.100000
0.300000
-0.200000
0.400000
0.400000
-0.400000
-0.200000
0.300000
0.000000
0.400000
0.200000
0.500000
-0.300000
-0.400000
-0.300000
0.100000
0.400000
-0.100000
-0.100000
-0.200000
0.400000
0.500000
0.300000
-0.300000
0.200000
0.200000
0.400000
0.300000
-0.100000
0.200000
0.400000
0.000000
0.100000
0.000000
0.200000
0.100000
0.100000
-0.200000
0.200000
0.100000
0.200000
0.300000
0.400000
0.100000
0.500000
-0.200000
-0.300000
-0.400000
-0.200000
0.500000
0.200000
0.400000
0.200000
-0.100000
0.400000
0.500000
-0.300000
0.200000
0.200000
0.400000
0.200000
0.300000
0.400000
0.100000
-0.400000
-0.100000
0.300000
0.100000
-0.400000
0.300000
0.300000
0.400000
-0.400000
0.500000
0.500000
-0.400000
0.000000
0.300000
0.000000
0.400000
-0.200000
0.400000
0.200000
0.400000
-0.100000
0.000000
0.200000
0.500000
0.200000
0.100000
0.300000
0.100000
0.200000
-0.100000
0.300000
0.000000
-0.400000
0.200000
-0.200000
-0.100000
0.200000
-0.400000
0.400000
0.500000
0.000000
-0.300000
0.400000
-0.400000
0.500000
0.000000
0.100000
-0.300000
-0.300000
0.100000
-0.300000
0.200000
-0.300000
-0.200000
0.000000
0.500000
0.300000
0.000000
0.500000
0.400000
0.000000
0.300000
0.100000
-0.100000
0.300000
0.100000
0.000000
0.000000
0.100000
-0.400000
0.100000
-0.400000
0.300000
-0.400000
-0.100000
-0.400000
0.400000
0.200000
0.500000
-0.100000
0.300000
0.200000
0.200000
-0.400000
0.500000
0.000000
-0.200000
0.500000
-0.400000
-0.400000
0.500000
0.400000
-0.200000
-0.400000
0.200000
0.100000
0.400000
0.000000
0.000000
0.200000
0.100000
-0.400000
-0.200000
0.000000
0.100000
-0.300000
0.400000
0.200000
-0.100000
0.200000
-0.200000
0.400000
0.000000
0.400000
0.400000
0.500000
0.300000
0.000000
0.500000
0.400000
0.500000
-0.200000
0.200000
0.100000
0.200000
0.400000
0.400000
-0.300000
-0.200000
-0.400000
0.500000
0.000000
-0.400000
0.300000
0.400000
0.300000
0.500000
0.200000
0.100000
-0.200000
0.500000
0.500000
0.400000
-0.300000
0.200000
0.400000
0.400000
-0.300000
-0.300000
0.200000
0.200000
0.000000
-0.400000
0.300000
-0.300000
0.200000
0.100000
0.000000
-0.400000
0.500000
-0.100000
0.300000
0.100000
0.000000
-0.400000
-0.300000
0.000000
0.400000
-0.300000
-0.200000
-0.100000
-0.200000
0.000000
-0.400000
0.100000
0.200000
0.400000
0.500000
0.000000
0.100000
-0.100000
0.500000
-0.300000
0.400000
0.400000
-0.200000
0.100000
0.100000
0.000000
0.100000
0.300000
-0.400000
0.500000
-0.200000
-0.400000
0.100000
-0.200000
0.500000
0.000000
-0.100000
0.100000
-0.400000
0.300000
0.000000
0.000000
0.400000
0.300000
0.400000
0.100000
0.200000
0.200000
0.300000
0.400000
-0.400000
0.100000
-0.400000
0.200000
0.000000
0.000000
0.500000
-0.100000
0.400000
-0.200000
0.200000
0.400000
-0.100000
0.300000
0.500000
0.100000
-0.100000
-0.300000
0.300000
-0.400000
-0.100000
-0.300000
0.400000
-0.400000
-0.100000
0.200000
-0.400000
-0.300000
-0.200000
0.000000
0.200000
0.500000
0.500000
0.000000
0.100000
0.400000
0.200000
0.000000
-0.200000
0.200000
-0.200000
-0.300000
0.100000
0.300000
-0.300000
0.500000
0.100000
0.400000
-0.100000
0.000000
-0.300000
0.200000
-0.200000
0.300000
0.400000
-0.400000
-0.200000
0.400000
0.300000
0.400000
0.400000
0.300000
0.400000
0.200000
0.000000
-0.100000
0.500000
0.400000
0.000000
0.200000
0.500000
-0.300000
0.000000
0.200000
0.300000
0.300000
-0.100000
-0.200000
-0.400000
0.300000
-0.400000
-0.100000
0.400000
0.300000
0.400000
0.500000
0.500000
-0.300000
0.500000
0.500000
0.000000
-0.400000
-0.300000
0.400000
0.300000
0.100000
0.200000
0.500000
0.300000
0.500000
0.500000
0.100000
0.400000
-0.400000
-0.100000
0.000000
0.200000
-0.400000
-0.200000
0.100000
-0.300000
-0.400000
0.100000
0.500000
-0.300000
-0.200000
-0.200000
0.000000
-0.100000
0.500000
0.200000
-0.300000
0.500000
-0.400000
0.100000
-0.400000
0.200000
0.000000
0.100000
-0.200000
-0.300000
-0.100000
0.400000
0.100000
-0.200000
0.200000
-0.400000
-0.200000
0.500000
0.000000
0.100000
0.100000
-0.100000
0.000000
-0.300000
0.100000
-0.200000
-0.300000
-0.200000
0.000000
0.300000
0.400000
-0.200000
-0.200000
-0.100000
-0.400000
0.100000
-0.400000
0.200000
0.400000
0.400000
0.100000
-0.400000
0.000000
0.000000
0.500000
0.300000
0.200000
-0.400000
-0.100000
-0.400000
-0.300000
-0.300000
0.400000
0.200000
-0.100000
0.500000
0.500000
-0.400000
0.000000
0.100000
-0.300000
-0.200000
0.100000
-0.400000
-0.400000
-0.300000
0.200000
-0.300000
0.000000
0.300000
0.400000
0.000000
0.200000
0.400000
-0.100000
-0.200000
0.200000
0.500000
0.000000
0.300000
0.300000
0.400000
0.000000
0.500000
0.300000
-0.100000
0.300000
-0.300000
0.200000
-0.100000
-0.200000
0.100000
0.000000
0.200000
-0.200000
-0.200000
-0.300000
-0.300000
0.100000
0.500000
0.200000
0.000000
-0.300000
-0.400000
0.200000
0.400000
-0.200000
0.500000
-0.400000
0.200000
0.200000
0.000000
-0.200000
0.200000
-0.100000
0.100000
-0.400000
0.100000
0.500000
0.500000
-0.400000
-0.200000
-0.300000
-0.100000
0.000000
0.300000
0.300000
0.200000
0.000000
0.200000
-0.200000
-0.400000
0.400000
0.500000
0.000000
0.500000
-0.400000
0.200000
-0.100000
0.000000
0.000000
-0.400000
-0.100000
0.400000
-0.400000
-0.400000
0.400000
-0.200000
0.000000
-0.400000
0.100000
-0.200000
0.000000
0.500000
0.200000
0.300000
0.500000
0.200000
-0.300000
-0.300000
0.000000
-0.400000
0.100000
0.500000
0.200000
-0.200000
-0.200000
-0.400000
0.000000
-0.400000
0.500000
-0.100000
-0.300000
-0.200000
-0.100000
-0.400000
0.500000
-0.400000
0.400000
-0.200000
-0.400000
-0.300000
0.000000
-0.400000
0.500000
0.100000
0.500000
0.000000
0.300000
0.000000
-0.300000
0.500000
-0.200000
0.100000
-0.400000
0.200000
0.100000
0.500000
0.400000
0.400000
0.100000
-0.200000
0.400000
0.500000
-0.100000
0.100000
0.200000
-0.300000
0.500000
0.400000
0.500000
0.100000
0.000000
0.200000
0.000000
-0.400000
0.100000
0.300000
-0.200000
0.500000
-0.300000
0.300000
0.200000
0.500000
0.400000
0.300000
0.000000
-0.200000
0.000000
0.400000
-0.300000
0.000000
0.200000
0.400000
-0.100000
0.500000
-0.300000
0.100000
-0.300000
-0.200000
0.000000
-0.200000
0.000000
0.000000
0.500000
0.300000
0.100000
-0.300000
0.500000
0.100000
-0.400000
0.000000
0.100000
0.400000
0.300000
0.100000
-0.200000
-0.400000
0.500000
0.300000
0.300000
0.100000
-0.200000
-0.200000
0.500000
0.400000
-0.200000
0.400000
-0.200000
-0.300000
0.000000
0.400000
0.000000
-0.200000
0.100000
0.200000
-0.200000
0.300000
-0.400000
0.300000
0.300000
0.000000
0.300000
0.000000
0.500000
0.100000
0.500000
-0.300000
-0.300000
0.100000
0.100000
0.200000
0.200000
0.000000
0.300000
0.300000
0.500000
0.000000
0.500000
0.100000
0.200000
0.300000
-0.100000
-0.300000
-0.300000
0.400000
0.000000
-0.100000
0.300000
0.200000
-0.300000
-0.400000
0.400000
0.400000
0.000000
-0.100000
-0.300000
0.400000
-0.300000
-0.200000
0.400000
-0.400000
-0.400000
0.300000
0.500000
0.100000
0.400000
0.300000
-0.300000
0.500000
0.500000
0.100000
-0.100000
0.500000
0.500000
0.200000
-0.400000
-0.300000
0.000000
0.100000
0.000000
0.100000
0.100000
-0.300000
0.500000
-0.400000
-0.300000
-0.400000
-0.200000
0.500000
-0.400000
-0.300000
0.100000
-0.400000
0.300000
0.500000
-0.300000
0.500000
-0.200000
0.200000
0.500000
0.300000
0.000000
0.500000
-0.200000
0.500000
0.300000
-0.200000
-0.400000
0.500000
0.500000
-0.100000
0.100000
0.400000
0.000000
0.400000
0.300000
-0.400000
-0.200000
0.500000
-0.100000
0.200000
-0.100000
0.200000
-0.100000
-0.200000
-0.100000
-0.100000
0.200000
0.200000
0.300000
0.100000
-0.300000
0.400000
-0.200000
0.400000
-0.400000
0.500000
-0.100000
-0.200000
0.400000
0.200000
0.200000
-0.300000
0.400000
-0.200000
-0.400000
0.400000
0.200000
0.500000
0.400000
-0.300000
0.200000
0.500000
0.200000
0.100000
-0.100000
-0.200000
0.200000
0.300000
0.000000
0.100000
-0.300000
0.300000
-0.200000
-0.400000
0.200000
-0.100000
0.000000
0.100000
-0.100000
0.100000
0.400000
-0.400000
-0.300000
-0.200000
-0.100000
0.500000
0.400000
0.200000
0.000000
0.000000
-0.100000
-0.300000
-0.100000
-0.300000
0.300000
0.100000
-0.100000
0.000000
0.200000
0.200000
-0.400000
0.100000
-0.300000
-0.400000
0.300000
0.500000
0.400000
0.000000
0.000000
-0.400000
0.100000
-0.200000
0.000000
0.500000
-0.400000
0.500000
0.400000
0.100000
0.400000
0.200000
0.300000
-0.400000
-0.300000
-0.100000
0.200000
-0.400000
-0.400000
0.000000
0.400000
0.400000
0.500000
-0.200000
-0.100000
-0.400000
0.300000
0.300000
0.100000
-0.100000
-0.400000
0.200000
0.300000
0.200000
0.100000
0.400000
-0.300000
0.500000
0.400000
-0.100000
-0.300000
-0.400000
0.000000
-0.200000
-0.100000
0.200000
-0.300000
0.300000
0.400000
0.100000
0.000000
0.100000
0.500000
-0.400000
0.400000
0.400000
-0.300000
0.000000
0.000000
0.000000
0.100000
0.200000
0.500000
-0.400000
-0.200000
-0.200000
-0.400000
0.400000
0.400000
-0.400000
-0.300000
0.100000
-0.200000
-0.400000
0.300000
0.000000
-0.400000
-0.400000
0.100000
-0.200000
-0.100000
-0.300000
-0.200000
0.100000
-0.400000
-0.100000
0.300000
0.200000
-0.100000
-0.200000
0.400000
-0.300000
-0.300000
0.400000
0.200000
0.100000
-0.300000
0.100000
-0.300000
-0.300000
0.000000
0.100000
0.100000
0.400000
0.500000
0.400000
0.300000
0.400000
0.500000
0.300000
0.500000
0.000000
0.500000
0.400000
0.500000
-0.300000
-0.200000
0.500000
0.000000
0.300000
0.000000
0.100000
0.300000
0.100000
0.300000
-0.400000
-0.300000
0.000000
-0.100000
-0.100000
0.400000
0.500000
0.100000
0.400000
-0.100000
-0.100000
0.000000
0.200000
0.400000
0.100000
-0.100000
0.300000
-0.400000
0.400000
-0.100000
-0.200000
-0.200000
-0.200000
-0.199991
0.488497
-0.000344
-0.209713
-0.199998
0.500000
0.223449
0.199964
-0.199879
0.200037
0.400512
0.000000
0.399999
-0.200065
-0.311916
0.510601
0.101851
0.400935
-0.390724
0.235757
0.502907
-0.299418
0.499993
-0.305726
0.300058
0.399989
0.500574
-0.100274
0.199678
-0.257622
-0.000027
0.099782
-0.400032
0.103108
0.389529
-0.000199
-0.298111
0.494066
-0.300001
-0.013642
-0.299992
0.386688
0.399992
0.005994
0.383684
-0.078214
0.295227
-0.395810
0.400229
-0.197314
0.499999
-0.000000
0.099992
0.309544
-0.199993
-0.099936
-0.300057
0.299995
-0.200208
-0.399353
-0.002823
-0.304345
0.389865
-0.292874
0.203760
-0.199999
-0.384494
0.202060
0.002652
-0.299801
0.199997
0.499630
-0.399982
0.000003
-0.110968
-0.400162
0.188461
-0.300024
-0.400233
-0.261976
0.399750
-0.199937
0.199998
-0.100251
-0.299824
-0.084948
0.200003
0.299986
-0.100063
0.501195
-0.299942
-0.200023
0.500071
0.099986
-0.302811
0.400397
-0.300211
0.406008
0.200004
-0.300001
-0.198249
-0.300000
-0.399993
0.000003
0.410989
-0.400003
-0.104184
-0.096611
-0.399477
-0.000001
-0.000250
0.293209
-0.300762
0.405731
-0.099999
0.299970
-0.207435
-0.300002
-0.303701
0.499314
0.000005
0.500020
-0.399961
-0.400352
-0.199913
0.205447
0.199994
-0.082766
-0.002101
0.199739
-0.302001
0.200136
-0.400695
0.293107
-0.100435
-0.095431
-0.000391
-0.400104
0.399961
0.100251
-0.400098
-0.300135
-0.198542
0.093523
0.116762
0.299997
-0.200012
0.299996
-0.200002
0.300000
0.499870
-0.400707
-0.300006
0.399989
-0.090459
0.300001
0.300016
-0.207013
0.100010
-0.299946
0.209440
-0.400000
-0.300190
0.099969
-0.099997
-0.298881
-0.104382
-0.299998
-0.199989
-0.000315
-0.288026
-0.200000
0.000022
-0.199149
0.400049
-0.190110
0.198473
-0.199657
0.499947
-0.399975
-0.097884
-0.399985
0.300002
0.300005
0.499580
0.399995
-0.100765
0.398906
0.000001
0.000005
-0.400331
-0.100011
0.101028
-0.100006
-0.199976
0.300610
-0.100149
-0.301095
-0.099393
-0.400018
0.300009
-0.311503
-0.300344
0.090287
0.100002
0.500000
-0.176551
-0.400036
-0.399879
-0.299963
0.100512
0.400000
0.399999
-0.000065
-0.111916
-0.189399
0.201851
0.300935
0.509276
-0.264243
-0.297093
-0.399418
0.199993
0.394274
0.200058
-0.100011
0.400574
0.499726
0.399678
0.042378
0.299973
0.299782
0.299968
0.503108
0.089529
0.299801
-0.198111
0.394066
-0.300001
0.186358
0.200008
0.086688
-0.400008
-0.094006
0.183684
0.221786
0.295227
0.304190
-0.099771
0.002686
0.299999
0.300000
0.099992
0.009544
-0.099993
0.300064
0.199943
-0.300005
-0.000208
-0.199353
-0.302823
0.395655
0.389865
0.507126
0.503760
0.500001
0.215506
-0.197940
-0.397348
-0.099801
-0.200003
-0.300370
-0.299982
-0.199997
0.389032
-0.000162
0.288461
0.199976
0.399767
-0.061976
-0.100250
0.100063
0.299998
0.399749
-0.399824
-0.184948
0.300003
-0.300014
0.299937
-0.298805
0.300058
-0.100023
0.500071
-0.200014
-0.402811
0.100397
0.399789
-0.293992
-0.099996
0.399999
0.501751
-0.200000
-0.299993
-0.399997
0.010989
0.399997
-0.304184
0.103389
0.400523
-0.100001
0.099750
-0.206791
-0.000762
-0.194269
-0.399999
0.199970
0.492565
0.099998
0.096299
-0.400686
0.000005
0.500020
-0.199961
0.099648
-0.399913
-0.094553
0.099994
-0.182766
-0.002101
-0.000261
-0.302001
0.000136
0.499305
0.293107
0.399565
-0.195431
0.499609
0.299896
0.399961
-0.299749
0.399902
0.299865
-0.098542
-0.106477
0.516762
-0.300003
0.399988
0.399996
-0.300002
0.300000
-0.300130
0.499293
-0.300006
-0.300011
0.009541
0.300001
-0.299984
0.492987
0.200010
-0.199946
0.209440
-0.000000
0.099810
0.199969
0.300003
0.001119
0.095618
0.000002
0.400011
-0.300315
-0.288026
0.100000
0.500022
0.400851
-0.299951
0.309890
-0.401527
-0.199657
-0.100053
0.300025
0.302116
0.100015
0.400002
-0.199995
0.099580
0.299995
0.399235
0.098906
0.300001
-0.399995
0.099669
-0.200011
0.501028
0.199994
0.400024
-0.099390
0.399851
-0.201095
-0.199393
0.299982
0.000000
0.200000
-0.200000
-0.200000
-0.400000
0.400000
0.200000
-0.300000
0.300000
0.100000
-0.200000
0.300000
0.300000
0.300000
-0.200000
0.100000
0.400000
-0.300000
-0.300000
0.400000
-0.200000
0.200000
0.300000
0.400000
0.500000
-0.400000
0.400000
0.000000
-0.200000
-0.300000
-0.400000
0.400000
-0.200000
0.200000
-0.200000
-0.300000
-0.200000
0.100000
-0.100000
0.000000
0.300000
0.400000
-0.400000
-0.400000
-0.400000
-0.200000
0.300000
-0.100000
0.500000
0.300000
0.000000
0.400000
0.500000
0.500000
0.400000
0.500000
-0.400000
-0.300000
0.100000
0.400000
0.000000
0.500000
-0.400000
0.000000
0.300000
0.100000
0.200000
0.500000
0.500000
0.400000
-0.100000
-0.300000
-0.200000
0.400000
-0.200000
0.500000
0.300000
-0.200000
-0.200000
-0.100000
0.100000
0.000000
-0.400000
-0.100000
0.500000
0.000000
0.000000
-0.300000
0.000000
0.100000
0.200000
0.200000
-0.100000
0.200000
-0.200000
-0.100000
0.300000
-0.200000
-0.400000
-0.100000
-0.200000
0.000000
0.500000
-0.300000
0.000000
0.500000
-0.200000
0.200000
-0.100000
-0.100000
0.300000
0.000000
0.400000
-0.200000
0.500000
0.200000
-0.200000
0.300000
0.000000
0.100000
0.000000
0.100000
-0.100000
0.500000
-0.100000
-0.200000
0.000000
-0.200000
-0.300000
-0.300000
0.400000
-0.100000
-0.400000
0.300000
0.300000
0.200000
-0.300000
0.300000
0.400000
0.400000
-0.100000
0.100000
-0.200000
-0.300000
-0.100000
-0.300000
0.300000
0.200000
-0.200000
0.400000
0.400000
-0.400000
-0.200000
0.500000
-0.200000
-0.400000
0.500000
0.100000
0.500000
-0.200000
-0.200000
-0.400000
-0.100000
-0.400000
-0.300000
0.400000
-0.300000
0.300000
0.400000
-0.200000
0.200000
0.200000
-0.100000
-0.400000
0.200000
0.400000
-0.100000
0.100000
-0.300000
-0.300000
0.000000
0.400000
0.400000
0.500000
0.200000
-0.100000
-0.400000
-0.100000
-0.400000
-0.100000
-0.300000
-0.400000
0.000000
0.100000
-0.300000
0.100000
0.300000
-0.100000
-0.300000
-0.100000
0.200000
0.199924
0.400010
-0.110996
0.500010
-0.100000
-0.399794
0.300046
0.500012
0.200396
0.195113
-0.099915
-0.100000
-0.099995
0.099692
-0.297730
-0.081368
0.500000
0.500057
-0.100008
-0.397685
-0.301804
-0.199994
-0.316110
0.100009
-0.400074
-0.199951
-0.299288
0.500059
0.386783
0.399999
0.500001
0.200000
0.101030
-0.402433
-0.200000
0.500030
0.196022
0.300000
-0.229396
0.502036
-0.004799
0.300000
0.297684
-0.400001
0.501368
0.399998
0.010493
0.000222
-0.099998
-0.200000
0.200000
-0.401011
-0.099914
-0.299999
0.000006
-0.392229
-0.100000
-0.100000
0.499989
0.199998
-0.100188
0.287997
0.403992
0.203063
-0.299818
-0.200057
0.016652
-0.400102
-0.400132
-0.200003
-0.000000
0.300050
0.300390
-0.201920
0.500026
0.196710
0.000001
-0.000017
0.283588
-0.100000
0.000003
0.300000
-0.199939
0.493443
-0.399994
0.000004
0.000000
-0.200026
-0.197174
-0.200001
0.200000
-0.105355
0.000000
-0.023831
-0.083004
0.399990
0.196383
0.000018
0.199997
0.496672
-0.100000
0.400000
-0.200000
0.199224
-0.299172
0.094160
0.201789
0.100002
-0.100019
0.100165
-0.304257
0.000003
0.300009
-0.000000
0.399981
-0.161599
0.200009
0.496358
0.077122
0.100004
-0.199979
0.301045
0.100016
-0.099831
0.400217
-0.099727
-0.099500
-0.104376
0.191544
0.192546
0.401201
-0.081509
-0.001573
0.000002
-0.102008
-0.300000
-0.300063
-0.400001
0.400001
0.099993
-0.200019
0.500176
0.093839
0.000107
0.000000
0.000001
0.100000
-0.200000
-0.000000
0.299999
-0.399964
-0.300000
0.507978
0.299689
-0.100000
0.000000
0.264325
-0.000000
-0.291177
-0.399934
-0.400000
-0.299856
-0.100131
0.200028
0.500000
0.504462
0.399995
0.200001
-0.300004
-0.101115
-0.299999
-0.300010
0.300107
0.001643
-0.397146
-0.201193
0.406633
0.099999
0.300001
0.500002
-0.400000
-0.299999
0.400000
-0.198959
-0.100000
0.000593
-0.100002
0.000000
0.200000
0.195865
-0.000046
-0.100001
0.200000
-0.000000
0.000497
-0.199984
0.476770
0.400001
0.500008
0.200063
-0.201214
0.199652
0.388955
0.200011
0.099997
-0.396174
-0.099588
0.499511
0.300396
0.393389
-0.399915
-0.300000
-0.300161
-0.304888
-0.194998
0.019079
0.500058
-0.399370
0.500102
0.201519
-0.201695
0.300005
-0.018443
0.300007
0.199918
0.000580
-0.199313
-0.199691
-0.410084
0.499907
0.400002
0.400000
0.101136
0.093892
-0.000002
-0.399935
-0.004477
-0.100000
0.065358
-0.197954
-0.105988
-0.300001
0.500427
0.499989
0.501495
-0.300215
-0.086927
-0.200302
-0.299701
0.199993
0.199983
-0.301009
0.301147
-0.099992
0.200007
-0.295030
-0.000000
-0.100000
-0.199985
0.499986
-0.100241
0.383291
0.406909
0.204092
-0.399815
-0.000031
0.518527
0.402537
0.200060
-0.300015
-0.300046
-0.100032
-0.199610
-0.403369
-0.200242
0.494004
-0.099607
0.499948
0.399303
0.099998
-0.099899
0.100000
0.300067
-0.307406
0.300547
0.300020
-0.100000
-0.300038
-0.195768
-0.399975
0.299998
-0.404507
0.200001
-0.326054
-0.079158
0.499973
-0.100284
-0.099983
-0.300003
-0.299224
-0.100000
-0.200000
0.200001
0.204678
0.400954
0.388888
0.001453
0.500007
0.099976
0.497377
0.194874
0.099986
0.100252
0.098966
0.299954
0.030503
-0.399992
0.392996
0.176714
-0.200089
0.400166
0.300873
0.200006
-0.299674
0.403467
0.100469
0.410547
-0.004470
0.493028
0.293303
-0.097915
-0.083138
0.495399
-0.199941
0.197972
-0.199999
0.299937
0.499999
0.500001
-0.300011
0.000003
-0.399923
-0.408423
0.401361
-0.400000
0.000125
-0.099395
-0.400000
0.200003
-0.400086
0.200029
0.099984
-0.192051
0.004733
-0.099903
0.000025
0.264905
-0.099993
-0.191143
0.303633
0.100002
-0.300685
-0.300315
0.299836
-0.299999
0.504214
-0.200009
-0.199986
0.399954
-0.099525
-0.099999
-0.100008
-0.199765
0.101653
0.509075
-0.201274
0.006803
0.399998
0.200015
0.200421
-0.400002
-0.100000
0.300000
-0.400432
0.499999
-0.199003
0.499600
-0.099715
0.200002
-0.200699
0.199947
0.500037
0.499889
-0.000005
-0.394561
0.400027
0.374954
0.300307
0.300004
0.300063
0.491908
-0.000519
0.381138
-0.299985
-0.300003
0.417604
0.300423
-0.200480
0.000459
-0.010362
0.500085
0.400000
0.299814
0.495018
-0.294078
-0.174247
0.300146
0.501550
-0.396354
-0.198393
0.198125
0.500007
-0.123100
0.300015
0.199892
-0.398679
0.300686
-0.398959
0.202961
0.195682
0.200009
0.100000
-0.098688
-0.112891
-0.000003
0.100106
0.490387
0.300000
0.258708
0.002246
0.188511
-0.400002
0.005142
-0.200016
-0.288922
-0.400316
0.113842
-0.100188
0.200302
0.099992
0.299982
0.498987
0.003289
-0.099982
-0.399989
-0.295745
-0.000000
0.300000
-0.300155
-0.400020
-0.400348
0.270352
0.207611
-0.194572
0.500186
-0.100189
0.223777
0.504412
0.400085
-0.100187
-0.200047
0.000034
-0.099438
0.194218
-0.400492
0.492597
-0.099408
0.199678
-0.077204
-0.000002
-0.199897
0.400000
0.400100
0.390646
0.500825
-0.099936
0.200000
-0.300044
-0.295015
-0.199843
0.099986
-0.304387
-0.399997
0.459306
-0.364301
-0.000091
-0.099264
0.000007
0.299994
0.099411
-0.300000
-0.200000
0.500001
-0.292650
0.204081
-0.328251
-0.198697
0.400019
-0.300169
0.293947
-0.211221
-0.000017
-0.099722
0.498961
0.299898
0.017742
0.300005
-0.216957
-0.128849
0.199875
-0.099788
-0.293806
-0.099999
0.100387
0.003636
0.201530
0.534326
-0.304947
-0.104653
-0.408988
-0.297667
-0.276581
0.292676
0.400063
-0.102601
0.199912
0.299923
-0.100004
0.500007
-0.100128
0.299973
-0.299891
-0.334971
-0.083689
0.300000
-0.099871
0.400659
0.200000
0.100003
-0.300116
-0.199973
0.299979
0.014750
0.410804
0.000099
-0.199952
0.353510
-0.199990
0.109507
-0.296072
0.500002
0.099325
-0.099745
0.099829
0.400005
0.009143
-0.100009
0.100014
-0.000050
-0.095889
0.000001
0.499998
0.105927
-0.398298
0.314390
0.396906
-0.193104
-0.200006
-0.199875
-0.199573
-0.100001
0.200000
-0.000003
0.298366
0.399999
-0.198113
-0.402971
-0.099712
0.400003
0.001399
-0.100534
-0.399937
-0.100110
0.399992
-0.293741
0.500190
0.070548
-0.199646
-0.000002
-0.200000
0.193122
-0.000171
-0.207817
0.100004
0.500000
0.013778
-0.299989
0.100009
0.200064
0.396249
-0.100000
0.200000
-0.300026
0.499907
0.400919
0.506674
0.200087
0.200920
-0.396456
0.300089
0.199821
-0.199998
-0.304657
-0.399992
0.199974
-0.199258
0.499999
0.200733
-0.186955
0.395775
0.200007
0.200000
0.500176
0.093217
-0.400001
-0.299960
0.194864
-0.300000
-0.206650
0.500200
-0.305501
0.099999
0.304715
-0.300004
-0.090417
0.099899
-0.299231
-0.099886
-0.199996
-0.000000
-0.200000
-0.200004
0.402141
0.000010
0.500004
0.499285
-0.000000
-0.300000
-0.400169
-0.300006
0.299893
-0.312939
-0.199297
-0.098664
0.200002
-0.000158
-0.294750
0.501875
0.400025
0.499828
-0.200001
0.300066
-0.399828
0.197587
-0.300250
-0.101407
0.500199
-0.200271
0.223493
-0.100000
0.500002
-0.300000
-0.099967
-0.101947
0.500278
-0.399956
-0.400000
0.199995
0.300753
-0.299868
0.499988
-0.199880
0.000002
-0.014640
0.314857
-0.100064
0.501020
-0.400010
-0.000003
0.498635
-0.200000
0.100000
0.000000
0.002672
-0.096873
0.482861
-0.300150
-0.399989
0.499855
0.196570
-0.206095
-0.200003
0.200026
-0.000005
0.199944
0.087240
-0.100002
0.090047
0.294437
-0.000035
0.400047
0.005320
0.399996
0.000060
0.100168
-0.298940
0.423779
0.199523
0.502319
-0.002291
-0.099752
0.006557
0.497277
-0.399996
-0.200573
-0.000089
-0.200014
-0.400002
0.200005
0.099882
-0.300030
0.200032
-0.326548
-0.085050
0.500000
-0.199996
-0.399946
-0.100000
0.000000
-0.000030
-0.200002
0.199994
-0.093199
0.506071
0.200002
0.200023
-0.411395
-0.399997
0.200650
0.500296
0.400000
0.400010
-0.299430
0.199993
-0.299996
-0.295071
0.300000
0.500000
-0.300004
0.203635
-0.100000
0.500006
-0.294308
0.000050
0.405315
-0.001820
-0.399907
-0.100004
0.200110
-0.099994
-0.400000
0.100000
0.099997
-0.401202
-0.400000
-0.199109
-0.302572
0.400003
0.000002
0.302098
0.199519
0.500026
-0.199999
-0.000004
0.100821
0.100162
-0.004406
0.200047
0.299994
0.500000
-0.203943
-0.200144
-0.005931
0.300004
-0.100000
-0.086351
0.499996
0.400002
0.100059
0.396456
0.400000
-0.300000
-0.100019
-0.000093
-0.099151
-0.393618
0.100087
-0.099052
0.303547
0.300092
0.299849
0.400002
0.496964
0.000008
0.499974
-0.299262
-0.400001
-0.199283
-0.183670
-0.300797
0.300007
0.400000
0.100015
0.194579
-0.300001
0.500024
-0.204668
-0.300000
-0.206166
-0.399804
-0.403792
0.499999
0.504740
-0.100004
0.509452
-0.300103
0.400769
0.500077
-0.099997
0.500000
0.100000
-0.300004
-0.197856
0.200010
0.000004
-0.400769
-0.200000
-0.300000
-0.100161
0.099996
-0.300027
-0.112745
0.000694
0.201289
0.200001
0.399850
-0.296362
-0.097486
0.200026
-0.400001
-0.200001
0.200006
0.400006
-0.200620
-0.000251
0.298270
0.000024
0.499729
0.323673
0.400000
0.000002
0.500000
0.200034
-0.301976
-0.199733
0.000044
0.200000
0.299995
0.101110
-0.399865
0.499988
-0.299874
0.000001
0.186858
0.213051
-0.200027
0.001212
0.499990
-0.000001
0.498129
0.300000
-0.300000
0.400000
0.204345
-0.096996
0.188641
0.399524
-0.299989
-0.100138
0.496628
-0.406202
-0.200003
-0.199974
0.299996
-0.300056
-0.411402
0.299997
0.189773
-0.302385
-0.400036
-0.299974
-0.094673
0.499994
0.300058
0.000172
-0.198961
-0.176344
0.099535
0.102582
0.299185
0.300248
-0.095066
0.097407
0.000002
0.099362
-0.300017
0.199986
0.099998
0.400002
-0.000003
0.500006
-0.199969
-0.317963
-0.285069
-0.200000
0.100001
0.300001
-0.200000
-0.300000
0.399969
-0.400001
-0.300006
0.504058
0.306218
0.500001
0.300023
0.090290
-0.199997
0.000646
-0.199710
0.500000
-0.200438
0.500501
0.499993
0.000004
0.103257
0.200000
0.100000
0.099997
0.503654
-0.300000
0.300006
0.005012
0.500048
0.204851
-0.301758
0.400082
0.099996
-0.199899
0.200005
0.500000
0.100000
-0.200000
-0.202071
0.500000
-0.400202
-0.000293
-0.200000
-0.199998
0.002176
0.499974
-0.299974
-0.399999
0.199997
-0.299321
0.100117
-0.400400
0.500046
-0.100016
0.000000
0.496248
-0.300002
0.199808
0.500000
0.300000
0.307810
-0.100000
-0.200001
0.400001
0.098793
0.400000
0.500000
-0.000000
0.299926
0.200413
0.200344
0.100006
-0.199052
-0.296484
0.100016
0.300046
-0.100000
-0.301165
-0.200000
0.400000
-0.199988
0.199996
0.300000
0.312062
0.500000
0.400002
-0.000000
0.000004
-0.103624
-0.200000
0.400000
0.197926
-0.300000
0.295615
-0.200000
0.199812
-0.100000
0.204580
0.099997
-0.191465
-0.000017
-0.099949
-0.400006
0.300002
-0.300000
0.300000
0.100002
0.400019
-0.100000
-0.300000
-0.000807
0.100000
0.100000
0.100001
-0.300003
0.399999
0.392927
0.500007
0.200017
0.000000
-0.300143
-0.400247
-0.397423
0.500000
-0.400000
0.300000
-0.300001
0.199999
0.499613
0.399845
0.098670
0.000002
0.099994
0.414627
-0.000000
0.100000
-0.100000
-0.299970
-0.200391
0.100263
-0.400000
0.200000
-0.000000
-0.099383
0.300134
-0.300000
0.200028
-0.100000
-0.104458
-0.099943
-0.000002
0.001158
-0.200000
0.200000
0.399765
-0.400000
-0.300000
-0.400000
-0.195609
0.300027
0.290703
-0.100079
0.300001
0.399999
-0.000049
-0.401579
0.100000
-0.200000
-0.300000
-0.400001
-0.401683
-0.000000
0.298763
0.299153
0.299967
-0.199996
0.400016
-0.300000
0.100001
0.400090
0.500000
-0.377599
-0.300151
0.002140
-0.200511
-0.299917
0.099985
-0.001863
0.000001
-0.400449
-0.200002
-0.000000
-0.100000
0.200000
0.400000
-0.399997
0.100007
0.089268
-0.088060
-0.100000
0.400000
0.300001
-0.400000
-0.300000
0.399996
0.499998
0.100000
-0.000061
0.201031
0.300000
-0.300000
0.298543
0.500000
0.400002
-0.199767
0.300000
-0.200475
-0.400024
0.399999
-0.300000
0.499178
-0.000000
0.000000
0.500000
0.503512
0.400000
-0.299988
0.004667
-0.299999
0.402848
0.099980
-0.199989
-0.000000
0.400002
0.300001
0.500000
0.400000
-0.200000
-0.003460
-0.400000
0.399168
0.199816
0.000000
-0.400000
0.200175
0.300000
0.400006
0.000001
-0.400000
-0.199394
0.099994
-0.000411
0.100032
0.300000
-0.200000
0.100000
0.000000
0.000000
0.000000
-0.400000
-0.300000
0.000000
0.000000
0.400000
-0.100000
-0.400000
-0.400000
-0.200000
0.300000
-0.300000
-0.400000
0.200000
0.400000
0.400000
0.400000
-0.100000
-0.300000
-0.400000
-0.300000
-0.100000
0.400000
0.400000
0.200000
0.400000
0.400000
-0.400000
-0.100000
-0.200000
0.300000
0.400000
0.000000
0.000000
-0.300000
-0.400000
0.400000
0.500000
0.100000
0.100000
-0.300000
0.200000
-0.100000
0.200000
0.200000
0.400000
0.400000
0.300000
0.200000
-0.400000
0.200000
0.500000
-0.100000
0.500000
-0.100000
0.300000
-0.100000
0.100000
0.200000
0.400000
0.300000
-0.400000
0.200000
0.300000
0.300000
-0.400000
0.300000
0.100000
-0.400000
0.500000
-0.100000
0.000000
0.000000
0.300000
0.300000
-0.100000
0.000000
0.000000
0.500000
-0.100000
-0.300000
-0.100000
-0.300000
0.100000
0.200000
-0.100000
-0.100000
0.000000
0.000000
0.400000
-0.400000
-0.100000
-0.300000
-0.100000
-0.300000
-0.300000
0.000000
-0.400000
0.300000
0.200000
-0.300000
-0.400000
0.200000
-0.100000
-0.300000
0.400000
0.500000
0.100000
0.400000
-0.200000
-0.200000
-0.400000
0.400000
0.300000
-0.400000
0.000000
0.200000
-0.400000
0.500000
0.400000
-0.300000
0.000000
-0.200000
0.000000
-0.200000
0.500000
-0.300000
-0.100000
0.000000
0.300000
0.300000
0.000000
-0.300000
0.000000
-0.100000
0.500000
0.400000
0.200000
-0.100000
-0.300000
-0.200000
0.200000
0.100000
-0.100000
-0.100000
0.000000
-0.200000
-0.300000
-0.100000
-0.300000
0.100000
0.100000
0.200000
-0.400000
0.000000
0.300000
0.200000
-0.200000
-0.200000
-0.100000
-0.200000
0.500000
-0.200000
-0.400000
-0.100000
-0.300000
0.500000
0.300000
0.100000
0.000000
-0.300000
0.100000
-0.300000
-0.400000
-0.200000
0.300000
0.400000
0.500000
-0.400000
-0.100000
0.200000
0.200000
-0.100000
0.400000
-0.300000
0.100000
-0.300000
0.300000
0.200000
-0.100000
-0.200000
-0.200000
0.000000
0.200000
0.300000
-0.100000
0.000000
0.400000
-0.100000
0.100000
0.100000
0.300000
0.200000
0.500000
0.500000
-0.100000
-0.400000
0.100000
-0.300000
0.500000
0.300000
-0.100000
0.000000
0.200000
0.200000
0.100000
0.400000
-0.300000
0.400000
0.000000
0.200000
0.200000
0.200000
-0.100000
0.200000
0.000000
0.200000
0.300000
-0.200000
0.100000
-0.400000
-0.200000
-0.100000
0.100000
0.100000
0.400000
0.000000
0.300000
0.500000
0.500000
-0.200000
0.000000
0.000000
0.200000
0.400000
0.300000
0.000000
-0.400000
-0.300000
-0.300000
-0.100000
0.500000
-0.100000
0.200000
0.200000
-0.200000
0.200000
0.500000
0.100000
0.100000
0.000000
0.100000
0.100000
0.400000
0.000000
0.500000
-0.200000
0.300000
-0.400000
-0.200000
-0.300000
0.200000
-0.300000
-0.400000
-0.400000
-0.100000
0.000000
0.100000
-0.100000
-0.200000
-0.200000
0.300000
0.400000
0.500000
0.400000
0.000000
0.000000
0.200000
-0.200000
-0.100000
-0.300000
-0.200000
0.200000
-0.300000
0.100000
-0.200000
-0.400000
0.100000
0.500000
0.400000
0.200000
0.000000
-0.200000
0.500000
0.400000
-0.200000
-0.200000
0.500000
0.100000
0.400000
-0.400000
0.400000
0.500000
0.500000
-0.100000
0.200000
-0.300000
0.200000
0.500000
0.300000
0.000000
0.400000
0.000000
-0.100000
-0.300000
0.100000
0.400000
0.200000
0.200000
-0.300000
-0.100000
-0.200000
-0.300000
0.300000
-0.300000
0.300000
0.100000
0.100000
-0.100000
-0.400000
-0.300000
-0.200000
0.500000
0.400000
-0.100000
0.300000
-0.100000
0.100000
0.100000
0.000000
0.300000
-0.400000
-0.300000
0.100000
0.400000
-0.100000
0.000000
-0.300000
-0.400000
0.500000
0.200000
-0.300000
0.000000
0.000000
0.300000
0.100000
0.300000
0.100000
0.000000
0.500000
0.200000
0.100000
0.300000
0.100000
0.400000
-0.300000
0.500000
0.100000
0.400000
0.400000
0.300000
0.200000
-0.100000
0.500000
0.400000
0.000000
-0.400000
-0.300000
0.100000
-0.200000
0.200000
-0.400000
-0.100000
-0.300000
0.000000
0.100000
0.100000
-0.200000
-0.400000
-0.300000
0.400000
0.300000
0.300000
0.300000
-0.200000
0.300000
-0.200000
-0.300000
0.300000
-0.300000
0.200000
0.200000
-0.300000
0.400000
0.500000
-0.100000
-0.400000
-0.400000
-0.400000
-0.200000
0.100000
-0.100000
0.400000
-0.400000
0.000000
-0.300000
-0.400000
-0.400000
0.400000
-0.400000
-0.200000
-0.400000
0.200000
0.100000
0.000000
0.500000
0.200000
-0.400000
0.100000
0.300000
-0.300000
0.100000
-0.200000
0.300000
-0.200000
-0.100000
0.300000
0.300000
0.500000
-0.300000
-0.400000
0.400000
0.200000
-0.200000
0.200000
0.000000
0.100000
-0.300000
0.000000
0.100000
0.400000
0.100000
0.300000
0.200000
0.100000
-0.100000
0.200000
0.400000
0.400000
0.200000
0.000000
-0.100000
-0.100000
-0.300000
0.400000
0.400000
0.500000
0.500000
0.200000
-0.200000
0.400000
0.400000
0.300000
-0.400000
-0.100000
-0.400000
0.100000
0.200000
0.500000
0.400000
-0.200000
-0.400000
-0.200000
0.000000
0.400000
0.000000
-0.300000
0.300000
0.500000
0.100000
0.000000
-0.400000
0.500000
0.000000
0.400000
0.400000
0.500000
-0.200000
-0.400000
-0.200000
0.000000
-0.100000
0.300000
0.300000
-0.400000
-0.100000
0.100000
0.100000
0.100000
0.500000
-0.400000
0.200000
-0.100000
0.200000
0.400000
0.300000
0.000000
-0.200000
-0.200000
-0.300000
-0.300000
-0.100000
0.500000
-0.200000
-0.400000
0.100000
-0.400000
-0.400000
0.100000
-0.400000
0.300000
-0.400000
-0.300000
-0.200000
0.200000
0.300000
-0.300000
0.200000
-0.200000
0.500000
-0.300000
0.100000
0.100000
-0.200000
0.200000
0.100000
-0.100000
0.200000
0.400000
0.300000
0.300000
0.100000
0.500000
-0.400000
0.000000
0.000000
0.200000
0.400000
0.300000
0.400000
-0.200000
0.500000
-0.300000
0.100000
0.200000
-0.200000
-0.100000
0.400000
-0.400000
0.200000
-0.100000
0.000000
0.500000
0.100000
0.500000
0.300000
0.200000
0.000000
0.000000
-0.100000
-0.100000
-0.200000
-0.100000
-0.100000
0.500000
-0.100000
0.100000
0.200000
0.100000
0.000000
-0.400000
-0.300000
-0.100000
-0.400000
-0.100000
0.300000
-0.400000
-0.100000
0.300000
0.500000
-0.100000
-0.400000
0.100000
0.200000
-0.100000
0.300000
-0.400000
0.500000
0.000000
0.400000
-0.100000
-0.200000
0.200000
-0.200000
-0.300000
0.200000
0.400000
0.200000
0.300000
0.000000
0.300000
0.500000
0.400000
-0.100000
0.400000
-0.200000
0.200000
-0.400000
0.000000
0.400000
-0.200000
0.200000
0.200000
-0.100000
-0.100000
-0.100000
0.000000
0.200000
0.100000
-0.200000
0.100000
-0.200000
0.300000
-0.100000
0.400000
-0.400000
-0.300000
0.400000
0.400000
-0.200000
-0.100000
-0.300000
0.300000
0.000000
0.500000
0.400000
-0.200000
0.500000
-0.100000
-0.200000
0.100000
-0.100000
0.000000
-0.400000
0.000000
0.400000
0.100000
0.300000
-0.200000
0.500000
-0.100000
-0.300000
0.400000
-0.300000
0.100000
-0.400000
0.000000
0.400000
-0.300000
0.400000
0.500000
0.300000
0.100000
0.400000
0.000000
-0.100000
0.200000
-0.100000
-0.300000
-0.400000
0.200000
0.500000
0.000000
0.500000
0.400000
0.500000
0.000000
-0.200000
-0.300000
-0.100000
-0.100000
-0.400000
0.200000
-0.300000
0.200000
0.400000
0.500000
0.000000
0.500000
0.500000
-0.100000
0.500000
0.000000
0.500000
0.000000
0.500000
0.200000
-0.100000
0.500000
-0.300000
-0.100000
-0.200000
-0.100000
0.400000
-0.400000
0.100000
0.100000
-0.100000
0.200000
-0.100000
0.200000
0.100000
0.000000
-0.200000
0.500000
-0.200000
-0.400000
0.200000
-0.300000
0.500000
0.100000
0.300000
-0.100000
0.500000
0.500000
0.400000
-0.400000
-0.300000
0.500000
-0.300000
0.300000
0.400000
0.300000
0.400000
-0.100000
0.100000
-0.400000
0.200000
0.500000
0.000000
-0.200000
-0.400000
-0.300000
-0.400000
0.300000
-0.100000
-0.300000
-0.300000
-0.400000
0.500000
0.200000
0.300000
-0.400000
0.200000
0.100000
0.000000
0.200000
0.500000
-0.400000
-0.400000
-0.300000
-0.200000
0.100000
-0.100000
-0.300000
-0.100000
-0.100000
-0.300000
-0.100000
0.500000
0.300000
0.000000
-0.100000
-0.400000
0.400000
0.300000
0.400000
-0.200000
-0.400000
-0.400000
0.200000
0.400000
-0.200000
-0.200000
0.100000
-0.300000
0.100000
0.300000
0.000000
-0.200000
-0.100000
-0.400000
0.200000
0.300000
0.300000
0.400000
0.300000
-0.200000
-0.300000
0.100000
-0.300000
0.000000
-0.400000
0.400000
-0.300000
0.400000
-0.200000
0.000000
-0.400000
-0.300000
0.200000
-0.100000
-0.200000
-0.200000
-0.300000
0.000000
0.000000
0.500000
0.500000
0.500000
-0.200000
-0.100000
0.100000
0.300000
-0.100000
-0.100000
-0.400000
0.500000
0.200000
0.200000
-0.400000
-0.300000
0.000000
-0.400000
0.400000
0.500000
-0.200000
0.500000
0.400000
0.300000
0.200000
0.100000
-0.200000
0.400000
-0.100000
0.200000
-0.100000
-0.300000
-0.300000
0.300000
0.100000
0.000000
0.300000
0.200000
0.500000
0.300000
0.300000
-0.300000
-0.100000
0.200000
0.400000
0.500000
0.100000
0.100000
0.000000
0.400000
0.300000
0.300000
-0.300000
-0.400000
0.400000
-0.400000
-0.400000
-0.300000
0.100000
0.100000
-0.200000
-0.300000
-0.100000
-0.300000
-0.300000
0.200000
-0.400000
0.100000
0.500000
-0.400000
0.000000
0.000000
-0.200000
-0.300000
0.500000
-0.300000
-0.300000
-0.200000
0.200000
0.000000
-0.400000
0.500000
-0.400000
0.500000
0.200000
-0.200000
0.300000
-0.100000
-0.200000
-0.400000
-0.400000
0.400000
0.300000
0.200000
0.300000
-0.400000
-0.200000
-0.400000
0.500000
0.000000
0.200000
0.100000
0.200000
0.200000
0.000000
0.400000
-0.200000
0.400000
0.000000
0.000000
-0.200000
-0.100000
0.100000
0.000000
0.100000
-0.100000
0.300000
0.500000
0.000000
0.500000
0.400000
-0.100000
-0.100000
0.100000
0.400000
-0.200000
-0.200000
-0.200000
-0.400000
0.300000
-0.100000
0.100000
0.200000
0.300000
-0.300000
0.200000
0.400000
-0.100000
0.400000
0.400000
0.400000
0.400000
0.200000
0.000000
-0.100000
-0.400000
0.200000
0.500000
0.500000
0.200000
-0.300000
0.400000
0.400000
0.200000
0.300000
0.500000
-0.300000
0.200000
-0.300000
-0.400000
0.200000
0.500000
-0.200000
0.000000
0.100000
0.400000
0.500000
-0.200000
0.400000
-0.300000
-0.200000
0.300000
-0.300000
0.000000
-0.400000
-0.400000
-0.400000
0.200000
-0.100000
0.100000
-0.100000
-0.400000
0.200000
0.200000
0.400000
0.200000
0.100000
0.000000
-0.300000
0.300000
0.500000
0.000000
0.100000
0.300000
0.000000
0.500000
-0.400000
0.500000
-0.400000
-0.200000
0.400000
0.100000
0.300000
0.400000
0.500000
0.200000
0.000000
-0.100000
-0.400000
-0.100000
-0.300000
0.100000
-0.300000
0.200000
0.400000
0.500000
-0.200000
-0.100000
0.500000
0.300000
0.200000
-0.100000
0.200000
0.000000
-0.300000
0.300000
0.400000
0.400000
0.500000
0.200000
0.400000
-0.400000
0.100000
-0.200000
0.300000
-0.400000
-0.200000
0.200000
-0.100000
0.500000
0.300000
-0.400000
0.200000
0.500000
-0.300000
-0.100000
-0.200000
-0.100000
0.300000
-0.100000
0.400000
0.500000
-0.200000
-0.100000
0.000000
0.400000
-0.200000
0.300000
0.100000
0.200000
0.200000
0.200000
0.300000
-0.400000
0.300000
0.500000
-0.100000
-0.300000
0.200000
-0.200000
-0.400000
0.000000
0.000000
0.500000
0.300000
-0.200000
-0.300000
0.400000
0.300000
-0.200000
-0.200000
0.500000
-0.200000
0.400000
-0.200000
0.200000
0.400000
-0.200000
0.200000
-0.300000
0.300000
-0.300000
-0.300000
0.300000
0.300000
-0.200000
-0.200000
0.000000
0.200000
-0.100000
-0.300000
0.100000
0.400000
0.400000
-0.200000
0.300000
0.300000
-0.400000
0.300000
-0.200000
-0.200000
0.000000
0.400000
0.400000
0.200000
0.400000
0.500000
0.300000
0.100000
-0.300000
0.100000
0.200000
0.100000
-0.400000
0.300000
-0.200000
0.000000
-0.200000
-0.300000
0.000000
-0.200000
0.400000
-0.300000
0.100000
-0.200000
-0.100000
0.500000
-0.100000
0.300000
0.000000
0.000000
0.400000
0.300000
-0.300000
0.100000
0.100000
0.100000
0.200000
-0.300000
-0.300000
0.000000
-0.400000
0.400000
0.200000
-0.200000
-0.400000
-0.400000
-0.200000
0.000000
-0.100000
0.500000
-0.300000
-0.200000
0.400000
0.000000
0.500000
-0.400000
-0.400000
-0.100000
0.200000
0.300000
0.500000
0.100000
-0.300000
-0.400000
-0.300000
0.200000
0.500000
0.100000
0.100000
-0.200000
