0.400000
-0.200000
0.100000
0.500000
-0.400000
0.100000
-0.300000
-0.300000
0.300000
0.100000
0.000000
0.000000
0.400000
-0.200000
0.400000
0.400000
0.000000
0.300000
-0.200000
-0.100000
0.400000
0.100000
0.300000
0.200000
0.300000
0.300000
0.400000
-0.100000
-0.300000
0.000000
-0.200000
-0.100000
0.400000
-0.300000
-0.400000
0.300000
-0.200000
-0.400000
0.000000
0.100000
0.200000
0.400000
0.300000
0.200000
0.200000
0.100000
0.400000
0.400000
0.200000
-0.300000
-0.200000
0.100000
0.300000
-0.200000
-0.200000
-0.400000
0.200000
0.400000
-0.400000
-0.300000
-0.100000
0.000000
0.500000
0.300000
-0.300000
-0.100000
0.500000
0.300000
0.100000
-0.300000
-0.100000
0.000000
0.500000
-0.400000
0.500000
0.500000
-0.100000
0.400000
0.200000
-0.300000
-0.400000
0.200000
0.100000
0.100000
-0.100000
0.500000
-0.100000
-0.100000
0.400000
-0.300000
0.100000
-0.400000
-0.100000
0.200000
-0.200000
-0.300000
-0.300000
0.300000
-0.400000
0.400000
0.200000
0.000000
-0.400000
-0.300000
0.100000
0.500000
-0.200000
-0.100000
0.200000
-0.100000
0.400000
0.000000
0.100000
0.300000
0.500000
-0.400000
-0.200000
0.200000
-0.200000
0.300000
-0.100000
0.500000
0.400000
-0.100000
0.000000
-0.200000
0.000000
0.100000
0.400000
0.300000
0.500000
0.500000
0.400000
0.100000
-0.100000
0.500000
-0.200000
0.400000
-0.200000
-0.200000
-0.200000
-0.200000
0.200000
0.200000
0.000000
-0.400000
-0.400000
-0.300000
0.400000
-0.300000
0.300000
-0.100000
-0.100000
0.500000
0.200000
-0.300000
0.500000
0.400000
0.300000
0.000000
0.500000
-0.400000
0.100000
-0.200000
-0.300000
0.200000
0.000000
0.400000
0.300000
0.500000
0.400000
-0.100000
0.100000
0.500000
-0.100000
0.400000
-0.300000
-0.400000
-0.300000
0.100000
0.400000
0.100000
0.200000
-0.400000
-0.300000
-0.300000
0.500000
-0.300000
-0.200000
-0.200000
-0.300000
0.200000
-0.300000
0.200000
-0.200000
0.400000
0.500000
-0.200000
0.200000
0.100000
-0.400000
-0.100000
0.000000
0.400000
0.500000
-0.400000
-0.400000
-0.100000
-0.300000
0.200000
0.100000
-0.300000
0.100000
-0.400000
-0.400000
0.300000
0.000000
0.000000
0.200000
0.200000
0.200000
-0.200000
0.100000
0.200000
-0.300000
0.500000
-0.300000
-0.300000
0.500000
-0.100000
-0.300000
0.400000
-0.400000
-0.300000
-0.400000
-0.200000
0.300000
0.300000
-0.300000
0.300000
-0.300000
-0.400000
0.500000
-0.200000
-0.300000
0.400000
0.000000
-0.300000
-0.100000
0.400000
0.300000
0.100000
0.300000
0.000000
-0.300000
-0.100000
0.300000
-0.100000
0.000000
0.200000
-0.400000
0.300000
0.100000
-0.100000
0.400000
-0.300000
0.300000
0.400000
0.400000
-0.400000
-0.200000
-0.100000
0.300000
-0.400000
0.000000
0.300000
0.500000
0.500000
0.200000
-0.400000
0.400000
-0.300000
0.400000
-0.400000
0.000000
0.200000
0.300000
0.000000
0.300000
0.000000
-0.300000
-0.100000
-0.200000
-0.200000
0.300000
0.300000
-0.400000
0.100000
0.400000
-0.400000
-0.100000
-0.400000
-0.300000
0.300000
0.000000
0.000000
0.100000
-0.400000
0.400000
0.300000
0.000000
0.500000
-0.300000
0.200000
-0.400000
0.200000
-0.400000
-0.100000
-0.200000
-0.400000
-0.400000
-0.200000
-0.100000
-0.400000
0.200000
0.000000
-0.200000
-0.100000
-0.100000
0.000000
-0.300000
0.300000
0.000000
0.100000
0.100000
0.400000
-0.100000
0.400000
-0.100000
0.200000
0.200000
0.000000
0.000000
0.200000
0.300000
-0.300000
0.300000
0.000000
0.200000
-0.100000
0.400000
-0.300000
-0.100000
0.300000
0.400000
0.100000
-0.100000
0.300000
-0.400000
0.400000
0.000000
0.500000
0.200000
-0.100000
0.100000
-0.400000
0.300000
-0.400000
0.200000
0.100000
0.100000
0.500000
0.000000
-0.400000
-0.100000
0.200000
0.100000
0.300000
-0.300000
-0.300000
-0.200000
0.000000
-0.300000
0.400000
0.300000
0.000000
-0.200000
0.100000
0.100000
0.100000
0.100000
0.100000
0.300000
-0.400000
0.200000
0.500000
-0.200000
-0.200000
-0.300000
-0.200000
0.200000
0.500000
0.200000
-0.300000
0.300000
0.000000
0.300000
0.500000
0.200000
-0.200000
0.300000
-0.400000
-0.200000
0.000000
0.200000
0.100000
0.200000
0.300000
0.400000
0.400000
0.200000
0.300000
0.000000
0.200000
0.000000
0.400000
0.300000
0.300000
0.300000
-0.100000
0.100000
0.500000
-0.200000
0.500000
0.200000
0.100000
0.500000
0.500000
0.000000
0.200000
0.400000
0.500000
-0.100000
-0.200000
0.000000
0.500000
0.500000
0.100000
0.000000
0.100000
-0.400000
0.000000
-0.100000
0.100000
-0.300000
0.300000
0.400000
-0.100000
-0.300000
0.200000
0.400000
0.100000
-0.300000
0.100000
-0.400000
0.300000
0.500000
-0.200000
0.500000
-0.100000
0.500000
-0.200000
0.500000
0.000000
-0.100000
-0.200000
0.200000
-0.300000
0.100000
-0.400000
0.300000
-0.100000
0.000000
-0.200000
-0.200000
0.100000
0.000000
-0.200000
-0.400000
-0.300000
0.200000
0.500000
0.300000
0.300000
0.200000
-0.100000
-0.200000
0.400000
0.000000
0.000000
0.100000
0.500000
0.300000
-0.100000
0.500000
-0.100000
0.400000
0.400000
0.400000
-0.200000
0.200000
0.500000
0.500000
0.100000
-0.300000
0.200000
0.500000
0.400000
0.300000
-0.400000
0.500000
0.200000
-0.300000
-0.300000
0.000000
-0.200000
-0.200000
0.500000
-0.300000
-0.400000
0.200000
0.500000
-0.200000
0.100000
-0.200000
-0.300000
0.200000
-0.200000
0.400000
0.500000
0.500000
-0.300000
0.200000
0.100000
0.000000
0.500000
0.400000
0.100000
0.000000
-0.100000
0.300000
0.500000
0.200000
0.000000
-0.100000
-0.100000
-0.100000
-0.200000
-0.100000
-0.200000
-0.200000
0.400000
-0.400000
0.400000
-0.100000
0.300000
-0.200000
0.300000
-0.200000
-0.100000
0.000000
0.400000
0.200000
-0.400000
-0.400000
0.000000
-0.400000
0.300000
-0.100000
0.000000
0.200000
0.300000
0.100000
0.100000
0.100000
0.300000
-0.200000
-0.400000
0.300000
0.200000
-0.200000
0.200000
0.400000
0.000000
-0.200000
-0.300000
0.000000
-0.300000
0.200000
0.300000
0.100000
0.400000
0.400000
0.000000
-0.400000
0.000000
0.400000
0.500000
-0.100000
0.100000
0.000000
0.200000
0.500000
-0.300000
-0.400000
0.400000
0.200000
0.100000
-0.200000
0.100000
-0.100000
0.200000
-0.100000
0.000000
0.300000
-0.300000
0.400000
0.500000
0.200000
0.400000
0.000000
0.000000
0.300000
0.300000
0.400000
-0.200000
0.100000
-0.300000
0.300000
0.200000
-0.100000
0.200000
0.500000
0.200000
0.000000
0.300000
-0.300000
0.500000
-0.200000
0.300000
0.300000
0.000000
-0.400000
0.400000
0.500000
-0.300000
0.000000
0.500000
-0.200000
-0.400000
0.500000
0.000000
0.200000
0.100000
0.400000
0.500000
0.100000
-0.300000
0.000000
-0.400000
0.300000
0.000000
0.100000
0.400000
0.200000
-0.400000
0.000000
-0.300000
0.300000
-0.200000
-0.400000
-0.100000
0.400000
-0.200000
-0.200000
0.400000
-0.400000
0.500000
0.200000
0.100000
0.400000
-0.200000
0.000000
0.200000
0.200000
0.300000
0.100000
0.400000
0.300000
-0.400000
0.500000
-0.300000
-0.200000
0.100000
0.000000
-0.100000
-0.300000
0.500000
-0.200000
-0.200000
0.100000
0.200000
0.400000
0.200000
-0.100000
0.200000
0.500000
0.400000
-0.400000
0.500000
0.100000
0.300000
-0.400000
0.200000
0.400000
0.100000
-0.300000
0.300000
0.500000
0.000000
0.000000
-0.400000
0.200000
0.300000
-0.300000
-0.200000
0.100000
-0.300000
0.400000
0.100000
0.200000
0.000000
0.000000
0.300000
-0.100000
-0.300000
-0.400000
0.300000
-0.400000
0.000000
-0.400000
0.100000
0.000000
0.500000
0.000000
-0.300000
-0.300000
0.500000
0.400000
0.200000
0.300000
0.300000
0.300000
-0.200000
0.500000
0.200000
0.400000
0.200000
0.200000
-0.200000
0.500000
-0.400000
0.000000
0.000000
-0.300000
0.200000
-0.200000
-0.300000
0.200000
-0.200000
-0.400000
0.200000
-0.400000
0.400000
-0.300000
0.300000
-0.300000
0.500000
0.400000
-0.300000
0.100000
-0.300000
-0.100000
0.500000
-0.400000
0.200000
0.500000
0.500000
-0.300000
-0.200000
-0.100000
0.200000
0.000000
-0.100000
0.000000
-0.300000
0.200000
-0.400000
0.100000
-0.300000
0.200000
-0.400000
-0.200000
-0.100000
0.100000
0.000000
-0.300000
-0.100000
0.400000
0.000000
0.000000
0.400000
-0.400000
-0.100000
0.100000
0.000000
0.100000
0.300000
0.000000
0.200000
0.300000
-0.100000
-0.300000
0.300000
-0.100000
-0.100000
0.200000
-0.400000
0.100000
0.000000
-0.100000
0.300000
0.000000
0.200000
0.000000
-0.100000
-0.100000
0.400000
0.100000
0.100000
-0.100000
0.300000
-0.100000
-0.300000
0.300000
0.000000
0.000000
0.400000
0.500000
0.400000
0.000000
0.400000
-0.200000
-0.100000
0.500000
0.500000
0.300000
0.100000
0.200000
0.200000
-0.100000
0.300000
-0.300000
0.300000
0.200000
0.100000
0.200000
0.100000
0.200000
-0.100000
-0.300000
0.100000
-0.200000
0.200000
-0.400000
-0.300000
0.500000
0.500000
-0.300000
-0.300000
0.500000
0.000000
0.400000
0.100000
0.200000
-0.100000
0.200000
-0.400000
0.300000
0.400000
-0.400000
-0.300000
0.300000
0.200000
0.100000
0.500000
0.300000
0.200000
0.400000
-0.400000
-0.300000
-0.400000
-0.300000
-0.400000
0.400000
0.200000
0.000000
0.400000
0.100000
0.300000
0.000000
0.200000
-0.300000
-0.400000
0.300000
-0.300000
-0.200000
0.500000
0.400000
0.100000
-0.300000
0.400000
-0.400000
0.200000
0.000000
-0.400000
-0.200000
-0.400000
-0.300000
0.500000
0.400000
0.100000
-0.200000
0.000000
0.000000
0.000000
0.500000
-0.400000
0.300000
-0.300000
0.300000
0.100000
0.000000
0.500000
0.100000
0.100000
0.500000
0.000000
0.400000
0.400000
0.000000
-0.400000
0.500000
-0.300000
0.200000
-0.300000
-0.200000
0.300000
-0.100000
-0.400000
0.200000
-0.300000
0.400000
0.500000
0.200000
0.200000
-0.300000
0.100000
-0.300000
0.500000
0.400000
0.000000
0.100000
0.400000
0.200000
-0.200000
0.200000
0.000000
-0.300000
0.000000
-0.100000
-0.400000
0.500000
-0.300000
-0.400000
0.200000
-0.100000
0.500000
-0.100000
-0.400000
-0.200000
-0.300000
-0.400000
0.100000
0.400000
0.000000
-0.100000
-0.100000
-0.100000
-0.100000
-0.100000
-0.200000
0.400000
0.100000
0.500000
-0.100000
0.400000
0.300000
0.400000
0.100000
-0.400000
0.000000
0.300000
0.200000
0.100000
0.400000
0.000000
0.300000
0.200000
0.400000
-0.100000
-0.300000
-0.300000
0.300000
-0.200000
-0.200000
0.400000
0.300000
-0.100000
0.500000
0.100000
-0.400000
0.100000
-0.100000
0.500000
0.200000
-0.100000
0.300000
0.100000
0.000000
-0.300000
-0.300000
0.400000
0.300000
0.400000
0.100000
-0.400000
-0.300000
0.300000
0.100000
0.000000
0.300000
-0.400000
-0.400000
-0.300000
0.200000
-0.300000
-0.100000
-0.400000
-0.300000
-0.100000
-0.100000
0.300000
0.200000
-0.300000
0.300000
-0.100000
0.300000
-0.200000
0.000000
-0.200000
-0.300000
0.300000
-0.200000
-0.300000
0.500000
0.300000
0.500000
-0.300000
-0.400000
0.300000
-0.300000
0.300000
0.500000
0.000000
0.000000
0.300000
-0.200000
-0.100000
-0.200000
-0.300000
-0.200000
-0.300000
0.400000
-0.100000
0.500000
-0.400000
0.000000
-0.300000
-0.400000
0.500000
0.500000
0.500000
-0.200000
0.300000
0.000000
0.000000
0.300000
0.400000
0.100000
-0.300000
-0.100000
0.100000
-0.100000
-0.300000
-0.400000
-0.300000
0.200000
0.000000
0.000000
0.400000
0.000000
0.000000
-0.300000
0.100000
0.500000
0.000000
0.100000
-0.200000
0.300000
0.400000
0.100000
-0.400000
-0.400000
0.500000
0.200000
0.500000
0.200000
0.000000
0.500000
-0.200000
-0.100000
-0.200000
-0.300000
0.200000
-0.100000
0.100000
0.100000
0.400000
-0.400000
0.000000
0.000000
-0.200000
0.100000
-0.200000
0.200000
0.100000
0.500000
-0.300000
-0.300000
0.400000
0.000000
0.300000
0.200000
0.300000
0.100000
-0.100000
-0.100000
-0.100000
0.300000
-0.400000
0.500000
0.100000
-0.400000
0.200000
0.400000
0.400000
-0.400000
-0.400000
0.000000
0.000000
0.000000
-0.100000
0.500000
0.000000
-0.400000
0.100000
-0.100000
0.200000
0.100000
-0.400000
0.500000
0.000000
0.200000
-0.400000
0.400000
0.300000
-0.300000
-0.300000
0.400000
-0.300000
-0.100000
0.500000
0.300000
0.100000
-0.400000
0.500000
0.300000
0.300000
0.400000
0.000000
0.100000
0.100000
0.100000
0.300000
0.000000
0.500000
0.100000
0.300000
0.400000
0.300000
-0.200000
-0.200000
-0.400000
0.000000
0.000000
0.100000
0.500000
0.200000
0.100000
0.400000
0.300000
0.300000
-0.400000
-0.300000
0.300000
0.300000
-0.200000
-0.300000
0.000000
-0.300000
0.200000
-0.400000
0.100000
0.100000
-0.100000
-0.400000
-0.300000
0.000000
-0.100000
-0.100000
0.500000
-0.200000
0.300000
-0.200000
0.300000
-0.100000
0.100000
-0.200000
0.400000
0.200000
0.300000
0.400000
-0.100000
0.200000
-0.300000
0.200000
0.300000
-0.300000
-0.100000
0.500000
0.400000
0.300000
-0.100000
0.500000
0.000000
0.100000
-0.100000
-0.200000
-0.400000
0.200000
0.100000
-0.200000
-0.300000
-0.300000
0.400000
-0.100000
0.200000
-0.300000
-0.200000
-0.100000
0.400000
-0.200000
0.300000
0.200000
-0.200000
-0.300000
0.000000
-0.300000
0.000000
-0.300000
-0.200000
0.200000
0.200000
0.400000
0.500000
-0.300000
0.400000
0.500000
-0.400000
0.300000
0.100000
-0.400000
0.400000
0.000000
-0.200000
0.200000
0.200000
0.100000
0.300000
0.300000
0.500000
0.400000
0.300000
-0.200000
-0.200000
0.500000
0.300000
0.100000
0.400000
0.500000
0.200000
-0.200000
0.200000
-0.400000
0.000000
-0.400000
-0.200000
0.300000
0.500000
0.300000
-0.300000
-0.100000
-0.200000
0.500000
-0.300000
0.400000
-0.300000
0.200000
0.500000
0.200000
-0.100000
0.300000
0.500000
0.300000
-0.300000
0.100000
0.400000
-0.300000
0.200000
-0.200000
0.000000
-0.300000
0.400000
-0.200000
0.500000
0.100000
-0.300000
-0.300000
0.400000
0.200000
-0.100000
-0.200000
-0.300000
-0.400000
0.000000
0.000000
0.000000
-0.100000
-0.100000
0.200000
0.500000
0.500000
-0.300000
-0.300000
0.300000
0.200000
0.500000
-0.100000
0.000000
0.500000
-0.400000
-0.200000
0.300000
0.300000
-0.300000
0.300000
-0.400000
0.100000
0.100000
-0.300000
0.300000
-0.200000
0.300000
0.000000
-0.300000
0.100000
-0.200000
0.200000
-0.400000
0.000000
0.400000
-0.400000
0.500000
0.300000
-0.300000
0.200000
0.400000
0.100000
0.200000
0.400000
0.500000
0.100000
0.500000
-0.200000
-0.400000
0.500000
-0.300000
0.400000
0.100000
0.500000
-0.200000
-0.400000
0.000000
0.200000
-0.300000
0.300000
0.200000
0.300000
0.400000
0.500000
0.100000
0.500000
-0.200000
0.000000
-0.400000
0.500000
0.000000
0.400000
0.300000
0.500000
-0.400000
-0.300000
-0.400000
0.400000
-0.200000
0.200000
0.200000
0.500000
-0.200000
-0.100000
-0.100000
0.500000
0.300000
-0.300000
-0.400000
-0.300000
-0.400000
-0.400000
-0.400000
0.100000
0.300000
0.500000
-0.300000
-0.200000
-0.300000
-0.200000
0.200000
0.500000
-0.200000
-0.100000
0.100000
0.300000
0.400000
-0.400000
0.400000
-0.100000
0.500000
0.200000
0.200000
-0.100000
0.300000
0.300000
0.400000
0.100000
0.200000
0.300000
-0.100000
0.500000
0.000000
0.100000
-0.400000
-0.100000
0.500000
-0.300000
0.300000
-0.200000
0.100000
0.500000
-0.200000
-0.100000
0.500000
0.400000
0.300000
-0.400000
0.200000
-0.300000
0.000000
0.400000
0.000000
-0.100000
-0.100000
-0.300000
-0.300000
-0.400000
-0.300000
-0.200000
0.500000
-0.200000
-0.400000
0.400000
0.000000
-0.300000
-0.100000
0.200000
-0.400000
0.100000
0.000000
0.200000
-0.300000
0.300000
0.200000
-0.400000
0.100000
-0.300000
0.000000
0.400000
0.200000
0.300000
-0.300000
0.400000
-0.100000
0.100000
-0.100000
-0.200000
-0.200000
-0.400000
-0.100000
0.100000
0.400000
-0.400000
0.300000
-0.100000
0.200000
0.400000
0.000000
-0.400000
-0.200000
0.500000
0.300000
-0.100000
0.400000
-0.200000
-0.100000
0.300000
0.000000
0.200000
0.100000
0.500000
-0.200000
0.000000
0.000000
0.200000
0.400000
-0.300000
-0.300000
-0.300000
0.500000
0.400000
-0.200000
0.000000
0.500000
0.000000
-0.400000
0.500000
-0.400000
0.200000
0.000000
0.100000
0.300000
-0.200000
0.300000
-0.100000
-0.200000
0.300000
0.300000
0.500000
0.400000
0.400000
-0.200000
0.000000
-0.400000
0.400000
-0.300000
0.400000
-0.200000
-0.300000
-0.100000
-0.100000
-0.400000
-0.400000
0.300000
-0.100000
-0.100000
0.000000
-0.300000
0.100000
0.500000
0.200000
-0.200000
-0.300000
0.200000
0.400000
0.400000
0.300000
0.000000
-0.200000
-0.100000
0.300000
0.400000
-0.100000
0.400000
0.400000
0.000000
-0.200000
0.100000
-0.300000
0.000000
-0.100000
0.100000
-0.400000
-0.300000
0.100000
0.200000
0.300000
0.000000
0.200000
-0.300000
0.200000
0.300000
-0.200000
0.500000
-0.100000
-0.300000
0.500000
0.400000
0.400000
-0.400000
0.000000
0.200000
-0.100000
0.200000
0.400000
0.000000
0.200000
0.100000
0.500000
0.200000
0.400000
-0.200000
-0.400000
0.500000
0.200000
0.000000
0.300000
-0.400000
0.400000
0.300000
-0.100000
0.400000
-0.200000
0.500000
0.400000
0.000000
0.300000
0.300000
-0.400000
0.500000
0.000000
0.400000
-0.300000
0.200000
-0.100000
-0.300000
-0.300000
-0.100000
0.400000
-0.100000
-0.100000
-0.200000
0.500000
0.100000
-0.400000
-0.300000
-0.400000
0.100000
-0.400000
-0.300000
-0.200000
0.000000
-0.100000
0.100000
-0.300000
-0.100000
-0.300000
-0.200000
-0.300000
0.500000
-0.400000
0.000000
-0.100000
-0.400000
0.500000
0.500000
0.400000
0.200000
0.000000
0.000000
-0.300000
0.500000
0.400000
-0.200000
-0.200000
0.100000
-0.100000
-0.200000
0.500000
-0.200000
0.100000
0.400000
0.300000
0.400000
-0.300000
0.200000
0.000000
-0.200000
0.400000
0.100000
-0.200000
-0.100000
-0.300000
0.300000
0.200000
0.500000
0.300000
-0.200000
-0.300000
-0.300000
0.000000
-0.400000
-0.200000
0.400000
0.200000
0.100000
-0.200000
0.400000
0.200000
-0.200000
0.400000
0.300000
-0.200000
0.000000
0.200000
0.100000
0.100000
0.000000
0.000000
0.400000
0.100000
0.400000
0.300000
-0.100000
-0.100000
0.200000
0.200000
0.500000
0.500000
-0.300000
0.400000
0.200000
-0.300000
0.400000
-0.100000
-0.400000
-0.300000
0.500000
0.400000
0.200000
-0.400000
0.200000
-0.400000
0.200000
-0.100000
0.000000
0.000000
0.100000
0.500000
0.000000
0.500000
-0.100000
0.000000
0.000000
0.400000
-0.300000
-0.400000
-0.100000
0.300000
0.300000
0.000000
0.500000
0.000000
0.300000
0.000000
0.300000
0.500000
-0.100000
-0.200000
0.300000
-0.300000
0.500000
0.500000
-0.100000
-0.300000
0.200000
0.500000
-0.100000
0.100000
0.200000
-0.200000
0.500000
0.000000
0.300000
0.500000
-0.200000
0.000000
-0.100000
0.400000
-0.300000
0.400000
-0.300000
0.000000
-0.100000
0.000000
-0.400000
0.300000
-0.100000
0.000000
0.300000
0.200000
0.300000
0.400000
0.300000
0.300000
-0.300000
-0.300000
-0.300000
-0.200000
0.100000
0.500000
0.500000
0.000000
-0.400000
-0.400000
0.000000
0.200000
0.500000
-0.400000
-0.400000
0.000000
0.400000
0.400000
0.400000
0.300000
0.200000
0.200000
-0.400000
-0.200000
0.300000
0.200000
0.200000
0.500000
0.100000
-0.300000
0.100000
0.200000
-0.400000
0.300000
0.100000
-0.400000
0.500000
0.000000
-0.200000
0.100000
-0.200000
-0.100000
-0.100000
0.200000
0.500000
-0.400000
0.500000
-0.300000
0.500000
0.400000
0.000000
0.400000
0.500000
0.200000
-0.400000
0.000000
-0.300000
-0.400000
-0.100000
0.300000
0.000000
-0.200000
-0.100000
0.200000
-0.300000
0.000000
-0.400000
0.200000
0.500000
0.300000
0.000000
0.400000
0.000000
-0.200000
-0.200000
-0.400000
0.100000
0.400000
-0.200000
-0.300000
0.000000
-0.200000
-0.300000
-0.300000
0.100000
0.300000
0.200000
-0.300000
0.100000
0.400000
0.200000
0.500000
0.100000
0.400000
-0.200000
-0.200000
0.300000
0.400000
0.200000
0.400000
0.200000
0.400000
0.000000
0.400000
0.000000
0.500000
0.000000
0.400000
0.300000
0.300000
0.400000
0.000000
0.000000
0.200000
-0.300000
-0.400000
0.300000
-0.300000
0.100000
0.300000
-0.200000
0.000000
-0.300000
0.100000
0.500000
-0.400000
0.100000
0.100000
0.200000
0.000000
-0.300000
0.100000
0.400000
0.500000
0.200000
0.200000
0.100000
0.500000
-0.100000
-0.200000
0.000000
0.000000
-0.100000
0.500000
-0.400000
-0.300000
0.200000
0.000000
-0.200000
-0.400000
0.500000
0.100000
-0.300000
-0.200000
0.100000
0.500000
0.300000
0.200000
0.000000
0.100000
0.400000
-0.100000
-0.100000
0.100000
0.000000
0.300000
-0.400000
0.400000
0.300000
0.100000
-0.400000
-0.400000
0.200000
-0.200000
-0.100000
0.000000
-0.300000
-0.200000
-0.300000
-0.400000
-0.200000
-0.200000
0.400000
-0.100000
0.000000
0.500000
0.400000
0.200000
0.300000
-0.100000
0.500000
0.000000
-0.200000
0.100000
0.100000
-0.400000
0.500000
-0.100000
0.400000
0.400000
-0.400000
0.500000
0.100000
0.300000
0.400000
-0.400000
-0.200000
0.500000
-0.400000
0.200000
0.200000
0.200000
0.400000
0.200000
0.000000
-0.100000
-0.400000
0.000000
-0.400000
-0.300000
-0.300000
0.200000
-0.400000
0.000000
0.400000
0.200000
-0.100000
0.300000
-0.300000
-0.300000
0.400000
-0.400000
-0.300000
0.400000
0.200000
0.200000
0.100000
0.200000
-0.400000
0.300000
-0.200000
0.300000
0.400000
-0.200000
-0.100000
0.400000
-0.200000
0.200000
0.500000
-0.100000
0.500000
0.300000
0.000000
-0.100000
0.500000
-0.200000
0.300000
0.500000
-0.400000
0.000000
0.100000
0.200000
0.300000
0.000000
-0.100000
0.500000
-0.300000
-0.300000
0.400000
0.000000
-0.200000
0.000000
-0.200000
-0.400000
0.300000
0.200000
-0.200000
0.300000
-0.200000
-0.400000
0.200000
-0.100000
0.200000
-0.300000
0.400000
0.500000
-0.100000
-0.300000
-0.200000
-0.100000
0.000000
0.400000
0.300000
-0.400000
0.000000
-0.100000
0.400000
0.000000
0.100000
0.400000
0.200000
-0.300000
0.000000
0.500000
-0.400000
0.300000
0.400000
0.200000
0.200000
0.000000
0.300000
-0.400000
0.500000
0.100000
-0.300000
0.000000
-0.200000
0.200000
0.200000
0.500000
0.200000
0.500000
0.200000
0.300000
0.400000
0.400000
0.500000
-0.300000
0.400000
-0.300000
-0.200000
0.300000
-0.300000
-0.400000
0.300000
0.200000
0.500000
0.300000
-0.300000
0.300000
0.000000
0.000000
-0.300000
0.400000
0.300000
0.100000
-0.400000
-0.300000
-0.300000
0.300000
-0.200000
0.400000
-0.200000
-0.400000
0.000000
0.500000
0.200000
0.100000
0.500000
0.400000
0.000000
0.200000
0.100000
0.300000
0.200000
0.300000
-0.400000
0.100000
-0.400000
0.300000
0.100000
-0.400000
0.500000
0.100000
0.100000
-0.400000
-0.300000
0.000000
0.200000
0.300000
0.200000
0.500000
0.400000
-0.200000
0.400000
-0.400000
-0.300000
-0.300000
0.200000
0.300000
-0.400000
0.200000
0.200000
0.300000
-0.300000
0.200000
0.100000
0.500000
0.300000
0.500000
0.400000
0.300000
0.400000
0.500000
-0.200000
-0.100000
-0.100000
-0.300000
0.500000
0.000000
-0.300000
-0.300000
-0.400000
0.000000
-0.200000
0.200000
0.300000
0.300000
0.300000
0.500000
0.500000
0.300000
0.200000
0.400000
-0.100000
-0.300000
-0.200000
-0.200000
0.300000
-0.300000
-0.200000
-0.400000
0.000000
-0.400000
0.300000
-0.400000
0.400000
0.200000
0.500000
-0.300000
0.400000
-0.400000
0.300000
0.500000
0.300000
0.100000
-0.200000
0.000000
-0.300000
0.400000
0.500000
0.500000
-0.200000
0.400000
-0.100000
-0.400000
0.200000
0.500000
0.200000
-0.200000
0.200000
0.500000
0.100000
0.200000
0.300000
0.200000
0.400000
0.500000
0.300000
-0.200000
-0.200000
0.400000
0.200000
0.500000
-0.200000
0.500000
0.200000
-0.100000
0.200000
0.400000
-0.400000
0.000000
-0.100000
0.400000
0.000000
0.400000
0.500000
-0.400000
-0.200000
0.200000
0.500000
-0.300000
0.400000
0.000000
0.400000
-0.200000
0.400000
-0.200000
-0.400000
0.100000
-0.400000
-0.300000
0.500000
0.500000
0.400000
-0.300000
0.000000
0.500000
-0.300000
-0.400000
0.300000
-0.300000
0.500000
-0.300000
0.000000
0.400000
0.100000
-0.200000
0.200000
-0.100000
0.400000
-0.100000
-0.300000
0.500000
-0.300000
-0.100000
0.000000
-0.200000
0.400000
0.500000
0.300000
-0.300000
0.200000
0.000000
0.000000
-0.100000
0.400000
0.100000
-0.400000
0.200000
-0.300000
0.200000
0.300000
0.200000
0.200000
-0.200000
0.200000
0.500000
0.400000
0.100000
-0.300000
-0.200000
-0.300000
-0.400000
-0.300000
-0.400000
-0.200000
-0.400000
0.400000
-0.400000
0.000000
-0.300000
-0.400000
-0.100000
-0.400000
0.200000
0.200000
0.400000
0.100000
0.400000
0.100000
0.000000
-0.200000
-0.100000
0.200000
0.100000
-0.100000
0.200000
-0.300000
0.200000
0.100000
0.300000
-0.200000
-0.300000
-0.400000
0.500000
0.400000
0.100000
0.500000
-0.200000
0.200000
0.100000
-0.400000
0.100000
0.000000
-0.100000
-0.300000
-0.400000
-0.300000
-0.400000
-0.400000
-0.200000
0.500000
-0.300000
0.100000
0.000000
-0.100000
-0.400000
0.200000
-0.100000
0.300000
0.500000
0.500000
-0.100000
0.000000
0.400000
-0.100000
0.400000
-0.400000
-0.200000
0.200000
0.000000
0.500000
0.500000
-0.100000
0.000000
0.400000
-0.300000
0.300000
-0.200000
0.300000
0.100000
0.000000
0.300000
0.300000
0.000000
-0.300000
-0.100000
-0.400000
-0.300000
0.200000
0.000000
0.000000
0.500000
0.000000
-0.300000
0.400000
0.000000
0.500000
-0.200000
0.200000
0.100000
0.400000
0.000000
-0.100000
0.100000
0.400000
-0.200000
0.500000
0.100000
0.500000
-0.100000
0.400000
0.500000
0.000000
0.000000
0.300000
0.000000
-0.300000
0.200000
0.300000
-0.200000
-0.300000
0.000000
0.300000
-0.200000
0.300000
-0.400000
-0.200000
-0.100000
0.200000
0.400000
0.000000
-0.400000
-0.300000
-0.400000
0.000000
0.100000
-0.400000
0.000000
0.300000
0.000000
0.300000
0.300000
0.200000
0.500000
-0.300000
-0.200000
0.300000
-0.300000
0.200000
-0.200000
0.000000
0.100000
0.400000
-0.300000
0.300000
-0.400000
-0.100000
-0.300000
-0.400000
-0.300000
0.400000
-0.100000
0.200000
-0.200000
0.000000
0.100000
0.400000
0.500000
0.400000
0.300000
0.300000
-0.300000
0.000000
0.100000
-0.100000
-0.200000
-0.200000
0.200000
0.100000
0.100000
-0.400000
0.400000
-0.300000
0.200000
-0.300000
-0.200000
-0.400000
-0.200000
0.400000
0.400000
0.100000
0.200000
0.000000
0.300000
-0.400000
0.400000
0.000000
0.000000
-0.100000
-0.200000
-0.400000
0.500000
0.300000
0.200000
0.400000
-0.400000
-0.300000
-0.200000
-0.300000
0.100000
0.100000
0.100000
0.200000
0.000000
-0.300000
0.500000
0.300000
-0.400000
0.100000
-0.400000
-0.300000
0.200000
0.000000
0.500000
0.100000
0.200000
0.000000
0.300000
0.000000
-0.200000
-0.200000
-0.200000
0.100000
0.100000
0.500000
0.100000
0.400000
0.400000
0.000000
0.100000
0.500000
0.300000
-0.300000
-0.100000
-0.300000
0.400000
0.100000
-0.200000
-0.100000
0.100000
-0.400000
-0.300000
-0.200000
0.200000
-0.300000
-0.100000
0.300000
-0.300000
0.500000
-0.400000
-0.300000
0.500000
0.100000
-0.400000
-0.100000
-0.300000
0.300000
-0.300000
0.100000
-0.200000
-0.400000
0.100000
0.500000
-0.200000
0.100000
-0.300000
0.400000
-0.300000
0.300000
0.300000
0.400000
0.100000
-0.100000
-0.100000
-0.400000
0.200000
-0.300000
0.400000
0.200000
-0.100000
0.100000
0.000000
0.300000
0.300000
0.500000
0.400000
0.500000
0.200000
-0.300000
-0.200000
0.200000
0.200000
0.400000
0.100000
0.000000
-0.100000
0.400000
0.300000
0.400000
-0.400000
0.400000
-0.300000
0.500000
0.100000
-0.200000
-0.200000
0.100000
0.400000
0.400000
-0.400000
-0.300000
0.400000
0.500000
0.200000
0.300000
0.000000
0.500000
0.200000
0.300000
0.300000
-0.100000
0.200000
0.200000
-0.100000
0.400000
0.000000
-0.300000
0.300000
0.400000
-0.400000
0.200000
-0.400000
-0.200000
0.300000
0.400000
0.200000
0.300000
0.500000
-0.400000
0.300000
-0.200000
0.100000
0.000000
0.500000
0.200000
0.300000
-0.400000
-0.200000
-0.300000
0.500000
0.400000
0.400000
0.100000
-0.200000
0.100000
0.200000
-0.400000
-0.400000
-0.100000
-0.200000
-0.100000
0.300000
0.500000
-0.400000
-0.100000
0.300000
0.200000
0.500000
0.200000
0.000000
0.400000
-0.400000
-0.100000
-0.200000
-0.400000
0.300000
-0.200000
0.000000
-0.100000
-0.300000
0.300000
0.100000
-0.100000
0.200000
0.500000
-0.400000
0.400000
-0.300000
-0.200000
-0.100000
-0.300000
0.100000
0.500000
0.200000
-0.200000
-0.400000
-0.100000
0.300000
0.300000
-0.200000
0.200000
0.500000
-0.200000
0.200000
0.500000
-0.200000
0.200000
-0.100000
0.100000
-0.100000
-0.200000
0.100000
0.500000
0.400000
0.300000
0.100000
0.100000
-0.100000
0.200000
0.100000
0.000000
0.500000
0.300000
0.500000
0.400000
-0.100000
-0.400000
0.200000
-0.200000
-0.400000
0.400000
0.000000
0.300000
0.100000
0.100000
0.400000
0.200000
0.100000
-0.100000
-0.300000
-0.300000
-0.200000
0.500000
0.200000
0.100000
0.100000
-0.100000
-0.200000
0.400000
-0.300000
0.400000
0.300000
0.400000
0.300000
0.200000
0.400000
0.400000
0.400000
0.500000
-0.300000
-0.400000
0.400000
0.500000
-0.400000
-0.200000
-0.200000
0.100000
0.000000
0.400000
-0.100000
-0.200000
-0.300000
0.200000
-0.400000
0.200000
0.400000
0.200000
-0.400000
-0.100000
0.200000
-0.200000
0.000000
0.300000
0.500000
-0.200000
0.400000
-0.200000
0.500000
-0.100000
-0.200000
0.400000
-0.200000
0.000000
0.100000
-0.300000
0.400000
-0.200000
0.000000
0.300000
0.400000
-0.200000
0.000000
0.200000
0.400000
0.500000
0.500000
0.500000
0.000000
0.500000
0.500000
-0.200000
-0.300000
-0.100000
0.100000
-0.400000
0.400000
0.100000
-0.300000
0.500000
-0.300000
-0.400000
-0.400000
-0.200000
-0.400000
-0.400000
-0.400000
-0.100000
0.500000
-0.100000
0.200000
-0.300000
0.500000
0.200000
-0.100000
-0.400000
0.100000
0.300000
0.500000
0.100000
0.100000
0.200000
-0.100000
-0.400000
0.400000
-0.300000
-0.400000
0.400000
0.400000
-0.300000
-0.100000
0.200000
0.000000
0.500000
-0.400000
0.400000
0.500000
-0.300000
0.300000
0.300000
-0.100000
-0.300000
-0.400000
-0.200000
-0.200000
-0.300000
-0.400000
0.200000
0.500000
0.000000
-0.100000
0.200000
-0.400000
-0.200000
-0.200000
0.100000
0.200000
0.000000
-0.300000
0.200000
0.200000
0.200000
-0.100000
0.400000
0.500000
0.100000
-0.200000
0.100000
0.300000
-0.200000
0.400000
0.000000
-0.200000
0.300000
0.300000
-0.200000
0.500000
0.200000
-0.100000
0.500000
-0.400000
-0.300000
-0.400000
-0.100000
0.100000
0.500000
0.300000
-0.400000
0.500000
0.200000
0.300000
0.300000
0.100000
-0.200000
-0.200000
0.100000
0.000000
0.200000
0.400000
0.200000
0.200000
0.100000
0.200000
0.000000
0.300000
0.400000
-0.100000
-0.400000
-0.300000
-0.300000
0.100000
0.400000
0.100000
0.000000
-0.200000
0.200000
0.500000
0.300000
-0.200000
-0.200000
-0.200000
0.500000
0.300000
0.500000
0.500000
-0.300000
-0.100000
0.100000
0.000000
0.500000
0.400000
0.000000
-0.200000
0.200000
0.300000
-0.200000
-0.400000
0.400000
0.400000
0.100000
0.500000
0.200000
0.200000
0.400000
0.000000
-0.300000
0.200000
0.500000
0.000000
0.400000
0.500000
0.300000
0.000000
0.400000
0.500000
0.100000
0.500000
-0.100000
0.100000
-0.300000
-0.400000
0.000000
-0.100000
0.300000
0.300000
0.300000
0.400000
-0.200000
0.100000
-0.200000
-0.300000
-0.100000
0.500000
0.500000
0.300000
0.400000
0.200000
-0.400000
0.300000
0.100000
0.400000
0.000000
0.100000
0.500000
-0.100000
-0.100000
-0.300000
0.400000
0.200000
0.200000
0.400000
0.500000
0.000000
-0.300000
-0.400000
0.200000
-0.300000
-0.400000
-0.300000
0.100000
0.200000
-0.400000
-0.400000
-0.100000
-0.400000
-0.200000
-0.200000
0.300000
0.000000
0.300000
0.200000
0.300000
-0.300000
0.200000
0.200000
-0.300000
0.000000
-0.200000
-0.300000
-0.300000
0.400000
0.200000
0.000000
0.400000
0.300000
0.500000
-0.300000
-0.100000
0.000000
0.000000
0.200000
-0.400000
0.000000
0.200000
0.000000
0.100000
-0.300000
0.000000
0.500000
0.200000
0.000000
0.500000
-0.300000
0.100000
0.200000
0.000000
-0.300000
0.400000
0.300000
-0.100000
0.500000
0.300000
0.300000
0.400000
-0.100000
0.000000
0.500000
0.400000
-0.200000
-0.200000
0.200000
-0.300000
0.200000
0.000000
0.400000
0.200000
0.300000
0.400000
-0.400000
0.100000
0.300000
0.200000
0.500000
0.400000
0.100000
-0.300000
-0.100000
-0.100000
0.400000
0.200000
-0.300000
-0.200000
-0.400000
0.100000
0.100000
0.200000
0.000000
0.100000
0.100000
0.300000
-0.200000
-0.200000
0.000000
-0.100000
-0.100000
-0.400000
0.500000
-0.200000
0.500000
-0.400000
-0.300000
-0.100000
-0.200000
0.200000
0.300000
0.500000
0.400000
0.000000
0.200000
0.000000
-0.100000
0.000000
0.100000
-0.100000
-0.300000
0.400000
0.000000
-0.300000
0.000000
0.200000
0.200000
0.300000
-0.300000
-0.200000
-0.100000
-0.400000
-0.100000
0.100000
-0.100000
0.200000
0.300000
0.400000
0.500000
0.000000
-0.300000
-0.200000
0.500000
0.500000
0.200000
-0.200000
0.200000
0.100000
-0.100000
0.300000
0.500000
0.400000
0.400000
-0.100000
0.000000
0.200000
0.100000
-0.400000
0.000000
0.200000
0.100000
0.200000
-0.200000
-0.200000
0.500000
-0.400000
0.400000
0.000000
0.100000
0.500000
0.500000
-0.200000
0.400000
0.300000
0.200000
-0.200000
-0.200000
0.200000
0.200000
0.200000
-0.400000
0.400000
0.000000
-0.300000
-0.300000
-0.300000
0.500000
0.300000
0.100000
0.100000
0.200000
0.200000
-0.100000
-0.200000
-0.100000
-0.100000
0.400000
0.100000
-0.300000
0.400000
-0.100000
0.000000
-0.400000
-0.100000
-0.300000
-0.200000
0.400000
-0.400000
0.400000
-0.100000
-0.200000
-0.100000
0.200000
-0.200000
0.400000
0.300000
-0.200000
-0.400000
0.100000
-0.200000
0.400000
-0.300000
0.300000
0.100000
-0.300000
-0.300000
0.400000
-0.100000
0.300000
0.500000
0.100000
-0.300000
0.000000
-0.400000
0.100000
0.100000
0.100000
-0.400000
-0.400000
0.100000
0.000000
0.200000
0.300000
0.400000
-0.200000
0.100000
0.200000
0.400000
-0.400000
0.500000
-0.200000
0.200000
-0.300000
0.100000
0.300000
-0.100000
-0.400000
-0.300000
-0.200000
-0.200000
0.100000
-0.300000
-0.200000
-0.300000
0.200000
0.300000
0.400000
-0.400000
0.200000
-0.200000
0.100000
0.100000
0.100000
0.200000
0.000000
0.400000
0.200000
0.300000
-0.300000
0.500000
-0.400000
0.500000
0.200000
0.100000
-0.400000
0.100000
0.100000
0.200000
-0.400000
-0.300000
0.000000
0.200000
-0.300000
0.400000
0.300000
0.200000
-0.300000
-0.400000
-0.300000
0.000000
0.400000
0.500000
-0.100000
0.400000
-0.300000
0.400000
-0.300000
-0.200000
-0.200000
0.300000
-0.300000
0.300000
0.200000
-0.100000
-0.100000
-0.400000
-0.100000
0.000000
0.400000
0.200000
-0.300000
0.500000
-0.200000
-0.100000
0.400000
-0.100000
0.500000
0.200000
0.400000
0.500000
0.100000
0.200000
0.400000
0.000000
-0.300000
-0.400000
0.000000
0.100000
0.000000
-0.200000
0.100000
0.100000
-0.100000
-0.200000
-0.200000
0.000000
0.300000
-0.100000
-0.300000
-0.300000
-0.400000
0.400000
-0.400000
-0.300000
0.500000
0.000000
0.500000
0.300000
-0.400000
-0.100000
0.500000
0.300000
0.300000
-0.400000
0.300000
-0.100000
-0.200000
0.200000
-0.100000
0.500000
0.000000
0.300000
0.400000
-0.200000
0.400000
0.400000
0.000000
0.200000
0.300000
-0.100000
-0.100000
-0.300000
0.400000
0.000000
-0.300000
-0.100000
-0.400000
0.100000
-0.100000
-0.100000
0.300000
-0.300000
-0.300000
0.400000
-0.100000
-0.300000
-0.200000
-0.300000
-0.400000
-0.200000
-0.400000
0.500000
0.000000
-0.300000
0.300000
-0.100000
-0.400000
-0.200000
0.400000
-0.200000
0.000000
0.400000
-0.100000
0.100000
0.100000
-0.400000
-0.400000
-0.100000
0.400000
0.000000
0.000000
-0.100000
0.500000
-0.200000
0.000000
0.500000
-0.200000
-0.400000
0.000000
-0.100000
-0.300000
0.000000
0.200000
-0.200000
0.500000
-0.200000
0.000000
0.300000
0.200000
0.500000
0.100000
-0.400000
-0.300000
0.000000
-0.300000
0.500000
0.500000
-0.400000
-0.200000
-0.200000
0.100000
0.100000
-0.200000
0.000000
-0.400000
0.300000
0.200000
0.300000
0.300000
0.200000
0.400000
-0.400000
-0.200000
0.200000
0.500000
0.100000
0.200000
-0.200000
-0.300000
0.500000
-0.300000
-0.300000
0.400000
0.300000
-0.200000
0.100000
-0.400000
0.400000
-0.400000
0.200000
-0.100000
0.300000
0.500000
-0.200000
0.300000
0.500000
0.500000
0.000000
0.200000
0.000000
-0.200000
-0.200000
0.100000
0.100000
0.200000
0.200000
-0.300000
-0.100000
0.100000
0.100000
0.000000
-0.400000
0.300000
0.100000
0.100000
0.300000
0.100000
0.300000
0.000000
0.200000
0.300000
0.200000
0.100000
0.500000
0.300000
0.200000
-0.200000
0.300000
0.500000
-0.200000
-0.200000
-0.100000
0.400000
-0.200000
0.000000
-0.100000
-0.200000
-0.400000
0.500000
-0.300000
0.000000
-0.200000
0.100000
0.300000
0.000000
-0.100000
0.000000
-0.300000
-0.300000
0.300000
-0.300000
0.000000
0.300000
-0.200000
-0.100000
-0.200000
0.200000
0.200000
0.000000
-0.100000
-0.400000
0.100000
0.100000
0.000000
-0.400000
-0.100000
-0.400000
0.300000
-0.400000
0.000000
-0.100000
0.400000
-0.200000
-0.300000
0.200000
-0.200000
0.300000
-0.100000
-0.400000
0.400000
0.500000
0.500000
0.100000
0.000000
-0.100000
0.200000
-0.100000
0.100000
-0.100000
-0.200000
-0.100000
0.200000
-0.400000
0.400000
0.100000
-0.200000
0.000000
0.500000
0.500000
0.000000
0.000000
-0.300000
-0.300000
-0.100000
-0.400000
-0.300000
0.400000
0.000000
-0.100000
0.500000
-0.100000
0.500000
0.100000
-0.200000
-0.300000
-0.100000
0.100000
0.500000
0.200000
0.100000
0.400000
0.500000
0.500000
0.100000
0.200000
-0.100000
0.400000
0.500000
0.000000
-0.100000
-0.300000
-0.100000
-0.200000
-0.100000
-0.200000
-0.300000
-0.400000
0.100000
0.000000
0.400000
0.500000
0.300000
-0.300000
-0.100000
-0.200000
0.500000
-0.200000
-0.200000
0.100000
-0.100000
0.300000
0.300000
-0.400000
-0.100000
0.000000
-0.100000
0.100000
0.500000
-0.100000
-0.400000
-0.100000
0.300000
-0.400000
0.400000
0.300000
-0.100000
0.100000
-0.200000
0.500000
-0.300000
0.300000
0.100000
0.400000
0.500000
0.500000
0.200000
-0.100000
0.400000
-0.200000
-0.400000
-0.300000
0.500000
0.300000
-0.400000
-0.300000
-0.400000
-0.200000
0.100000
-0.200000
-0.200000
0.000000
0.200000
-0.400000
0.400000
0.300000
-0.400000
-0.100000
0.400000
0.400000
0.100000
-0.400000
-0.300000
-0.100000
-0.400000
-0.200000
0.100000
-0.300000
0.300000
0.000000
-0.300000
0.300000
0.000000
-0.100000
0.400000
-0.400000
0.200000
-0.200000
0.400000
0.200000
0.300000
0.500000
-0.100000
-0.300000
-0.400000
-0.400000
0.200000
-0.400000
0.400000
0.400000
0.200000
0.100000
-0.300000
0.300000
0.100000
-0.400000
0.400000
0.100000
0.200000
-0.400000
0.100000
-0.400000
0.000000
0.300000
0.400000
-0.100000
-0.200000
0.300000
0.000000
0.400000
-0.300000
0.500000
-0.200000
0.000000
-0.200000
0.100000
0.300000
-0.400000
0.400000
-0.300000
0.100000
0.100000
-0.300000
0.400000
0.300000
-0.300000
0.100000
-0.100000
-0.200000
0.200000
0.400000
0.000000
-0.300000
0.000000
0.100000
0.300000
-0.100000
-0.100000
0.100000
-0.100000
0.400000
0.100000
0.500000
0.100000
-0.100000
-0.100000
-0.200000
0.000000
-0.300000
0.400000
0.400000
0.000000
0.400000
0.400000
-0.400000
0.500000
-0.200000
-0.100000
0.200000
0.100000
0.100000
0.000000
-0.200000
0.300000
-0.100000
0.000000
-0.100000
0.300000
-0.400000
-0.100000
0.000000
0.200000
0.300000
0.400000
-0.100000
0.200000
0.100000
-0.400000
0.500000
0.000000
-0.100000
0.000000
0.500000
-0.100000
0.000000
0.200000
0.200000
0.300000
-0.100000
-0.100000
0.500000
-0.100000
0.300000
0.500000
0.500000
0.000000
0.300000
0.500000
0.000000
-0.100000
0.400000
0.500000
0.100000
-0.400000
0.100000
0.500000
0.300000
-0.100000
-0.100000
0.100000
0.500000
-0.200000
0.300000
-0.100000
-0.100000
-0.300000
0.000000
0.400000
0.500000
0.500000
0.300000
0.400000
0.200000
-0.300000
0.100000
0.200000
0.000000
0.500000
-0.300000
-0.200000
0.500000
0.000000
0.200000
0.000000
-0.100000
0.200000
0.500000
0.300000
-0.400000
-0.400000
0.200000
-0.200000
-0.400000
0.200000
-0.400000
0.200000
0.500000
0.300000
0.000000
0.400000
0.400000
-0.300000
0.200000
0.200000
-0.200000
0.100000
-0.100000
-0.200000
0.400000
-0.400000
0.100000
-0.100000
0.400000
0.300000
-0.300000
0.300000
0.000000
-0.200000
-0.200000
-0.300000
0.100000
0.300000
0.500000
-0.100000
0.000000
0.500000
0.000000
-0.100000
0.500000
-0.200000
0.300000
0.100000
0.100000
0.100000
0.500000
0.000000
0.500000
-0.100000
-0.100000
0.300000
-0.100000
0.200000
0.400000
-0.200000
0.000000
0.000000
0.000000
0.100000
-0.300000
-0.400000
-0.400000
-0.300000
0.400000
0.300000
-0.200000
-0.200000
-0.400000
0.300000
0.400000
-0.300000
0.300000
-0.400000
-0.200000
-0.400000
-0.400000
0.500000
0.500000
-0.100000
0.100000
0.300000
0.000000
0.200000
0.000000
0.400000
-0.400000
-0.200000
-0.300000
0.100000
-0.400000
0.400000
-0.400000
-0.300000
-0.200000
-0.400000
-0.100000
-0.400000
0.000000
-0.100000
0.100000
-0.200000
0.100000
0.100000
-0.300000
-0.100000
0.000000
0.400000
0.100000
-0.400000
-0.300000
-0.300000
-0.200000
0.200000
0.100000
0.000000
-0.200000
-0.200000
0.000000
0.400000
0.200000
0.200000
-0.200000
-0.400000
-0.100000
0.000000
0.200000
0.100000
0.500000
0.300000
0.100000
-0.400000
-0.300000
0.500000
0.100000
0.300000
-0.100000
0.400000
0.000000
-0.100000
0.400000
0.500000
0.000000
0.500000
0.100000
-0.300000
-0.200000
0.500000
-0.300000
0.400000
-0.200000
0.300000
-0.300000
0.500000
0.400000
0.400000
-0.400000
0.400000
0.500000
0.200000
0.300000
0.200000
0.300000
0.300000
-0.300000
0.400000
-0.300000
-0.200000
0.000000
-0.100000
0.300000
-0.100000
0.100000
-0.200000
0.100000
0.200000
-0.200000
0.500000
0.000000
0.100000
0.200000
-0.200000
0.200000
-0.300000
0.500000
0.000000
-0.100000
-0.300000
0.300000
-0.100000
-0.300000
0.400000
0.300000
-0.100000
-0.100000
0.300000
0.100000
0.200000
0.500000
0.300000
0.500000
0.000000
0.400000
0.500000
0.000000
-0.300000
0.500000
0.400000
0.200000
-0.300000
0.300000
-0.300000
0.100000
0.000000
-0.200000
0.300000
0.200000
-0.300000
-0.400000
0.400000
-0.100000
0.300000
0.300000
0.400000
0.200000
-0.300000
0.000000
-0.100000
-0.100000
-0.300000
-0.400000
0.200000
0.000000
-0.200000
-0.100000
-0.400000
0.000000
-0.200000
-0.200000
0.500000
0.500000
0.300000
0.000000
-0.400000
0.200000
0.500000
0.200000
-0.200000
-0.100000
0.400000
0.000000
0.300000
0.000000
-0.400000
0.000000
0.200000
0.000000
0.000000
0.200000
-0.100000
-0.100000
-0.300000
0.000000
0.300000
0.400000
0.500000
0.300000
-0.100000
-0.300000
-0.400000
-0.100000
0.300000
0.000000
-0.300000
-0.300000
-0.100000
-0.100000
0.400000
-0.100000
-0.200000
0.400000
0.300000
0.000000
0.300000
0.100000
-0.400000
0.300000
-0.200000
0.500000
0.500000
0.100000
-0.400000
0.500000
-0.300000
0.400000
0.500000
0.500000
0.400000
-0.200000
0.200000
0.000000
-0.100000
-0.400000
0.000000
0.500000
-0.100000
-0.100000
0.300000
0.200000
-0.100000
-0.200000
0.000000
0.300000
0.000000
-0.100000
-0.100000
-0.100000
-0.200000
-0.300000
-0.100000
0.100000
0.000000
0.000000
-0.300000
0.500000
0.500000
0.100000
0.100000
0.300000
0.300000
-0.300000
-0.100000
0.000000
0.500000
-0.400000
-0.400000
-0.400000
0.200000
-0.300000
-0.200000
0.400000
0.000000
0.400000
-0.400000
-0.400000
-0.300000
0.000000
0.300000
0.200000
0.400000
0.500000
-0.200000
0.200000
-0.300000
-0.300000
0.000000
-0.400000
-0.100000
-0.400000
0.200000
0.400000
0.400000
-0.400000
0.400000
0.300000
0.100000
-0.100000
-0.300000
0.500000
-0.300000
-0.400000
0.000000
0.500000
0.100000
-0.100000
-0.300000
-0.100000
-0.200000
0.200000
0.200000
0.400000
-0.200000
0.200000
0.400000
0.200000
0.100000
0.300000
-0.200000
-0.200000
0.200000
0.200000
-0.100000
0.000000
0.000000
0.200000
-0.100000
0.500000
-0.400000
0.000000
-0.100000
0.200000
0.200000
0.300000
-0.400000
-0.400000
-0.100000
0.200000
0.000000
0.000000
0.400000
0.100000
-0.200000
0.400000
-0.200000
-0.400000
-0.400000
-0.100000
0.000000
0.300000
0.300000
0.200000
-0.200000
0.500000
-0.400000
-0.200000
-0.100000
-0.400000
0.000000
-0.100000
-0.400000
-0.400000
0.200000
0.000000
-0.300000
0.400000
-0.300000
-0.400000
-0.100000
0.400000
-0.300000
0.100000
0.000000
0.200000
0.100000
-0.100000
0.100000
0.400000
0.000000
0.300000
0.400000
-0.200000
0.000000
0.100000
-0.300000
0.200000
-0.300000
0.000000
0.300000
0.200000
0.400000
0.200000
0.300000
0.500000
0.500000
0.500000
-0.300000
0.000000
0.300000
-0.300000
-0.300000
-0.200000
0.400000
0.500000
-0.300000
-0.100000
0.200000
0.300000
0.300000
0.300000
-0.200000
0.500000
-0.300000
0.100000
-0.200000
0.100000
0.200000
0.100000
0.100000
0.100000
-0.100000
0.500000
0.000000
0.000000
0.200000
-0.200000
0.300000
0.400000
-0.400000
0.500000
-0.300000
-0.300000
-0.300000
0.500000
-0.400000
0.400000
-0.100000
-0.200000
-0.300000
-0.100000
0.000000
-0.400000
-0.300000
0.500000
0.000000
0.100000
-0.100000
-0.200000
-0.100000
0.100000
0.500000
0.400000
-0.300000
-0.300000
0.100000
-0.400000
0.100000
-0.100000
0.100000
0.500000
-0.400000
0.300000
-0.400000
0.400000
0.300000
0.100000
0.200000
-0.400000
-0.400000
-0.200000
-0.200000
-0.100000
-0.100000
-0.200000
-0.400000
0.200000
-0.400000
0.100000
0.000000
0.100000
-0.100000
-0.400000
-0.300000
-0.100000
-0.300000
0.300000
-0.100000
-0.200000
0.000000
-0.300000
-0.100000
-0.300000
0.300000
0.100000
0.200000
0.000000
-0.100000
-0.100000
0.300000
-0.100000
0.100000
-0.400000
0.300000
0.100000
0.300000
-0.400000
-0.100000
-0.100000
0.300000
0.300000
0.000000
-0.100000
0.000000
0.300000
-0.400000
0.000000
-0.200000
0.100000
0.100000
0.200000
0.100000
-0.400000
0.300000
0.400000
0.200000
0.200000
-0.200000
0.200000
0.200000
0.500000
0.000000
0.100000
0.000000
0.400000
0.300000
-0.300000
0.000000
-0.100000
0.500000
0.400000
-0.300000
-0.400000
0.300000
-0.200000
0.200000
-0.300000
0.100000
0.300000
-0.100000
-0.200000
-0.100000
0.200000
0.500000
0.300000
-0.400000
0.200000
-0.400000
-0.400000
0.300000
0.300000
0.300000
-0.400000
0.100000
-0.400000
0.100000
-0.300000
0.100000
-0.100000
0.200000
0.100000
0.300000
-0.300000
0.200000
0.200000
-0.200000
-0.300000
0.200000
-0.200000
0.000000
-0.400000
0.400000
0.100000
-0.400000
0.400000
-0.200000
-0.100000
0.300000
0.000000
0.300000
0.300000
-0.300000
-0.100000
0.400000
0.000000
0.000000
-0.400000
-0.100000
0.300000
-0.100000
-0.300000
-0.400000
0.500000
-0.100000
0.100000
0.500000
-0.100000
-0.100000
0.200000
0.000000
0.100000
0.400000
-0.300000
-0.300000
0.100000
0.100000
-0.200000
0.200000
0.300000
0.100000
0.200000
0.300000
0.000000
0.400000
0.300000
0.100000
-0.400000
0.000000
0.500000
-0.100000
-0.300000
0.000000
0.100000
0.400000
-0.400000
0.400000
-0.400000
0.300000
0.200000
0.300000
0.300000
0.300000
-0.400000
0.400000
-0.200000
0.000000
0.500000
-0.400000
-0.400000
-0.300000
-0.400000
-0.300000
0.500000
0.400000
-0.300000
0.500000
-0.100000
-0.300000
0.100000
0.000000
0.000000
0.500000
-0.300000
-0.100000
0.500000
0.000000
0.100000
-0.100000
0.300000
-0.400000
0.200000
0.300000
0.000000
-0.100000
0.200000
0.000000
-0.200000
0.300000
-0.300000
0.000000
0.100000
-0.300000
-0.400000
0.300000
-0.300000
-0.100000
-0.300000
-0.300000
-0.300000
0.000000
-0.400000
-0.400000
0.100000
0.300000
-0.400000
-0.400000
-0.300000
-0.200000
-0.300000
0.200000
0.400000
0.200000
0.500000
-0.100000
-0.100000
0.200000
0.100000
0.500000
-0.300000
0.200000
-0.200000
-0.100000
-0.100000
0.500000
0.000000
0.300000
0.500000
-0.200000
0.200000
-0.100000
-0.300000
-0.200000
-0.400000
0.100000
-0.300000
0.500000
-0.300000
0.000000
-0.200000
0.300000
0.100000
0.300000
-0.400000
0.300000
0.500000
0.400000
0.000000
0.500000
0.400000
0.100000
0.500000
0.500000
0.000000
-0.200000
0.100000
-0.200000
-0.200000
0.000000
0.300000
-0.300000
0.200000
0.000000
-0.400000
-0.200000
-0.300000
-0.400000
-0.100000
0.500000
-0.400000
0.500000
0.400000
-0.400000
0.400000
-0.100000
0.500000
0.400000
0.100000
0.200000
0.100000
-0.200000
-0.400000
-0.100000
-0.400000
0.500000
-0.200000
0.000000
0.000000
0.100000
-0.400000
0.100000
0.300000
0.500000
-0.400000
-0.200000
0.200000
0.200000
-0.200000
-0.200000
0.500000
0.000000
0.200000
0.400000
0.300000
-0.100000
0.100000
0.300000
0.100000
-0.100000
0.500000
0.200000
0.000000
0.300000
-0.200000
0.400000
0.400000
0.100000
-0.400000
-0.100000
0.000000
-0.400000
-0.300000
-0.200000
-0.300000
0.100000
0.500000
0.300000
-0.400000
0.500000
0.000000
-0.300000
0.300000
-0.100000
0.300000
-0.400000
-0.100000
-0.400000
-0.300000
0.200000
-0.400000
0.000000
-0.200000
0.500000
0.400000
0.300000
0.500000
-0.200000
-0.100000
0.000000
-0.100000
0.200000
0.300000
-0.300000
0.000000
0.000000
-0.300000
-0.300000
0.500000
0.400000
-0.400000
0.100000
0.000000
-0.100000
-0.200000
-0.200000
0.400000
-0.300000
0.200000
-0.100000
0.200000
0.200000
-0.300000
0.200000
0.000000
-0.400000
-0.100000
0.400000
0.400000
-0.400000
0.100000
0.200000
-0.400000
0.400000
-0.400000
0.300000
-0.100000
0.500000
-0.200000
0.500000
-0.400000
0.200000
-0.300000
-0.200000
0.200000
0.500000
-0.300000
-0.100000
-0.300000
0.200000
0.500000
-0.100000
-0.300000
0.000000
0.200000
-0.400000
-0.300000
-0.100000
0.500000
0.000000
-0.100000
0.200000
-0.300000
-0.400000
-0.100000
0.500000
0.000000
-0.400000
-0.400000
0.400000
-0.200000
0.000000
0.100000
-0.300000
-0.300000
0.100000
0.400000
0.400000
-0.200000
0.500000
0.300000
0.000000
-0.100000
-0.300000
-0.300000
0.500000
0.000000
0.200000
0.100000
0.200000
-0.200000
0.000000
-0.100000
0.500000
-0.100000
0.400000
0.500000
-0.400000
-0.300000
-0.200000
-0.400000
0.000000
0.200000
-0.200000
0.400000
0.400000
-0.200000
0.200000
0.400000
-0.100000
-0.400000
0.400000
0.100000
0.300000
-0.200000
0.500000
-0.300000
-0.100000
0.100000
-0.400000
-0.200000
0.500000
0.400000
0.200000
0.400000
0.400000
-0.400000
-0.400000
-0.400000
0.000000
-0.400000
0.200000
0.000000
-0.100000
0.400000
0.100000
0.200000
-0.400000
0.000000
0.100000
0.000000
0.000000
0.500000
0.200000
-0.200000
0.300000
0.300000
0.100000
0.200000
0.500000
0.000000
-0.300000
0.500000
0.200000
0.500000
-0.100000
0.000000
0.100000
0.500000
-0.300000
-0.300000
0.100000
-0.300000
0.400000
-0.200000
-0.200000
-0.300000
0.500000
-0.400000
0.500000
0.500000
0.500000
0.300000
0.500000
0.100000
0.000000
0.100000
0.300000
0.400000
-0.100000
-0.300000
0.100000
-0.100000
-0.100000
-0.100000
0.300000
-0.300000
-0.300000
0.000000
0.300000
-0.200000
-0.100000
-0.400000
0.300000
0.400000
-0.100000
0.500000
-0.200000
-0.100000
0.500000
0.500000
0.000000
0.000000
-0.300000
0.100000
0.100000
0.200000
-0.400000
-0.100000
0.200000
-0.100000
-0.300000
0.100000
0.400000
0.400000
0.000000
0.000000
0.100000
0.300000
-0.400000
0.300000
0.100000
0.500000
0.000000
-0.200000
-0.100000
0.500000
0.100000
0.100000
-0.200000
0.000000
0.000000
-0.400000
0.400000
-0.300000
0.100000
0.100000
-0.100000
0.000000
0.400000
0.500000
0.100000
-0.400000
-0.400000
0.000000
-0.300000
-0.200000
0.000000
0.100000
-0.300000
-0.100000
0.500000
0.300000
-0.100000
0.300000
-0.200000
0.200000
0.400000
0.000000
-0.400000
0.000000
-0.400000
-0.300000
-0.400000
-0.200000
0.100000
0.500000
-0.300000
0.100000
-0.200000
0.300000
0.500000
-0.300000
-0.300000
-0.100000
0.500000
0.300000
0.200000
-0.400000
0.400000
0.200000
-0.200000
-0.400000
0.200000
0.200000
0.400000
0.300000
0.000000
-0.100000
0.300000
0.500000
-0.100000
0.400000
-0.200000
-0.200000
0.500000
0.000000
-0.100000
0.400000
0.300000
0.300000
-0.100000
0.400000
0.500000
0.000000
0.000000
0.200000
0.200000
0.400000
0.300000
0.000000
-0.200000
0.300000
0.400000
-0.200000
0.400000
0.300000
0.300000
-0.300000
0.500000
-0.400000
0.100000
-0.400000
0.200000
0.400000
0.100000
0.400000
0.100000
0.200000
0.500000
0.100000
-0.300000
-0.200000
0.200000
0.300000
-0.300000
0.300000
0.200000
-0.400000
-0.300000
0.000000
0.500000
-0.300000
0.200000
0.000000
0.400000
0.000000
-0.300000
0.200000
-0.200000
0.400000
-0.100000
0.500000
-0.400000
0.500000
0.000000
0.200000
0.400000
0.100000
0.300000
0.500000
0.400000
0.000000
-0.400000
0.500000
0.100000
0.300000
-0.100000
0.500000
0.000000
0.300000
0.100000
0.300000
0.200000
-0.300000
0.000000
0.500000
0.000000
0.200000
0.300000
-0.400000
-0.200000
0.200000
-0.200000
0.100000
-0.400000
-0.300000
-0.300000
-0.300000
0.500000
-0.400000
-0.200000
0.200000
0.500000
-0.200000
-0.100000
0.400000
0.300000
0.100000
0.300000
-0.300000
-0.100000
0.200000
-0.400000
-0.300000
0.200000
0.000000
0.400000
0.500000
-0.400000
-0.100000
0.300000
0.000000
0.100000
-0.300000
0.000000
0.200000
0.400000
-0.200000
0.500000
-0.300000
0.500000
0.100000
-0.100000
-0.400000
-0.100000
-0.300000
0.000000
0.300000
0.300000
0.300000
0.400000
-0.200000
-0.300000
0.000000
-0.400000
-0.400000
0.300000
-0.400000
-0.100000
-0.400000
0.000000
0.500000
-0.100000
0.300000
0.000000
0.300000
0.200000
0.400000
-0.100000
0.400000
0.500000
0.300000
0.300000
0.400000
0.500000
0.200000
0.000000
0.000000
0.500000
0.500000
-0.300000
0.500000
0.400000
-0.100000
0.100000
0.100000
-0.400000
0.500000
-0.400000
0.300000
0.000000
0.400000
0.100000
0.500000
0.300000
0.400000
0.000000
0.400000
-0.100000
0.200000
0.500000
-0.300000
0.300000
0.000000
-0.100000
0.100000
0.300000
0.100000
0.000000
0.300000
0.400000
0.400000
0.000000
0.500000
0.000000
0.400000
-0.200000
0.300000
0.200000
-0.200000
0.200000
0.500000
-0.400000
-0.300000
0.100000
0.100000
-0.400000
0.000000
0.500000
0.000000
0.400000
0.300000
0.100000
0.500000
-0.100000
0.500000
0.400000
-0.400000
-0.400000
0.200000
-0.200000
0.500000
0.000000
-0.100000
0.500000
-0.300000
0.000000
-0.200000
-0.400000
0.400000
0.500000
0.300000
-0.100000
-0.400000
0.500000
-0.400000
0.000000
-0.400000
-0.400000
0.400000
0.400000
0.100000
-0.200000
0.000000
0.400000
0.200000
-0.400000
-0.300000
0.100000
0.200000
0.100000
0.100000
0.500000
0.400000
-0.200000
0.100000
0.400000
-0.200000
0.000000
0.500000
-0.400000
0.000000
-0.300000
0.400000
0.300000
-0.200000
0.500000
-0.400000
-0.100000
-0.200000
-0.300000
-0.300000
0.100000
-0.300000
0.000000
0.400000
0.200000
0.000000
0.400000
0.100000
-0.200000
0.300000
0.100000
-0.100000
0.100000
-0.300000
0.400000
0.100000
-0.300000
-0.100000
-0.100000
-0.100000
0.500000
-0.400000
-0.200000
-0.400000
-0.400000
0.200000
0.100000
0.400000
0.100000
0.500000
-0.200000
-0.100000
0.300000
0.300000
-0.300000
-0.100000
0.300000
0.200000
-0.300000
-0.400000
0.200000
-0.200000
0.200000
-0.200000
-0.100000
0.100000
0.400000
0.200000
0.500000
0.200000
0.300000
0.500000
0.300000
0.200000
0.100000
0.200000
-0.200000
0.000000
0.300000
0.500000
-0.200000
-0.100000
0.500000
-0.300000
-0.100000
-0.300000
-0.400000
0.100000
0.200000
-0.400000
0.200000
0.200000
0.500000
0.500000
-0.200000
0.500000
-0.200000
0.300000
0.200000
-0.200000
0.200000
0.400000
0.000000
-0.400000
0.400000
-0.300000
0.400000
-0.300000
0.200000
-0.300000
-0.300000
-0.300000
0.100000
-0.200000
0.300000
0.400000
0.300000
-0.100000
-0.200000
0.500000
-0.300000
0.200000
0.100000
0.400000
-0.400000
0.300000
0.300000
0.400000
0.400000
0.200000
0.000000
0.400000
0.400000
0.500000
-0.300000
0.400000
0.300000
0.100000
0.100000
0.000000
0.500000
0.000000
0.000000
0.200000
0.500000
-0.300000
-0.400000
0.500000
-0.200000
0.300000
-0.300000
0.500000
0.000000
-0.400000
-0.300000
-0.400000
0.400000
0.400000
0.000000
0.200000
-0.200000
-0.400000
0.500000
-0.200000
0.100000
0.100000
-0.200000
0.300000
0.400000
0.100000
-0.100000
0.300000
-0.200000
0.400000
0.400000
0.300000
0.000000
-0.300000
0.000000
-0.300000
0.100000
-0.100000
-0.300000
0.000000
-0.300000
0.000000
-0.400000
-0.200000
0.300000
0.400000
-0.400000
-0.200000
0.300000
0.200000
0.000000
0.300000
-0.200000
-0.400000
-0.100000
0.000000
0.300000
-0.300000
0.200000
0.000000
-0.200000
0.200000
0.000000
-0.400000
-0.200000
-0.400000
0.400000
0.500000
0.200000
-0.300000
0.300000
-0.300000
-0.100000
0.400000
0.000000
-0.100000
-0.400000
0.400000
-0.300000
-0.400000
0.300000
-0.400000
-0.300000
-0.300000
0.100000
0.300000
-0.300000
-0.100000
0.400000
-0.200000
0.200000
0.400000
0.100000
-0.400000
-0.200000
0.000000
-0.400000
-0.300000
0.400000
0.000000
0.000000
0.300000
0.300000
-0.100000
-0.200000
0.200000
-0.200000
-0.400000
0.100000
-0.200000
0.300000
0.100000
-0.400000
0.200000
-0.200000
0.100000
0.300000
0.400000
-0.400000
-0.100000
-0.200000
-0.400000
-0.400000
0.100000
-0.100000
0.300000
-0.200000
-0.200000
0.200000
0.400000
0.300000
-0.400000
-0.200000
0.400000
0.300000
-0.100000
-0.100000
0.200000
-0.200000
0.100000
0.300000
0.300000
0.000000
-0.100000
0.100000
0.400000
0.000000
0.200000
0.300000
0.200000
0.300000
-0.400000
0.300000
-0.400000
-0.200000
-0.400000
0.000000
-0.400000
0.100000
0.300000
-0.400000
0.500000
0.300000
0.000000
0.200000
0.400000
-0.400000
0.500000
0.100000
-0.200000
0.000000
-0.400000
0.500000
-0.300000
-0.300000
0.300000
-0.300000
0.000000
0.100000
0.100000
0.400000
0.100000
-0.200000
0.000000
-0.400000
0.400000
0.100000
-0.400000
0.500000
-0.100000
0.500000
-0.200000
0.200000
0.400000
0.400000
-0.300000
-0.100000
0.500000
0.200000
0.400000
-0.100000
-0.300000
0.100000
0.400000
0.000000
0.300000
-0.100000
0.500000
0.100000
0.200000
0.500000
-0.100000
-0.400000
0.000000
-0.100000
0.200000
0.000000
0.300000
-0.300000
0.000000
0.500000
-0.100000
0.000000
-0.100000
0.100000
0.300000
0.300000
0.000000
0.000000
-0.100000
0.400000
0.200000
-0.100000
0.500000
0.200000
0.500000
0.400000
0.100000
0.200000
-0.200000
0.500000
-0.400000
0.300000
0.000000
0.300000
0.300000
-0.300000
0.100000
0.300000
-0.300000
0.000000
-0.300000
0.300000
-0.200000
0.300000
0.300000
0.500000
0.200000
-0.400000
0.400000
0.500000
0.400000
0.000000
0.100000
0.100000
0.000000
-0.400000
-0.400000
0.300000
-0.100000
-0.400000
0.500000
0.200000
0.000000
-0.100000
-0.300000
-0.300000
-0.400000
0.000000
-0.100000
-0.400000
0.400000
0.100000
0.300000
0.500000
-0.200000
-0.300000
-0.200000
-0.300000
0.400000
-0.300000
0.200000
0.200000
0.000000
0.400000
-0.200000
0.300000
0.000000
0.400000
0.000000
-0.300000
0.300000
0.100000
0.500000
-0.300000
0.400000
0.000000
0.200000
0.200000
0.000000
-0.300000
0.000000
-0.200000
-0.400000
-0.400000
0.300000
0.100000
0.100000
0.400000
-0.100000
-0.400000
0.300000
-0.100000
-0.300000
0.000000
0.300000
0.500000
0.400000
0.300000
-0.300000
0.300000
-0.400000
-0.200000
-0.100000
-0.300000
-0.300000
-0.200000
-0.300000
0.000000
0.100000
0.000000
-0.400000
0.400000
0.500000
0.500000
-0.100000
0.400000
-0.300000
-0.200000
0.400000
-0.200000
0.400000
0.500000
-0.200000
-0.200000
-0.400000
0.200000
-0.100000
0.500000
0.200000
0.100000
0.100000
-0.400000
-0.100000
0.000000
-0.400000
-0.300000
0.500000
0.200000
-0.300000
-0.100000
0.100000
0.200000
0.400000
0.100000
0.200000
0.400000
0.300000
0.500000
-0.200000
0.100000
-0.300000
0.100000
-0.400000
0.200000
-0.400000
-0.200000
0.400000
0.000000
-0.200000
0.200000
0.300000
-0.300000
0.000000
-0.400000
-0.200000
-0.400000
0.200000
-0.200000
0.000000
0.500000
0.400000
-0.400000
-0.300000
0.100000
-0.100000
0.300000
0.400000
0.200000
-0.400000
0.500000
-0.200000
0.300000
-0.300000
0.500000
-0.400000
0.300000
0.500000
-0.400000
0.100000
0.300000
0.500000
-0.100000
-0.100000
0.100000
-0.100000
0.400000
0.200000
-0.100000
0.100000
0.000000
-0.300000
-0.400000
-0.200000
0.100000
0.100000
0.400000
-0.100000
-0.200000
0.000000
0.100000
0.500000
0.300000
0.200000
0.200000
0.300000
0.300000
0.200000
-0.400000
-0.300000
-0.400000
0.200000
-0.400000
-0.200000
0.000000
0.000000
0.300000
-0.400000
0.000000
-0.300000
-0.400000
-0.200000
0.500000
0.100000
0.400000
0.500000
0.200000
-0.300000
0.300000
-0.200000
0.200000
0.300000
0.200000
0.000000
-0.100000
0.500000
-0.200000
0.300000
-0.400000
-0.100000
-0.100000
0.100000
0.300000
-0.200000
0.000000
-0.400000
-0.100000
0.500000
-0.200000
-0.100000
0.400000
0.000000
0.500000
0.300000
0.000000
-0.200000
-0.300000
0.100000
0.400000
-0.400000
0.300000
0.000000
0.300000
-0.400000
0.200000
0.500000
0.300000
0.300000
-0.100000
0.500000
-0.400000
0.300000
0.000000
0.400000
-0.100000
0.000000
0.100000
-0.200000
0.100000
-0.400000
0.300000
0.400000
-0.400000
-0.200000
0.400000
-0.100000
0.100000
0.200000
0.400000
-0.200000
0.000000
0.000000
0.000000
0.300000
-0.400000
0.500000
-0.300000
0.200000
-0.400000
-0.400000
0.300000
0.100000
0.100000
0.300000
0.000000
0.000000
0.200000
-0.100000
0.300000
-0.300000
0.100000
0.400000
0.300000
-0.100000
-0.100000
-0.400000
0.400000
0.100000
0.200000
0.100000
-0.100000
-0.300000
0.100000
0.200000
-0.300000
0.100000
-0.200000
0.100000
-0.100000
0.100000
-0.100000
-0.100000
0.200000
-0.300000
0.500000
-0.100000
0.400000
0.400000
-0.100000
-0.400000
0.500000
0.000000
-0.300000
0.400000
0.400000
0.400000
0.000000
-0.300000
0.200000
0.100000
-0.400000
0.500000
-0.300000
0.400000
-0.400000
0.200000
-0.300000
-0.200000
0.100000
-0.200000
0.500000
-0.200000
-0.100000
0.200000
-0.400000
0.300000
-0.100000
-0.400000
-0.300000
-0.400000
0.000000
0.400000
-0.200000
0.500000
0.500000
-0.200000
0.400000
0.300000
-0.100000
-0.400000
0.100000
0.200000
0.500000
0.300000
0.300000
0.300000
0.200000
0.200000
0.200000
0.400000
0.500000
0.300000
0.200000
0.500000
-0.400000
-0.400000
0.300000
-0.100000
0.000000
-0.100000
-0.100000
0.200000
0.100000
-0.300000
-0.300000
-0.300000
-0.300000
0.200000
0.000000
0.400000
0.200000
-0.200000
0.200000
-0.200000
0.100000
0.500000
-0.100000
0.400000
-0.400000
0.100000
-0.100000
0.300000
0.100000
0.200000
0.500000
0.400000
0.200000
0.000000
-0.300000
0.200000
-0.200000
0.100000
-0.200000
0.400000
0.300000
0.200000
-0.400000
0.500000
-0.300000
0.300000
-0.300000
-0.100000
0.500000
-0.200000
-0.300000
0.400000
-0.100000
0.000000
0.400000
0.100000
0.500000
0.000000
-0.200000
-0.400000
0.500000
0.000000
0.200000
-0.400000
0.100000
-0.300000
0.100000
0.200000
-0.300000
-0.300000
0.500000
-0.200000
0.100000
0.200000
0.200000
0.300000
0.500000
-0.300000
-0.100000
0.100000
-0.100000
-0.400000
-0.200000
-0.200000
-0.200000
-0.400000
0.300000
0.000000
0.000000
-0.100000
-0.200000
-0.100000
0.100000
0.000000
0.500000
-0.100000
0.300000
0.000000
0.200000
-0.100000
-0.100000
-0.300000
-0.100000
0.200000
0.100000
-0.400000
0.400000
0.000000
0.100000
0.100000
0.100000
0.200000
-0.400000
-0.100000
-0.200000
0.100000
-0.200000
-0.100000
0.200000
0.100000
0.300000
0.400000
-0.400000
0.000000
-0.400000
-0.100000
0.400000
0.400000
-0.300000
0.200000
-0.100000
0.500000
-0.100000
-0.400000
0.500000
-0.400000
0.100000
-0.100000
-0.400000
0.200000
-0.100000
0.400000
0.200000
-0.100000
0.200000
0.500000
-0.200000
0.000000
0.300000
-0.200000
-0.400000
0.000000
0.200000
0.200000
0.400000
-0.100000
-0.400000
0.000000
-0.300000
0.200000
-0.300000
-0.200000
0.400000
0.400000
0.100000
0.200000
0.000000
-0.200000
0.500000
0.400000
-0.200000
-0.300000
-0.100000
0.000000
0.400000
-0.100000
-0.400000
-0.400000
0.400000
0.400000
0.300000
-0.400000
0.000000
0.200000
0.500000
0.100000
-0.100000
0.200000
0.300000
-0.300000
-0.400000
0.000000
0.500000
0.500000
-0.300000
0.400000
-0.300000
0.000000
-0.200000
0.500000
0.100000
-0.200000
0.100000
0.200000
0.100000
0.300000
0.000000
0.100000
0.500000
0.300000
0.100000
-0.400000
0.100000
-0.100000
0.200000
-0.300000
-0.300000
-0.400000
0.400000
-0.400000
0.200000
0.300000
0.500000
-0.100000
0.500000
-0.300000
-0.300000
0.500000
0.200000
0.400000
0.300000
0.100000
-0.400000
0.000000
0.000000
0.300000
-0.400000
-0.300000
0.300000
-0.400000
0.500000
0.500000
-0.100000
-0.200000
0.100000
0.300000
-0.100000
0.200000
0.100000
0.200000
-0.100000
0.400000
0.400000
0.100000
0.400000
0.300000
-0.400000
0.300000
-0.100000
0.500000
-0.400000
-0.300000
-0.400000
0.000000
0.300000
0.500000
-0.200000
0.100000
0.500000
-0.400000
0.300000
0.000000
0.200000
0.000000
-0.300000
0.300000
0.100000
-0.100000
-0.300000
0.200000
0.400000
-0.200000
-0.300000
-0.200000
0.300000
0.000000
0.500000
-0.300000
0.000000
0.200000
0.500000
-0.100000
0.400000
-0.400000
0.000000
0.400000
-0.200000
0.100000
0.500000
0.200000
-0.400000
0.500000
-0.300000
0.200000
0.500000
-0.300000
0.400000
0.100000
0.200000
0.100000
0.300000
-0.100000
0.100000
-0.100000
0.000000
0.100000
-0.300000
0.300000
0.500000
-0.400000
-0.300000
0.300000
0.400000
0.100000
0.500000
-0.100000
0.300000
0.100000
0.300000
0.500000
-0.100000
-0.100000
-0.100000
0.300000
-0.200000
0.400000
0.400000
-0.400000
-0.200000
0.300000
0.000000
0.400000
0.200000
0.500000
-0.300000
-0.400000
-0.300000
0.100000
0.400000
-0.100000
-0.100000
-0.200000
0.400000
0.500000
0.300000
-0.300000
0.200000
0.200000
0.400000
0.300000
-0.100000
0.200000
0.400000
0.000000
0.100000
0.000000
0.200000
0.100000
0.100000
-0.200000
0.200000
0.100000
0.200000
0.300000
0.400000
0.100000
0.500000
-0.200000
-0.300000
-0.400000
-0.200000
0.500000
0.200000
0.400000
0.200000
-0.100000
0.400000
0.500000
-0.300000
0.200000
0.200000
0.400000
0.200000
0.300000
0.400000
0.100000
-0.400000
-0.100000
0.300000
0.100000
-0.400000
0.300000
0.300000
0.400000
-0.400000
0.500000
0.500000
-0.400000
0.000000
0.300000
0.000000
0.400000
-0.200000
0.400000
0.200000
0.400000
-0.100000
0.000000
0.200000
0.500000
0.200000
0.100000
0.300000
0.100000
0.200000
-0.100000
0.300000
0.000000
-0.400000
0.200000
-0.200000
-0.100000
0.200000
-0.400000
0.400000
0.500000
0.000000
-0.300000
0.400000
-0.400000
0.500000
0.000000
0.100000
-0.300000
-0.300000
0.100000
-0.300000
0.200000
-0.300000
-0.200000
0.000000
0.500000
0.300000
0.000000
0.500000
0.400000
0.000000
0.300000
0.100000
-0.100000
0.300000
0.100000
0.000000
0.000000
0.100000
-0.400000
0.100000
-0.400000
0.300000
-0.400000
-0.100000
-0.400000
0.400000
0.200000
0.500000
-0.100000
0.300000
0.200000
0.200000
-0.400000
0.500000
0.000000
-0.200000
0.500000
-0.400000
-0.400000
0.500000
0.400000
-0.200000
-0.400000
0.200000
0.100000
0.400000
0.000000
0.000000
0.200000
0.100000
-0.400000
-0.200000
0.000000
0.100000
-0.300000
0.400000
0.200000
-0.100000
0.200000
-0.200000
0.400000
0.000000
0.400000
0.400000
0.500000
0.300000
0.000000
0.500000
0.400000
0.500000
-0.200000
0.200000
0.100000
0.200000
0.400000
0.400000
-0.300000
-0.200000
-0.400000
0.500000
0.000000
-0.400000
0.300000
0.400000
0.300000
0.500000
0.200000
0.100000
-0.200000
0.500000
0.500000
0.400000
-0.300000
0.200000
0.400000
0.400000
-0.300000
-0.300000
0.200000
0.200000
0.000000
-0.400000
0.300000
-0.300000
0.200000
0.100000
0.000000
-0.400000
0.500000
-0.100000
0.300000
0.100000
0.000000
-0.400000
-0.300000
0.000000
0.400000
-0.300000
-0.200000
-0.100000
-0.200000
0.000000
-0.400000
0.100000
0.200000
0.400000
0.500000
0.000000
0.100000
-0.100000
0.500000
-0.300000
0.400000
0.400000
-0.200000
0.100000
0.100000
0.000000
0.100000
0.300000
-0.400000
0.500000
-0.200000
-0.400000
0.100000
-0.200000
0.500000
0.000000
-0.100000
0.100000
-0.400000
0.300000
0.000000
0.000000
0.400000
0.300000
0.400000
0.100000
0.200000
0.200000
0.300000
0.400000
-0.400000
0.100000
-0.400000
0.200000
0.000000
0.000000
0.500000
-0.100000
0.400000
-0.200000
0.200000
0.400000
-0.100000
0.300000
0.500000
0.100000
-0.100000
-0.300000
0.300000
-0.400000
-0.100000
-0.300000
0.400000
-0.400000
-0.100000
0.200000
-0.400000
-0.300000
-0.200000
0.000000
0.200000
0.500000
0.500000
0.000000
0.100000
0.400000
0.200000
0.000000
-0.200000
0.200000
-0.200000
-0.300000
0.100000
0.300000
-0.300000
0.500000
0.100000
0.400000
-0.100000
0.000000
-0.300000
0.200000
-0.200000
0.300000
0.400000
-0.400000
-0.200000
0.400000
0.300000
0.400000
0.400000
0.300000
0.400000
0.200000
0.000000
-0.100000
0.500000
0.400000
0.000000
0.200000
0.500000
-0.300000
0.000000
0.200000
0.300000
0.300000
-0.100000
-0.200000
-0.400000
0.300000
-0.400000
-0.100000
0.400000
0.300000
0.400000
0.500000
0.500000
-0.300000
0.500000
0.500000
0.000000
-0.400000
-0.300000
0.400000
0.300000
0.100000
0.200000
0.500000
0.300000
0.500000
0.500000
0.100000
0.400000
-0.400000
-0.100000
0.000000
0.200000
-0.400000
-0.200000
0.100000
-0.300000
-0.400000
0.100000
0.500000
-0.300000
-0.200000
-0.200000
0.000000
-0.100000
0.500000
0.200000
-0.300000
0.500000
-0.400000
0.100000
-0.400000
0.200000
0.000000
0.100000
-0.200000
-0.300000
-0.100000
0.400000
0.100000
-0.200000
0.200000
-0.400000
-0.200000
0.500000
0.000000
0.100000
0.100000
-0.100000
0.000000
-0.300000
0.100000
-0.200000
-0.300000
-0.200000
0.000000
0.300000
0.400000
-0.200000
-0.200000
-0.100000
-0.400000
0.100000
-0.400000
0.200000
0.400000
0.400000
0.100000
-0.400000
0.000000
0.000000
0.500000
0.300000
0.200000
-0.400000
-0.100000
-0.400000
-0.300000
-0.300000
0.400000
0.200000
-0.100000
0.500000
0.500000
-0.400000
0.000000
0.100000
-0.300000
-0.200000
0.100000
-0.400000
-0.400000
-0.300000
0.200000
-0.300000
0.000000
0.300000
0.400000
0.000000
0.200000
0.400000
-0.100000
-0.200000
0.200000
0.500000
0.000000
0.300000
0.300000
0.400000
0.000000
0.500000
0.300000
-0.100000
0.300000
-0.300000
0.200000
-0.100000
-0.200000
0.100000
0.000000
0.200000
-0.200000
-0.200000
-0.300000
-0.300000
0.100000
0.500000
0.200000
0.000000
-0.300000
-0.400000
0.200000
0.400000
-0.200000
0.500000
-0.400000
0.200000
0.200000
0.000000
-0.200000
0.200000
-0.100000
0.100000
-0.400000
0.100000
0.500000
0.500000
-0.400000
-0.200000
-0.300000
-0.100000
0.000000
0.300000
0.300000
0.200000
0.000000
0.200000
-0.200000
-0.400000
0.400000
0.500000
0.000000
0.500000
-0.400000
0.200000
-0.100000
0.000000
0.000000
-0.400000
-0.100000
0.400000
-0.400000
-0.400000
0.400000
-0.200000
0.000000
-0.400000
0.100000
-0.200000
0.000000
0.500000
0.200000
0.300000
0.500000
0.200000
-0.300000
-0.300000
0.000000
-0.400000
0.100000
0.500000
0.200000
-0.200000
-0.200000
-0.400000
0.000000
-0.400000
0.500000
-0.100000
-0.300000
-0.200000
-0.100000
-0.400000
0.500000
-0.400000
0.400000
-0.200000
-0.400000
-0.300000
0.000000
-0.400000
0.500000
0.100000
0.500000
0.000000
0.300000
0.000000
-0.300000
0.500000
-0.200000
0.100000
-0.400000
0.200000
0.100000
0.500000
0.400000
0.400000
0.100000
-0.200000
0.400000
0.500000
-0.100000
0.100000
0.200000
-0.300000
0.500000
0.400000
0.500000
0.100000
0.000000
0.200000
0.000000
-0.400000
0.100000
0.300000
-0.200000
0.500000
-0.300000
0.300000
0.200000
0.500000
0.400000
0.300000
0.000000
-0.200000
0.000000
0.400000
-0.300000
0.000000
0.200000
0.400000
-0.100000
0.500000
-0.300000
0.100000
-0.300000
-0.200000
0.000000
-0.200000
0.000000
0.000000
0.500000
0.300000
0.100000
-0.300000
0.500000
0.100000
-0.400000
0.000000
0.100000
0.400000
0.300000
0.100000
-0.200000
-0.400000
0.500000
0.300000
0.300000
0.100000
-0.200000
-0.200000
0.500000
0.400000
-0.200000
0.400000
-0.200000
-0.300000
0.000000
0.400000
0.000000
-0.200000
0.100000
0.200000
-0.200000
0.300000
-0.400000
0.300000
0.300000
0.000000
0.300000
0.000000
0.500000
0.100000
0.500000
-0.300000
-0.300000
0.100000
0.100000
0.200000
0.200000
0.000000
0.300000
0.300000
0.500000
0.000000
0.500000
0.100000
0.200000
0.300000
-0.100000
-0.300000
-0.300000
0.400000
0.000000
-0.100000
0.300000
0.200000
-0.300000
-0.400000
0.400000
0.400000
0.000000
-0.100000
-0.300000
0.400000
-0.300000
-0.200000
0.400000
-0.400000
-0.400000
0.300000
0.500000
0.100000
0.400000
0.300000
-0.300000
0.500000
0.500000
0.100000
-0.100000
0.500000
0.500000
0.200000
-0.400000
-0.300000
0.000000
0.100000
0.000000
0.100000
0.100000
-0.300000
0.500000
-0.400000
-0.300000
-0.400000
-0.200000
0.500000
-0.400000
-0.300000
0.100000
-0.400000
0.300000
0.500000
-0.300000
0.500000
-0.200000
0.200000
0.500000
0.300000
0.000000
0.500000
-0.200000
0.500000
0.300000
-0.200000
-0.400000
0.500000
0.500000
-0.100000
0.100000
0.400000
0.000000
0.400000
0.300000
-0.400000
-0.200000
0.500000
-0.100000
0.200000
-0.100000
0.200000
-0.100000
-0.200000
-0.100000
-0.100000
0.200000
0.200000
0.300000
0.100000
-0.300000
0.400000
-0.200000
0.400000
-0.400000
0.500000
-0.100000
-0.200000
0.400000
0.200000
0.200000
-0.300000
0.400000
-0.200000
-0.400000
0.400000
0.200000
0.500000
0.400000
-0.300000
0.200000
0.500000
0.200000
0.100000
-0.100000
-0.200000
0.200000
0.300000
0.000000
0.100000
-0.300000
0.300000
-0.200000
-0.400000
0.200000
-0.100000
0.000000
0.100000
-0.100000
0.100000
0.400000
-0.400000
-0.300000
-0.200000
-0.100000
0.500000
0.400000
0.200000
0.000000
0.000000
-0.100000
-0.300000
-0.100000
-0.300000
0.300000
0.100000
-0.100000
0.000000
0.200000
0.200000
-0.400000
0.100000
-0.300000
-0.400000
0.300000
0.500000
0.400000
0.000000
0.000000
-0.400000
0.100000
-0.200000
0.000000
0.500000
-0.400000
0.500000
0.400000
0.100000
0.400000
0.200000
0.300000
-0.400000
-0.300000
-0.100000
0.200000
-0.400000
-0.400000
0.000000
0.400000
0.400000
0.500000
-0.200000
-0.100000
-0.400000
0.300000
0.300000
0.100000
-0.100000
-0.400000
0.200000
0.300000
0.200000
0.100000
0.400000
-0.300000
0.500000
0.400000
-0.100000
-0.300000
-0.400000
0.000000
-0.200000
-0.100000
0.200000
-0.300000
0.300000
0.400000
0.100000
0.000000
0.100000
0.500000
-0.400000
0.400000
0.400000
-0.300000
0.000000
0.000000
0.000000
0.100000
0.200000
0.500000
-0.400000
-0.200000
-0.200000
-0.400000
0.400000
0.400000
-0.400000
-0.300000
0.100000
-0.200000
-0.400000
0.300000
0.000000
-0.400000
-0.400000
0.100000
-0.200000
-0.100000
-0.300000
-0.200000
0.100000
-0.400000
-0.100000
0.300000
0.200000
-0.100000
-0.200000
0.400000
-0.300000
-0.300000
0.400000
0.200000
0.100000
-0.300000
0.100000
-0.300000
-0.300000
0.000000
0.100000
0.100000
0.400000
0.500000
0.400000
0.300000
0.400000
0.500000
0.300000
0.500000
0.000000
0.500000
0.400000
0.500000
-0.300000
-0.200000
0.500000
0.000000
0.300000
0.000000
0.100000
0.300000
0.100000
0.300000
-0.400000
-0.300000
0.000000
-0.100000
-0.100000
0.400000
0.500000
0.100000
0.400000
-0.100000
-0.100000
0.000000
0.200000
0.400000
0.100000
-0.100000
0.300000
-0.400000
0.400000
-0.100000
-0.200000
-0.200000
-0.200000
-0.199971
0.488499
-0.000432
-0.209714
-0.199998
0.499999
0.226488
0.199966
-0.199718
0.200040
0.400868
0.000000
0.400000
-0.200066
-0.313981
0.512292
0.101779
0.400987
-0.387966
0.241606
0.502906
-0.297595
0.499992
-0.305733
0.300042
0.399988
0.500865
-0.100295
0.199718
-0.252991
-0.000029
0.099729
-0.400034
0.103191
0.388782
-0.000201
-0.298026
0.492431
-0.300001
-0.013711
-0.300015
0.384327
0.399988
0.007744
0.383627
-0.077427
0.295679
-0.396803
0.400230
-0.196893
0.499999
0.000000
0.100009
0.309922
-0.199993
-0.099932
-0.300059
0.299995
-0.200237
-0.399415
-0.003546
-0.304317
0.389820
-0.292973
0.203532
-0.199999
-0.383050
0.201738
0.002712
-0.299818
0.199997
0.499621
-0.399998
0.000001
-0.108850
-0.401123
0.188016
-0.300031
-0.400257
-0.256578
0.399736
-0.199945
0.199998
-0.100377
-0.299979
-0.084696
0.200003
0.299982
-0.100148
0.501563
-0.299961
-0.200024
0.500108
0.099980
-0.302809
0.400398
-0.300208
0.408423
0.200001
-0.300002
-0.197554
-0.300000
-0.399994
0.000003
0.412914
-0.400051
-0.104191
-0.096449
-0.399398
-0.000001
-0.000384
0.293943
-0.301105
0.406242
-0.100005
0.299963
-0.207541
-0.300003
-0.305284
0.499312
0.000008
0.500018
-0.399956
-0.400412
-0.199912
0.205536
0.199994
-0.081847
-0.003582
0.199745
-0.301747
0.200243
-0.400701
0.291115
-0.100438
-0.095256
-0.000396
-0.400105
0.399954
0.099751
-0.400102
-0.300097
-0.198600
0.094928
0.117201
0.299997
-0.200005
0.299996
-0.200001
0.300000
0.499831
-0.400761
-0.300006
0.399971
-0.087846
0.300001
0.300016
-0.207005
0.100010
-0.299941
0.210592
-0.400000
-0.300175
0.099905
-0.100069
-0.298852
-0.106501
-0.299999
-0.199989
-0.000339
-0.287916
-0.200000
0.000015
-0.199127
0.400049
-0.190036
0.197950
-0.199649
0.499946
-0.399983
-0.097778
-0.399985
0.300002
0.300004
0.499579
0.399995
-0.101036
0.398890
0.000001
0.000006
-0.400205
-0.100011
0.101112
-0.100002
-0.199976
0.300612
-0.100186
-0.301093
-0.097976
-0.400023
0.300029
-0.311501
-0.300432
0.090286
0.100002
0.499999
-0.173512
-0.400034
-0.399718
-0.299960
0.100868
0.400000
0.400000
-0.000066
-0.113981
-0.187708
0.201779
0.300987
0.512034
-0.258394
-0.297094
-0.397595
0.199992
0.394267
0.200042
-0.100012
0.400865
0.499705
0.399718
0.047009
0.299971
0.299729
0.299966
0.503191
0.088782
0.299799
-0.198026
0.392431
-0.300001
0.186289
0.199985
0.084327
-0.400012
-0.092256
0.183627
0.222573
0.295679
0.303197
-0.099770
0.003107
0.299999
0.300000
0.100009
0.009922
-0.099993
0.300068
0.199941
-0.300005
-0.000237
-0.199415
-0.303546
0.395683
0.389820
0.507027
0.503532
0.500001
0.216950
-0.198262
-0.397288
-0.099818
-0.200003
-0.300379
-0.299998
-0.199999
0.391150
-0.001123
0.288016
0.199969
0.399743
-0.056578
-0.100264
0.100055
0.299998
0.399623
-0.399979
-0.184696
0.300003
-0.300018
0.299852
-0.298437
0.300039
-0.100024
0.500108
-0.200020
-0.402809
0.100398
0.399792
-0.291577
-0.099999
0.399998
0.502446
-0.200000
-0.299994
-0.399997
0.012914
0.399949
-0.304191
0.103551
0.400602
-0.100001
0.099616
-0.206057
-0.001105
-0.193758
-0.400005
0.199963
0.492459
0.099997
0.094716
-0.400688
0.000008
0.500018
-0.199956
0.099588
-0.399912
-0.094464
0.099994
-0.181847
-0.003582
-0.000255
-0.301747
0.000243
0.499299
0.291115
0.399562
-0.195256
0.499604
0.299895
0.399954
-0.300249
0.399898
0.299903
-0.098600
-0.105072
0.517201
-0.300003
0.399995
0.399996
-0.300001
0.300000
-0.300169
0.499239
-0.300006
-0.300029
0.012154
0.300001
-0.299984
0.492995
0.200010
-0.199941
0.210592
-0.000000
0.099825
0.199905
0.299931
0.001148
0.093499
0.000001
0.400011
-0.300339
-0.287916
0.100000
0.500015
0.400873
-0.299951
0.309964
-0.402050
-0.199649
-0.100054
0.300017
0.302222
0.100015
0.400002
-0.199996
0.099579
0.299995
0.398964
0.098890
0.300001
-0.399994
0.099795
-0.200011
0.501112
0.199998
0.400024
-0.099388
0.399814
-0.201093
-0.197976
0.299977
0.000000
0.200000
-0.200000
-0.200000
-0.400000
0.400000
0.200000
-0.300000
0.300000
0.100000
-0.200000
0.300000
0.300000
0.300000
-0.200000
0.100000
0.400000
-0.300000
-0.300000
0.400000
-0.200000
0.200000
0.300000
0.400000
0.500000
-0.400000
0.400000
0.000000
-0.200000
-0.300000
-0.400000
0.400000
-0.200000
0.200000
-0.200000
-0.300000
-0.200000
0.100000
-0.100000
0.000000
0.300000
0.400000
-0.400000
-0.400000
-0.400000
-0.200000
0.300000
-0.100000
0.500000
0.300000
0.000000
0.400000
0.500000
0.500000
0.400000
0.500000
-0.400000
-0.300000
0.100000
0.400000
0.000000
0.500000
-0.400000
0.000000
0.300000
0.100000
0.200000
0.500000
0.500000
0.400000
-0.100000
-0.300000
-0.200000
0.400000
-0.200000
0.500000
0.300000
-0.200000
-0.200000
-0.100000
0.100000
0.000000
-0.400000
-0.100000
0.500000
0.000000
0.000000
-0.300000
0.000000
0.100000
0.200000
0.200000
-0.100000
0.200000
-0.200000
-0.100000
0.300000
-0.200000
-0.400000
-0.100000
-0.200000
0.000000
0.500000
-0.300000
0.000000
0.500000
-0.200000
0.200000
-0.100000
-0.100000
0.300000
0.000000
0.400000
-0.200000
0.500000
0.200000
-0.200000
0.300000
0.000000
0.100000
0.000000
0.100000
-0.100000
0.500000
-0.100000
-0.200000
0.000000
-0.200000
-0.300000
-0.300000
0.400000
-0.100000
-0.400000
0.300000
0.300000
0.200000
-0.300000
0.300000
0.400000
0.400000
-0.100000
0.100000
-0.200000
-0.300000
-0.100000
-0.300000
0.300000
0.200000
-0.200000
0.400000
0.400000
-0.400000
-0.200000
0.500000
-0.200000
-0.400000
0.500000
0.100000
0.500000
-0.200000
-0.200000
-0.400000
-0.100000
-0.400000
-0.300000
0.400000
-0.300000
0.300000
0.400000
-0.200000
0.200000
0.200000
-0.100000
-0.400000
0.200000
0.400000
-0.100000
0.100000
-0.300000
-0.300000
0.000000
0.400000
0.400000
0.500000
0.200000
-0.100000
-0.400000
-0.100000
-0.400000
-0.100000
-0.300000
-0.400000
0.000000
0.100000
-0.300000
0.100000
0.300000
-0.100000
-0.300000
-0.100000
0.200000
0.199924
0.400011
-0.110994
0.500010
-0.100000
-0.399740
0.300046
0.500013
0.200396
0.195125
-0.099915
-0.100000
-0.099995
0.099637
-0.297725
-0.081457
0.500000
0.500059
-0.100008
-0.397670
-0.301806
-0.199994
-0.315916
0.100009
-0.400076
-0.199950
-0.299296
0.500060
0.387001
0.399999
0.500001
0.200000
0.100991
-0.402438
-0.200000
0.500030
0.196026
0.300000
-0.229403
0.502027
-0.004798
0.300000
0.297682
-0.400001
0.501368
0.399998
0.010522
0.000222
-0.099998
-0.200000
0.200000
-0.400937
-0.099914
-0.299999
0.000006
-0.392250
-0.100000
-0.100000
0.499989
0.199998
-0.100189
0.287997
0.403996
0.203077
-0.299817
-0.200057
0.016621
-0.400101
-0.400132
-0.200003
-0.000000
0.300049
0.300389
-0.201926
0.500027
0.196640
0.000001
-0.000017
0.283743
-0.100000
0.000003
0.300000
-0.199940
0.493513
-0.399993
0.000004
0.000000
-0.200027
-0.197142
-0.200001
0.200000
-0.105334
0.000000
-0.023901
-0.083004
0.399990
0.196384
0.000018
0.199998
0.496932
-0.100000
0.400000
-0.200000
0.199226
-0.299171
0.094032
0.201792
0.100003
-0.100019
0.100279
-0.304263
0.000003
0.300009
-0.000000
0.399981
-0.161609
0.200009
0.496308
0.076995
0.100004
-0.199979
0.301049
0.100016
-0.099830
0.400218
-0.099726
-0.099498
-0.104343
0.191893
0.192564
0.401348
-0.081511
-0.001577
0.000002
-0.102113
-0.300000
-0.300063
-0.400001
0.400001
0.099994
-0.200019
0.500176
0.093840
0.000109
0.000000
0.000001
0.100000
-0.200000
-0.000000
0.299999
-0.399964
-0.300000
0.507944
0.299668
-0.100000
0.000000
0.264315
-0.000000
-0.291073
-0.399934
-0.400000
-0.299850
-0.100244
0.200027
0.500000
0.504388
0.399995
0.200001
-0.300004
-0.101162
-0.299999
-0.300010
0.300107
0.001629
-0.397127
-0.201195
0.406634
0.099999
0.300001
0.500002
-0.400000
-0.299999
0.400000
-0.199060
-0.100000
0.000501
-0.100002
0.000000
0.200000
0.195863
-0.000046
-0.100000
0.200000
-0.000000
0.000497
-0.199984
0.476759
0.400001
0.500008
0.200096
-0.201248
0.199619
0.388955
0.200011
0.099997
-0.395906
-0.099581
0.499377
0.300401
0.393400
-0.399915
-0.300000
-0.300161
-0.305760
-0.194926
0.019003
0.500058
-0.398980
0.500108
0.201524
-0.201695
0.300005
-0.018307
0.300007
0.199916
0.000732
-0.199323
-0.199625
-0.409782
0.499905
0.400002
0.400000
0.101102
0.093862
-0.000001
-0.399935
-0.004750
-0.100000
0.065093
-0.197968
-0.105997
-0.300001
0.501080
0.499984
0.501495
-0.300260
-0.086977
-0.200299
-0.299378
0.199993
0.199983
-0.300926
0.301167
-0.099993
0.200007
-0.295435
-0.000000
-0.100000
-0.199945
0.499980
-0.100242
0.383232
0.406857
0.204206
-0.399815
-0.000029
0.518394
0.402773
0.200076
-0.300015
-0.300046
-0.100078
-0.199611
-0.403564
-0.200326
0.493595
-0.099608
0.499940
0.400503
0.099997
-0.099899
0.100000
0.300048
-0.307707
0.300521
0.300021
-0.100000
-0.300043
-0.195499
-0.399975
0.299998
-0.404399
0.200000
-0.326166
-0.079090
0.499972
-0.099578
-0.099983
-0.300003
-0.297963
-0.100000
-0.200000
0.200001
0.205430
0.400975
0.388726
0.001459
0.500009
0.099975
0.497355
0.194822
0.099985
0.100283
0.098908
0.299950
0.030114
-0.399992
0.392567
0.176487
-0.200087
0.400164
0.301090
0.200003
-0.299659
0.404070
0.100463
0.411587
-0.004448
0.494076
0.293757
-0.097467
-0.083290
0.495243
-0.199941
0.197854
-0.199999
0.299937
0.499999
0.500002
-0.300010
0.000010
-0.399918
-0.408269
0.401544
-0.400000
0.000142
-0.099396
-0.400000
0.200003
-0.400098
0.200028
0.099984
-0.192108
0.005007
-0.099929
0.000025
0.264896
-0.099992
-0.191038
0.303644
0.100002
-0.300710
-0.300549
0.299791
-0.299999
0.503905
-0.200009
-0.199986
0.399953
-0.099568
-0.099999
-0.100007
-0.199764
0.101643
0.510015
-0.201280
0.006807
0.399998
0.200010
0.200432
-0.400002
-0.100000
0.300000
-0.400542
0.499999
-0.199163
0.499600
-0.099716
0.200002
-0.200343
0.199947
0.500041
0.499891
-0.000005
-0.394562
0.400024
0.374949
0.300487
0.300004
0.300096
0.491872
-0.000553
0.381138
-0.299985
-0.300003
0.418495
0.300433
-0.200608
0.000465
-0.010351
0.500085
0.400000
0.299814
0.494034
-0.293971
-0.174347
0.300146
0.502127
-0.395934
-0.198386
0.198127
0.500007
-0.122958
0.300015
0.199890
-0.398498
0.300675
-0.398877
0.203788
0.195665
0.200009
0.100000
-0.098722
-0.112987
-0.000002
0.100106
0.489989
0.300000
0.258434
0.002231
0.188517
-0.400002
0.005952
-0.200022
-0.288922
-0.400355
0.113792
-0.100184
0.200635
0.099992
0.299983
0.499142
0.003309
-0.099982
-0.399989
-0.296192
-0.000000
0.300000
-0.300112
-0.400028
-0.400349
0.270291
0.207560
-0.194456
0.500187
-0.100185
0.223593
0.504713
0.400101
-0.100187
-0.200047
0.000023
-0.099393
0.193960
-0.400642
0.492106
-0.099408
0.199670
-0.074979
-0.000003
-0.199897
0.400000
0.400077
0.390310
0.500799
-0.099934
0.200000
-0.300049
-0.294732
-0.199863
0.099987
-0.304272
-0.399999
0.459105
-0.364231
-0.000092
-0.098493
0.000007
0.299993
0.100720
-0.300000
-0.200000
0.500001
-0.291826
0.204106
-0.328639
-0.198691
0.400021
-0.300170
0.293964
-0.211314
-0.000018
-0.099691
0.498903
0.299893
0.017344
0.300005
-0.217549
-0.129179
0.199878
-0.099790
-0.293558
-0.100002
0.100402
0.004240
0.201530
0.536267
-0.304937
-0.102514
-0.408520
-0.297143
-0.276712
0.292412
0.400063
-0.102938
0.199912
0.299923
-0.100004
0.500008
-0.100127
0.299978
-0.299885
-0.334778
-0.082942
0.300000
-0.099853
0.400658
0.200000
0.100003
-0.300128
-0.199973
0.299978
0.014665
0.411163
0.000073
-0.199952
0.353484
-0.199989
0.109623
-0.296060
0.500002
0.099362
-0.099950
0.099784
0.400005
0.008451
-0.100009
0.100014
-0.000050
-0.096042
0.000001
0.499998
0.106021
-0.398308
0.315646
0.396883
-0.193100
-0.200006
-0.199881
-0.199562
-0.100001
0.200000
-0.000003
0.298256
0.399999
-0.198428
-0.402972
-0.099713
0.400003
0.001756
-0.100535
-0.399932
-0.100108
0.399992
-0.293741
0.500179
0.070443
-0.199385
-0.000002
-0.200000
0.193121
-0.000172
-0.207817
0.100004
0.500000
0.014402
-0.299986
0.100015
0.200064
0.396249
-0.100000
0.200000
-0.300026
0.499794
0.400954
0.506650
0.200087
0.201106
-0.396042
0.300090
0.199822
-0.199998
-0.304651
-0.399992
0.199974
-0.199230
0.499998
0.200748
-0.186430
0.395761
0.200007
0.200000
0.500176
0.093151
-0.400001
-0.299959
0.194740
-0.300000
-0.206659
0.500200
-0.305486
0.099999
0.304872
-0.300006
-0.090417
0.099905
-0.299231
-0.099886
-0.199988
-0.000000
-0.200000
-0.199933
0.402141
0.000010
0.500004
0.499243
-0.000000
-0.300000
-0.400166
-0.300007
0.299892
-0.312942
-0.199298
-0.098662
0.200002
-0.000156
-0.294801
0.501940
0.400025
0.499828
-0.200001
0.300102
-0.399782
0.197524
-0.300316
-0.101488
0.500200
-0.200271
0.224517
-0.100000
0.500002
-0.300000
-0.099971
-0.101983
0.500278
-0.399956
-0.400000
0.199994
0.300767
-0.299888
0.499988
-0.199873
0.000002
-0.014729
0.314859
-0.100064
0.501085
-0.400010
-0.000004
0.498683
-0.200000
0.100000
0.000000
0.002744
-0.096869
0.482634
-0.300149
-0.399988
0.499854
0.196609
-0.206136
-0.200003
0.200026
-0.000005
0.199942
0.087230
-0.100002
0.089884
0.294334
-0.000035
0.400046
0.005352
0.399995
0.000060
0.100170
-0.298933
0.424680
0.199511
0.503411
-0.002277
-0.099676
0.006578
0.497170
-0.399996
-0.200792
-0.000089
-0.200014
-0.400002
0.200006
0.099883
-0.300032
0.200033
-0.326509
-0.084487
0.500000
-0.199995
-0.399946
-0.100000
0.000000
-0.000030
-0.200002
0.199994
-0.093227
0.506156
0.200002
0.200022
-0.411412
-0.399997
0.200661
0.500296
0.400000
0.400073
-0.299401
0.199993
-0.299995
-0.295454
0.300000
0.500000
-0.300004
0.203526
-0.100000
0.500005
-0.294215
0.000050
0.405631
-0.001837
-0.399907
-0.100004
0.200109
-0.099994
-0.400000
0.100000
0.099997
-0.401202
-0.400000
-0.199265
-0.302572
0.400003
0.000002
0.302099
0.199519
0.500027
-0.199999
-0.000004
0.100821
0.100155
-0.004507
0.200128
0.299994
0.500000
-0.203942
-0.200144
-0.005931
0.300004
-0.100000
-0.085723
0.499999
0.400002
0.100059
0.396456
0.400000
-0.300000
-0.100018
-0.000205
-0.099117
-0.393654
0.100087
-0.098874
0.303961
0.300093
0.299850
0.400002
0.496970
0.000008
0.499974
-0.299236
-0.400002
-0.199268
-0.183071
-0.300798
0.300006
0.400000
0.100015
0.194519
-0.300001
0.500024
-0.204792
-0.300000
-0.206174
-0.399805
-0.403800
0.499999
0.504909
-0.100006
0.509452
-0.300101
0.400769
0.500078
-0.099989
0.500000
0.100000
-0.299932
-0.197857
0.200010
0.000004
-0.400808
-0.200000
-0.300000
-0.100157
0.099996
-0.300027
-0.112748
0.000693
0.201288
0.200001
0.399852
-0.296405
-0.097389
0.200026
-0.400001
-0.200001
0.199998
0.400006
-0.200627
-0.000319
0.298172
0.000024
0.499729
0.324699
0.400000
0.000002
0.500000
0.200031
-0.301980
-0.199732
0.000044
0.200000
0.299995
0.101131
-0.399884
0.499988
-0.299858
0.000001
0.186817
0.213051
-0.200027
0.001277
0.499990
-0.000001
0.498178
0.300000
-0.300000
0.400000
0.204454
-0.096994
0.188419
0.399525
-0.299989
-0.100138
0.496667
-0.406242
-0.200003
-0.199974
0.299995
-0.300058
-0.411404
0.299997
0.189609
-0.302417
-0.400035
-0.299974
-0.094641
0.499994
0.300058
0.000174
-0.198955
-0.175442
0.099525
0.103674
0.299202
0.300324
-0.095074
0.097301
0.000002
0.099158
-0.300017
0.199986
0.099998
0.400002
-0.000003
0.500007
-0.199969
-0.317876
-0.284505
-0.200000
0.100001
0.300001
-0.200000
-0.300000
0.399968
-0.400001
-0.300006
0.504029
0.306318
0.500001
0.300023
0.090288
-0.199997
0.000657
-0.199710
0.500000
-0.200424
0.500468
0.499993
0.000005
0.102861
0.200000
0.100000
0.099997
0.503544
-0.300000
0.300005
0.005103
0.500048
0.205152
-0.301774
0.400082
0.099996
-0.199900
0.200005
0.500000
0.100000
-0.200000
-0.202098
0.500000
-0.400374
-0.000293
-0.200000
-0.199998
0.002177
0.499974
-0.299973
-0.399999
0.199996
-0.299321
0.100113
-0.400399
0.500128
-0.100016
0.000000
0.496248
-0.300002
0.199807
0.500000
0.300000
0.308375
-0.100000
-0.200002
0.400001
0.098793
0.400000
0.500000
-0.000000
0.299817
0.200444
0.200343
0.100006
-0.198874
-0.296071
0.100017
0.300047
-0.100000
-0.301165
-0.200000
0.400000
-0.199984
0.199996
0.300000
0.312655
0.500000
0.400002
-0.000000
0.000004
-0.103684
-0.200000
0.400000
0.197805
-0.300000
0.295608
-0.200000
0.199789
-0.100000
0.204752
0.099996
-0.191465
-0.000016
-0.099951
-0.400006
0.300010
-0.300000
0.300000
0.100012
0.400019
-0.100000
-0.300000
-0.000845
0.100000
0.100000
0.100001
-0.300003
0.399999
0.392924
0.500007
0.200017
0.000000
-0.300141
-0.400277
-0.397327
0.500000
-0.400000
0.300000
-0.300003
0.199999
0.499607
0.399781
0.098582
0.000002
0.099994
0.415614
-0.000000
0.100000
-0.100000
-0.299973
-0.200397
0.100264
-0.400000
0.200000
-0.000000
-0.099371
0.300115
-0.300000
0.200033
-0.100000
-0.104481
-0.099943
-0.000002
0.001222
-0.200000
0.200000
0.399774
-0.400000
-0.300000
-0.400000
-0.195502
0.300027
0.290534
-0.100079
0.300001
0.399999
-0.000016
-0.401591
0.100000
-0.200000
-0.300000
-0.400001
-0.401684
-0.000000
0.298627
0.299145
0.299967
-0.199996
0.400017
-0.300000
0.100001
0.400091
0.500000
-0.376699
-0.300160
0.003071
-0.200502
-0.299872
0.099985
-0.001969
0.000001
-0.400643
-0.200002
-0.000000
-0.100000
0.200000
0.400000
-0.399996
0.100008
0.089352
-0.087506
-0.100000
0.400000
0.300001
-0.400000
-0.300000
0.399996
0.499998
0.100000
-0.000073
0.201136
0.300000
-0.300000
0.298543
0.500000
0.400003
-0.199767
0.300000
-0.200472
-0.400043
0.399999
-0.300000
0.498793
-0.000000
0.000000
0.500000
0.503433
0.400000
-0.299989
0.004758
-0.299999
0.403131
0.099975
-0.199989
-0.000000
0.400001
0.300001
0.500000
0.400000
-0.200000
-0.003460
-0.400000
0.399032
0.199816
0.000000
-0.400000
0.200177
0.300000
0.400006
0.000001
-0.400000
-0.199394
0.099994
-0.000410
0.100111
0.300000
-0.200000
0.100000
0.000000
0.000000
0.000000
-0.400000
-0.300000
0.000000
0.000000
0.400000
-0.100000
-0.400000
-0.400000
-0.200000
0.300000
-0.300000
-0.400000
0.200000
0.400000
0.400000
0.400000
-0.100000
-0.300000
-0.400000
-0.300000
-0.100000
0.400000
0.400000
0.200000
0.400000
0.400000
-0.400000
-0.100000
-0.200000
0.300000
0.400000
0.000000
0.000000
-0.300000
-0.400000
0.400000
0.500000
0.100000
0.100000
-0.300000
0.200000
-0.100000
0.200000
0.200000
0.400000
0.400000
0.300000
0.200000
-0.400000
0.200000
0.500000
-0.100000
0.500000
-0.100000
0.300000
-0.100000
0.100000
0.200000
0.400000
0.300000
-0.400000
0.200000
0.300000
0.300000
-0.400000
0.300000
0.100000
-0.400000
0.500000
-0.100000
0.000000
0.000000
0.300000
0.300000
-0.100000
0.000000
0.000000
0.500000
-0.100000
-0.300000
-0.100000
-0.300000
0.100000
0.200000
-0.100000
-0.100000
0.000000
0.000000
0.400000
-0.400000
-0.100000
-0.300000
-0.100000
-0.300000
-0.300000
0.000000
-0.400000
0.300000
0.200000
-0.300000
-0.400000
0.200000
-0.100000
-0.300000
0.400000
0.500000
0.100000
0.400000
-0.200000
-0.200000
-0.400000
0.400000
0.300000
-0.400000
0.000000
0.200000
-0.400000
0.500000
0.400000
-0.300000
0.000000
-0.200000
0.000000
-0.200000
0.500000
-0.300000
-0.100000
0.000000
0.300000
0.300000
0.000000
-0.300000
0.000000
-0.100000
0.500000
0.400000
0.200000
-0.100000
-0.300000
-0.200000
0.200000
0.100000
-0.100000
-0.100000
0.000000
-0.200000
-0.300000
-0.100000
-0.300000
0.100000
0.100000
0.200000
-0.400000
0.000000
0.300000
0.200000
-0.200000
-0.200000
-0.100000
-0.200000
0.500000
-0.200000
-0.400000
-0.100000
-0.300000
0.500000
0.300000
0.100000
0.000000
-0.300000
0.100000
-0.300000
-0.400000
-0.200000
0.300000
0.400000
0.500000
-0.400000
-0.100000
0.200000
0.200000
-0.100000
0.400000
-0.300000
0.100000
-0.300000
0.300000
0.200000
-0.100000
-0.200000
-0.200000
0.000000
0.200000
0.300000
-0.100000
0.000000
0.400000
-0.100000
0.100000
0.100000
0.300000
0.200000
0.500000
0.500000
-0.100000
-0.400000
0.100000
-0.300000
0.500000
0.300000
-0.100000
0.000000
0.200000
0.200000
0.100000
0.400000
-0.300000
0.400000
0.000000
0.200000
0.200000
0.200000
-0.100000
0.200000
0.000000
0.200000
0.300000
-0.200000
0.100000
-0.400000
-0.200000
-0.100000
0.100000
0.100000
0.400000
0.000000
0.300000
0.500000
0.500000
-0.200000
0.000000
0.000000
0.200000
0.400000
0.300000
0.000000
-0.400000
-0.300000
-0.300000
-0.100000
0.500000
-0.100000
0.200000
0.200000
-0.200000
0.200000
0.500000
0.100000
0.100000
0.000000
0.100000
0.100000
0.400000
0.000000
0.500000
-0.200000
0.300000
-0.400000
-0.200000
-0.300000
0.200000
-0.300000
-0.400000
-0.400000
-0.100000
0.000000
0.100000
-0.100000
-0.200000
-0.200000
0.300000
0.400000
0.500000
0.400000
0.000000
0.000000
0.200000
-0.200000
-0.100000
-0.300000
-0.200000
0.200000
-0.300000
0.100000
-0.200000
-0.400000
0.100000
0.500000
0.400000
0.200000
0.000000
-0.200000
0.500000
0.400000
-0.200000
-0.200000
0.500000
0.100000
0.400000
-0.400000
0.400000
0.500000
0.500000
-0.100000
0.200000
-0.300000
0.200000
0.500000
0.300000
0.000000
0.400000
0.000000
-0.100000
-0.300000
0.100000
0.400000
0.200000
0.200000
-0.300000
-0.100000
-0.200000
-0.300000
0.300000
-0.300000
0.300000
0.100000
0.100000
-0.100000
-0.400000
-0.300000
-0.200000
0.500000
0.400000
-0.100000
0.300000
-0.100000
0.100000
0.100000
0.000000
0.300000
-0.400000
-0.300000
0.100000
0.400000
-0.100000
0.000000
-0.300000
-0.400000
0.500000
0.200000
-0.300000
0.000000
0.000000
0.300000
0.100000
0.300000
0.100000
0.000000
0.500000
0.200000
0.100000
0.300000
0.100000
0.400000
-0.300000
0.500000
0.100000
0.400000
0.400000
0.300000
0.200000
-0.100000
0.500000
0.400000
0.000000
-0.400000
-0.300000
0.100000
-0.200000
0.200000
-0.400000
-0.100000
-0.300000
0.000000
0.100000
0.100000
-0.200000
-0.400000
-0.300000
0.400000
0.300000
0.300000
0.300000
-0.200000
0.300000
-0.200000
-0.300000
0.300000
-0.300000
0.200000
0.200000
-0.300000
0.400000
0.500000
-0.100000
-0.400000
-0.400000
-0.400000
-0.200000
0.100000
-0.100000
0.400000
-0.400000
0.000000
-0.300000
-0.400000
-0.400000
0.400000
-0.400000
-0.200000
-0.400000
0.200000
0.100000
0.000000
0.500000
0.200000
-0.400000
0.100000
0.300000
-0.300000
0.100000
-0.200000
0.300000
-0.200000
-0.100000
0.300000
0.300000
0.500000
-0.300000
-0.400000
0.400000
0.200000
-0.200000
0.200000
0.000000
0.100000
-0.300000
0.000000
0.100000
0.400000
0.100000
0.300000
0.200000
0.100000
-0.100000
0.200000
0.400000
0.400000
0.200000
0.000000
-0.100000
-0.100000
-0.300000
0.400000
0.400000
0.500000
0.500000
0.200000
-0.200000
0.400000
0.400000
0.300000
-0.400000
-0.100000
-0.400000
0.100000
0.200000
0.500000
0.400000
-0.200000
-0.400000
-0.200000
0.000000
0.400000
0.000000
-0.300000
0.300000
0.500000
0.100000
0.000000
-0.400000
0.500000
0.000000
0.400000
0.400000
0.500000
-0.200000
-0.400000
-0.200000
0.000000
-0.100000
0.300000
0.300000
-0.400000
-0.100000
0.100000
0.100000
0.100000
0.500000
-0.400000
0.200000
-0.100000
0.200000
0.400000
0.300000
0.000000
-0.200000
-0.200000
-0.300000
-0.300000
-0.100000
0.500000
-0.200000
-0.400000
0.100000
-0.400000
-0.400000
0.100000
-0.400000
0.300000
-0.400000
-0.300000
-0.200000
0.200000
0.300000
-0.300000
0.200000
-0.200000
0.500000
-0.300000
0.100000
0.100000
-0.200000
0.200000
0.100000
-0.100000
0.200000
0.400000
0.300000
0.300000
0.100000
0.500000
-0.400000
0.000000
0.000000
0.200000
0.400000
0.300000
0.400000
-0.200000
0.500000
-0.300000
0.100000
0.200000
-0.200000
-0.100000
0.400000
-0.400000
0.200000
-0.100000
0.000000
0.500000
0.100000
0.500000
0.300000
0.200000
0.000000
0.000000
-0.100000
-0.100000
-0.200000
-0.100000
-0.100000
0.500000
-0.100000
0.100000
0.200000
0.100000
0.000000
-0.400000
-0.300000
-0.100000
-0.400000
-0.100000
0.300000
-0.400000
-0.100000
0.300000
0.500000
-0.100000
-0.400000
0.100000
0.200000
-0.100000
0.300000
-0.400000
0.500000
0.000000
0.400000
-0.100000
-0.200000
0.200000
-0.200000
-0.300000
0.200000
0.400000
0.200000
0.300000
0.000000
0.300000
0.500000
0.400000
-0.100000
0.400000
-0.200000
0.200000
-0.400000
0.000000
0.400000
-0.200000
0.200000
0.200000
-0.100000
-0.100000
-0.100000
0.000000
0.200000
0.100000
-0.200000
0.100000
-0.200000
0.300000
-0.100000
0.400000
-0.400000
-0.300000
0.400000
0.400000
-0.200000
-0.100000
-0.300000
0.300000
0.000000
0.500000
0.400000
-0.200000
0.500000
-0.100000
-0.200000
0.100000
-0.100000
0.000000
-0.400000
0.000000
0.400000
0.100000
0.300000
-0.200000
0.500000
-0.100000
-0.300000
0.400000
-0.300000
0.100000
-0.400000
0.000000
0.400000
-0.300000
0.400000
0.500000
0.300000
0.100000
0.400000
0.000000
-0.100000
0.200000
-0.100000
-0.300000
-0.400000
0.200000
0.500000
0.000000
0.500000
0.400000
0.500000
0.000000
-0.200000
-0.300000
-0.100000
-0.100000
-0.400000
0.200000
-0.300000
0.200000
0.400000
0.500000
0.000000
0.500000
0.500000
-0.100000
0.500000
0.000000
0.500000
0.000000
0.500000
0.200000
-0.100000
0.500000
-0.300000
-0.100000
-0.200000
-0.100000
0.400000
-0.400000
0.100000
0.100000
-0.100000
0.200000
-0.100000
0.200000
0.100000
0.000000
-0.200000
0.500000
-0.200000
-0.400000
0.200000
-0.300000
0.500000
0.100000
0.300000
-0.100000
0.500000
0.500000
0.400000
-0.400000
-0.300000
0.500000
-0.300000
0.300000
0.400000
0.300000
0.400000
-0.100000
0.100000
-0.400000
0.200000
0.500000
0.000000
-0.200000
-0.400000
-0.300000
-0.400000
0.300000
-0.100000
-0.300000
-0.300000
-0.400000
0.500000
0.200000
0.300000
-0.400000
0.200000
0.100000
0.000000
0.200000
0.500000
-0.400000
-0.400000
-0.300000
-0.200000
0.100000
-0.100000
-0.300000
-0.100000
-0.100000
-0.300000
-0.100000
0.500000
0.300000
0.000000
-0.100000
-0.400000
0.400000
0.300000
0.400000
-0.200000
-0.400000
-0.400000
0.200000
0.400000
-0.200000
-0.200000
0.100000
-0.300000
0.100000
0.300000
0.000000
-0.200000
-0.100000
-0.400000
0.200000
0.300000
0.300000
0.400000
0.300000
-0.200000
-0.300000
0.100000
-0.300000
0.000000
-0.400000
0.400000
-0.300000
0.400000
-0.200000
0.000000
-0.400000
-0.300000
0.200000
-0.100000
-0.200000
-0.200000
-0.300000
0.000000
0.000000
0.500000
0.500000
0.500000
-0.200000
-0.100000
0.100000
0.300000
-0.100000
-0.100000
-0.400000
0.500000
0.200000
0.200000
-0.400000
-0.300000
0.000000
-0.400000
0.400000
0.500000
-0.200000
0.500000
0.400000
0.300000
0.200000
0.100000
-0.200000
0.400000
-0.100000
0.200000
-0.100000
-0.300000
-0.300000
0.300000
0.100000
0.000000
0.300000
0.200000
0.500000
0.300000
0.300000
-0.300000
-0.100000
0.200000
0.400000
0.500000
0.100000
0.100000
0.000000
0.400000
0.300000
0.300000
-0.300000
-0.400000
0.400000
-0.400000
-0.400000
-0.300000
0.100000
0.100000
-0.200000
-0.300000
-0.100000
-0.300000
-0.300000
0.200000
-0.400000
0.100000
0.500000
-0.400000
0.000000
0.000000
-0.200000
-0.300000
0.500000
-0.300000
-0.300000
-0.200000
0.200000
0.000000
-0.400000
0.500000
-0.400000
0.500000
0.200000
-0.200000
0.300000
-0.100000
-0.200000
-0.400000
-0.400000
0.400000
0.300000
0.200000
0.300000
-0.400000
-0.200000
-0.400000
0.500000
0.000000
0.200000
0.100000
0.200000
0.200000
0.000000
0.400000
-0.200000
0.400000
0.000000
0.000000
-0.200000
-0.100000
0.100000
0.000000
0.100000
-0.100000
0.300000
0.500000
0.000000
0.500000
0.400000
-0.100000
-0.100000
0.100000
0.400000
-0.200000
-0.200000
-0.200000
-0.400000
0.300000
-0.100000
0.100000
0.200000
0.300000
-0.300000
0.200000
0.400000
-0.100000
0.400000
0.400000
0.400000
0.400000
0.200000
0.000000
-0.100000
-0.400000
0.200000
0.500000
0.500000
0.200000
-0.300000
0.400000
0.400000
0.200000
0.300000
0.500000
-0.300000
0.200000
-0.300000
-0.400000
0.200000
0.500000
-0.200000
0.000000
0.100000
0.400000
0.500000
-0.200000
0.400000
-0.300000
-0.200000
0.300000
-0.300000
0.000000
-0.400000
-0.400000
-0.400000
0.200000
-0.100000
0.100000
-0.100000
-0.400000
0.200000
0.200000
0.400000
0.200000
0.100000
0.000000
-0.300000
0.300000
0.500000
0.000000
0.100000
0.300000
0.000000
0.500000
-0.400000
0.500000
-0.400000
-0.200000
0.400000
0.100000
0.300000
0.400000
0.500000
0.200000
0.000000
-0.100000
-0.400000
-0.100000
-0.300000
0.100000
-0.300000
0.200000
0.400000
0.500000
-0.200000
-0.100000
0.500000
0.300000
0.200000
-0.100000
0.200000
0.000000
-0.300000
0.300000
0.400000
0.400000
0.500000
0.200000
0.400000
-0.400000
0.100000
-0.200000
0.300000
-0.400000
-0.200000
0.200000
-0.100000
0.500000
0.300000
-0.400000
0.200000
0.500000
-0.300000
-0.100000
-0.200000
-0.100000
0.300000
-0.100000
0.400000
0.500000
-0.200000
-0.100000
0.000000
0.400000
-0.200000
0.300000
0.100000
0.200000
0.200000
0.200000
0.300000
-0.400000
0.300000
0.500000
-0.100000
-0.300000
0.200000
-0.200000
-0.400000
0.000000
0.000000
0.500000
0.300000
-0.200000
-0.300000
0.400000
0.300000
-0.200000
-0.200000
0.500000
-0.200000
0.400000
-0.200000
0.200000
0.400000
-0.200000
0.200000
-0.300000
0.300000
-0.300000
-0.300000
0.300000
0.300000
-0.200000
-0.200000
0.000000
0.200000
-0.100000
-0.300000
0.100000
0.400000
0.400000
-0.200000
0.300000
0.300000
-0.400000
0.300000
-0.200000
-0.200000
0.000000
0.400000
0.400000
0.200000
0.400000
0.500000
0.300000
0.100000
-0.300000
0.100000
0.200000
0.100000
-0.400000
0.300000
-0.200000
0.000000
-0.200000
-0.300000
0.000000
-0.200000
0.400000
-0.300000
0.100000
-0.200000
-0.100000
0.500000
-0.100000
0.300000
0.000000
0.000000
0.400000
0.300000
-0.300000
0.100000
0.100000
0.100000
0.200000
-0.300000
-0.300000
0.000000
-0.400000
0.400000
0.200000
-0.200000
-0.400000
-0.400000
-0.200000
0.000000
-0.100000
0.500000
-0.300000
-0.200000
0.400000
0.000000
0.500000
-0.400000
-0.400000
-0.100000
0.200000
0.300000
0.500000
0.100000
-0.300000
-0.400000
-0.300000
0.200000
0.500000
0.100000
0.100000
-0.200000
