0.200000
0.500000
-0.200000
-0.100000
0.300000
0.100000
0.300000
0.100000
0.100000
0.000000
0.400000
0.300000
-0.400000
-0.200000
0.400000
0.100000
0.000000
-0.300000
0.400000
-0.100000
-0.100000
-0.200000
0.300000
0.400000
-0.400000
0.000000
0.200000
0.400000
-0.200000
0.100000
0.300000
-0.100000
-0.200000
0.000000
-0.200000
0.300000
-0.300000
0.200000
-0.200000
0.500000
-0.400000
0.300000
-0.300000
0.200000
-0.400000
-0.100000
-0.300000
-0.100000
0.400000
-0.400000
0.000000
0.300000
0.400000
-0.400000
-0.100000
0.500000
0.500000
0.300000
-0.200000
0.100000
0.300000
0.000000
0.300000
0.400000
-0.100000
-0.100000
-0.200000
-0.400000
0.200000
-0.100000
-0.300000
-0.100000
-0.300000
-0.300000
0.000000
0.400000
0.200000
-0.400000
0.100000
-0.400000
0.200000
-0.100000
-0.300000
-0.300000
0.500000
0.200000
-0.400000
-0.100000
0.500000
0.500000
0.500000
0.500000
0.100000
-0.100000
0.000000
-0.300000
0.300000
0.500000
0.200000
0.000000
0.000000
-0.200000
0.500000
0.200000
0.500000
0.500000
-0.400000
-0.200000
0.100000
0.400000
-0.400000
-0.100000
0.300000
-0.400000
0.400000
-0.100000
0.300000
0.400000
0.400000
0.500000
-0.200000
0.000000
0.200000
0.300000
0.100000
0.300000
0.000000
0.400000
0.000000
0.300000
0.000000
0.500000
-0.200000
0.200000
0.000000
-0.300000
0.500000
-0.100000
0.300000
-0.300000
-0.100000
0.500000
0.000000
-0.100000
0.500000
-0.400000
-0.300000
0.200000
0.100000
0.300000
-0.200000
0.000000
0.300000
-0.400000
0.500000
0.400000
0.000000
-0.200000
0.400000
0.200000
0.200000
0.500000
-0.300000
0.200000
0.100000
0.300000
0.000000
-0.300000
-0.100000
0.500000
-0.100000
0.400000
-0.300000
-0.100000
-0.200000
0.100000
-0.100000
0.500000
-0.400000
-0.400000
0.100000
0.500000
-0.300000
0.500000
0.500000
0.300000
0.000000
-0.200000
-0.200000
0.400000
0.400000
0.300000
0.300000
-0.300000
0.000000
-0.200000
0.200000
0.000000
-0.300000
-0.400000
-0.400000
0.300000
0.000000
-0.300000
0.400000
-0.400000
0.000000
0.200000
-0.400000
0.000000
0.200000
-0.400000
0.300000
0.100000
0.300000
0.500000
0.200000
0.300000
0.000000
0.500000
0.000000
0.500000
0.400000
-0.200000
0.100000
0.200000
0.100000
0.500000
0.100000
0.100000
0.200000
-0.300000
0.500000
0.500000
0.100000
0.300000
0.000000
0.400000
0.100000
-0.200000
0.400000
0.500000
-0.300000
0.400000
-0.100000
-0.200000
-0.400000
0.500000
-0.100000
-0.200000
0.500000
-0.300000
-0.100000
-0.100000
0.500000
0.000000
-0.400000
0.500000
0.000000
-0.300000
-0.400000
-0.100000
-0.400000
-0.100000
0.200000
-0.200000
0.200000
0.500000
0.400000
-0.300000
-0.100000
-0.400000
0.000000
0.100000
0.300000
-0.300000
0.500000
-0.200000
-0.300000
0.300000
0.000000
0.300000
-0.300000
-0.400000
0.300000
0.300000
-0.100000
-0.100000
0.500000
-0.400000
-0.200000
0.300000
-0.100000
-0.400000
-0.200000
-0.300000
-0.300000
0.400000
0.500000
0.200000
-0.100000
0.300000
0.200000
0.300000
0.400000
0.200000
-0.300000
-0.200000
0.100000
0.500000
0.200000
0.400000
0.400000
-0.200000
0.100000
-0.100000
0.300000
-0.400000
-0.400000
0.200000
0.500000
-0.200000
0.100000
-0.100000
0.400000
0.000000
0.000000
0.200000
-0.300000
0.400000
0.300000
0.500000
0.500000
0.100000
0.300000
0.200000
0.500000
0.300000
0.500000
0.500000
0.300000
0.500000
-0.300000
0.000000
0.200000
-0.400000
0.200000
0.400000
0.000000
0.000000
-0.300000
0.100000
-0.100000
0.500000
0.300000
-0.200000
-0.100000
0.500000
-0.100000
-0.200000
0.100000
-0.200000
-0.100000
0.500000
0.500000
0.500000
-0.200000
0.200000
0.000000
-0.400000
0.300000
0.500000
-0.100000
0.000000
-0.400000
-0.300000
0.400000
0.200000
0.100000
0.200000
-0.200000
0.000000
0.200000
0.500000
-0.100000
-0.100000
-0.200000
-0.300000
-0.400000
-0.100000
-0.300000
0.000000
0.000000
0.300000
0.300000
-0.100000
0.200000
0.500000
0.300000
0.200000
0.500000
0.300000
-0.200000
0.000000
-0.300000
0.500000
0.400000
-0.200000
0.300000
-0.200000
-0.400000
-0.300000
0.500000
0.400000
-0.400000
-0.200000
-0.200000
0.200000
0.100000
0.300000
0.300000
0.500000
-0.200000
0.400000
-0.300000
0.500000
0.500000
0.000000
-0.200000
-0.100000
0.500000
-0.300000
-0.300000
0.400000
-0.400000
0.500000
-0.300000
-0.100000
0.400000
-0.200000
0.000000
0.200000
0.100000
0.500000
0.400000
-0.400000
0.100000
0.100000
0.400000
-0.200000
0.500000
0.300000
-0.200000
0.500000
-0.300000
-0.300000
-0.400000
-0.300000
-0.100000
0.100000
-0.300000
0.300000
-0.400000
-0.300000
-0.300000
-0.300000
0.400000
0.200000
-0.300000
0.000000
0.000000
-0.300000
0.100000
-0.300000
0.400000
-0.300000
0.000000
0.200000
0.500000
-0.300000
-0.100000
0.300000
0.000000
0.400000
-0.200000
-0.100000
-0.200000
0.500000
0.500000
-0.300000
0.200000
-0.200000
0.400000
0.300000
0.200000
-0.100000
0.100000
-0.400000
0.400000
0.200000
-0.100000
0.500000
0.200000
0.500000
0.500000
-0.200000
0.300000
0.000000
0.400000
0.200000
0.100000
0.100000
-0.100000
0.300000
0.400000
-0.300000
-0.200000
-0.200000
0.100000
-0.300000
0.500000
0.400000
-0.300000
0.200000
0.000000
0.100000
-0.400000
-0.400000
-0.200000
0.100000
-0.400000
-0.200000
-0.400000
0.200000
-0.200000
0.500000
-0.100000
0.100000
-0.300000
0.400000
0.200000
-0.200000
-0.100000
0.200000
0.300000
-0.100000
0.300000
0.000000
-0.100000
-0.200000
0.000000
0.200000
0.300000
-0.200000
-0.100000
-0.200000
0.400000
0.100000
0.300000
-0.300000
0.100000
-0.100000
-0.100000
0.300000
0.100000
0.100000
-0.300000
0.300000
-0.300000
0.100000
-0.200000
0.100000
0.200000
0.500000
0.200000
-0.200000
0.300000
-0.100000
-0.400000
-0.200000
0.100000
0.400000
-0.200000
0.300000
-0.200000
-0.400000
0.500000
-0.300000
0.200000
0.200000
-0.300000
-0.400000
-0.400000
-0.200000
0.300000
0.200000
0.300000
0.200000
0.100000
0.400000
0.200000
-0.200000
0.000000
0.200000
-0.200000
0.500000
0.400000
-0.400000
-0.100000
-0.100000
0.000000
0.000000
0.000000
0.100000
-0.200000
-0.100000
0.400000
-0.200000
-0.300000
0.400000
-0.200000
0.400000
0.000000
0.100000
-0.300000
0.400000
-0.400000
-0.200000
0.200000
-0.300000
0.400000
0.500000
0.200000
-0.200000
0.500000
0.300000
-0.300000
0.000000
0.300000
-0.200000
-0.200000
0.500000
-0.400000
0.100000
-0.300000
0.300000
0.000000
0.200000
-0.100000
-0.200000
-0.100000
-0.400000
-0.400000
0.400000
0.400000
0.200000
0.500000
-0.100000
-0.100000
-0.100000
-0.200000
0.200000
0.500000
0.500000
0.200000
-0.300000
0.200000
0.100000
0.300000
-0.200000
0.000000
-0.400000
-0.100000
-0.300000
-0.100000
0.200000
0.500000
-0.100000
-0.400000
0.500000
0.100000
0.000000
-0.300000
0.200000
0.200000
-0.100000
0.500000
-0.100000
-0.300000
-0.300000
-0.100000
0.200000
-0.200000
0.200000
-0.100000
-0.100000
-0.100000
0.500000
0.300000
-0.100000
-0.200000
-0.400000
0.100000
-0.300000
-0.200000
-0.100000
-0.200000
0.200000
0.100000
0.100000
-0.400000
-0.400000
0.000000
0.400000
0.100000
0.400000
0.400000
0.000000
0.300000
-0.100000
0.000000
-0.200000
0.300000
0.300000
-0.300000
0.500000
0.400000
0.200000
-0.300000
-0.400000
-0.200000
-0.400000
0.100000
-0.100000
0.000000
-0.400000
0.000000
-0.100000
0.200000
0.400000
-0.100000
0.400000
0.500000
0.500000
0.200000
0.400000
-0.400000
0.500000
-0.200000
0.400000
-0.200000
-0.200000
-0.100000
0.000000
0.400000
0.200000
0.300000
-0.400000
0.200000
0.100000
-0.300000
-0.400000
-0.200000
0.300000
0.400000
-0.400000
-0.100000
0.400000
-0.200000
-0.400000
0.400000
-0.400000
0.300000
-0.200000
-0.200000
0.100000
0.000000
-0.200000
0.300000
0.500000
-0.200000
-0.300000
-0.400000
-0.300000
0.000000
0.200000
0.300000
0.200000
0.500000
0.400000
0.200000
-0.100000
-0.300000
0.100000
0.400000
0.300000
-0.400000
0.400000
0.100000
0.200000
-0.400000
-0.300000
0.100000
0.500000
-0.100000
0.500000
-0.300000
-0.100000
-0.100000
0.100000
0.500000
0.100000
0.400000
0.400000
0.500000
-0.300000
0.300000
-0.200000
0.100000
-0.200000
-0.200000
-0.300000
0.400000
-0.400000
0.200000
-0.200000
0.400000
-0.100000
-0.400000
-0.100000
0.500000
-0.400000
-0.400000
-0.400000
0.500000
0.300000
-0.300000
0.100000
0.400000
-0.100000
0.400000
0.300000
-0.400000
-0.300000
-0.300000
-0.200000
-0.100000
-0.300000
0.100000
0.500000
0.500000
0.500000
-0.200000
-0.100000
0.000000
-0.100000
0.500000
0.100000
-0.400000
-0.100000
-0.200000
-0.400000
0.300000
0.000000
0.300000
-0.400000
0.400000
0.500000
-0.300000
0.400000
-0.300000
-0.100000
0.500000
-0.200000
0.400000
0.500000
-0.200000
-0.100000
0.500000
-0.200000
-0.300000
0.200000
0.000000
0.400000
-0.200000
0.400000
-0.400000
-0.100000
0.500000
-0.400000
0.500000
0.200000
0.300000
-0.300000
0.300000
-0.200000
-0.400000
0.300000
-0.300000
0.300000
0.100000
0.000000
0.500000
-0.200000
0.100000
-0.400000
0.400000
-0.300000
0.400000
0.000000
-0.200000
-0.100000
-0.300000
0.300000
0.200000
0.100000
0.100000
0.400000
0.500000
0.300000
0.000000
0.300000
0.100000
0.000000
-0.200000
-0.400000
0.200000
0.300000
0.400000
0.300000
0.200000
-0.100000
0.100000
0.300000
-0.400000
-0.200000
0.000000
-0.100000
-0.300000
0.000000
0.300000
-0.300000
0.200000
-0.300000
0.000000
-0.200000
-0.100000
-0.300000
-0.100000
-0.200000
0.400000
-0.400000
0.400000
0.400000
0.000000
-0.300000
0.000000
0.300000
0.000000
0.300000
0.000000
-0.200000
0.100000
-0.300000
0.500000
0.000000
0.200000
-0.200000
-0.300000
-0.100000
-0.200000
-0.400000
0.300000
-0.200000
0.300000
-0.200000
-0.300000
0.500000
0.500000
0.100000
0.300000
-0.200000
0.100000
-0.100000
-0.400000
-0.300000
-0.400000
0.200000
0.500000
0.400000
-0.300000
-0.400000
-0.200000
0.200000
-0.100000
-0.400000
0.000000
-0.100000
-0.200000
-0.400000
0.100000
0.200000
0.500000
0.500000
0.300000
0.500000
-0.400000
0.300000
0.200000
-0.200000
-0.100000
-0.200000
0.100000
-0.200000
0.400000
0.300000
0.500000
0.200000
-0.200000
0.400000
-0.100000
-0.300000
0.400000
0.200000
0.400000
0.400000
0.200000
-0.400000
0.300000
0.400000
0.200000
0.000000
0.200000
-0.400000
0.400000
-0.100000
0.200000
0.500000
0.300000
0.200000
-0.400000
0.400000
0.000000
0.500000
-0.200000
-0.200000
0.100000
0.400000
-0.200000
0.000000
0.500000
0.500000
0.100000
0.000000
0.500000
0.200000
-0.300000
-0.400000
0.000000
-0.100000
0.300000
-0.300000
0.500000
-0.300000
-0.300000
-0.400000
-0.300000
0.100000
0.100000
0.000000
0.200000
0.400000
0.100000
-0.300000
-0.200000
-0.100000
-0.300000
0.400000
0.100000
0.500000
-0.300000
-0.100000
0.100000
0.100000
0.400000
0.000000
-0.400000
0.000000
-0.400000
0.300000
0.200000
0.200000
0.400000
-0.200000
0.200000
0.000000
-0.200000
0.400000
0.000000
0.400000
0.400000
-0.100000
0.100000
0.300000
0.200000
-0.200000
0.300000
0.100000
0.200000
0.000000
-0.200000
0.500000
0.100000
0.000000
0.400000
0.100000
0.300000
-0.300000
0.000000
0.300000
-0.300000
0.200000
0.100000
-0.100000
-0.400000
0.500000
-0.200000
-0.100000
0.200000
0.300000
0.500000
0.500000
0.500000
0.000000
-0.100000
0.100000
0.400000
-0.300000
0.500000
0.200000
0.400000
-0.400000
0.200000
-0.300000
-0.100000
-0.300000
0.200000
0.100000
0.400000
-0.200000
-0.200000
-0.300000
0.300000
-0.100000
0.500000
0.500000
-0.400000
0.000000
0.300000
0.000000
-0.400000
0.400000
0.200000
-0.100000
0.000000
0.400000
0.300000
0.200000
-0.100000
0.300000
0.000000
0.100000
0.000000
0.000000
-0.200000
0.200000
0.300000
0.300000
0.000000
-0.200000
-0.300000
0.000000
0.300000
0.500000
0.100000
0.400000
-0.200000
0.100000
0.100000
0.500000
0.500000
0.000000
0.000000
0.500000
-0.400000
0.200000
0.400000
0.300000
0.100000
0.100000
0.200000
0.400000
-0.100000
0.000000
0.200000
0.400000
0.500000
-0.300000
-0.300000
0.500000
-0.300000
-0.300000
-0.200000
0.500000
-0.300000
-0.400000
0.300000
0.100000
0.000000
0.300000
0.200000
-0.200000
0.400000
-0.300000
-0.300000
0.200000
-0.200000
0.400000
0.400000
0.300000
0.100000
0.200000
0.400000
0.300000
0.100000
0.400000
0.000000
-0.300000
0.500000
0.300000
-0.200000
0.100000
0.100000
0.500000
-0.300000
0.500000
-0.200000
0.100000
-0.200000
0.000000
0.300000
-0.100000
0.300000
-0.200000
0.100000
-0.400000
-0.400000
0.200000
-0.400000
0.200000
0.500000
-0.300000
-0.100000
0.300000
0.300000
-0.400000
0.200000
0.200000
-0.400000
0.300000
-0.400000
-0.100000
0.300000
0.200000
-0.400000
0.300000
0.400000
-0.300000
0.000000
0.100000
0.100000
0.400000
-0.400000
0.400000
-0.400000
0.100000
-0.100000
0.200000
-0.300000
0.200000
0.400000
0.400000
-0.400000
-0.400000
0.200000
0.000000
0.300000
-0.200000
0.000000
-0.300000
-0.200000
-0.100000
0.100000
-0.400000
-0.400000
-0.200000
0.000000
-0.400000
-0.200000
0.400000
-0.300000
0.100000
0.000000
-0.200000
0.000000
-0.400000
-0.300000
0.300000
0.500000
0.200000
0.300000
-0.200000
0.500000
0.300000
0.300000
-0.200000
-0.400000
-0.400000
-0.400000
0.500000
0.200000
-0.400000
0.200000
-0.200000
-0.200000
-0.200000
0.200000
0.500000
0.400000
-0.300000
-0.200000
0.400000
0.400000
0.200000
0.000000
0.000000
0.100000
0.200000
-0.200000
-0.400000
0.300000
0.500000
0.400000
-0.300000
0.300000
-0.200000
0.400000
0.200000
-0.100000
0.400000
0.300000
-0.200000
0.400000
0.400000
-0.200000
-0.100000
0.100000
-0.200000
0.400000
-0.400000
-0.400000
-0.400000
-0.300000
0.000000
-0.300000
0.000000
0.400000
-0.100000
0.300000
0.500000
-0.100000
0.200000
-0.400000
-0.300000
0.500000
0.500000
0.400000
0.400000
-0.100000
0.400000
0.500000
-0.100000
0.000000
-0.300000
0.400000
0.000000
-0.200000
0.500000
0.200000
0.100000
0.500000
-0.300000
-0.400000
-0.400000
-0.100000
-0.200000
-0.200000
0.400000
0.200000
0.300000
0.300000
0.200000
0.000000
0.300000
0.200000
0.300000
0.100000
0.200000
0.500000
0.400000
-0.200000
0.200000
-0.200000
-0.200000
0.100000
-0.400000
0.100000
-0.200000
-0.200000
-0.200000
0.000000
0.000000
0.500000
-0.200000
0.300000
-0.400000
-0.100000
-0.200000
-0.300000
-0.400000
0.400000
0.400000
-0.100000
-0.200000
0.300000
0.500000
0.100000
-0.100000
0.000000
0.200000
0.200000
-0.100000
0.000000
0.400000
0.500000
-0.300000
0.500000
0.100000
0.500000
-0.300000
0.300000
-0.300000
0.400000
0.200000
-0.400000
0.100000
0.300000
-0.100000
-0.300000
0.000000
-0.300000
-0.400000
-0.100000
0.000000
-0.100000
0.200000
0.000000
-0.300000
-0.200000
0.000000
0.300000
0.100000
0.100000
0.000000
0.000000
-0.400000
0.100000
0.000000
0.300000
0.400000
-0.300000
-0.200000
0.200000
0.300000
-0.200000
-0.400000
0.200000
-0.400000
-0.100000
0.000000
0.000000
0.200000
0.500000
0.300000
0.400000
0.100000
0.400000
0.100000
0.200000
0.500000
-0.300000
0.400000
-0.100000
0.300000
-0.100000
0.500000
-0.200000
-0.400000
0.100000
-0.400000
-0.300000
-0.400000
-0.300000
-0.200000
-0.400000
0.000000
-0.200000
-0.300000
-0.300000
-0.200000
0.300000
0.000000
0.300000
0.400000
-0.100000
0.400000
0.400000
-0.200000
-0.400000
-0.400000
0.200000
0.100000
0.200000
0.000000
-0.400000
-0.100000
-0.200000
0.100000
0.200000
0.400000
-0.300000
0.500000
0.300000
0.000000
-0.300000
-0.300000
-0.100000
-0.300000
0.400000
-0.300000
0.300000
0.500000
-0.300000
-0.400000
0.200000
-0.400000
0.100000
0.300000
0.100000
0.100000
0.000000
0.500000
0.300000
0.100000
0.100000
0.500000
0.000000
-0.100000
-0.300000
-0.300000
-0.200000
-0.400000
0.300000
0.000000
-0.200000
0.000000
-0.400000
-0.100000
0.400000
0.400000
0.100000
0.500000
0.500000
0.000000
-0.400000
0.300000
0.200000
0.500000
-0.300000
0.000000
0.100000
-0.300000
-0.400000
0.300000
0.300000
0.100000
0.300000
0.400000
-0.300000
0.000000
0.400000
-0.200000
0.500000
-0.300000
-0.400000
-0.200000
0.100000
-0.300000
0.200000
-0.400000
0.100000
-0.100000
-0.100000
0.000000
-0.200000
-0.300000
-0.400000
-0.200000
0.500000
0.300000
-0.200000
-0.400000
-0.200000
0.300000
-0.200000
-0.300000
0.000000
0.300000
0.500000
-0.400000
0.100000
0.100000
0.100000
-0.100000
0.500000
0.300000
0.400000
-0.200000
0.300000
0.300000
-0.400000
-0.200000
-0.300000
0.000000
0.200000
0.500000
-0.300000
0.500000
-0.400000
-0.300000
0.000000
0.300000
0.000000
0.500000
0.000000
0.300000
0.500000
-0.400000
0.300000
0.500000
0.100000
0.100000
0.400000
-0.400000
-0.300000
-0.300000
-0.200000
0.500000
0.500000
-0.100000
-0.100000
0.400000
0.400000
0.400000
-0.300000
-0.200000
-0.100000
0.300000
0.000000
0.400000
0.200000
0.300000
0.000000
-0.200000
0.100000
0.200000
0.300000
-0.300000
-0.300000
-0.300000
-0.300000
0.300000
0.100000
-0.400000
0.400000
0.100000
-0.400000
-0.300000
0.300000
0.200000
-0.200000
-0.100000
0.500000
0.000000
-0.200000
0.000000
0.300000
-0.300000
0.500000
-0.100000
0.300000
0.400000
-0.200000
0.300000
0.500000
0.000000
0.000000
0.000000
0.500000
0.300000
0.000000
0.100000
-0.300000
0.000000
-0.300000
0.300000
0.500000
-0.400000
0.300000
-0.300000
-0.100000
-0.400000
-0.300000
-0.100000
-0.300000
0.500000
0.500000
0.500000
0.200000
0.000000
-0.400000
0.400000
-0.100000
0.100000
0.100000
0.000000
-0.200000
0.300000
0.300000
0.000000
-0.200000
0.500000
-0.100000
0.100000
0.100000
0.200000
0.200000
-0.200000
-0.300000
0.300000
0.000000
-0.200000
0.400000
0.300000
0.200000
0.300000
-0.200000
0.500000
0.100000
0.400000
0.200000
0.400000
-0.400000
-0.100000
0.100000
-0.400000
0.500000
0.100000
0.000000
0.400000
-0.300000
0.300000
-0.200000
0.200000
-0.200000
-0.400000
0.500000
-0.200000
0.300000
-0.200000
0.400000
-0.100000
-0.100000
-0.400000
0.300000
0.200000
-0.200000
0.000000
-0.100000
-0.300000
-0.400000
0.200000
0.400000
-0.100000
-0.400000
0.500000
0.400000
-0.100000
-0.400000
0.300000
-0.300000
0.400000
-0.100000
0.200000
0.000000
0.500000
0.500000
-0.100000
0.300000
-0.100000
0.000000
-0.400000
0.000000
0.500000
0.300000
0.300000
0.500000
0.400000
-0.400000
-0.400000
0.500000
0.100000
-0.400000
-0.400000
-0.100000
0.100000
0.400000
0.200000
-0.400000
-0.300000
-0.100000
-0.300000
0.000000
0.500000
0.200000
0.200000
0.100000
0.400000
0.100000
0.400000
0.100000
0.300000
-0.300000
0.200000
-0.100000
0.300000
0.400000
0.000000
-0.200000
0.300000
0.400000
0.400000
0.400000
-0.200000
-0.200000
0.100000
0.500000
-0.400000
0.000000
-0.300000
-0.100000
-0.100000
0.100000
-0.100000
-0.200000
0.400000
-0.400000
0.500000
0.400000
0.400000
0.400000
-0.200000
0.300000
-0.200000
-0.200000
-0.200000
0.200000
0.000000
0.400000
0.200000
-0.200000
0.200000
0.400000
-0.100000
0.400000
0.100000
-0.100000
-0.400000
-0.300000
-0.200000
0.400000
0.100000
0.100000
-0.100000
-0.300000
0.400000
-0.100000
0.300000
-0.300000
0.000000
-0.100000
-0.300000
0.500000
0.400000
0.500000
-0.300000
-0.200000
-0.100000
-0.200000
0.000000
0.400000
-0.300000
0.000000
-0.100000
-0.400000
-0.100000
0.500000
0.200000
0.500000
0.500000
0.400000
-0.400000
0.500000
0.300000
0.000000
0.100000
0.200000
-0.300000
0.500000
-0.400000
-0.300000
0.000000
0.300000
-0.300000
-0.200000
-0.100000
0.100000
0.500000
-0.100000
-0.100000
0.200000
0.100000
0.400000
0.500000
-0.300000
0.200000
0.300000
0.000000
0.300000
0.100000
0.400000
0.500000
0.000000
0.500000
0.200000
-0.400000
0.000000
0.100000
0.100000
0.500000
-0.300000
0.100000
0.200000
0.000000
0.200000
-0.200000
-0.300000
0.000000
0.100000
0.400000
-0.300000
-0.300000
-0.400000
0.500000
-0.400000
-0.100000
0.400000
0.100000
0.100000
0.100000
0.200000
-0.400000
-0.400000
0.200000
0.500000
-0.100000
0.100000
0.100000
0.100000
0.100000
0.300000
-0.100000
0.400000
-0.200000
-0.400000
-0.100000
-0.400000
0.000000
-0.300000
-0.300000
0.400000
-0.300000
-0.300000
-0.100000
0.200000
-0.100000
0.300000
0.300000
-0.200000
-0.200000
0.200000
0.000000
0.000000
0.100000
0.400000
-0.200000
-0.200000
-0.300000
0.400000
-0.100000
0.500000
-0.400000
0.500000
-0.400000
-0.100000
0.100000
0.500000
-0.400000
0.500000
-0.400000
-0.400000
-0.300000
0.100000
-0.200000
0.500000
0.500000
0.300000
0.100000
-0.100000
-0.200000
-0.300000
-0.300000
0.300000
-0.400000
-0.300000
0.500000
-0.300000
0.400000
-0.300000
0.500000
-0.300000
-0.400000
0.400000
-0.300000
-0.400000
-0.300000
-0.200000
-0.200000
0.400000
0.200000
0.200000
0.400000
0.100000
0.400000
0.500000
-0.300000
0.200000
0.200000
-0.200000
0.400000
0.100000
0.000000
0.500000
-0.100000
-0.400000
0.200000
0.500000
-0.200000
0.500000
0.500000
0.000000
-0.100000
-0.100000
-0.100000
0.100000
0.200000
0.200000
0.300000
-0.400000
0.000000
0.400000
-0.200000
-0.300000
0.500000
0.000000
0.500000
-0.200000
0.200000
0.500000
0.300000
0.500000
0.400000
0.100000
0.500000
-0.100000
-0.200000
-0.200000
-0.100000
-0.100000
0.400000
-0.400000
0.500000
0.300000
-0.100000
0.400000
-0.100000
0.500000
-0.200000
-0.100000
0.300000
0.400000
0.300000
-0.100000
-0.300000
0.200000
0.000000
-0.100000
-0.400000
0.000000
0.300000
-0.100000
-0.400000
0.100000
0.200000
0.500000
-0.300000
0.000000
0.100000
0.500000
0.200000
-0.400000
0.100000
0.000000
0.000000
-0.300000
-0.100000
0.000000
-0.300000
-0.300000
0.100000
0.500000
0.300000
0.400000
-0.400000
0.300000
-0.100000
0.400000
-0.300000
-0.300000
-0.400000
0.000000
-0.400000
0.200000
-0.300000
-0.300000
-0.200000
-0.400000
-0.400000
0.200000
0.500000
-0.300000
0.000000
0.300000
0.100000
-0.200000
0.300000
0.000000
0.500000
-0.400000
-0.200000
-0.100000
-0.100000
-0.300000
-0.400000
0.500000
-0.400000
-0.300000
0.500000
-0.200000
-0.400000
-0.400000
0.200000
0.500000
0.300000
0.000000
-0.300000
0.100000
0.000000
-0.200000
0.300000
-0.200000
-0.400000
0.300000
0.200000
0.400000
0.000000
0.400000
0.200000
0.300000
-0.400000
-0.300000
0.300000
0.300000
0.200000
-0.100000
-0.300000
0.100000
0.300000
0.500000
0.200000
-0.400000
0.300000
0.400000
-0.300000
-0.400000
-0.100000
-0.100000
0.200000
-0.400000
0.500000
-0.400000
0.300000
0.500000
-0.200000
-0.100000
0.300000
-0.100000
0.200000
0.000000
-0.200000
0.500000
-0.200000
-0.100000
-0.100000
-0.400000
0.200000
-0.300000
0.100000
0.100000
0.300000
-0.100000
0.300000
-0.300000
0.400000
-0.200000
0.000000
0.300000
-0.400000
-0.400000
0.300000
-0.300000
0.200000
0.000000
0.500000
0.500000
0.500000
0.000000
-0.300000
0.500000
0.300000
0.100000
-0.300000
-0.100000
-0.200000
-0.400000
-0.100000
0.500000
-0.100000
-0.100000
0.500000
0.400000
0.000000
0.200000
0.100000
-0.400000
-0.200000
0.000000
0.300000
0.200000
0.000000
-0.400000
0.300000
0.000000
0.100000
0.400000
-0.300000
0.500000
-0.300000
-0.400000
0.300000
-0.100000
0.500000
-0.200000
-0.100000
0.300000
0.500000
0.500000
0.400000
0.300000
0.000000
0.500000
-0.200000
0.400000
-0.400000
0.200000
-0.400000
0.300000
0.200000
-0.200000
-0.100000
-0.100000
0.500000
0.400000
0.100000
-0.200000
-0.100000
-0.100000
0.400000
0.000000
0.300000
0.100000
0.000000
0.000000
-0.200000
0.500000
-0.400000
0.300000
-0.300000
0.000000
0.400000
0.200000
0.500000
0.200000
0.500000
0.500000
0.000000
0.300000
0.300000
0.000000
0.200000
0.500000
0.400000
-0.400000
0.300000
0.400000
0.000000
-0.400000
0.200000
0.100000
0.100000
-0.200000
0.100000
0.200000
-0.300000
0.000000
0.100000
0.200000
-0.200000
-0.300000
-0.200000
-0.300000
-0.400000
-0.200000
-0.300000
-0.300000
-0.400000
0.200000
-0.200000
-0.400000
0.000000
0.000009
-0.088509
0.499998
-0.399201
-0.111682
0.002838
0.097793
-0.299996
0.378767
0.222829
-0.399200
-0.097770
0.500001
0.013079
0.297531
0.300101
-0.298662
0.399492
0.206813
-0.000022
0.300748
0.199593
-0.205405
0.099915
0.299887
-0.098031
0.089681
0.403877
-0.400141
0.193704
-0.101826
-0.000234
-0.394186
-0.101583
0.500455
0.001593
0.298189
0.199317
0.100063
0.500000
0.398153
-0.099973
0.007780
0.079867
0.000430
0.202969
0.196058
0.100002
-0.100005
0.099985
0.500000
0.106757
0.099985
-0.097598
0.200003
-0.187303
0.300000
0.499902
-0.200023
0.004374
-0.416777
0.400342
-0.299381
-0.297163
0.298358
-0.181069
0.301280
0.299986
0.464534
0.157453
-0.400006
-0.200062
0.298388
0.501165
0.200000
0.100321
-0.298856
0.202421
0.399939
0.399627
0.401941
-0.198892
0.299996
0.099673
-0.200085
-0.000712
-0.209107
-0.197599
0.395959
0.299985
0.399995
0.478603
-0.299966
0.399981
0.403499
0.400921
-0.202361
-0.001291
-0.299773
0.200770
0.197099
0.300887
-0.100997
0.500548
0.400821
-0.200001
0.495542
-0.397740
0.001123
0.000360
0.299998
0.199993
0.405131
-0.101203
-0.399999
0.300265
0.300000
-0.288870
0.010150
0.206292
0.400000
-0.399397
-0.200004
0.231386
-0.300000
0.001163
0.397310
-0.401732
0.096021
-0.300005
-0.403474
-0.400522
0.399974
0.299435
-0.400016
0.103885
-0.197196
-0.005421
0.500484
-0.002599
0.499824
0.500538
0.099993
0.202354
0.000605
0.100814
-0.308710
0.308885
-0.300000
0.408274
0.403414
-0.100088
-0.299430
-0.100019
-0.401156
0.399996
-0.202495
-0.187720
-0.389329
-0.400000
-0.001011
-0.200000
-0.200015
0.099945
0.203097
0.300008
-0.299937
-0.302211
-0.100002
0.099057
-0.406856
0.203165
0.099578
0.100153
-0.299999
-0.203702
-0.099989
0.099895
-0.001503
-0.263579
0.198766
-0.300006
0.000001
0.300000
0.098932
-0.409364
-0.199985
-0.000001
0.500008
-0.403508
-0.399954
0.100995
0.399993
0.499245
0.193758
0.300051
0.099997
-0.100000
-0.397242
0.207859
0.300009
0.511491
-0.300002
-0.399201
-0.011682
0.102838
0.197793
0.400004
0.378767
0.122829
0.300800
-0.297770
-0.199999
0.213079
0.297531
-0.099899
0.501338
0.399492
-0.093187
0.299978
0.500748
-0.400407
-0.305405
0.099915
0.199887
0.501969
0.189681
-0.396123
-0.300141
0.093704
-0.401826
-0.300234
0.005814
-0.301583
-0.399545
-0.298407
0.298189
0.299317
-0.199937
0.100000
0.098153
0.200027
-0.192220
-0.120133
-0.399570
0.102969
0.096058
0.400002
0.399995
0.499985
-0.300000
-0.093243
-0.100015
-0.297598
0.300003
0.312697
0.000000
0.099902
-0.400023
0.304374
-0.016777
-0.299658
0.000619
0.102837
0.298358
0.518931
0.301280
-0.000014
-0.335466
-0.442547
0.299994
0.199938
0.498388
-0.398835
-0.100000
0.400321
-0.098856
0.202421
-0.000061
0.299627
-0.098059
-0.098892
0.099996
-0.300327
-0.300085
-0.300712
0.390893
-0.097599
0.095959
0.299985
0.099995
0.378603
-0.299966
0.499981
-0.396501
-0.199079
-0.002361
0.298709
-0.099773
-0.099230
-0.002901
-0.199113
0.499003
-0.099452
-0.399179
-0.100001
0.095542
0.202260
-0.198877
-0.099640
0.099998
-0.300007
0.205131
-0.201203
0.100001
-0.099735
0.300000
-0.188870
-0.089850
0.206292
0.200000
-0.099397
0.299996
0.531386
0.500000
0.201163
-0.002690
0.098268
0.296021
-0.100005
-0.003474
0.399478
-0.100026
0.499435
-0.200016
0.203885
0.302804
0.294579
-0.299516
-0.102599
-0.200176
-0.199462
0.499993
0.102354
-0.099395
-0.199186
-0.108710
-0.291115
0.100000
0.408274
0.403414
-0.200088
0.500570
0.499981
-0.401156
-0.000004
-0.202495
0.412280
-0.189329
0.400000
0.298989
0.100000
-0.400015
-0.200055
-0.096903
0.100008
-0.199937
-0.002211
0.099998
-0.200943
-0.006856
0.303165
0.499578
0.400153
0.200001
-0.203702
0.100011
0.499895
-0.201503
0.036421
0.098766
0.499994
0.500001
0.100000
-0.301068
-0.309364
-0.099985
0.399999
0.100008
0.196492
-0.299954
0.100995
-0.400007
-0.000755
0.193758
0.500051
0.399997
0.000000
0.102758
0.507859
0.400009
0.399963
0.399998
0.100183
-0.303297
0.301121
0.198648
0.300004
0.096030
-0.299778
0.199997
0.500000
0.500002
-0.100004
0.199789
0.099997
-0.298744
0.399403
0.199999
-0.100000
0.499999
0.499999
0.200003
0.099999
-0.300000
-0.100000
0.099929
-0.200068
-0.099989
0.003151
0.200000
0.000011
0.099985
-0.200045
-0.100000
-0.400562
0.299835
0.000005
-0.199999
0.500000
0.400042
0.300000
0.100001
-0.400008
0.099978
-0.397917
-0.000000
0.300000
-0.100000
0.299993
-0.300000
0.400113
0.300000
0.099646
0.500000
0.500008
-0.100000
0.200000
0.500000
-0.400068
0.100005
0.500000
0.200660
-0.299998
-0.000002
0.400181
-0.000444
-0.299915
-0.202735
0.200226
-0.200004
-0.200000
0.200008
-0.100002
0.200000
0.399794
-0.300000
0.100022
0.399977
-0.099740
0.200040
-0.000002
0.300000
-0.299997
-0.100000
-0.200028
-0.199504
0.000500
-0.199782
-0.400002
0.200000
0.200332
0.399998
-0.200000
0.402860
0.199999
0.401077
0.098709
-0.300006
0.500065
-0.200023
0.500013
0.200000
0.500000
0.100000
0.200000
-0.299974
-0.099241
-0.299994
0.000002
0.200000
-0.100003
0.500000
-0.399998
-0.300003
-0.100000
-0.300001
0.201163
-0.299997
-0.299457
0.300000
0.300000
-0.000004
0.299793
-0.100000
-0.100003
0.398771
-0.100024
-0.399850
-0.400000
0.399998
0.199996
-0.200022
0.300000
0.000000
0.099997
0.100000
0.099836
0.400017
-0.000001
0.399998
0.499663
-0.200007
0.001851
0.199980
-0.299994
0.100171
-0.099988
-0.400000
0.099994
0.299841
-0.199987
0.500000
0.099981
-0.299997
0.199997
0.100012
0.000001
-0.299850
-0.399999
-0.398995
0.500000
-0.000003
-0.400001
-0.298475
0.500000
0.100000
-0.099995
0.400000
-0.400380
0.199262
-0.297691
0.500001
-0.200000
-0.300000
-0.400002
-0.300002
0.100000
0.100002
0.199823
-0.300002
0.400000
-0.399999
0.500000
0.300000
-0.199954
-0.400000
0.400000
-0.200001
-0.099370
0.100001
-0.199944
0.499993
0.399992
-0.300793
-0.400000
-0.300004
0.500000
0.399988
-0.199999
0.000009
0.099963
-0.000002
0.500183
0.496703
-0.098879
0.498648
0.000004
-0.303970
-0.199778
-0.300003
0.300000
0.100002
0.199996
0.199789
-0.200003
0.101256
0.199403
0.399999
-0.000000
-0.000001
0.199999
-0.399997
0.399999
0.200000
0.200000
-0.400071
-0.000068
0.400011
0.003151
0.500000
0.300011
-0.100015
-0.200045
0.400000
0.499438
-0.000165
-0.199995
-0.199999
0.500000
0.100042
0.200000
0.500001
0.499992
-0.400022
0.302083
0.200000
0.200000
-0.300000
0.499993
-0.300000
0.000113
-0.400000
0.499646
0.100000
0.500008
0.500000
-0.000000
0.500000
0.299932
0.100005
-0.200000
-0.399340
0.300002
0.099998
0.100181
0.399556
0.400085
-0.402735
-0.299774
-0.300004
-0.400000
0.400008
0.199998
-0.300000
0.499794
0.500000
-0.199978
0.399977
-0.399740
-0.399960
0.299998
-0.100000
0.100003
0.100000
-0.000028
-0.399504
-0.299500
-0.099782
-0.400002
-0.200000
-0.399668
-0.300002
0.200000
0.102860
-0.400001
0.401077
0.098709
0.399994
0.300065
-0.400023
-0.199987
-0.200000
-0.400000
0.400000
0.400000
-0.299974
0.300759
0.100006
0.500002
0.300000
0.099997
0.500000
-0.099998
-0.400003
-0.200000
0.299999
0.101163
-0.099997
0.500543
0.100000
-0.100000
-0.000004
0.399793
0.300000
-0.000003
0.298771
0.499976
-0.299850
-0.400000
-0.200002
0.199996
-0.100022
-0.100000
0.300000
0.499997
0.100000
-0.300164
0.200017
-0.000001
0.199998
-0.200337
-0.200007
-0.398149
-0.400020
-0.299994
0.300171
0.400012
-0.300000
-0.300006
-0.000159
-0.199987
0.500000
-0.300019
-0.299997
-0.400003
0.000012
0.200001
0.200150
0.500001
0.101005
-0.400000
-0.400003
0.399999
0.101525
0.500000
-0.100000
0.000005
-0.100000
0.199620
-0.100738
-0.097691
-0.399999
0.300000
-0.400000
0.099998
0.399998
-0.000000
0.100002
-0.400177
-0.400002
-0.200000
-0.399999
0.100000
-0.300000
0.200046
0.100000
0.200000
0.399999
0.200630
0.000001
0.500056
0.299993
-0.300008
-0.000793
0.100000
-0.100004
-0.200000
0.399988
-0.399999
0.400000
0.100000
-0.300000
0.100000
0.400000
0.100000
0.500000
0.200000
-0.200000
-0.100000
-0.200000
-0.300000
0.100000
0.000000
0.400000
-0.300000
0.200000
0.400000
0.500000
-0.300000
0.100000
0.500000
0.200000
0.000000
-0.100000
0.100000
-0.100000
-0.200000
-0.200000
0.400000
-0.400000
-0.400000
0.200000
-0.200000
-0.200000
0.500000
0.500000
-0.400000
-0.100000
-0.200000
0.000000
-0.100000
0.400000
-0.400000
-0.200000
-0.100000
0.400000
-0.200000
-0.100000
-0.100000
-0.200000
-0.300000
0.000000
0.300000
-0.300000
0.100000
-0.100000
0.200000
-0.200000
-0.300000
0.400000
0.100000
0.400000
0.000000
0.100000
0.500000
0.200000
0.000000
0.100000
0.500000
-0.400000
-0.300000
-0.100000
0.300000
0.300000
-0.300000
0.300000
0.100000
0.200000
0.300000
0.100000
0.100000
-0.400000
0.100000
0.400000
-0.100000
0.500000
-0.300000
0.200000
0.200000
-0.400000
-0.300000
-0.400000
-0.300000
0.300000
0.400000
-0.300000
0.400000
0.200000
-0.300000
0.300000
-0.200000
-0.100000
0.000000
0.200000
0.100000
0.200000
0.500000
0.400000
-0.200000
-0.400000
-0.200000
0.300000
-0.400000
-0.300000
-0.300000
0.500000
0.200000
-0.200000
-0.100000
0.500000
0.100000
0.100000
0.100000
-0.100000
0.400000
0.100000
-0.400000
0.200000
-0.400000
0.500000
-0.100000
-0.400000
-0.200000
-0.300000
-0.200000
-0.300000
0.000000
-0.300000
0.200000
0.500000
0.200000
0.100000
-0.100000
-0.300000
-0.400000
-0.100000
-0.400000
-0.200000
0.000000
-0.300000
-0.400000
-0.300000
-0.100000
-0.400000
0.100000
0.500000
-0.200000
0.200000
-0.400000
0.100000
-0.400000
0.200000
0.500000
-0.200000
0.300000
0.500000
0.400000
0.100000
0.500000
-0.400000
-0.300000
-0.400000
-0.200000
0.300000
-0.300000
0.300000
0.000000
0.000000
-0.300000
0.000000
-0.100000
-0.200000
0.400000
0.400000
-0.100000
-0.100000
0.000000
-0.100000
-0.400000
-0.300000
-0.100000
0.100000
0.400000
0.300000
0.500000
0.400000
-0.300000
0.500000
-0.300000
0.500000
0.200000
0.000000
0.200000
-0.400000
0.100000
0.000000
0.000000
0.400000
0.200000
-0.300000
0.000000
0.500000
-0.100000
-0.300000
0.400000
-0.300000
-0.100000
0.000000
0.400000
0.400000
0.200000
-0.400000
-0.300000
-0.300000
-0.300000
-0.200000
-0.200000
-0.300000
0.000000
0.400000
-0.400000
0.500000
0.200000
-0.200000
-0.100000
0.200000
-0.100000
-0.300000
-0.200000
0.500000
-0.300000
0.500000
0.400000
0.000000
-0.400000
-0.400000
0.100000
-0.300000
0.200000
-0.200000
-0.200000
-0.400000
0.000000
0.100000
0.100000
-0.300000
0.100000
0.500000
0.100000
0.300000
0.200000
0.400000
0.000000
0.500000
0.500000
0.200000
0.200000
0.300000
0.500000
-0.100000
0.100000
0.200000
0.000000
0.200000
-0.300000
0.400000
-0.400000
0.200000
0.000000
0.200000
-0.100000
0.300000
-0.400000
-0.300000
0.300000
0.000000
0.500000
0.100000
0.400000
0.200000
0.300000
0.300000
0.400000
0.300000
0.100000
0.400000
0.500000
-0.400000
0.200000
0.100000
-0.300000
0.200000
0.200000
0.000000
-0.300000
0.200000
-0.400000
0.100000
-0.100000
-0.200000
-0.200000
0.300000
0.100000
-0.100000
-0.100000
0.000000
-0.400000
0.400000
0.500000
0.000000
-0.200000
-0.300000
-0.100000
-0.200000
0.000000
0.000000
0.000000
0.100000
-0.200000
-0.100000
0.100000
0.200000
0.100000
0.000000
-0.300000
0.400000
0.000000
0.300000
0.500000
-0.200000
0.400000
-0.400000
0.000000
0.400000
-0.100000
0.000000
0.200000
0.200000
0.200000
-0.400000
0.200000
-0.100000
-0.200000
0.200000
-0.300000
-0.200000
0.000000
0.100000
-0.200000
-0.100000
-0.200000
-0.100000
-0.100000
0.300000
0.100000
-0.200000
-0.300000
-0.400000
0.200000
0.000000
0.100000
0.000000
-0.300000
0.000000
-0.300000
0.100000
-0.300000
-0.100000
0.400000
-0.400000
-0.200000
0.000000
0.300000
0.300000
0.200000
0.100000
-0.200000
0.000000
0.300000
-0.400000
0.400000
-0.100000
0.200000
0.000000
0.400000
0.100000
0.200000
0.000000
-0.400000
-0.300000
0.400000
-0.200000
0.100000
-0.100000
-0.400000
0.400000
0.500000
0.300000
0.400000
-0.300000
-0.200000
-0.100000
-0.400000
-0.200000
0.000000
0.300000
-0.100000
0.200000
0.200000
0.400000
0.500000
0.300000
0.300000
0.500000
-0.400000
-0.200000
-0.300000
0.500000
-0.400000
-0.200000
0.300000
0.000000
0.200000
-0.100000
0.400000
-0.300000
0.300000
-0.100000
0.500000
-0.400000
0.200000
0.000000
0.200000
-0.300000
0.400000
-0.400000
-0.300000
-0.100000
0.100000
0.100000
0.200000
0.300000
0.500000
0.100000
0.200000
-0.100000
-0.300000
-0.200000
0.500000
0.500000
0.400000
-0.200000
0.300000
-0.100000
0.300000
0.300000
-0.100000
0.500000
0.400000
-0.300000
0.000000
-0.200000
-0.400000
0.400000
-0.100000
0.000000
-0.100000
-0.300000
0.300000
0.100000
-0.300000
-0.200000
0.400000
-0.200000
0.200000
0.100000
-0.400000
-0.400000
-0.200000
0.500000
-0.300000
-0.100000
0.500000
0.500000
-0.300000
0.200000
0.500000
-0.400000
0.400000
0.200000
0.500000
0.000000
-0.100000
-0.100000
0.400000
0.500000
0.300000
-0.100000
-0.300000
0.500000
0.000000
0.000000
-0.100000
0.500000
-0.300000
-0.100000
0.400000
-0.300000
0.100000
-0.300000
-0.100000
-0.100000
-0.400000
-0.100000
0.300000
-0.200000
-0.200000
-0.400000
-0.200000
0.100000
0.400000
-0.100000
0.000000
0.100000
-0.300000
0.000000
-0.100000
0.200000
0.500000
0.500000
0.300000
0.000000
-0.300000
-0.300000
0.300000
0.300000
0.400000
-0.300000
0.000000
-0.100000
-0.200000
0.000000
0.200000
-0.400000
0.200000
0.300000
-0.100000
-0.100000
0.100000
0.000000
-0.400000
0.400000
-0.100000
0.000000
0.200000
0.100000
0.500000
-0.400000
0.500000
-0.200000
0.300000
-0.200000
-0.400000
-0.100000
0.500000
-0.200000
-0.300000
-0.300000
-0.200000
-0.200000
0.000000
-0.100000
0.500000
0.000000
-0.100000
0.000000
-0.100000
0.500000
0.400000
0.400000
0.200000
0.100000
0.100000
0.500000
0.000000
0.200000
0.300000
0.000000
0.000000
0.100000
0.300000
0.000000
0.000000
0.300000
0.100000
-0.200000
0.300000
-0.200000
0.500000
-0.100000
-0.400000
0.100000
0.100000
-0.200000
0.200000
-0.200000
0.200000
0.400000
-0.200000
0.500000
0.100000
0.300000
-0.400000
0.500000
-0.200000
-0.100000
0.500000
0.400000
0.200000
0.000000
-0.300000
-0.300000
0.500000
0.300000
0.300000
0.100000
-0.300000
-0.400000
-0.400000
-0.300000
-0.200000
-0.300000
0.400000
0.300000
0.300000
0.500000
0.000000
0.400000
-0.200000
-0.200000
-0.300000
0.300000
0.100000
-0.100000
0.500000
0.500000
-0.100000
-0.400000
0.300000
0.400000
-0.200000
0.000000
0.100000
0.000000
-0.400000
0.200000
0.000000
-0.400000
0.000000
-0.200000
0.100000
-0.400000
0.200000
-0.400000
0.100000
-0.200000
-0.300000
0.200000
0.000000
-0.400000
0.500000
-0.400000
-0.100000
0.500000
-0.400000
0.100000
0.100000
0.200000
-0.100000
0.300000
-0.300000
-0.300000
-0.100000
-0.200000
0.000000
-0.300000
-0.400000
0.200000
0.200000
0.200000
-0.300000
-0.100000
0.100000
-0.400000
0.400000
-0.200000
-0.300000
-0.100000
-0.200000
-0.300000
-0.300000
0.500000
0.100000
0.100000
0.300000
0.300000
-0.100000
0.100000
0.100000
0.200000
0.000000
-0.300000
-0.300000
-0.300000
-0.300000
-0.200000
0.300000
0.200000
-0.400000
-0.200000
0.500000
0.400000
0.200000
-0.300000
0.000000
-0.300000
-0.400000
0.100000
-0.200000
0.100000
-0.300000
0.200000
0.400000
0.400000
-0.100000
-0.400000
0.200000
0.300000
0.200000
0.100000
-0.400000
0.400000
0.500000
0.300000
0.400000
0.100000
-0.200000
-0.200000
-0.100000
0.100000
0.400000
0.300000
0.200000
0.000000
0.200000
-0.400000
0.500000
0.400000
0.100000
0.500000
-0.100000
0.400000
0.500000
0.400000
0.300000
0.200000
0.100000
-0.300000
-0.100000
0.300000
0.500000
-0.100000
-0.300000
-0.200000
-0.200000
-0.300000
-0.400000
0.100000
0.200000
0.500000
-0.100000
0.100000
-0.200000
0.100000
-0.100000
-0.400000
0.300000
0.400000
0.300000
-0.400000
-0.300000
-0.100000
0.500000
-0.300000
0.000000
0.300000
0.400000
0.400000
0.000000
0.000000
0.100000
-0.400000
0.400000
0.000000
-0.100000
-0.100000
-0.300000
0.100000
0.400000
0.400000
0.000000
0.200000
0.400000
-0.100000
-0.400000
0.400000
0.500000
0.200000
-0.200000
0.300000
0.100000
-0.400000
-0.400000
0.000000
-0.300000
0.300000
0.100000
-0.300000
-0.100000
0.000000
0.300000
0.400000
-0.100000
-0.100000
0.100000
-0.400000
-0.200000
0.000000
-0.100000
0.100000
-0.400000
-0.100000
0.200000
0.300000
0.500000
0.500000
-0.400000
-0.100000
-0.100000
0.300000
0.400000
-0.300000
-0.200000
0.000000
0.100000
-0.400000
0.000000
-0.200000
0.200000
0.500000
0.300000
0.400000
0.200000
-0.100000
0.300000
0.400000
-0.400000
0.300000
-0.300000
0.300000
0.300000
0.100000
0.500000
-0.400000
-0.400000
-0.200000
-0.300000
0.500000
0.500000
0.400000
-0.400000
-0.200000
-0.100000
0.400000
0.100000
0.200000
0.400000
-0.300000
0.400000
-0.300000
-0.300000
0.500000
0.500000
-0.100000
0.200000
0.500000
-0.400000
0.500000
-0.300000
-0.200000
0.300000
0.400000
0.100000
-0.100000
0.200000
-0.200000
0.400000
0.500000
0.000000
-0.200000
0.100000
0.500000
0.100000
-0.300000
0.000000
0.500000
0.500000
0.100000
0.400000
-0.300000
0.300000
0.200000
-0.200000
-0.400000
0.400000
0.200000
-0.100000
0.400000
0.100000
-0.200000
0.200000
0.100000
0.100000
-0.200000
0.000000
-0.300000
0.000000
0.200000
0.400000
0.100000
0.300000
0.400000
-0.300000
0.100000
0.200000
0.200000
-0.300000
-0.300000
-0.300000
-0.200000
-0.300000
-0.300000
0.100000
0.000000
-0.300000
0.200000
0.100000
0.200000
0.400000
0.500000
0.100000
0.000000
0.200000
-0.100000
-0.400000
-0.300000
-0.200000
0.400000
-0.400000
0.300000
-0.400000
0.400000
0.100000
0.500000
-0.100000
-0.200000
0.200000
-0.300000
-0.400000
-0.200000
0.400000
-0.300000
0.000000
0.100000
-0.100000
0.000000
0.400000
0.100000
-0.400000
0.100000
-0.100000
0.500000
0.100000
0.500000
-0.100000
0.000000
-0.100000
-0.100000
-0.100000
-0.300000
0.300000
0.300000
0.200000
0.000000
-0.100000
-0.300000
0.000000
0.500000
0.300000
-0.200000
0.400000
-0.400000
0.200000
0.100000
-0.300000
-0.300000
0.200000
0.200000
0.500000
0.200000
0.300000
0.100000
-0.200000
0.400000
0.000000
0.100000
-0.200000
0.200000
-0.300000
0.400000
-0.100000
-0.400000
0.400000
0.200000
0.200000
-0.200000
-0.400000
0.300000
0.000000
0.400000
-0.100000
0.500000
0.300000
0.200000
0.400000
0.100000
0.200000
-0.200000
-0.100000
-0.100000
-0.400000
-0.100000
0.300000
-0.400000
-0.300000
0.000000
0.100000
0.500000
0.400000
0.400000
-0.300000
0.100000
-0.400000
0.100000
0.300000
-0.300000
0.400000
0.100000
0.300000
-0.200000
-0.300000
0.500000
-0.300000
-0.400000
-0.300000
-0.400000
-0.300000
0.100000
-0.300000
0.500000
0.300000
-0.100000
0.300000
0.100000
0.400000
-0.200000
0.200000
0.300000
0.200000
0.200000
0.500000
0.200000
-0.400000
0.100000
-0.400000
-0.100000
0.100000
-0.100000
0.300000
0.500000
0.500000
-0.200000
-0.300000
-0.100000
-0.200000
-0.300000
-0.200000
0.400000
-0.400000
-0.200000
0.000000
-0.200000
0.000000
0.300000
-0.300000
0.000000
-0.300000
0.100000
0.100000
0.000000
0.200000
-0.400000
-0.300000
0.500000
-0.200000
-0.400000
0.300000
-0.400000
0.300000
0.400000
0.500000
0.000000
0.500000
-0.100000
0.500000
-0.400000
0.300000
0.200000
0.400000
-0.100000
-0.200000
0.300000
-0.200000
-0.300000
-0.200000
-0.200000
0.400000
0.400000
0.100000
0.200000
-0.200000
-0.300000
0.300000
0.200000
-0.100000
-0.300000
0.400000
-0.200000
-0.100000
0.200000
0.400000
0.300000
0.300000
-0.300000
0.400000
0.500000
0.300000
-0.200000
-0.300000
-0.300000
0.200000
-0.300000
0.200000
0.400000
0.100000
0.300000
0.400000
-0.200000
-0.200000
-0.200000
-0.100000
0.200000
-0.400000
-0.400000
0.100000
-0.200000
0.400000
0.400000
-0.100000
-0.300000
0.500000
0.400000
-0.300000
-0.300000
-0.200000
0.200000
-0.400000
0.500000
-0.200000
0.200000
-0.200000
0.400000
0.200000
0.200000
0.500000
-0.200000
0.400000
-0.400000
0.400000
0.400000
0.300000
-0.400000
-0.400000
-0.200000
0.300000
-0.200000
0.300000
-0.100000
-0.400000
0.500000
0.400000
-0.400000
0.100000
-0.200000
0.300000
-0.400000
0.000000
-0.100000
0.200000
-0.100000
0.300000
-0.200000
0.000000
0.500000
0.300000
0.500000
-0.300000
0.500000
-0.100000
0.200000
0.300000
-0.300000
0.100000
0.300000
0.100000
0.000000
0.100000
0.500000
0.400000
0.000000
0.400000
0.400000
-0.200000
0.100000
0.400000
0.000000
0.500000
0.100000
-0.100000
0.400000
-0.300000
-0.100000
0.200000
-0.400000
-0.200000
0.100000
0.300000
-0.400000
0.100000
-0.200000
-0.300000
0.300000
-0.200000
-0.100000
0.000000
0.300000
0.300000
-0.300000
-0.200000
0.000000
-0.400000
0.500000
0.000000
-0.300000
-0.400000
0.400000
-0.100000
0.100000
0.500000
-0.300000
0.000000
0.200000
-0.200000
-0.200000
-0.100000
0.500000
-0.400000
0.100000
0.100000
-0.200000
0.400000
0.400000
0.000000
-0.200000
0.200000
-0.300000
0.400000
0.000000
-0.400000
0.300000
0.000000
0.200000
-0.300000
0.300000
0.400000
-0.100000
0.500000
-0.200000
0.400000
0.100000
0.000000
0.200000
0.100000
0.400000
-0.200000
0.500000
0.200000
0.200000
0.300000
0.200000
-0.100000
-0.300000
-0.300000
-0.300000
-0.400000
0.400000
-0.400000
-0.400000
0.400000
-0.100000
-0.300000
0.300000
0.100000
0.200000
0.400000
-0.100000
-0.200000
0.400000
0.100000
0.100000
0.100000
-0.100000
0.500000
0.100000
0.500000
-0.400000
-0.200000
-0.400000
0.100000
-0.300000
-0.200000
0.400000
0.300000
0.500000
0.500000
-0.200000
-0.400000
-0.100000
0.500000
0.000000
-0.200000
0.200000
0.300000
0.200000
0.500000
0.000000
0.300000
0.200000
0.200000
-0.200000
-0.100000
-0.400000
-0.100000
-0.300000
0.500000
-0.300000
0.200000
-0.200000
0.300000
0.200000
0.500000
-0.400000
0.000000
0.300000
0.200000
0.100000
-0.100000
-0.300000
-0.200000
-0.100000
0.200000
-0.400000
0.000000
0.100000
0.500000
0.400000
0.200000
-0.200000
0.300000
-0.200000
-0.400000
0.400000
0.100000
-0.200000
0.000000
-0.300000
-0.300000
0.400000
0.300000
-0.400000
0.100000
-0.100000
-0.100000
-0.300000
-0.400000
-0.200000
-0.200000
0.300000
-0.200000
-0.100000
-0.300000
-0.400000
0.300000
0.200000
-0.400000
0.000000
-0.200000
-0.400000
0.300000
0.400000
0.000000
-0.100000
0.300000
0.500000
0.500000
0.500000
0.300000
-0.400000
0.200000
-0.400000
0.000000
0.100000
0.500000
0.000000
0.500000
-0.400000
0.200000
0.200000
0.000000
0.100000
0.400000
-0.100000
0.500000
0.300000
0.300000
0.300000
0.000000
0.200000
-0.300000
-0.400000
0.000000
0.000000
0.200000
0.000000
0.300000
-0.300000
-0.200000
-0.400000
0.400000
0.200000
-0.300000
0.200000
-0.100000
0.500000
-0.400000
0.200000
-0.200000
0.300000
0.500000
0.100000
-0.400000
0.200000
0.000000
-0.400000
-0.100000
-0.200000
0.100000
-0.200000
-0.200000
0.000000
-0.100000
0.500000
0.400000
0.200000
0.100000
0.200000
-0.100000
0.000000
-0.300000
0.200000
-0.200000
-0.100000
0.300000
-0.100000
-0.400000
0.200000
0.300000
0.500000
-0.200000
0.200000
0.200000
-0.400000
-0.100000
0.500000
0.000000
-0.200000
-0.300000
-0.100000
0.400000
-0.300000
0.200000
0.200000
0.000000
-0.400000
0.200000
0.200000
-0.300000
-0.300000
0.200000
0.000000
0.300000
-0.400000
-0.100000
0.400000
-0.100000
0.000000
-0.400000
0.100000
0.100000
0.200000
0.500000
-0.100000
0.400000
0.200000
-0.300000
-0.200000
-0.300000
0.100000
-0.300000
0.200000
0.300000
0.300000
0.200000
0.000000
0.100000
-0.300000
0.200000
-0.400000
0.100000
0.200000
0.400000
-0.100000
0.100000
-0.200000
-0.100000
0.300000
-0.100000
0.100000
0.100000
0.500000
0.300000
0.400000
-0.300000
0.200000
-0.300000
0.500000
-0.200000
-0.300000
-0.300000
0.500000
0.500000
-0.100000
0.500000
0.200000
0.100000
-0.200000
-0.200000
0.100000
0.000000
0.400000
-0.200000
0.200000
0.300000
-0.300000
0.500000
0.200000
0.000000
-0.400000
0.400000
-0.400000
0.200000
0.200000
0.200000
0.100000
0.200000
0.500000
0.500000
0.400000
-0.400000
0.200000
0.500000
0.000000
-0.100000
-0.100000
0.300000
0.100000
0.300000
-0.300000
0.400000
0.100000
0.100000
0.100000
-0.300000
-0.300000
-0.100000
0.000000
-0.400000
-0.100000
-0.300000
0.200000
0.100000
0.300000
0.000000
-0.200000
-0.300000
0.000000
0.400000
0.300000
-0.400000
-0.400000
-0.100000
-0.300000
-0.200000
0.400000
-0.400000
-0.300000
-0.400000
-0.100000
-0.100000
0.400000
0.500000
-0.100000
0.400000
0.000000
-0.200000
-0.400000
0.400000
0.500000
0.500000
0.200000
0.400000
-0.400000
0.300000
-0.400000
0.300000
-0.200000
0.100000
0.000000
0.400000
0.500000
-0.200000
0.500000
-0.400000
-0.100000
0.400000
-0.200000
0.400000
-0.200000
0.100000
-0.200000
-0.200000
0.100000
-0.100000
0.000000
0.500000
0.400000
0.400000
-0.400000
-0.300000
-0.300000
0.000000
-0.400000
0.200000
-0.200000
-0.300000
0.300000
-0.100000
-0.400000
0.200000
-0.300000
-0.400000
-0.100000
0.000000
-0.400000
0.100000
0.500000
0.200000
0.500000
0.000000
-0.400000
-0.200000
0.100000
0.200000
-0.200000
-0.400000
-0.400000
-0.100000
0.100000
0.200000
-0.100000
-0.200000
0.500000
-0.100000
-0.300000
-0.400000
0.200000
-0.200000
0.200000
0.000000
-0.200000
0.100000
0.200000
0.100000
0.300000
-0.100000
-0.200000
0.300000
0.100000
0.400000
0.200000
0.200000
0.500000
0.400000
0.500000
0.300000
0.500000
-0.100000
0.000000
0.400000
-0.300000
-0.300000
-0.300000
-0.100000
-0.100000
0.300000
-0.300000
0.000000
-0.300000
0.300000
0.100000
0.200000
-0.400000
0.500000
0.500000
-0.400000
0.200000
-0.300000
0.500000
0.000000
0.300000
-0.100000
0.300000
-0.300000
-0.300000
0.200000
0.000000
-0.200000
0.100000
0.400000
0.100000
-0.200000
0.300000
0.200000
0.500000
0.300000
0.400000
0.500000
0.200000
0.500000
-0.100000
0.200000
-0.400000
0.500000
-0.100000
0.500000
0.300000
-0.100000
-0.200000
0.500000
0.100000
-0.300000
0.300000
-0.300000
0.400000
0.500000
0.300000
0.100000
0.300000
0.200000
0.200000
-0.300000
0.100000
-0.300000
-0.300000
-0.100000
0.000000
0.200000
-0.400000
0.300000
0.200000
0.000000
0.400000
0.400000
-0.100000
0.100000
-0.400000
0.200000
0.100000
0.400000
0.500000
0.500000
-0.100000
0.400000
0.200000
0.500000
0.000000
0.200000
-0.400000
-0.200000
-0.300000
0.500000
0.200000
0.200000
-0.300000
-0.100000
0.300000
-0.300000
0.300000
-0.200000
0.500000
0.500000
-0.300000
0.200000
0.400000
0.100000
-0.200000
-0.300000
0.300000
-0.300000
-0.100000
-0.400000
-0.300000
-0.100000
-0.400000
-0.300000
-0.100000
0.200000
0.000000
-0.300000
-0.200000
0.100000
0.000000
0.000000
-0.400000
0.400000
0.400000
0.200000
0.000000
0.200000
0.500000
0.500000
0.200000
0.000000
-0.300000
0.200000
0.200000
0.100000
0.500000
0.500000
0.000000
0.500000
-0.400000
-0.200000
0.500000
0.300000
-0.300000
0.500000
0.000000
0.500000
-0.100000
-0.200000
0.500000
-0.100000
-0.200000
0.500000
0.200000
0.100000
0.400000
0.100000
-0.300000
-0.300000
-0.200000
-0.400000
0.500000
-0.200000
0.000000
0.000000
0.500000
0.100000
-0.100000
0.300000
0.500000
0.000000
0.500000
0.000000
0.400000
0.200000
0.100000
0.200000
-0.100000
-0.100000
0.400000
-0.400000
0.500000
0.400000
-0.400000
-0.200000
-0.100000
0.100000
-0.300000
0.400000
-0.200000
0.400000
0.000000
0.300000
0.200000
0.000000
0.400000
0.100000
0.400000
0.000000
0.100000
0.300000
-0.300000
0.500000
0.400000
0.300000
0.200000
0.200000
-0.400000
0.300000
0.000000
0.000000
-0.100000
0.500000
-0.300000
0.500000
0.100000
0.100000
0.300000
-0.200000
0.500000
0.400000
-0.300000
-0.200000
-0.200000
-0.200000
0.300000
-0.300000
-0.400000
-0.300000
0.000000
0.200000
0.200000
0.300000
0.000000
-0.300000
-0.300000
0.100000
0.500000
-0.200000
0.000000
0.200000
-0.200000
0.500000
-0.400000
-0.400000
0.400000
-0.400000
0.400000
0.400000
0.200000
-0.100000
0.000000
0.000000
-0.400000
0.400000
0.500000
-0.400000
-0.300000
0.400000
-0.100000
0.000000
-0.200000
-0.300000
-0.200000
0.500000
0.200000
0.100000
0.500000
0.400000
0.300000
0.000000
0.200000
0.400000
0.300000
-0.400000
-0.200000
-0.300000
0.400000
-0.400000
0.000000
-0.300000
0.300000
0.200000
0.400000
-0.400000
0.500000
-0.400000
-0.100000
-0.100000
0.100000
0.400000
-0.400000
-0.400000
-0.100000
-0.400000
0.500000
-0.300000
0.000000
-0.200000
0.300000
-0.400000
-0.300000
0.500000
0.100000
0.300000
0.100000
0.500000
-0.400000
-0.200000
0.500000
-0.400000
-0.300000
0.200000
0.200000
0.400000
0.100000
-0.200000
0.100000
0.400000
-0.100000
-0.300000
0.300000
-0.100000
0.300000
0.300000
0.400000
-0.300000
0.200000
0.000000
0.100000
0.500000
-0.200000
-0.300000
-0.200000
0.400000
-0.100000
0.300000
0.100000
-0.100000
-0.400000
0.500000
-0.100000
0.500000
-0.100000
0.400000
0.400000
0.300000
0.100000
-0.400000
0.300000
0.500000
-0.200000
0.400000
-0.100000
-0.200000
0.000000
-0.100000
-0.200000
0.100000
0.200000
0.000000
-0.100000
0.300000
0.300000
0.100000
-0.200000
-0.200000
0.500000
-0.400000
-0.200000
-0.300000
0.100000
0.200000
0.400000
0.200000
0.300000
-0.100000
-0.300000
0.200000
0.200000
0.200000
-0.300000
0.500000
-0.200000
0.200000
-0.300000
-0.300000
0.400000
-0.400000
-0.100000
0.300000
0.500000
0.000000
0.200000
-0.100000
0.200000
-0.200000
0.300000
-0.200000
-0.400000
-0.200000
0.200000
-0.100000
0.500000
0.200000
-0.300000
0.100000
-0.400000
-0.300000
0.300000
0.000000
-0.200000
0.300000
0.300000
0.500000
0.000000
-0.200000
0.400000
0.300000
0.000000
0.400000
-0.300000
0.400000
0.000000
0.100000
0.500000
-0.200000
-0.300000
-0.400000
-0.100000
0.500000
0.200000
-0.200000
-0.300000
-0.100000
0.500000
-0.100000
0.100000
0.300000
0.400000
-0.200000
0.100000
0.000000
0.100000
0.100000
-0.200000
-0.400000
-0.300000
0.100000
0.400000
0.400000
0.000000
-0.200000
-0.300000
-0.300000
0.200000
0.100000
0.000000
0.000000
0.100000
0.000000
0.100000
-0.400000
0.000000
-0.300000
0.000000
0.400000
-0.200000
0.200000
0.000000
0.400000
-0.200000
0.200000
0.500000
0.500000
-0.300000
-0.100000
-0.200000
0.100000
0.500000
-0.100000
-0.300000
-0.100000
0.500000
-0.400000
-0.300000
0.100000
0.500000
0.400000
0.500000
0.000000
-0.100000
0.000000
0.100000
0.100000
0.200000
0.100000
0.500000
0.500000
-0.400000
-0.300000
-0.200000
-0.400000
0.500000
0.300000
-0.200000
-0.200000
-0.300000
0.300000
0.100000
-0.300000
-0.100000
0.500000
-0.400000
-0.100000
0.200000
0.400000
0.300000
0.100000
-0.400000
0.400000
0.200000
0.300000
-0.100000
0.400000
-0.300000
0.100000
0.300000
0.100000
0.200000
-0.200000
-0.200000
0.500000
0.200000
0.000000
0.300000
-0.300000
-0.400000
0.200000
0.000000
0.200000
0.400000
0.500000
0.400000
-0.100000
-0.200000
-0.400000
0.100000
0.200000
0.200000
-0.300000
0.200000
0.300000
-0.200000
0.200000
-0.200000
-0.400000
-0.200000
-0.400000
-0.200000
0.300000
0.100000
0.200000
0.300000
-0.200000
0.000000
0.300000
0.300000
-0.300000
0.100000
-0.300000
-0.100000
0.200000
-0.100000
0.200000
0.000000
0.100000
0.500000
0.100000
-0.300000
0.200000
-0.200000
-0.400000
0.100000
0.000000
-0.400000
0.400000
-0.100000
-0.200000
0.200000
-0.200000
0.500000
-0.100000
0.300000
0.100000
-0.400000
0.300000
0.200000
0.100000
-0.400000
0.000000
-0.200000
-0.400000
0.000000
-0.100000
-0.400000
-0.300000
0.100000
0.500000
0.500000
-0.200000
0.500000
-0.200000
0.000000
0.400000
-0.200000
0.500000
-0.200000
-0.400000
-0.400000
-0.200000
-0.200000
0.200000
0.500000
-0.100000
-0.300000
-0.100000
-0.300000
0.000000
0.500000
0.000000
0.200000
-0.200000
0.100000
-0.200000
-0.100000
0.200000
-0.200000
-0.400000
0.200000
-0.300000
0.300000
0.000000
0.300000
0.000000
0.000000
0.500000
-0.100000
0.400000
-0.400000
-0.300000
0.200000
0.400000
0.200000
-0.100000
0.100000
-0.100000
0.100000
0.000000
-0.200000
0.000000
-0.300000
-0.100000
-0.100000
-0.200000
0.000000
0.200000
-0.300000
-0.100000
0.100000
-0.400000
-0.400000
0.100000
-0.100000
0.100000
0.200000
-0.100000
-0.400000
-0.200000
0.100000
-0.300000
-0.400000
0.300000
0.000000
-0.100000
0.400000
-0.300000
-0.100000
0.200000
0.500000
-0.300000
0.000000
0.300000
-0.400000
-0.400000
0.400000
0.200000
0.100000
-0.300000
0.500000
-0.100000
0.400000
0.200000
0.100000
0.000000
0.100000
0.000000
0.100000
0.400000
0.100000
0.000000
0.500000
0.200000
-0.100000
-0.100000
0.400000
0.100000
-0.100000
0.200000
0.500000
-0.400000
-0.300000
0.400000
0.200000
-0.400000
-0.100000
-0.400000
0.400000
0.200000
0.500000
0.400000
0.500000
0.500000
0.300000
-0.300000
0.000000
0.200000
-0.100000
0.400000
0.000000
0.100000
0.100000
0.300000
0.300000
-0.300000
-0.300000
0.200000
0.400000
0.200000
-0.300000
-0.100000
-0.300000
0.000000
-0.300000
-0.200000
0.000000
-0.300000
0.300000
-0.300000
-0.400000
0.400000
0.500000
0.200000
-0.400000
-0.100000
-0.200000
0.000000
-0.200000
-0.200000
0.000000
-0.200000
-0.200000
-0.300000
-0.100000
0.500000
0.000000
-0.200000
0.200000
0.500000
-0.100000
0.000000
-0.100000
-0.400000
-0.200000
-0.300000
0.200000
0.500000
0.500000
-0.100000
0.200000
-0.300000
0.100000
-0.200000
0.100000
0.500000
0.500000
-0.400000
0.000000
0.200000
0.400000
0.300000
0.500000
0.100000
0.100000
0.200000
-0.300000
0.500000
0.300000
-0.100000
-0.300000
0.100000
-0.200000
-0.100000
-0.300000
0.400000
0.200000
0.300000
0.100000
0.000000
-0.200000
0.300000
-0.400000
-0.300000
0.300000
0.100000
0.500000
-0.200000
0.000000
-0.300000
-0.300000
0.000000
0.000000
-0.100000
-0.400000
0.400000
-0.400000
0.200000
0.100000
-0.100000
0.000000
-0.400000
0.300000
0.300000
-0.400000
0.500000
0.300000
0.000000
0.300000
-0.200000
-0.200000
-0.200000
0.500000
0.400000
0.500000
0.000000
-0.200000
0.500000
-0.300000
0.100000
-0.200000
0.500000
-0.200000
0.400000
0.400000
0.200000
-0.300000
-0.200000
-0.200000
-0.300000
-0.400000
-0.200000
0.500000
0.400000
-0.200000
0.400000
0.000000
0.400000
-0.400000
-0.300000
0.100000
-0.400000
0.500000
0.400000
0.300000
-0.100000
0.400000
-0.400000
-0.100000
-0.300000
0.200000
0.300000
0.000000
0.300000
-0.300000
0.300000
0.000000
0.000000
-0.200000
0.300000
-0.100000
0.200000
-0.200000
-0.400000
-0.200000
-0.100000
-0.400000
0.500000
0.200000
0.000000
-0.400000
-0.400000
0.500000
0.500000
0.500000
0.500000
-0.100000
-0.200000
-0.300000
0.100000
0.100000
0.200000
-0.300000
-0.200000
-0.400000
-0.100000
-0.200000
0.500000
-0.200000
0.100000
0.400000
0.400000
0.000000
0.100000
-0.300000
-0.300000
-0.300000
-0.200000
-0.400000
-0.300000
-0.400000
0.100000
0.300000
-0.200000
-0.300000
0.200000
-0.300000
0.000000
-0.300000
-0.400000
-0.200000
0.200000
0.000000
-0.200000
0.200000
0.300000
0.300000
0.000000
0.200000
-0.100000
0.200000
-0.200000
0.200000
0.000000
-0.100000
0.500000
0.100000
-0.300000
-0.200000
0.400000
-0.200000
-0.200000
-0.100000
0.200000
0.200000
-0.200000
0.300000
-0.400000
0.400000
-0.200000
-0.400000
0.100000
-0.200000
-0.300000
0.500000
-0.300000
-0.300000
0.500000
0.200000
0.000000
0.100000
-0.100000
-0.300000
0.500000
0.400000
0.000000
0.100000
0.100000
0.500000
-0.400000
0.300000
-0.300000
0.000000
-0.100000
0.200000
-0.300000
0.400000
0.000000
-0.100000
-0.100000
-0.400000
-0.300000
-0.400000
0.400000
0.100000
0.500000
-0.100000
-0.100000
0.400000
0.400000
-0.100000
-0.100000
-0.100000
-0.300000
0.200000
0.300000
0.400000
-0.300000
0.500000
-0.100000
-0.400000
-0.300000
0.200000
-0.300000
0.400000
-0.100000
-0.100000
-0.300000
0.200000
-0.300000
0.400000
0.400000
-0.300000
-0.200000
0.200000
-0.100000
0.000000
-0.100000
0.200000
-0.200000
0.000000
0.100000
-0.200000
0.500000
0.300000
-0.300000
0.400000
0.200000
-0.200000
-0.200000
0.100000
0.300000
0.000000
0.100000
0.100000
0.500000
0.100000
0.500000
0.100000
0.300000
-0.400000
0.100000
-0.100000
0.500000
0.100000
0.500000
0.500000
0.300000
0.100000
0.000000
0.100000
-0.100000
0.500000
-0.400000
-0.200000
0.000000
-0.300000
0.000000
0.100000
-0.100000
0.000000
0.000000
0.400000
0.300000
0.500000
-0.400000
0.500000
-0.300000
0.400000
0.200000
0.500000
-0.400000
0.400000
0.400000
-0.300000
-0.200000
0.400000
0.000000
-0.300000
-0.300000
-0.400000
-0.100000
0.300000
0.300000
-0.300000
-0.200000
-0.200000
-0.400000
0.100000
0.400000
0.100000
0.400000
-0.100000
0.100000
-0.100000
0.300000
0.500000
0.300000
0.500000
-0.400000
-0.300000
0.100000
0.300000
-0.100000
0.000000
-0.300000
0.400000
-0.300000
-0.200000
0.400000
0.100000
0.100000
0.000000
0.100000
0.200000
0.200000
0.300000
0.300000
-0.300000
0.100000
-0.200000
-0.300000
-0.300000
-0.100000
0.200000
-0.200000
-0.400000
0.500000
-0.300000
0.400000
-0.200000
0.400000
0.400000
0.300000
0.200000
0.000000
-0.200000
0.500000
0.000000
0.400000
0.300000
0.400000
0.500000
-0.400000
0.300000
-0.100000
0.400000
0.100000
0.300000
0.200000
-0.300000
-0.100000
0.400000
-0.100000
0.000000
-0.100000
-0.100000
-0.300000
0.000000
-0.100000
0.200000
0.100000
0.200000
0.200000
0.500000
0.400000
-0.100000
-0.400000
0.100000
0.400000
0.000000
-0.200000
-0.200000
-0.400000
-0.400000
0.000000
0.000000
-0.300000
-0.400000
0.200000
-0.400000
0.200000
0.000000
-0.400000
0.200000
-0.300000
-0.100000
0.400000
0.200000
0.000000
-0.200000
0.200000
0.000000
-0.100000
-0.400000
-0.200000
-0.300000
-0.100000
0.400000
0.200000
-0.100000
0.200000
-0.100000
-0.100000
-0.200000
0.400000
0.500000
0.200000
-0.100000
-0.400000
0.300000
-0.100000
-0.400000
0.500000
0.400000
0.500000
-0.200000
0.200000
0.000000
-0.100000
-0.400000
-0.200000
0.400000
0.400000
0.100000
-0.300000
-0.200000
0.200000
-0.200000
0.400000
0.100000
-0.200000
-0.400000
0.000000
0.000000
0.400000
-0.300000
-0.100000
-0.300000
-0.400000
-0.400000
-0.100000
-0.400000
-0.200000
0.100000
0.000000
0.200000
0.200000
-0.400000
0.100000
0.500000
-0.300000
-0.100000
-0.200000
0.200000
0.500000
0.300000
-0.300000
0.500000
-0.400000
0.400000
0.300000
0.300000
-0.300000
0.200000
0.200000
0.300000
-0.200000
-0.100000
0.300000
0.400000
0.100000
0.000000
0.500000
0.400000
-0.400000
0.000000
0.500000
-0.200000
0.100000
0.100000
-0.300000
-0.400000
0.200000
0.100000
-0.400000
0.300000
0.500000
0.500000
-0.200000
-0.200000
-0.100000
0.200000
-0.300000
0.500000
-0.100000
0.000000
0.300000
0.200000
0.500000
0.500000
0.300000
-0.200000
0.400000
0.500000
0.300000
0.100000
0.300000
-0.300000
-0.300000
0.400000
-0.400000
0.500000
0.000000
-0.100000
0.200000
0.100000
-0.400000
-0.400000
0.200000
-0.300000
0.400000
0.500000
0.300000
-0.300000
0.300000
0.000000
0.200000
-0.400000
0.400000
0.100000
-0.100000
-0.100000
0.200000
0.300000
0.200000
-0.100000
-0.400000
0.100000
0.000000
-0.100000
0.200000
0.200000
0.100000
0.200000
-0.400000
-0.200000
-0.100000
0.100000
0.300000
0.400000
0.000000
0.500000
-0.300000
-0.100000
-0.300000
-0.300000
0.100000
-0.300000
-0.100000
-0.200000
0.400000
0.200000
0.000000
0.100000
-0.300000
0.500000
0.200000
0.300000
-0.100000
0.100000
0.300000
0.000000
0.500000
-0.300000
0.300000
0.300000
0.400000
0.300000
0.100000
0.400000
0.300000
-0.400000
0.300000
-0.200000
0.000000
0.200000
0.200000
-0.400000
0.100000
0.000000
0.000000
0.100000
-0.200000
-0.100000
-0.400000
-0.400000
-0.300000
-0.400000
0.200000
-0.300000
-0.100001
0.200003
0.099997
-0.200004
0.500000
0.500000
-0.300000
0.500001
0.199981
-0.400000
0.199981
0.199994
-0.300000
0.399992
0.300000
0.500000
0.000000
-0.299999
-0.200000
0.099971
-0.400000
0.500000
-0.400000
-0.000006
-0.300001
0.100000
-0.300001
0.000000
0.499999
0.300019
-0.299991
0.299990
0.399995
-0.399996
-0.400001
-0.200002
0.500000
-0.200000
0.500000
0.399968
0.299997
0.300014
-0.200006
0.500000
-0.000000
0.400000
0.100000
0.000000
0.000000
-0.300000
-0.100000
-0.400000
-0.200000
-0.100000
-0.100000
-0.300000
0.400007
-0.300000
-0.099987
0.100000
0.400000
0.099973
-0.100002
-0.200000
0.299998
0.199999
-0.400000
0.400000
-0.400002
0.200048
-0.200022
-0.000000
-0.199975
0.500000
-0.000000
-0.400000
0.500000
0.100000
-0.100000
0.500000
-0.099989
-0.200000
0.100000
0.499971
-0.000003
-0.100000
-0.200000
-0.200000
0.099998
-0.199999
0.499999
-0.400000
0.200000
0.500001
0.300000
0.400000
-0.200000
0.500000
0.500002
0.100000
0.100000
-0.199965
0.400000
-0.300000
-0.400000
0.100000
0.200000
0.100000
-0.300002
-0.400002
0.300000
-0.200000
0.100000
0.300000
-0.200002
0.200003
0.500000
0.500000
0.500000
-0.000002
-0.099989
-0.000000
0.100000
0.500005
0.200000
0.500000
-0.300000
-0.400000
0.299998
0.300000
0.300011
0.300000
-0.099997
0.500006
0.100000
0.100003
-0.400000
0.400000
0.000000
-0.200000
0.100002
0.100000
-0.100000
0.499992
0.200009
-0.100000
0.200000
0.400001
-0.000002
0.200003
-0.000000
0.100000
-0.100000
-0.400000
0.500005
0.100000
0.100000
-0.100000
-0.200005
-0.200000
-0.300000
0.499995
-0.300000
0.400000
0.200000
0.399998
-0.300002
0.100000
-0.100000
0.399990
-0.200000
0.000000
0.000019
0.299969
-0.100000
-0.400000
0.300002
-0.200000
0.300000
0.400000
-0.000000
0.299998
-0.100000
-0.100000
0.200000
-0.200001
-0.100000
0.000000
-0.200025
-0.000000
-0.299999
0.400000
-0.099982
-0.200000
-0.300000
-0.300003
-0.300000
0.500000
-0.179212
0.000003
0.006054
0.398682
-0.198774
0.299940
0.400000
-0.300002
0.303148
-0.098988
-0.000158
0.400000
0.001574
0.188878
0.399987
0.399394
-0.400015
0.491863
0.299934
0.300167
0.299937
-0.399857
-0.000027
-0.100072
0.000195
0.299993
0.100985
0.199703
-0.008228
-0.399988
0.298722
0.001104
0.200748
-0.399991
0.299899
-0.396680
-0.205584
-0.100007
-0.200000
0.499051
0.500000
-0.200136
-0.000020
0.201302
-0.099084
-0.400000
-0.299838
-0.199997
-0.000007
0.099998
0.300120
-0.199986
0.100018
-0.400000
-0.198204
-0.298687
-0.400001
0.300325
-0.000494
-0.099205
0.399948
0.500000
-0.299995
0.199408
-0.299500
0.099849
0.100004
0.199899
-0.017503
0.500000
-0.200021
-0.199256
0.000325
-0.100000
0.004398
-0.200001
-0.199963
0.400000
0.100000
0.406561
-0.201385
0.299999
0.099869
0.300000
-0.103961
0.000024
0.299997
-0.101158
0.300000
0.299999
-0.000422
0.200153
-0.400452
0.398886
-0.000064
-0.006095
-0.400000
0.400000
-0.299762
-0.400258
-0.399825
0.394354
0.100039
-0.199931
0.400000
-0.200727
0.100645
0.000702
-0.100000
0.300000
0.499272
0.203685
0.399997
-0.000001
0.198826
-0.100000
0.199693
-0.399258
0.399967
-0.100000
-0.200000
-0.300216
-0.181738
-0.200000
-0.402181
-0.199201
0.299877
0.199912
0.500000
0.510490
0.199197
0.098815
-0.299914
-0.000000
-0.070873
-0.001398
-0.400685
-0.392832
-0.200001
0.198688
-0.401093
0.100000
-0.096239
-0.399464
-0.099770
0.399383
0.100147
0.200000
0.201286
0.300566
0.499812
-0.300516
0.100000
-0.299518
-0.000000
0.399982
0.104286
-0.398104
0.500003
-0.100039
0.399995
0.200000
0.499954
0.499814
0.304744
0.500057
-0.398879
0.099852
0.000020
-0.000000
0.102087
0.299912
-0.100000
0.399997
0.299712
-0.103979
0.497582
-0.101298
-0.399750
-0.299359
-0.199897
-0.400001
-0.100000
0.000139
0.499204
0.199997
0.299953
0.512960
0.298474
0.401251
-0.197301
0.400000
0.501761
-0.400000
-0.086337
0.200001
-0.099999
0.100303
-0.398240
-0.100004
-0.070710
0.400008
0.510863
-0.303868
0.002651
0.299914
-0.400000
-0.200009
0.016410
0.394849
-0.200982
0.300000
0.127581
-0.120312
-0.001043
0.297880
0.099852
0.391126
-0.000231
-0.098791
0.498863
-0.005733
-0.300056
0.299871
-0.398376
0.300066
0.304841
0.299503
0.353636
0.399503
0.190080
0.310918
0.523118
0.002854
-0.000755
-0.094175
0.391628
-0.299990
0.500000
-0.005377
-0.400001
0.201325
0.396926
0.223347
-0.098578
0.199933
0.421782
0.000000
0.201604
-0.300005
-0.199412
-0.400645
0.304384
-0.399999
-0.191725
0.101259
0.299995
0.300608
0.102365
-0.106484
-0.211673
0.400000
0.200199
-0.001466
-0.082407
0.090375
-0.100824
0.198742
-0.197296
-0.400002
-0.199428
0.000700
-0.298301
-0.100000
-0.041864
0.500003
0.411748
-0.100000
0.399982
-0.080520
-0.299250
-0.400012
-0.200759
-0.100000
-0.006969
0.458189
0.200010
0.093310
0.399999
0.299981
0.358963
-0.398738
-0.300217
0.326604
-0.000051
0.374476
0.300000
-0.099606
-0.399606
0.496841
-0.192029
0.386743
0.100365
-0.199859
-0.200009
0.090892
-0.199027
-0.099300
0.500387
0.199999
0.099208
0.506579
0.399146
0.500003
0.197211
-0.100000
-0.400391
0.406296
-0.243239
0.300001
0.000086
0.199512
0.428645
-0.300000
0.002272
0.204098
-0.400818
0.199080
0.000000
0.019710
0.394920
-0.001164
-0.402053
-0.000000
-0.211228
0.399029
0.290204
0.442161
-0.000291
0.195426
0.286712
-0.000000
0.108456
0.201049
0.211889
0.397863
0.301550
-0.000018
0.211933
0.507522
-0.199544
0.400135
-0.000002
0.499873
-0.299646
-0.400161
-0.081087
0.409117
0.499792
0.296301
0.000067
0.500000
-0.000841
0.091948
0.518947
0.400068
-0.194992
0.099522
0.299937
0.100008
0.402022
-0.100575
-0.199999
-0.199982
0.304191
0.183009
0.292981
0.198994
0.450611
0.100736
-0.299928
-0.200003
-0.399999
0.499731
-0.404222
0.300137
-0.401779
-0.186706
0.066792
0.044064
0.206321
0.100025
0.207068
0.400000
0.014430
0.000011
0.300006
-0.404580
-0.065359
0.199996
-0.270247
-0.399991
-0.188098
-0.303414
0.092047
0.199330
-0.097225
0.301424
0.320595
-0.204302
0.398358
0.300585
-0.171623
0.078972
-0.100911
0.197825
0.498555
-0.306239
0.399772
0.001525
0.203455
-0.004580
-0.001032
-0.299384
0.401470
0.098300
0.505703
0.499442
-0.049056
0.399025
-0.110125
-0.286084
-0.278767
0.503435
0.298968
-0.194349
-0.008714
-0.200036
-0.400000
-0.005987
0.300004
-0.002141
0.308094
0.024794
-0.204439
0.500487
0.421789
-0.099014
-0.098358
-0.200006
0.502996
0.399746
0.508566
-0.400016
-0.195239
0.101312
-0.400136
0.500615
0.102416
-0.206703
0.389616
0.090841
0.300264
0.300669
-0.282488
0.290909
-0.000247
-0.001138
0.197978
0.199707
-0.199450
0.400100
0.203207
-0.200000
-0.039357
-0.299306
0.307148
-0.197472
-0.300574
0.121416
0.003089
0.099987
0.299533
-0.099557
-0.207384
0.459264
0.000785
-0.408048
-0.400002
-0.200026
-0.351245
-0.398677
-0.400312
0.021231
-0.397615
0.073583
0.499017
-0.199660
0.200087
-0.402396
0.407264
-0.313514
-0.199711
-0.399366
0.299991
-0.009620
-0.006278
0.400727
0.401085
0.000042
0.499115
0.306053
-0.201123
0.298647
0.097212
0.200000
-0.299872
-0.193362
-0.143020
-0.099999
0.199686
0.299490
0.335065
-0.400000
-0.397472
0.305230
0.298952
-0.300832
0.100000
-0.079922
-0.004861
0.299555
0.298480
-0.000000
-0.212060
0.201183
-0.108109
0.444554
0.399338
0.395348
0.288155
-0.200000
0.009173
0.401037
0.110156
0.393645
-0.298644
-0.200020
-0.177205
-0.392272
-0.302971
-0.199896
0.299998
-0.400100
0.200354
0.299656
0.019170
-0.187543
-0.100506
-0.203812
0.300443
0.199966
0.299171
-0.407894
-0.180740
0.302874
0.205024
-0.200602
-0.200211
-0.100515
0.201314
-0.398287
-0.397735
0.000021
0.103508
0.081433
0.193256
-0.401273
-0.146349
0.100480
0.400067
-0.200413
-0.100000
0.299588
0.194369
0.100077
0.498217
0.512961
-0.434509
0.344638
0.408113
-0.298196
-0.292779
-0.299490
0.014740
0.100010
0.500005
0.195008
-0.163979
0.100000
0.433411
0.000004
0.209578
-0.002467
0.282226
0.495739
-0.297230
0.006063
0.335821
-0.089547
0.191063
0.300726
0.511105
0.080703
-0.300415
0.499329
0.300908
0.498628
-0.300029
0.203389
-0.394452
0.498579
0.499040
-0.201436
-0.398505
0.294975
0.207369
0.298733
0.458113
-0.101658
0.096111
0.463113
-0.193073
0.500454
-0.269671
-0.293067
-0.005416
-0.300650
0.399985
-0.107741
0.100010
0.195231
-0.302937
0.519326
-0.205640
0.200545
0.000890
-0.199014
-0.297837
-0.000071
0.106894
-0.300097
0.210866
-0.000015
0.001295
0.201153
0.399856
-0.003935
0.215496
-0.133209
0.198802
-0.111037
0.009253
-0.099032
0.401618
0.194834
-0.100139
-0.002424
-0.175061
-0.200389
0.199546
-0.301235
0.297804
0.400000
0.345643
-0.199062
0.497167
-0.397425
0.098983
0.220924
-0.397614
0.199980
0.101669
0.500443
-0.207255
-0.439640
0.100747
0.489651
0.099996
0.299957
-0.028447
-0.298410
-0.302018
0.214098
0.103854
-0.172067
-0.201068
-0.399107
-0.199851
0.496721
-0.398242
0.095198
-0.392099
0.100959
0.499998
0.492605
0.190842
0.200788
-0.299281
0.400009
0.295702
-0.096172
-0.202071
0.396118
0.401968
0.100007
-0.001089
0.003784
-0.048713
0.200016
-0.300159
-0.000391
0.365914
-0.400000
-0.096179
-0.386460
0.199313
0.493111
0.199966
0.316209
0.298274
-0.100244
0.101262
0.399992
0.488889
0.502095
-0.107948
0.127661
-0.299540
0.396141
-0.189469
-0.200138
0.418478
-0.197310
0.097988
-0.109470
0.001153
-0.400021
-0.138662
-0.089998
0.093625
0.409088
-0.000001
0.296946
0.399988
0.397666
0.406855
-0.179772
-0.200033
0.489340
0.000623
0.099964
0.499938
0.495834
0.010447
0.202565
0.512414
-0.400635
0.103158
0.199898
-0.305263
-0.098866
0.402801
0.201116
-0.301150
-0.323922
-0.308429
-0.002327
0.219890
0.200532
-0.299859
-0.300457
-0.099995
0.090502
-0.218540
0.499753
-0.000381
-0.387068
-0.060146
0.546156
-0.396896
0.001779
-0.412669
0.300574
0.216218
0.099998
-0.399997
0.106133
-0.189949
0.300003
-0.283350
-0.299978
-0.102422
-0.112760
-0.392807
0.393138
0.002826
0.305264
0.438411
0.208571
0.189481
0.100733
0.513350
-0.023759
0.096500
-0.402448
0.300232
0.208808
0.400003
0.501758
-0.192053
0.473543
0.099937
0.298290
-0.398525
-0.404300
0.020048
0.399050
0.264159
-0.102648
-0.202939
0.283340
0.048896
0.011976
0.337890
0.105514
-0.304974
0.299437
-0.200016
0.290747
0.300168
-0.410396
-0.311847
-0.357663
0.285149
0.500523
0.001813
0.501007
0.212668
-0.200069
0.106798
0.099860
-0.270430
0.199993
0.192574
-0.400044
-0.299914
0.096370
-0.168720
0.163874
-0.302178
-0.311337
0.407701
0.296401
0.400450
0.302016
-0.003647
0.373248
0.428839
0.299617
0.299904
-0.399289
-0.404176
0.300000
0.252320
-0.199187
0.202616
-0.397264
-0.199178
-0.290408
0.105988
-0.000039
0.003390
0.200815
0.094966
0.454377
-0.298638
-0.215200
0.499991
-0.000109
0.170644
0.003947
0.202748
0.314623
-0.295798
0.228673
-0.100832
-0.099322
0.300944
-0.202468
-0.098908
-0.002679
0.214273
-0.399048
-0.000002
-0.204504
0.277645
-0.099421
0.201791
-0.300041
-0.203604
-0.100166
-0.302363
-0.104545
-0.098627
0.100006
0.495191
-0.406410
-0.135673
-0.099984
0.400252
0.099922
0.556578
0.300000
-0.188483
0.210185
-0.399435
0.091700
-0.400034
-0.081602
0.294390
0.502959
0.301026
0.099914
0.472445
-0.281445
0.382017
0.031691
0.008031
-0.403966
0.120586
0.199859
0.517843
-0.298042
0.313907
0.285247
0.296774
0.099980
0.568485
0.515258
0.191852
0.214373
0.399999
0.195535
0.199989
0.095992
0.518931
-0.382942
-0.000304
-0.216114
0.099711
0.499963
0.100054
0.190476
0.507215
0.102496
0.417705
0.099430
-0.401310
0.101721
-0.207943
-0.391927
-0.196982
-0.198897
0.401410
-0.032760
0.293398
0.199921
0.526575
-0.300282
-0.099937
0.399491
0.500005
0.198703
-0.329700
0.299830
0.199610
0.321539
0.433564
-0.044383
-0.106804
-0.298304
0.085354
-0.299190
0.508386
0.399999
0.499999
0.410434
0.306944
0.200001
-0.188888
0.300000
-0.101277
0.525457
-0.100279
-0.408923
0.002773
0.142365
0.342134
0.199700
-0.424529
-0.000810
-0.091414
0.177315
-0.403736
-0.306217
0.100894
-0.186103
0.401010
0.505842
0.107947
-0.431433
-0.200487
0.393468
-0.098719
-0.399471
-0.181271
0.399001
-0.139511
-0.409644
0.100686
-0.321302
0.476493
-0.392166
0.404489
0.305949
0.493473
0.200049
0.200000
0.386196
-0.399260
0.280757
0.124893
0.039548
0.081145
-0.194153
0.404104
0.200800
-0.381551
0.300002
0.111396
0.397260
0.155064
-0.100010
-0.408737
0.300124
0.300022
0.198922
-0.172231
-0.109096
0.492507
0.182344
0.499410
0.093590
-0.412602
0.115081
0.189035
-0.115153
0.135852
0.399715
-0.300343
0.001966
-0.290567
0.200000
0.349320
-0.098302
-0.316378
0.102847
0.482426
-0.300089
0.405385
-0.000022
-0.390305
-0.299178
-0.300451
0.137943
-0.220515
-0.308804
-0.000008
-0.300096
-0.044046
-0.295073
0.103499
0.387014
0.002596
-0.337607
0.301750
-0.298168
-0.403224
-0.199725
0.503176
-0.005522
0.310288
0.400145
0.400000
-0.004128
-0.122736
-0.000806
-0.292645
0.198919
0.300120
0.496822
0.298658
-0.303842
-0.300957
0.399999
0.500162
-0.334515
-0.290927
0.500000
0.198188
-0.099929
0.243531
0.000037
0.315393
-0.180841
0.100124
0.382319
0.499999
0.432319
0.091360
0.503394
0.002257
0.299917
0.335045
0.239061
-0.208069
-0.275685
0.244616
0.193021
-0.348919
-0.200004
-0.282598
-0.097125
0.007839
0.085559
-0.316390
0.399996
0.372728
-0.090245
0.183866
0.409058
-0.400000
-0.107644
0.500002
-0.074998
0.130841
-0.366763
-0.300526
-0.114238
-0.100653
-0.000131
-0.199880
0.457663
-0.090903
0.095855
0.530616
-0.305144
0.497079
-0.290003
-0.009096
0.405357
-0.197041
-0.400020
0.101705
0.372285
0.300313
0.102331
-0.296326
0.198312
0.099965
0.499465
-0.399999
-0.397243
0.134226
0.399789
-0.400298
0.327810
0.364777
0.325266
0.290374
0.501755
-0.098833
-0.088702
-0.361481
0.000002
0.199997
-0.183860
0.096578
0.500002
0.508109
0.000005
0.010668
0.018090
0.424714
-0.111494
-0.199900
0.441248
0.448744
0.199607
0.376655
-0.400223
0.517671
0.101040
-0.206135
0.297542
0.200274
-0.389184
-0.098387
-0.196504
-0.395261
-0.014159
-0.199368
-0.304422
-0.197829
0.395534
-0.183173
0.202264
-0.234232
0.499576
-0.395247
0.183359
-0.103651
-0.101908
0.407595
0.007788
0.093603
-0.000120
0.299998
0.487503
-0.099189
-0.003113
0.504801
-0.065649
-0.291374
-0.294188
0.207483
0.099767
0.215514
0.100003
0.407700
0.299719
-0.059475
-0.099988
0.298661
0.100768
-0.199828
-0.300911
0.227238
0.392150
-0.306492
-0.306685
0.099723
0.397657
0.189094
-0.366060
-0.210391
-0.007655
-0.390230
-0.099997
-0.001325
-0.293796
-0.187645
-0.099999
0.163579
-0.406361
0.392131
0.499796
0.479080
0.001216
0.404339
-0.300025
0.408307
-0.101978
0.097682
-0.465911
-0.321725
0.293013
0.199972
0.399965
-0.335302
0.305690
-0.399266
-0.187850
0.202325
-0.242531
0.302493
-0.297451
-0.304653
0.005920
-0.194491
0.194372
0.504416
0.401025
0.100000
-0.004763
0.503479
-0.299843
0.406542
0.397518
-0.099977
-0.403728
-0.201377
0.500057
0.298861
0.200001
0.001216
-0.107827
0.406419
0.400000
-0.214969
-0.399939
0.040773
-0.299964
-0.383025
0.411102
0.300935
0.378668
0.499999
-0.166025
-0.212368
-0.197625
-0.100277
-0.400081
0.435565
-0.374347
0.395602
0.415098
0.536620
0.493524
-0.367822
0.499758
0.208950
0.202126
0.208816
0.085164
0.374346
-0.100015
0.330649
0.309760
0.487073
-0.288893
0.300000
-0.309560
0.200003
0.523614
0.536476
0.439291
0.309096
-0.213431
0.197810
0.287583
0.500105
-0.145700
0.309635
-0.304606
-0.278876
0.194993
-0.402145
-0.393142
-0.201398
0.203060
0.294062
-0.000004
-0.101590
0.271604
-0.297783
-0.100866
0.424332
0.504561
0.299979
-0.100072
0.300001
0.501236
0.207158
-0.200587
0.199712
0.225721
-0.123249
-0.163150
-0.208492
0.500146
-0.297633
-0.289532
0.148108
-0.399999
-0.000002
0.115700
0.298024
0.100008
0.320404
0.100014
0.410701
-0.081902
0.108837
0.478315
-0.099918
0.416692
0.578619
0.197605
-0.013081
0.399815
0.446607
0.489361
0.289051
-0.200384
0.099506
0.116331
0.501943
0.408875
0.404075
-0.399935
-0.300222
0.193240
-0.190013
0.490951
0.406754
-0.398708
-0.175023
-0.300536
-0.005384
0.101333
-0.217213
-0.405073
0.000635
0.505958
-0.394156
0.406279
0.199894
-0.310484
0.202032
0.310111
-0.305984
-0.278937
0.509899
0.304891
0.204783
0.399763
0.503630
-0.199998
0.213873
0.391607
0.448741
-0.399973
-0.078917
0.200591
0.499800
-0.001497
0.545359
-0.327075
0.193576
-0.206753
-0.096425
0.498129
0.023395
0.033603
-0.208200
-0.252155
0.399928
0.299991
0.497432
-0.296086
0.203032
0.000001
-0.352503
0.195632
-0.000316
0.299741
0.276338
0.304391
-0.096352
0.199980
0.507507
0.497915
-0.105828
-0.155987
0.284692
-0.332358
-0.400101
-0.200383
0.149378
0.205244
0.295086
-0.183616
-0.396742
-0.106309
0.402063
0.006168
0.096686
-0.407860
0.313099
0.295498
0.202416
0.410367
0.499999
-0.318399
-0.395025
0.200289
0.506579
-0.302394
0.504130
-0.095416
-0.099214
0.202479
-0.099572
-0.299968
0.115258
0.224887
0.239832
0.100073
0.486692
-0.098076
0.285758
0.500033
-0.394158
0.506122
-0.301815
-0.024096
0.499994
-0.078043
-0.011739
0.400346
-0.199946
0.299980
0.265531
-0.364003
0.284874
0.207957
0.421007
-0.205713
-0.167653
-0.400376
0.412642
-0.188411
-0.103797
-0.230218
0.087279
0.299985
-0.061606
0.521826
-0.310906
0.108915
-0.200021
-0.015389
0.399999
-0.277941
-0.270962
0.154085
-0.090653
-0.419650
0.300043
-0.112467
-0.299927
0.363518
0.506912
-0.104824
-0.281200
0.494349
0.002880
0.001724
0.382759
0.398696
0.094447
0.500020
0.295045
-0.123873
-0.397287
0.109190
-0.307652
0.201832
-0.100096
0.399954
0.100002
-0.215482
0.378785
-0.100665
0.499746
0.107131
-0.451245
0.219708
-0.307727
0.100053
0.397709
0.404728
-0.055411
-0.200038
-0.199999
0.113656
0.401744
-0.199992
-0.374453
0.399870
-0.074890
0.075571
0.219650
-0.394821
0.000214
-0.329116
-0.249910
0.397066
0.298557
0.001313
-0.261362
-0.102926
-0.206895
-0.098277
-0.302792
0.408970
-0.199112
0.298719
0.299941
0.100615
0.500098
0.500940
0.010308
-0.403798
0.003961
0.001649
0.082222
0.408689
-0.411804
-0.227282
0.442155
0.101994
-0.191081
0.499197
-0.194899
-0.293546
0.499690
0.102745
0.401235
0.220882
-0.327240
-0.291399
-0.072291
-0.299272
0.502138
0.399916
0.403120
0.200000
0.115902
-0.403470
0.025999
0.299882
0.135223
-0.299260
0.399793
-0.399508
-0.265747
0.476050
0.383169
-0.175228
-0.397005
-0.200179
0.039005
-0.386010
-0.203775
0.428071
0.412863
-0.300023
0.098101
0.101502
0.000392
-0.300000
0.140963
0.395519
0.502874
0.400597
-0.397438
0.203067
0.202243
-0.100026
-0.104496
-0.198125
-0.208648
-0.207149
0.201754
0.175014
-0.200141
-0.400719
-0.436702
0.201809
0.497047
0.125297
0.302411
-0.461021
0.507027
-0.093618
0.400279
0.185326
-0.192099
0.396001
0.098868
0.411528
0.299996
-0.193687
0.420503
0.005229
-0.101268
-0.001381
-0.295952
0.403434
0.201195
-0.397951
0.204003
0.000028
0.138529
0.439716
0.457768
0.200073
-0.007331
-0.198624
-0.367487
0.300000
0.396019
-0.408084
0.301031
-0.409840
-0.200007
0.205520
0.097084
-0.300026
-0.403757
-0.200026
-0.236562
0.116182
0.280988
0.289256
0.484795
-0.398202
-0.295745
-0.196893
-0.288880
0.409692
0.300051
0.088057
0.513114
0.299999
0.522669
0.215650
0.009811
0.002255
0.199976
0.489504
-0.400022
0.197698
0.324051
0.145096
0.511828
0.397127
-0.093267
0.092313
0.399933
-0.190658
0.499996
0.205910
-0.303141
-0.000411
-0.197524
0.191842
-0.411770
-0.200579
-0.004562
-0.299999
0.287259
-0.012006
0.204575
-0.393710
0.287207
-0.295831
-0.199623
0.200295
0.500001
-0.014116
-0.482118
-0.400403
0.499958
0.092551
0.265874
0.506043
-0.183293
-0.303280
0.396958
0.202068
0.482762
-0.300047
-0.299998
-0.393222
0.203194
-0.299932
0.450865
0.199609
0.413023
0.077538
0.213978
0.105218
-0.318459
0.260600
0.025914
-0.398641
0.203583
-0.322711
-0.357507
-0.233245
-0.406040
-0.401329
-0.194622
0.094846
0.398955
-0.079773
0.197932
-0.027456
0.094625
0.390002
-0.183223
-0.192123
-0.097881
-0.396255
-0.174574
-0.097082
0.162404
0.576292
0.353190
0.134639
-0.189333
0.196771
-0.195088
-0.393666
-0.100212
0.007360
0.295604
0.498021
-0.405617
-0.191922
0.523098
0.304579
0.198927
0.255974
0.204903
0.200002
-0.298750
0.393430
0.465788
0.201469
0.493330
0.099367
0.001530
0.199906
-0.170866
-0.302611
-0.405932
0.540442
0.403750
0.298794
-0.374255
-0.288799
-0.295495
0.417647
0.209612
-0.099894
-0.201403
0.094371
0.492838
-0.300001
-0.343884
0.393295
-0.296274
-0.366119
-0.363600
0.301675
-0.099399
-0.200081
0.293678
0.177135
-0.311291
-0.196921
0.488511
0.506013
-0.199287
0.497818
-0.081887
0.200275
0.198456
0.101521
-0.205220
0.000152
-0.050114
-0.410525
0.407417
-0.118768
-0.092997
0.187471
-0.000001
-0.294694
-0.300026
0.125160
-0.290129
-0.199539
0.302034
-0.009583
0.094369
0.021816
-0.111774
-0.286839
-0.098126
0.000146
0.127255
0.224737
0.257189
0.000019
0.326109
0.099757
-0.198478
-0.400040
0.394776
0.106836
-0.195955
-0.210219
-0.100001
-0.104065
-0.194101
0.393679
0.217372
0.299953
-0.325339
-0.274058
-0.125411
0.510098
0.289408
0.102578
0.228797
0.503215
0.508527
0.202504
0.211360
-0.057164
-0.172515
0.100000
0.228617
-0.191220
-0.287135
-0.303935
-0.300094
-0.192566
0.300002
0.002606
-0.091477
0.436110
0.006280
0.096172
0.097740
-0.309290
0.199884
-0.093228
-0.398910
0.404873
0.316620
-0.396581
0.401325
-0.113970
0.089259
-0.300178
0.275645
0.399983
-0.091587
-0.226670
0.405480
0.374079
-0.130327
-0.291233
-0.199597
0.100767
-0.099997
0.299016
-0.427852
0.502130
0.200438
-0.103579
0.235337
0.518680
0.194415
-0.420447
-0.295195
-0.003295
-0.222807
0.400006
0.300010
0.005151
0.201651
0.400047
0.137199
0.199728
0.316948
0.173087
0.514856
0.368611
0.417159
-0.158811
-0.044759
0.307325
-0.097456
0.377918
-0.366949
-0.436019
0.184229
-0.202161
-0.199615
0.498834
0.191176
0.122982
0.497611
-0.341330
-0.271711
-0.014147
-0.294639
0.190535
0.502808
0.004475
0.214520
-0.400753
0.155690
-0.053307
0.236017
0.131185
0.002827
0.497591
-0.300308
0.489326
-0.300017
-0.200316
0.495620
-0.107032
-0.314074
0.117031
-0.268061
0.296361
0.100108
-0.136789
0.504795
0.099586
-0.304328
-0.198759
0.056890
-0.398684
0.008096
0.399427
0.500202
0.000379
-0.274390
-0.004077
0.311299
0.256601
0.003201
0.204002
-0.287368
-0.194536
-0.288437
0.411858
-0.399143
-0.099891
0.497718
0.492329
0.005354
0.399987
-0.327999
0.391676
0.305438
-0.046828
-0.236443
-0.098460
0.300670
0.499932
-0.325210
0.472773
-0.412439
-0.353625
0.193534
0.208288
0.300007
-0.203293
-0.174963
-0.007583
0.399841
-0.310720
0.292817
-0.075774
0.330721
0.488637
-0.298880
0.278851
-0.297586
0.288549
-0.102704
0.402195
-0.400279
0.219296
0.522136
0.111262
-0.093319
0.490470
-0.307186
0.428486
0.090799
-0.281559
0.197405
0.100142
-0.370991
0.218476
-0.061801
-0.299988
0.014547
0.401691
0.546825
-0.100146
0.098043
-0.393194
0.101528
-0.208288
-0.400022
0.390132
-0.303337
-0.147763
0.517997
-0.100039
-0.358273
0.411733
0.462481
0.513735
0.378627
-0.001594
0.013212
0.399804
-0.183183
-0.210971
0.302522
0.503677
-0.046847
-0.100003
0.234929
-0.209078
-0.200212
-0.200802
-0.400128
-0.095253
0.099025
-0.407902
0.385360
-0.075210
0.296399
0.185265
-0.127394
0.103834
0.099978
-0.414079
0.108952
0.102413
0.326408
0.399987
-0.001066
-0.197398
-0.402359
-0.000649
0.294230
0.000002
0.506153
0.062914
0.207156
0.282990
-0.245067
0.107128
0.199929
-0.104648
0.400000
0.505336
-0.123011
0.100129
-0.199605
0.405419
0.240743
0.133338
0.130049
-0.116897
-0.383512
0.150928
-0.384819
0.499973
0.200000
0.219428
-0.100771
0.200024
-0.065716
-0.300318
0.306385
-0.022445
0.116301
0.158562
0.532690
-0.348187
-0.040522
0.305732
0.499179
0.278235
-0.071145
0.358995
-0.220163
-0.202164
0.102424
-0.001605
0.390995
0.126300
0.198310
0.155306
0.532761
-0.214550
-0.195292
0.488769
0.003048
-0.195716
0.399318
-0.102004
-0.451777
-0.251005
-0.132584
-0.168855
-0.300309
0.199222
-0.298733
0.387927
0.299996
0.395173
-0.004304
0.088631
0.385348
0.329487
-0.253645
-0.202353
0.505044
-0.036586
-0.195262
0.499573
0.388572
-0.299425
0.470607
-0.298600
0.199969
-0.100636
0.498787
0.500387
0.331442
-0.404036
0.107477
-0.159743
0.102625
0.203940
-0.095661
0.209221
0.314436
-0.509010
0.099747
-0.199901
0.198450
-0.001264
0.507845
-0.000017
-0.109978
-0.108263
0.404511
0.449543
-0.240982
-0.003669
0.001092
0.399933
0.374780
-0.128138
-0.413950
0.123015
-0.107131
0.200576
0.299843
-0.304106
0.422553
-0.108803
0.499821
-0.004384
-0.108378
-0.188446
0.229040
-0.208650
-0.395766
-0.213953
-0.191748
0.188658
0.397279
0.302584
-0.200377
0.300912
-0.076929
0.308280
0.407164
0.392865
0.298648
0.129736
0.089288
0.521346
0.297227
0.000153
0.410070
0.433447
0.439010
-0.399971
-0.086726
0.001680
0.266709
-0.000144
-0.199586
-0.388665
0.301273
-0.110476
0.099975
-0.393185
-0.006976
0.563195
0.017251
0.099950
-0.346725
0.318096
0.061873
0.418882
-0.244660
0.098086
-0.389871
0.199698
-0.283389
-0.210146
-0.298694
-0.311158
0.054596
-0.000004
0.343045
-0.399258
0.499103
0.399404
0.099844
0.405684
-0.001220
0.191544
-0.205568
-0.275685
0.394383
-0.117298
-0.226633
0.003643
0.300050
-0.120029
0.506720
0.195705
0.326843
-0.000823
0.097799
0.508259
0.093916
-0.297507
-0.102363
0.500007
0.023179
0.260660
-0.193863
-0.314215
0.521624
0.006708
-0.000070
-0.405519
0.500004
0.504657
-0.221413
0.197243
0.100333
-0.091544
0.435580
-0.050898
-0.166321
-0.120590
0.427514
0.465303
0.422671
-0.000303
-0.099998
-0.297142
0.393807
-0.000036
-0.192638
-0.300023
0.501060
0.089392
0.405977
-0.134578
0.450055
-0.011732
-0.358975
0.101011
-0.405330
0.308541
-0.172051
-0.220382
0.195883
0.298771
-0.405842
-0.001549
-0.107031
0.309055
-0.001808
-0.135642
0.436582
0.495188
0.294050
0.287810
-0.097970
-0.102942
-0.401582
0.395337
0.377199
-0.029703
-0.263880
0.420175
0.498926
0.399333
0.497077
0.291338
-0.400084
0.385734
0.000047
-0.306750
-0.306456
0.113464
-0.263024
-0.208534
-0.292945
0.004384
0.199888
-0.200441
-0.203445
0.101540
0.507172
0.299854
0.207933
-0.000040
-0.102828
0.400264
0.114257
-0.306278
-0.401315
0.517748
0.294103
0.398962
-0.002803
-0.205028
-0.191102
-0.164842
0.381750
-0.300025
0.097992
-0.402140
0.006660
0.399985
0.253952
0.496546
-0.299647
-0.383570
0.526074
-0.401202
-0.399149
-0.300011
0.074872
0.098120
-0.217757
0.504947
0.115818
-0.008244
0.199007
-0.402288
-0.110082
-0.008251
0.099869
-0.179623
0.200515
-0.218618
0.388994
-0.196725
0.297624
-0.112327
-0.094437
0.288090
0.302294
-0.195565
-0.400359
0.188538
0.110120
0.209335
0.102392
0.502625
-0.108305
-0.293862
0.391800
0.310257
-0.400654
-0.099982
0.303170
-0.063178
-0.241704
0.099993
-0.399455
-0.198128
0.269287
-0.000117
-0.197530
0.201928
0.099951
0.194240
-0.300027
-0.383786
-0.114950
0.269603
0.400994
-0.000008
0.168833
0.114130
0.187635
0.531730
0.052405
-0.408239
0.085000
-0.200374
0.012408
0.093949
0.189522
-0.227840
0.040310
0.299996
0.036870
0.390983
-0.105963
-0.097134
-0.100082
-0.100365
-0.101201
-0.412002
-0.401078
-0.384000
0.090866
0.191350
0.083674
0.216010
-0.300006
-0.105330
-0.294813
-0.095937
0.312536
0.395342
0.196666
0.118031
-0.199417
-0.199499
0.220886
-0.300006
0.111091
0.173167
-0.397845
-0.396194
0.484527
0.000486
0.499973
0.094180
-0.000003
0.093504
0.437320
0.494913
0.499788
-0.270859
-0.123037
-0.153604
0.448886
-0.204235
0.111800
0.082134
-0.289479
-0.000312
-0.000011
-0.293118
-0.205303
0.100020
0.511188
0.100009
0.519529
0.482654
-0.394951
-0.024073
0.291300
-0.393151
0.520690
-0.198625
0.296712
-0.006029
-0.161392
-0.203815
-0.105847
0.295091
0.397396
-0.397419
0.100470
-0.385779
-0.002140
-0.434988
0.499994
0.302771
-0.299575
-0.301535
0.200047
-0.103679
0.292591
-0.303397
-0.411928
0.552871
-0.373413
-0.277698
0.401190
0.499776
-0.399428
0.289501
-0.000071
0.489843
0.200079
0.092683
-0.201767
-0.168083
0.301852
0.497646
-0.297570
0.394513
-0.399196
-0.200016
-0.099515
0.395261
0.507135
-0.299923
-0.105369
0.400000
0.399908
0.499999
0.509891
0.194282
0.201135
0.396988
-0.202792
-0.304286
0.498716
-0.305616
-0.297848
-0.240665
-0.210700
0.499998
-0.301404
0.001717
-0.301882
0.100000
0.143832
0.096446
0.199844
-0.200334
0.200279
0.301384
-0.196488
-0.200010
-0.399715
0.298933
0.187541
-0.128960
-0.087933
0.291228
0.299981
-0.100542
-0.113540
-0.199320
-0.005215
-0.034750
0.502232
-0.153037
-0.104929
0.102248
0.199991
-0.309044
0.004115
0.187698
0.203186
0.400166
0.499993
0.393024
0.296037
-0.001593
0.000669
0.000314
0.292577
0.502312
-0.201128
0.300805
-0.099158
-0.300005
-0.101479
0.018713
0.293027
-0.300001
-0.190441
0.301340
-0.017300
-0.300015
-0.296300
-0.098297
0.000164
0.292363
0.400000
-0.291911
-0.003084
-0.299618
0.001775
0.399990
-0.020242
0.212063
0.397872
-0.148380
-0.206476
0.492672
-0.297222
0.299684
-0.399896
-0.391447
-0.410249
-0.014395
-0.101120
-0.100001
-0.078719
0.497269
-0.406175
0.306536
-0.200004
0.398298
0.399905
0.300259
-0.293220
0.322040
-0.204732
0.398617
-0.041987
-0.401616
-0.299995
0.288931
0.102943
0.417928
-0.091164
-0.002982
-0.201408
0.000551
0.000044
0.199817
0.098656
0.100001
0.008535
-0.021457
0.194687
-0.401553
-0.053590
0.003612
0.199998
0.198841
-0.000000
0.092498
0.117096
0.199845
0.499939
-0.274165
-0.018829
-0.239883
0.196810
0.498350
-0.300785
0.297141
0.406694
-0.300024
0.500000
0.112229
-0.298838
-0.200000
0.114608
-0.299998
0.227618
0.092664
0.001317
-0.315320
-0.310332
-0.157866
0.014309
-0.396009
0.399868
-0.107064
-0.070812
-0.201882
0.096951
0.396352
-0.099960
0.405135
0.202715
-0.192659
-0.200175
-0.147033
-0.202574
0.502411
-0.299900
0.101113
-0.400009
-0.303876
-0.306475
-0.302883
0.488667
-0.299548
0.319831
0.121400
-0.083895
-0.199956
0.002424
0.190029
-0.400068
0.285351
-0.399872
0.294598
0.099408
-0.158171
-0.199132
0.499251
0.203464
-0.106431
0.401129
-0.400002
-0.394486
-0.402617
0.305615
-0.299924
0.496133
0.300000
0.400010
0.400002
0.303720
-0.116421
0.000439
0.193417
0.300189
-0.003894
0.496138
-0.200826
0.203191
0.474746
-0.310037
-0.200001
-0.001310
-0.204408
0.187131
-0.400000
-0.365391
0.098318
0.196221
0.100349
-0.000237
0.001272
-0.095419
-0.200010
-0.299536
0.002759
-0.310218
-0.231365
-0.298483
0.496286
0.299986
0.199962
0.080349
-0.398731
0.195167
-0.047509
0.402769
-0.042230
0.503386
0.401373
0.373962
0.000488
0.103941
-0.302099
0.303435
0.101296
0.099997
-0.252473
-0.012292
-0.401997
0.100005
0.099650
0.193796
-0.421239
-0.303228
-0.099978
-0.098982
-0.400000
-0.100499
-0.405720
-0.290656
0.299998
0.408704
0.000380
-0.329692
-0.100015
-0.096295
0.401503
-0.399791
0.089913
-0.000001
0.504726
0.499423
-0.299707
0.300998
-0.000002
-0.164873
0.503206
0.302806
0.529708
-0.262460
0.292535
0.504553
0.099740
-0.301562
0.007772
0.198287
0.290192
0.097820
-0.100001
0.026695
-0.102000
-0.305829
-0.382268
0.400000
-0.404135
-0.200042
0.499901
0.508084
0.120986
-0.408918
0.498808
0.256163
0.399751
0.500000
0.141189
-0.299426
-0.279205
0.114912
0.497165
-0.396117
-0.098312
-0.199691
-0.200755
-0.206757
0.300002
0.007001
-0.225659
-0.007020
-0.201745
0.033518
-0.397514
0.200000
-0.001091
0.300000
0.087636
0.370874
-0.200385
0.000008
-0.099457
-0.222267
-0.336320
-0.319882
0.198082
0.199696
-0.402047
0.303588
0.000039
-0.200000
0.046790
0.505313
0.300000
-0.177826
-0.299999
0.522792
-0.100719
-0.216578
0.177596
0.387303
0.046627
0.109664
-0.095760
0.399745
-0.319322
0.231104
0.000400
-0.301331
0.199784
0.000556
-0.093458
0.302573
0.307688
0.403066
-0.054699
-0.407715
0.003352
-0.399877
0.109362
0.299925
-0.003612
0.193536
-0.302909
-0.011718
0.299635
0.318522
-0.085757
-0.089896
0.000658
-0.389276
0.496988
-0.300055
-0.314921
0.100109
0.397963
0.299849
0.539112
0.201154
-0.296545
-0.389611
-0.408106
0.401467
-0.100001
0.402917
0.296648
-0.081149
0.000021
-0.235215
0.100001
-0.399942
-0.299997
0.402845
-0.328736
-0.407801
0.090925
0.103329
0.193757
-0.321557
0.110128
0.098441
-0.121332
-0.414246
-0.000002
-0.401951
0.012661
0.391153
-0.300001
0.431516
0.295521
-0.204155
0.290369
-0.202937
-0.199233
0.105556
0.099999
-0.299328
0.102756
0.399231
-0.216105
-0.202562
-0.307129
0.099999
0.499914
0.052991
0.500395
0.094675
0.047323
-0.296875
0.049841
0.002341
0.400043
-0.323510
-0.283570
-0.294239
0.499014
-0.093757
-0.199389
0.399997
-0.352810
0.268132
-0.001452
0.399360
-0.300450
-0.404358
-0.250882
0.397717
0.099949
-0.097148
0.500000
-0.296963
-0.404089
-0.020722
-0.400002
-0.006084
-0.099850
-0.338850
-0.400007
0.116355
0.201974
-0.099808
-0.102805
0.400000
0.418754
-0.200489
0.098692
0.100059
0.199999
0.048272
-0.095520
0.306268
0.427145
-0.057606
0.393587
0.353017
0.499982
0.297398
-0.092847
-0.100492
0.446190
-0.288282
-0.000001
0.440198
0.019573
0.277118
-0.384871
0.500000
-0.107200
-0.100025
0.099903
0.505334
0.119429
-0.410137
0.199363
-0.341242
0.096302
0.400000
-0.067418
0.103665
0.320523
0.318391
-0.101975
-0.081730
-0.300430
-0.405301
0.499134
-0.113734
-0.099997
-0.387005
0.480909
-0.106478
0.398509
0.235868
-0.096211
0.500002
-0.101059
-0.300000
-0.411675
0.269034
-0.003273
-0.099941
0.101589
0.264608
-0.048119
-0.024373
0.398996
-0.204617
-0.187008
-0.395080
0.000194
-0.100000
-0.038241
-0.194589
0.400000
0.112653
-0.399992
-0.377172
-0.386057
0.083380
-0.311866
0.188366
-0.255546
-0.404613
-0.195957
-0.300257
0.085385
0.023418
-0.299676
-0.104749
-0.103670
-0.199469
0.205720
0.002134
0.403419
0.203045
-0.344269
0.393248
0.099168
0.300123
0.408854
-0.399940
-0.103603
-0.003529
0.497231
0.400007
-0.101363
-0.084105
0.114409
-0.289259
0.400370
0.109752
-0.003058
-0.000003
0.385389
0.000071
-0.303010
-0.200152
0.429176
0.302211
-0.394678
-0.290551
-0.207657
-0.198894
0.000011
0.302680
0.100103
-0.176610
-0.399986
0.164936
-0.199999
-0.399947
-0.299997
-0.298939
-0.427629
-0.206954
0.096795
0.403597
0.395018
0.277117
0.319755
0.298672
-0.315610
-0.012266
-0.100001
-0.301849
0.412206
0.091216
-0.200001
0.407272
0.393914
-0.204105
-0.310026
0.197144
0.299287
0.502404
-0.200000
0.300409
-0.300054
0.400251
0.085750
0.395175
0.494630
0.099999
-0.100058
0.159978
-0.399672
0.394799
-0.067676
0.300301
-0.339216
0.300639
0.400103
0.276929
0.021551
0.202772
-0.200311
0.406061
-0.400018
0.300000
0.147532
-0.330853
0.198474
-0.200642
0.299845
-0.100070
-0.052784
-0.303544
-0.400070
-0.199563
-0.200000
0.300706
-0.005850
-0.027819
-0.400001
-0.406707
-0.000004
-0.048906
0.200000
-0.383577
-0.097367
0.300320
0.200279
0.500000
0.120174
-0.000403
-0.001473
0.300824
0.100000
0.028226
-0.297971
-0.193884
0.327326
-0.057596
0.293586
0.552187
0.199989
-0.201330
0.407081
-0.200316
-0.352246
0.411663
-0.100000
0.431962
-0.078088
0.177104
-0.085095
-0.300000
0.193908
0.000007
0.399903
0.500045
0.401120
0.090006
0.399581
0.361371
0.196264
-0.299999
0.033035
0.203762
-0.385508
-0.282632
-0.101529
0.215550
0.297985
0.494718
-0.299293
0.182453
-0.399998
0.515113
0.183542
-0.406451
0.499505
-0.291208
0.304536
0.000002
-0.300992
0.100000
-0.109619
-0.410676
0.396947
-0.399923
0.000928
0.271026
0.344381
0.177236
-0.099903
-0.105037
0.516133
0.202378
-0.399807
-0.400000
0.063597
0.001508
0.200000
0.508200
-0.400001
-0.007142
0.507059
-0.016060
-0.212175
0.296236
-0.288966
0.199484
-0.200630
0.099749
0.196717
-0.288540
-0.200157
0.200418
0.397420
0.200555
-0.099320
0.100458
0.204282
0.303535
-0.434085
0.094834
0.499778
-0.399916
-0.091356
0.400097
0.399982
-0.312295
-0.001788
-0.200268
0.217223
0.014805
0.402262
-0.105453
0.000685
0.304696
0.197725
-0.000001
0.094284
-0.199993
-0.102769
0.498338
-0.095644
0.004205
0.002805
-0.391209
0.194441
0.107908
-0.099998
-0.399741
0.399263
-0.165740
0.100033
-0.127654
-0.199995
0.000046
-0.400003
-0.397080
-0.114395
0.193020
-0.202880
0.002410
-0.404998
0.280839
-0.189161
-0.308320
-0.406993
0.081297
0.400000
0.497406
-0.188937
-0.302459
0.399999
-0.183318
0.294270
-0.300227
-0.209946
0.097172
-0.100502
0.501119
0.399999
0.000423
0.199962
-0.298811
0.194680
0.393956
-0.308408
-0.100005
-0.000076
0.259495
0.102620
-0.099417
-0.406377
-0.097266
0.380516
-0.100109
0.100054
-0.397094
0.013156
0.002501
-0.200882
-0.095369
0.396681
0.400000
0.497857
-0.027391
0.198397
-0.100521
-0.100093
0.000116
0.368759
-0.202044
0.299899
0.400156
0.200000
-0.299752
0.506735
0.506594
-0.099999
0.293127
-0.101642
0.219041
0.500000
0.018316
0.402710
0.000269
0.393459
0.499999
0.519635
0.192348
0.098527
0.001232
-0.100000
0.122420
0.305173
-0.300901
-0.285836
0.206919
-0.204818
-0.150681
-0.300022
0.298276
-0.199989
0.000127
0.144853
-0.286223
-0.200000
0.040510
0.121714
0.381433
0.103196
0.200000
-0.203698
0.300005
-0.002194
0.106108
0.001748
0.197275
0.499770
0.500027
-0.403600
0.399842
0.283279
0.403635
0.203390
0.212463
0.099221
0.214337
0.298629
-0.005705
0.199979
0.290225
0.500000
0.211224
0.094997
-0.099986
0.298822
-0.394134
0.199660
-0.300000
-0.300006
0.200000
-0.304308
-0.011326
0.396724
-0.100018
0.302080
0.172435
-0.288952
0.289468
-0.300002
0.295827
0.016443
0.208136
-0.299843
0.000000
0.526910
0.500399
0.400000
0.500081
0.499999
-0.006005
0.099915
0.201591
0.196519
0.199956
-0.399359
0.303487
0.098963
-0.000088
-0.300134
0.216043
0.299226
-0.099985
0.297462
0.300030
0.100048
-0.399737
-0.296058
0.500012
0.378824
0.199992
0.100091
-0.199981
-0.396777
0.100026
0.099904
0.390022
-0.399814
0.099741
0.217450
-0.393900
-0.097739
0.199244
0.200130
0.398055
0.097743
-0.200001
0.196840
-0.400001
-0.199846
-0.201751
0.001671
0.104269
0.499963
0.208047
-0.000116
-0.292648
0.500000
0.101021
-0.400853
-0.383021
-0.299966
-0.093201
0.400005
0.499998
0.499996
-0.197744
-0.000580
0.200060
0.499994
0.399975
0.494307
0.400551
0.399338
-0.105841
-0.409154
0.483186
0.400000
0.199259
-0.089426
0.499941
0.499998
0.005561
0.199951
0.200070
0.199987
0.399997
-0.099607
-0.298873
0.099999
0.400243
-0.200039
0.498187
-0.203664
0.202247
0.192906
-0.400006
0.299924
-0.018756
-0.097032
0.000596
-0.092525
0.302375
-0.026084
0.299839
0.300015
-0.097099
0.492895
0.402367
-0.400870
-0.398601
0.196682
-0.000000
-0.401884
0.500021
0.299574
0.100124
-0.000002
0.200113
0.400137
-0.102042
0.299977
-0.000130
-0.400000
0.300766
-0.392468
-0.192797
-0.200000
-0.399917
0.198358
-0.186454
-0.400000
-0.195855
0.402140
0.000044
0.392530
-0.300001
0.117577
-0.307463
0.300002
0.100594
-0.100000
0.305281
0.104050
0.397949
0.113137
0.101867
-0.100889
-0.400552
-0.300012
0.100086
0.200016
0.100342
-0.307938
0.212826
0.500000
0.020379
0.509424
-0.400085
-0.299438
0.100000
0.199180
0.200000
-0.202195
0.006039
-0.198206
0.096829
-0.400052
0.400033
0.500157
-0.100158
-0.301486
-0.299751
-0.100944
0.306219
0.499839
-0.399340
0.300063
0.399903
0.300021
0.302057
0.000000
-0.296383
-0.201660
-0.298600
0.399367
-0.199179
0.498681
0.299997
-0.100000
0.300000
-0.001059
0.093368
0.199757
0.299976
0.002074
0.194270
-0.197373
-0.298583
-0.000005
-0.199874
-0.100004
-0.392141
0.400001
0.000000
-0.298050
0.500768
-0.300000
0.400000
0.200000
0.400000
0.200000
-0.200000
0.500000
-0.100000
-0.400000
0.300000
-0.200000
0.400000
0.300000
-0.300000
-0.100000
0.200000
-0.300000
0.400000
-0.400000
0.300000
0.400000
-0.400000
-0.100000
0.500000
-0.200000
0.300000
0.300000
-0.100000
-0.400000
0.200000
0.500000
-0.200000
0.100000
0.400000
-0.200000
0.100000
-0.100000
-0.100000
-0.100000
-0.200000
-0.300000
-0.100000
0.300000
-0.100000
0.200000
-0.200000
-0.300000
-0.300000
0.000000
-0.200000
-0.200000
0.500000
-0.200000
0.300000
-0.300000
0.500000
-0.300000
-0.300000
-0.100000
-0.300000
0.400000
0.100000
0.500000
0.500000
0.200000
-0.100000
-0.400000
-0.400000
-0.400000
0.500000
-0.400000
0.100000
-0.400000
-0.300000
0.400000
-0.100000
-0.400000
0.400000
0.000000
0.500000
-0.400000
0.200000
0.300000
0.100000
-0.200000
0.300000
0.000000
-0.300000
-0.400000
0.400000
0.400000
0.100000
-0.300000
0.100000
0.200000
0.500000
0.300000
-0.400000
0.000000
0.200000
0.500000
0.000000
0.400000
0.400000
-0.100000
0.400000
0.200000
-0.300000
0.200000
0.200000
0.200000
0.500000
0.200000
0.200000
-0.100000
-0.200000
-0.200000
-0.300000
-0.100000
0.200000
0.400000
0.200000
0.100000
0.400000
0.100000
0.500000
0.200000
-0.300000
0.200000
0.500000
-0.400000
-0.200000
-0.400000
0.200000
-0.400000
0.100000
0.500000
0.300000
-0.300000
0.000000
-0.300000
-0.100000
0.100000
-0.300000
-0.300000
-0.300000
0.300000
0.100000
-0.400000
-0.400000
0.200000
0.400000
0.500000
0.400000
-0.200000
0.100000
0.300000
0.300000
0.100000
-0.200000
0.300000
0.500000
-0.300000
0.200000
0.500000
0.300000
-0.200000
0.200000
-0.300000
0.400000
0.500000
0.300000
0.500000
0.300000
0.200000
0.500000
0.300000
-0.100000
0.400000
-0.200000
0.200000
0.200000
0.300000
-0.400000
0.200000
0.000000
-0.300000
0.400000
-0.100000
-0.200000
-0.200000
-0.400000
0.100000
-0.400000
-0.100000
0.500000
-0.400000
0.500000
0.400000
-0.100000
0.100000
0.400000
0.400000
0.300000
