0.500000
0.100000
-0.100000
0.200000
-0.200000
0.400000
0.500000
-0.100000
0.100000
-0.400000
-0.400000
-0.200000
-0.400000
0.000000
0.400000
-0.100000
0.200000
0.000000
-0.400000
0.500000
0.000000
0.500000
0.000000
0.500000
-0.200000
0.100000
-0.100000
-0.300000
-0.100000
0.400000
0.400000
0.300000
0.200000
-0.300000
0.300000
0.300000
-0.200000
0.400000
-0.300000
0.400000
-0.400000
0.100000
0.300000
0.100000
0.000000
0.100000
0.300000
0.500000
-0.400000
-0.300000
-0.100000
-0.200000
0.100000
-0.100000
0.500000
-0.400000
-0.400000
0.500000
0.300000
0.200000
0.200000
-0.400000
0.400000
0.400000
0.500000
0.500000
0.000000
0.500000
-0.200000
-0.200000
-0.400000
-0.100000
0.100000
-0.100000
0.000000
0.000000
-0.400000
0.500000
0.300000
0.200000
0.400000
0.200000
0.000000
-0.200000
-0.200000
0.300000
-0.200000
0.200000
0.100000
0.500000
0.100000
0.300000
0.200000
0.400000
0.300000
0.500000
-0.400000
-0.400000
0.400000
-0.400000
0.000000
0.500000
-0.100000
-0.400000
-0.400000
-0.200000
-0.100000
0.200000
0.000000
0.200000
0.200000
0.200000
0.400000
-0.400000
0.000000
-0.300000
-0.300000
-0.100000
0.500000
0.500000
-0.300000
0.400000
0.500000
-0.200000
0.000000
0.500000
0.500000
0.100000
-0.300000
0.100000
0.200000
0.000000
0.200000
0.100000
0.200000
0.400000
-0.100000
0.100000
0.500000
0.500000
0.000000
0.100000
0.500000
-0.300000
0.200000
0.200000
0.500000
0.200000
0.100000
0.200000
0.000000
-0.100000
0.400000
0.500000
0.100000
0.300000
0.500000
-0.400000
0.400000
0.100000
-0.100000
-0.400000
0.300000
-0.400000
0.300000
-0.100000
0.400000
-0.400000
0.100000
0.400000
0.300000
-0.400000
0.100000
-0.200000
0.500000
0.100000
0.000000
0.500000
-0.300000
0.000000
-0.200000
-0.200000
0.000000
-0.400000
0.300000
0.500000
0.400000
0.200000
-0.100000
0.200000
0.400000
-0.400000
0.400000
-0.400000
0.100000
-0.100000
0.400000
0.000000
0.000000
0.200000
-0.300000
0.200000
0.300000
0.100000
-0.300000
0.100000
0.000000
-0.200000
0.400000
0.400000
0.500000
0.500000
-0.400000
0.400000
-0.400000
0.400000
0.500000
0.500000
-0.300000
0.500000
0.000000
0.300000
-0.100000
0.300000
0.300000
0.500000
-0.300000
0.100000
-0.100000
0.400000
0.000000
0.400000
-0.100000
0.000000
0.000000
0.200000
0.400000
-0.300000
-0.300000
-0.200000
0.400000
-0.400000
-0.300000
-0.400000
0.200000
-0.200000
-0.100000
0.300000
0.200000
0.500000
-0.200000
0.400000
-0.300000
-0.200000
-0.300000
0.000000
0.200000
-0.200000
0.000000
-0.300000
0.000000
-0.400000
0.100000
0.500000
-0.100000
-0.100000
0.500000
0.200000
0.300000
-0.300000
0.100000
0.500000
-0.200000
0.200000
-0.100000
-0.300000
-0.300000
0.400000
-0.100000
-0.100000
0.200000
0.000000
0.400000
0.500000
0.000000
-0.300000
0.000000
0.000000
-0.300000
0.500000
-0.400000
-0.300000
0.300000
0.200000
0.000000
0.500000
0.300000
-0.400000
-0.400000
0.100000
0.200000
-0.100000
0.200000
0.400000
0.000000
0.200000
0.100000
-0.200000
-0.300000
0.000000
-0.400000
-0.200000
-0.400000
-0.300000
-0.200000
-0.200000
-0.100000
0.000000
-0.200000
-0.200000
0.500000
0.000000
0.500000
-0.300000
-0.300000
0.100000
-0.100000
0.500000
-0.100000
-0.300000
0.500000
-0.200000
0.100000
-0.100000
-0.300000
-0.100000
0.100000
-0.300000
0.400000
0.300000
0.000000
-0.200000
0.000000
0.100000
0.000000
-0.100000
0.000000
0.500000
0.200000
0.000000
0.400000
-0.400000
-0.400000
-0.100000
-0.200000
0.100000
-0.400000
0.500000
0.000000
-0.100000
0.300000
-0.300000
-0.400000
0.100000
-0.300000
0.400000
-0.400000
0.100000
0.400000
-0.200000
-0.100000
-0.200000
0.000000
0.500000
0.400000
0.000000
0.000000
0.100000
0.100000
0.100000
-0.400000
-0.200000
-0.100000
0.300000
-0.100000
-0.300000
0.400000
-0.100000
0.200000
-0.300000
-0.200000
-0.200000
0.100000
-0.400000
-0.300000
0.300000
0.100000
0.200000
-0.200000
-0.300000
0.000000
0.000000
-0.400000
0.300000
-0.300000
0.000000
0.200000
-0.100000
-0.100000
-0.400000
0.100000
0.200000
0.200000
0.000000
-0.200000
-0.100000
0.200000
-0.400000
-0.400000
-0.100000
-0.200000
0.400000
-0.400000
0.400000
0.100000
0.000000
0.400000
0.000000
-0.400000
0.400000
0.400000
-0.300000
0.100000
-0.400000
0.100000
0.400000
-0.100000
-0.200000
-0.400000
0.400000
-0.300000
-0.300000
-0.300000
0.400000
0.200000
0.000000
0.500000
0.000000
0.500000
-0.300000
-0.400000
0.000000
0.100000
-0.100000
-0.100000
-0.100000
-0.100000
0.400000
-0.100000
0.400000
0.500000
-0.100000
0.000000
-0.300000
-0.200000
0.100000
0.200000
0.400000
-0.200000
0.100000
-0.300000
0.100000
0.400000
0.400000
-0.400000
-0.100000
0.000000
0.100000
0.000000
0.400000
0.500000
-0.300000
0.100000
0.000000
-0.300000
-0.100000
0.400000
-0.400000
-0.300000
0.100000
-0.200000
0.500000
-0.100000
-0.400000
0.100000
0.200000
-0.100000
0.000000
0.400000
-0.100000
0.200000
-0.200000
0.300000
-0.100000
-0.100000
0.400000
-0.400000
0.300000
-0.400000
0.300000
0.200000
0.000000
0.000000
-0.400000
0.000000
0.200000
0.000000
0.400000
-0.300000
0.500000
0.400000
0.200000
0.300000
0.500000
-0.100000
0.000000
-0.200000
0.500000
-0.400000
0.100000
0.300000
-0.300000
-0.300000
0.000000
-0.300000
0.100000
0.500000
-0.100000
-0.400000
0.300000
0.300000
0.300000
0.400000
-0.400000
-0.200000
0.000000
0.500000
-0.100000
-0.100000
0.500000
0.000000
0.500000
0.500000
0.000000
0.000000
-0.100000
0.000000
0.400000
0.100000
-0.400000
-0.100000
0.300000
0.100000
0.000000
0.500000
0.000000
0.200000
-0.300000
0.100000
0.500000
0.500000
-0.400000
-0.400000
-0.100000
-0.100000
0.100000
0.300000
0.400000
0.300000
0.500000
-0.400000
-0.200000
0.400000
0.200000
0.400000
0.500000
0.300000
-0.200000
0.300000
-0.100000
-0.400000
-0.200000
-0.100000
0.200000
0.100000
-0.200000
0.500000
-0.300000
0.400000
0.200000
-0.200000
-0.300000
0.500000
-0.200000
-0.400000
-0.100000
-0.300000
0.200000
0.000000
0.500000
-0.200000
0.400000
-0.300000
0.400000
-0.200000
-0.100000
0.300000
-0.100000
0.000000
0.000000
0.400000
0.300000
0.400000
-0.100000
0.300000
0.100000
0.200000
0.500000
0.000000
-0.100000
0.200000
0.200000
-0.100000
-0.400000
0.400000
0.000000
-0.400000
-0.400000
0.400000
0.100000
-0.200000
0.100000
-0.300000
0.400000
-0.400000
0.500000
0.400000
0.200000
-0.100000
-0.100000
-0.200000
0.200000
-0.300000
-0.100000
0.400000
0.300000
-0.200000
-0.400000
-0.200000
-0.300000
0.400000
0.100000
-0.100000
-0.300000
-0.100000
-0.200000
0.300000
0.200000
0.500000
-0.100000
0.400000
0.000000
-0.300000
0.400000
-0.200000
0.300000
-0.200000
0.000000
0.500000
0.300000
0.400000
-0.300000
0.000000
-0.400000
0.400000
-0.400000
-0.300000
0.000000
-0.100000
0.200000
0.500000
0.500000
0.100000
-0.300000
0.200000
0.300000
-0.300000
0.300000
0.500000
0.000000
0.200000
0.000000
-0.100000
-0.100000
-0.100000
0.500000
-0.400000
0.200000
-0.400000
0.200000
0.200000
0.400000
0.200000
-0.400000
-0.300000
0.000000
0.200000
0.100000
0.400000
0.200000
-0.100000
0.000000
-0.200000
-0.200000
0.400000
0.200000
0.300000
0.400000
-0.200000
0.000000
0.100000
-0.200000
0.000000
0.500000
0.500000
0.400000
-0.400000
0.200000
0.200000
0.300000
0.400000
0.100000
-0.300000
-0.100000
-0.300000
-0.100000
-0.300000
0.400000
0.000000
0.300000
0.100000
-0.100000
-0.200000
0.400000
-0.100000
0.000000
0.500000
-0.400000
-0.400000
0.400000
-0.200000
0.100000
0.200000
0.000000
-0.400000
0.500000
-0.200000
0.300000
-0.300000
0.400000
0.400000
-0.200000
0.400000
0.400000
-0.300000
0.100000
0.200000
0.100000
0.400000
-0.400000
0.200000
0.100000
0.400000
0.500000
0.400000
-0.300000
0.000000
-0.400000
0.200000
-0.200000
0.200000
0.500000
0.100000
-0.300000
0.400000
0.200000
0.200000
0.400000
0.200000
0.200000
0.300000
0.200000
0.500000
-0.300000
-0.200000
-0.100000
-0.100000
0.300000
-0.400000
0.500000
0.300000
-0.300000
0.200000
0.400000
-0.200000
-0.100000
0.300000
-0.100000
0.500000
-0.400000
0.100000
0.500000
-0.200000
0.400000
0.100000
0.400000
-0.100000
0.300000
0.200000
0.300000
0.500000
0.000000
0.400000
0.100000
0.200000
0.200000
0.300000
-0.300000
0.500000
-0.100000
-0.300000
-0.300000
0.300000
0.500000
0.000000
-0.300000
0.000000
0.500000
0.200000
-0.100000
-0.100000
0.200000
0.100000
0.000000
0.400000
0.300000
0.500000
0.200000
-0.200000
0.500000
-0.100000
0.300000
0.400000
-0.300000
-0.200000
-0.400000
0.200000
-0.300000
0.500000
0.000000
-0.100000
0.400000
0.100000
-0.400000
0.000000
-0.100000
0.500000
-0.100000
-0.400000
0.400000
0.100000
0.100000
0.300000
0.400000
0.100000
0.200000
0.100000
-0.100000
-0.200000
-0.100000
0.000000
-0.100000
-0.300000
-0.300000
0.400000
0.300000
0.500000
-0.300000
0.500000
0.200000
0.000000
-0.300000
-0.200000
-0.400000
0.400000
-0.300000
0.500000
0.400000
0.500000
0.200000
-0.300000
-0.300000
0.200000
-0.200000
-0.300000
0.000000
0.100000
0.500000
0.200000
0.300000
-0.200000
-0.100000
0.100000
-0.200000
0.000000
0.000000
-0.400000
-0.400000
0.400000
-0.300000
0.300000
-0.100000
-0.100000
0.100000
-0.200000
-0.300000
0.300000
0.300000
0.500000
0.400000
0.000000
0.500000
-0.200000
0.000000
0.400000
0.100000
0.300000
0.500000
0.500000
0.200000
0.300000
0.400000
0.500000
0.100000
0.000000
0.200000
-0.100000
0.400000
-0.200000
-0.200000
0.300000
-0.200000
-0.100000
0.000000
0.500000
-0.100000
0.100000
0.300000
0.300000
0.000000
0.300000
0.100000
0.300000
0.100000
-0.100000
-0.100000
0.400000
-0.200000
0.500000
0.500000
0.300000
-0.400000
-0.100000
0.100000
-0.100000
-0.200000
-0.200000
0.300000
-0.200000
-0.200000
-0.400000
-0.300000
-0.200000
0.000000
-0.200000
-0.200000
0.400000
0.200000
0.300000
0.400000
0.200000
0.000000
0.100000
-0.300000
0.500000
0.500000
-0.100000
-0.100000
0.400000
-0.300000
0.200000
0.300000
-0.400000
0.200000
0.300000
-0.200000
0.500000
0.500000
0.300000
0.500000
-0.300000
-0.400000
0.300000
0.300000
0.200000
0.200000
0.200000
0.300000
0.200000
-0.400000
0.500000
-0.100000
0.400000
0.300000
0.500000
0.000000
0.000000
-0.400000
-0.300000
-0.100000
0.000000
-0.100000
-0.400000
-0.400000
0.500000
-0.200000
0.300000
0.000000
0.300000
-0.400000
-0.400000
-0.400000
-0.100000
-0.300000
-0.200000
-0.400000
0.000000
0.300000
0.000000
0.200000
-0.400000
-0.200000
0.500000
-0.200000
0.300000
-0.300000
-0.200000
-0.100000
-0.400000
0.100000
0.500000
0.100000
0.100000
-0.400000
0.300000
0.200000
0.000000
-0.200000
0.000000
-0.200000
-0.300000
0.400000
0.000000
0.100000
0.500000
-0.300000
-0.100000
-0.300000
-0.200000
0.200000
0.300000
0.200000
-0.400000
-0.200000
-0.400000
-0.200000
0.300000
-0.300000
0.500000
-0.100000
-0.100000
-0.300000
0.200000
0.200000
0.500000
-0.300000
0.200000
0.300000
-0.100000
0.400000
0.300000
0.400000
-0.200000
0.000000
0.500000
0.200000
0.500000
-0.100000
-0.100000
-0.400000
-0.400000
-0.400000
-0.100000
-0.200000
0.400000
0.300000
0.300000
0.200000
0.100000
-0.400000
0.500000
-0.200000
0.500000
-0.400000
0.100000
-0.400000
0.200000
-0.300000
-0.300000
-0.100000
0.400000
0.000000
0.400000
-0.300000
0.100000
-0.100000
0.200000
0.000000
0.100000
0.000000
0.300000
-0.100000
-0.400000
0.100000
0.100000
-0.300000
-0.400000
-0.100000
0.400000
-0.400000
0.000000
0.000000
0.400000
0.500000
0.000000
-0.100000
0.200000
0.500000
0.200000
0.300000
0.500000
0.200000
0.400000
0.100000
0.500000
-0.300000
0.200000
-0.200000
-0.300000
-0.300000
0.300000
0.400000
-0.300000
0.400000
-0.200000
-0.300000
0.400000
0.300000
0.500000
-0.100000
-0.400000
0.100000
0.400000
-0.400000
0.300000
0.400000
-0.400000
-0.300000
0.100000
0.100000
0.400000
0.200000
-0.100000
-0.100000
-0.300000
0.300000
-0.300000
-0.400000
-0.300000
-0.100000
0.500000
-0.200000
0.000000
0.000000
-0.400000
-0.300000
-0.200000
0.300000
0.400000
0.500000
-0.200000
0.400000
0.400000
-0.200000
0.300000
0.200000
-0.200000
0.300000
0.300000
0.300000
0.300000
0.000000
0.300000
-0.100000
-0.100000
0.200000
0.300000
-0.100000
0.300000
0.400000
0.300000
0.100000
0.100000
0.500000
0.400000
0.400000
-0.300000
-0.200000
-0.200000
-0.100000
-0.200000
-0.400000
0.300000
-0.400000
-0.200000
0.400000
-0.400000
0.200000
0.300000
0.200000
0.300000
0.200000
0.100000
0.200000
0.100000
0.500000
0.200000
0.000000
-0.300000
0.300000
-0.400000
-0.100000
0.400000
0.400000
0.100000
0.500000
0.300000
-0.100000
-0.400000
0.300000
0.000000
-0.400000
0.100000
-0.200000
0.000000
-0.100000
-0.300000
0.000000
0.100000
0.200000
-0.400000
-0.100000
0.000000
0.500000
0.400000
0.100000
0.400000
0.500000
0.300000
0.300000
0.100000
-0.300000
-0.100000
-0.400000
-0.400000
0.100000
0.200000
0.000000
-0.200000
0.100000
0.400000
0.500000
0.000000
-0.300000
0.300000
0.000000
0.300000
0.400000
-0.400000
-0.200000
-0.400000
0.400000
-0.400000
-0.300000
-0.100000
-0.100000
0.400000
0.000000
-0.400000
0.500000
0.300000
-0.200000
0.200000
-0.300000
-0.200000
0.500000
0.100000
0.400000
-0.200000
-0.300000
0.500000
0.300000
0.200000
-0.200000
0.200000
-0.300000
0.000000
0.400000
0.300000
-0.100000
-0.100000
-0.300000
-0.400000
-0.300000
0.500000
0.000000
0.300000
0.000000
0.100000
0.500000
0.200000
0.200000
0.200000
-0.100000
0.500000
-0.300000
0.500000
0.500000
0.000000
0.200000
-0.200000
-0.200000
0.500000
-0.400000
-0.400000
-0.300000
0.500000
-0.300000
-0.100000
-0.400000
-0.400000
-0.100000
0.500000
0.300000
-0.300000
0.500000
0.100000
0.300000
-0.400000
-0.100000
-0.100000
0.500000
0.200000
0.200000
-0.400000
0.400000
-0.300000
0.400000
-0.300000
-0.300000
0.200000
0.200000
0.300000
0.200000
0.400000
0.300000
0.300000
0.000000
-0.400000
0.300000
0.100000
0.200000
0.000000
0.100000
0.200000
0.400000
0.000000
-0.100000
0.500000
0.300000
0.000000
0.000000
0.200000
-0.100000
-0.400000
0.300000
-0.400000
0.200000
-0.200000
0.500000
0.300000
0.500000
0.300000
0.500000
0.500000
-0.300000
0.200000
-0.300000
-0.100000
0.400000
0.300000
0.000000
0.300000
-0.300000
-0.200000
0.000000
0.300000
0.400000
-0.300000
0.400000
-0.200000
0.200000
0.000000
0.400000
-0.200000
-0.300000
-0.300000
0.400000
0.500000
-0.100000
0.200000
-0.100000
0.100000
-0.300000
0.300000
-0.400000
-0.100000
-0.300000
-0.400000
0.500000
-0.300000
-0.100000
-0.200000
0.000000
-0.100000
0.300000
0.300000
-0.100000
0.100000
-0.300000
-0.200000
0.400000
0.200000
0.400000
-0.400000
-0.100000
0.500000
0.300000
0.400000
-0.400000
0.000000
0.000000
0.500000
0.200000
0.400000
-0.100000
0.200000
0.500000
0.000000
-0.200000
0.400000
0.200000
0.000000
-0.200000
-0.200000
-0.400000
0.500000
0.500000
0.300000
0.500000
0.200000
0.300000
0.400000
0.500000
-0.200000
-0.100000
0.000000
0.000000
-0.100000
0.200000
0.100000
-0.300000
-0.300000
0.500000
0.400000
-0.100000
-0.100000
-0.300000
-0.300000
-0.300000
0.000000
0.000000
0.100000
0.200000
0.400000
-0.300000
-0.100000
-0.200000
0.500000
-0.400000
0.000000
0.100000
0.500000
0.200000
0.300000
0.300000
0.300000
-0.100000
-0.300000
-0.400000
-0.200000
0.100000
0.400000
0.500000
-0.400000
0.100000
0.400000
-0.300000
0.000000
0.400000
0.200000
0.300000
0.000000
-0.100000
0.300000
0.400000
0.400000
-0.100000
0.100000
-0.300000
-0.300000
0.200000
-0.300000
0.300000
0.000000
0.300000
-0.100000
-0.200000
0.300000
-0.300000
0.500000
-0.100000
0.100000
-0.200000
-0.200000
0.500000
0.500000
0.200000
0.000000
-0.100000
-0.100000
-0.400000
0.100000
0.400000
0.100000
-0.100000
0.000000
-0.300000
0.200000
0.400000
-0.100000
0.200000
-0.300000
0.300000
-0.200000
0.000000
0.000000
0.200000
-0.100000
0.300000
-0.300000
-0.400000
-0.400000
-0.200000
-0.300000
0.200000
0.500000
0.500000
0.400000
0.000000
-0.200000
0.000000
0.500000
0.200000
0.500000
0.300000
0.100000
0.300000
-0.300000
0.000000
-0.100000
0.100000
0.100000
0.500000
0.500000
-0.100000
-0.300000
0.000000
0.200000
-0.400000
0.400000
0.400000
0.000000
0.400000
0.300000
0.300000
-0.300000
0.500000
0.300000
0.000000
0.300000
0.100000
0.100000
0.000000
0.500000
0.000000
0.500000
-0.100000
-0.300000
0.300000
-0.400000
0.400000
0.000000
-0.200000
0.500000
-0.100000
0.500000
-0.200000
0.200000
0.100000
0.000000
-0.400000
0.100000
-0.200000
0.200000
-0.200000
0.400000
0.100000
-0.100000
0.300000
0.400000
0.500000
-0.400000
0.100000
0.300000
-0.200000
-0.200000
-0.100000
0.300000
-0.300000
-0.200000
-0.300000
-0.300000
0.000000
-0.100000
0.100000
-0.400000
0.000000
-0.100000
-0.100000
0.400000
-0.200000
0.300000
-0.400000
0.000000
-0.300000
0.300000
-0.200000
0.200000
0.000000
0.400000
0.200000
0.100000
0.500000
-0.100000
0.100000
0.000000
-0.200000
-0.100000
0.500000
0.100000
0.200000
-0.200000
0.500000
0.300000
-0.100000
-0.300000
-0.400000
-0.200000
-0.100000
0.300000
-0.300000
0.000000
0.400000
-0.400000
-0.400000
-0.100000
0.100000
-0.200000
-0.400000
0.300000
-0.300000
-0.400000
0.400000
-0.100000
-0.100000
-0.200000
-0.300000
0.500000
0.500000
0.400000
0.300000
-0.100000
-0.100000
0.300000
0.500000
0.000000
0.500000
0.300000
0.500000
0.200000
0.000000
0.100000
0.200000
0.000000
-0.300000
0.100000
0.500000
-0.200000
-0.300000
-0.200000
-0.200000
0.100000
-0.100000
0.500000
0.300000
0.000000
-0.400000
0.400000
0.500000
0.000000
-0.300000
-0.100000
-0.100000
-0.200000
0.200000
0.400000
-0.100000
0.000000
0.300000
0.100000
-0.200000
-0.400000
-0.400000
-0.300000
0.300000
-0.200000
-0.100000
0.100000
0.200000
0.100000
0.400000
-0.200000
0.200000
0.100000
-0.300000
0.100000
-0.100000
-0.200000
0.500000
-0.400000
0.000000
-0.300000
0.500000
0.300000
0.000000
-0.300000
0.000000
-0.400000
0.300000
0.000000
-0.400000
0.200000
-0.100000
0.200000
-0.200000
-0.200000
0.400000
-0.200000
0.500000
-0.100000
0.100000
-0.100000
0.400000
0.200000
0.400000
-0.300000
0.200000
-0.100000
-0.100000
0.300000
0.200000
0.300000
0.400000
0.200000
0.400000
-0.300000
0.000000
0.500000
0.000000
-0.400000
-0.100000
0.300000
0.100000
0.100000
0.100000
0.100000
-0.300000
-0.300000
0.100000
0.100000
-0.300000
0.100000
0.500000
-0.200000
-0.300000
0.400000
0.500000
0.400000
0.400000
0.300000
0.500000
0.000000
-0.400000
0.100000
-0.400000
-0.400000
0.100000
-0.400000
0.200000
0.500000
0.500000
-0.200000
0.400000
0.100000
-0.400000
0.000000
-0.400000
-0.100000
0.200000
0.500000
0.400000
0.100000
0.400000
0.400000
-0.200000
0.400000
0.400000
-0.200000
0.100000
0.000000
-0.200000
0.500000
-0.100000
-0.200000
0.200000
0.400000
0.500000
0.000000
0.100000
-0.400000
0.000000
0.300000
-0.200000
-0.200000
0.200000
-0.200000
0.500000
-0.300000
-0.200000
-0.200000
0.200000
-0.200000
0.500000
-0.200000
-0.100000
-0.200000
0.200000
0.300000
-0.300000
0.100000
0.000000
0.500000
0.400000
0.000000
0.100000
0.000000
-0.300000
-0.300000
0.300000
-0.200000
-0.200000
-0.300000
0.400000
-0.100000
-0.400000
0.200000
-0.400000
-0.200000
0.000000
-0.100000
-0.300000
0.500000
-0.100000
0.200000
-0.400000
0.500000
0.500000
0.200000
0.500000
0.400000
0.300000
0.100000
0.200000
-0.400000
-0.400000
0.500000
-0.300000
-0.100000
0.400000
0.100000
0.500000
-0.200000
-0.300000
0.500000
0.000000
0.300000
0.400000
0.400000
0.500000
0.300000
0.100000
-0.300000
0.100000
0.100000
-0.400000
-0.400000
0.000000
0.500000
0.500000
0.300000
-0.100000
0.100000
0.300000
0.000000
-0.400000
0.100000
0.300000
0.000000
0.500000
0.200000
0.000000
-0.100000
0.100000
0.400000
0.200000
-0.200000
0.000000
0.100000
0.200000
0.000000
0.200000
-0.300000
-0.100000
0.400000
-0.400000
0.100000
0.300000
-0.100000
-0.100000
0.400000
0.200000
-0.300000
0.400000
0.000000
-0.400000
-0.100000
0.500000
-0.400000
-0.200000
-0.400000
-0.100000
0.000000
-0.400000
0.500000
-0.200000
-0.300000
-0.300000
0.400000
-0.400000
0.000000
-0.100000
-0.200000
0.000000
-0.200000
0.200000
-0.300000
0.400000
-0.400000
-0.200000
-0.100000
0.400000
-0.400000
-0.300000
0.300000
0.000000
-0.400000
-0.300000
-0.200000
0.400000
-0.100000
0.000000
-0.200000
0.000000
-0.200000
0.400000
0.300000
-0.200000
-0.400000
-0.100000
-0.200000
0.400000
0.300000
0.300000
0.400000
-0.100000
0.000000
0.500000
0.400000
-0.200000
0.100000
0.000000
-0.300000
-0.200000
0.200000
-0.100000
-0.300000
-0.100000
-0.200000
0.500000
-0.400000
-0.200000
-0.300000
0.400000
0.200000
-0.300000
-0.100000
-0.300000
0.300000
-0.100000
0.100000
0.100000
0.100000
0.300000
0.100000
0.500000
-0.400000
0.000000
0.500000
0.100000
0.100000
0.000000
0.300000
0.200000
-0.400000
0.500000
0.000000
0.000000
-0.200000
0.200000
0.200000
0.500000
0.000000
-0.300000
0.500000
0.200000
-0.400000
0.000000
-0.100000
-0.100000
0.500000
0.100000
0.200000
0.500000
0.200000
-0.100000
-0.400000
0.500000
0.300000
0.000000
0.300000
0.500000
0.500000
0.100000
0.100000
0.500000
0.000000
0.300000
0.000000
-0.100000
0.500000
-0.100000
0.000000
-0.100000
-0.200000
0.000000
-0.100000
0.200000
-0.100000
-0.400000
0.200000
-0.300000
0.300000
0.000000
-0.100000
0.100000
-0.100000
-0.200000
0.000000
-0.300000
0.000000
-0.300000
0.300000
0.200000
0.500000
0.400000
0.200000
-0.200000
-0.400000
0.200000
0.200000
0.300000
0.100000
0.000000
0.300000
-0.200000
-0.300000
-0.300000
0.500000
0.400000
-0.200000
-0.300000
0.300000
0.100000
0.100000
0.000000
0.300000
-0.400000
-0.100000
0.200000
-0.400000
0.500000
0.000000
0.200000
0.000000
-0.100000
0.100000
0.100000
0.000000
-0.100000
0.500000
-0.200000
0.500000
0.300000
0.000000
0.300000
0.500000
0.000000
-0.200000
0.200000
-0.200000
0.300000
0.200000
0.300000
0.200000
0.100000
0.500000
-0.300000
-0.200000
0.000000
0.200000
0.100000
0.300000
0.200000
0.300000
0.500000
0.200000
0.100000
0.000000
0.000000
0.100000
0.100000
-0.300000
-0.400000
0.000000
0.200000
-0.200000
-0.200000
-0.200000
0.100000
0.400000
0.100000
0.200000
-0.100000
0.200000
0.200000
0.500000
0.300000
0.500000
0.200000
-0.200000
-0.400000
0.500000
0.500000
0.000000
0.400000
-0.100000
0.000000
-0.300000
-0.400000
0.100000
0.300000
0.300000
0.100000
0.500000
0.200000
0.100000
-0.100000
-0.400000
-0.300000
-0.200000
0.400000
0.300000
0.000000
0.300000
-0.400000
-0.400000
0.200000
-0.300000
-0.200000
0.400000
0.500000
0.000000
-0.200000
0.300000
0.400000
0.100000
-0.300000
0.500000
0.300000
-0.400000
-0.300000
0.000000
0.000000
0.100000
0.200000
-0.300000
-0.400000
0.000000
-0.300000
0.100000
-0.400000
-0.400000
0.000000
0.300000
-0.300000
-0.400000
0.000000
-0.400000
-0.200000
-0.200000
0.200000
0.300000
-0.400000
0.000000
-0.400000
0.000000
0.400000
-0.400000
-0.300000
-0.200000
-0.300000
-0.300000
0.000000
0.000000
0.200000
-0.200000
0.300000
0.000000
0.000000
0.100000
0.200000
-0.200000
-0.200000
-0.300000
0.500000
-0.100000
0.400000
0.300000
0.400000
0.300000
-0.400000
0.000000
0.100000
-0.100000
0.300000
-0.300000
-0.100000
0.100000
-0.400000
0.300000
0.300000
0.300000
-0.400000
0.200000
-0.200000
-0.100000
-0.100000
0.000000
0.300000
0.500000
0.400000
0.500000
0.100000
0.100000
0.300000
-0.100000
-0.300000
-0.200000
0.000000
-0.200000
-0.400000
-0.200000
-0.300000
-0.400000
-0.200000
0.400000
-0.200000
-0.200000
-0.200000
-0.400000
0.000000
0.200000
0.200000
0.000000
0.100000
0.500000
0.100000
-0.400000
-0.400000
0.100000
0.100000
0.400000
0.400000
-0.200000
0.300000
0.100000
0.000000
-0.200000
0.100000
0.100000
0.300000
-0.400000
0.300000
0.500000
0.400000
0.100000
0.100000
0.000000
0.100000
0.000000
0.100000
0.400000
0.500000
0.100000
-0.100000
-0.300000
-0.200000
-0.300000
0.500000
0.200000
-0.100000
-0.300000
-0.400000
0.000000
0.400000
-0.200000
0.300000
0.300000
0.100000
0.000000
0.500000
-0.200000
-0.400000
-0.200000
0.300000
0.300000
0.300000
-0.100000
0.100000
-0.400000
0.000000
0.100000
-0.200000
0.200000
0.000000
0.200000
-0.300000
-0.400000
-0.400000
-0.300000
0.000000
0.300000
0.100000
-0.200000
0.100000
0.200000
0.400000
-0.200000
0.200000
0.300000
0.300000
0.400000
0.000000
0.500000
-0.400000
-0.100000
-0.300000
-0.100000
-0.400000
-0.200000
0.300000
0.500000
0.100000
-0.300000
0.200000
0.400000
-0.300000
0.200000
-0.400000
0.400000
0.100000
0.100000
0.300000
0.200000
-0.400000
0.100000
0.400000
0.000000
0.200000
-0.100000
0.300000
0.300000
-0.100000
0.500000
0.300000
0.200000
0.500000
-0.100000
0.200000
0.500000
-0.300000
-0.400000
-0.100000
0.200000
-0.200000
0.200000
0.500000
0.500000
-0.200000
-0.200000
0.200000
0.000000
0.500000
0.500000
0.000000
-0.200000
0.100000
-0.100000
0.200000
0.200000
0.100000
0.500000
0.300000
0.000000
-0.100000
0.500000
0.500000
0.500000
0.100000
0.400000
0.100000
-0.400000
0.000000
0.300000
0.100000
-0.300000
0.400000
0.300000
-0.200000
-0.200000
0.400000
0.200000
0.400000
-0.300000
0.300000
-0.300000
-0.300000
0.300000
0.000000
0.400000
-0.200000
0.400000
0.100000
0.000000
0.300000
-0.100000
-0.400000
0.400000
-0.100000
-0.200000
-0.300000
0.000000
-0.300000
0.300000
0.000000
0.000000
0.000000
-0.400000
0.100000
-0.300000
0.000000
0.500000
-0.200000
-0.400000
0.200000
0.200000
-0.200000
-0.400000
0.000000
-0.300000
0.400000
-0.400000
0.500000
0.000000
0.300000
0.100000
-0.400000
-0.400000
-0.200000
0.400000
-0.400000
-0.400000
-0.200000
0.500000
0.100000
-0.200000
0.000000
0.000000
-0.400000
0.100000
-0.300000
-0.300000
0.400000
0.500000
0.000000
0.100000
0.500000
0.300000
0.400000
0.400000
-0.200000
-0.400000
-0.300000
0.400000
0.000000
0.000000
-0.400000
0.400000
0.400000
-0.200000
-0.100000
0.200000
0.100000
0.200000
0.400000
0.400000
-0.200000
0.200000
-0.400000
-0.300000
-0.200000
-0.200000
-0.400000
-0.100000
0.300000
0.200000
0.300000
0.300000
-0.400000
0.000000
0.400000
0.300000
0.200000
-0.300000
-0.400000
0.200000
0.200000
0.000000
0.300000
0.100000
-0.200000
0.400000
0.400000
0.000000
-0.200000
-0.300000
-0.400000
0.300000
0.200000
0.000000
-0.100000
0.300000
0.500000
0.300000
-0.200000
0.000000
0.100000
-0.100000
-0.300000
0.000000
-0.400000
0.100000
0.200000
0.300000
0.300000
0.000000
0.100000
-0.400000
0.400000
-0.400000
0.500000
-0.200000
0.500000
-0.100000
0.100000
0.400000
0.200000
0.300000
-0.200000
0.000000
0.000000
0.400000
-0.300000
-0.300000
-0.200000
0.000000
0.300000
-0.200000
0.100000
-0.100000
-0.200000
0.500000
0.200000
0.400000
0.400000
0.200000
-0.200000
0.500000
0.400000
-0.300000
-0.200000
0.000000
0.200000
0.000000
0.000000
-0.300000
-0.400000
0.500000
-0.200000
-0.300000
0.200000
0.500000
-0.200000
0.000000
0.400000
-0.100000
0.000000
-0.300000
0.100000
0.300000
0.100000
0.400000
0.400000
-0.200000
0.300000
0.000000
0.200000
0.300000
0.100000
0.500000
0.300000
-0.300000
0.100000
0.100000
0.500000
-0.200000
-0.200000
0.200000
0.500000
0.100000
0.500000
-0.100000
0.000000
-0.100000
0.200000
0.100000
-0.400000
0.300000
-0.200000
-0.200000
-0.100000
-0.400000
-0.200000
-0.100000
-0.300000
0.100000
-0.200000
-0.400000
-0.200000
0.500000
-0.200000
-0.300000
0.200000
0.300000
-0.400000
0.400000
0.500000
-0.200000
-0.400000
0.200000
0.400000
0.100000
0.000000
-0.200000
-0.200000
0.100000
0.500000
0.000000
0.100000
0.200000
0.300000
-0.400000
0.100000
0.100000
-0.400000
0.100000
0.500000
0.500000
-0.100000
0.000000
0.400000
-0.100000
0.000000
-0.300000
-0.200000
-0.100000
0.400000
0.400000
-0.200000
0.200000
0.300000
0.300000
0.200000
0.100000
-0.400000
-0.300000
0.400000
0.100000
0.000000
-0.400000
0.400000
0.200000
0.400000
0.000000
0.300000
-0.200000
-0.400000
0.400000
0.500000
-0.200000
-0.100000
-0.200000
-0.400000
-0.100000
0.300000
-0.300000
-0.400000
0.300000
0.500000
0.100000
-0.100000
0.400000
-0.300000
0.300000
0.300000
0.100000
-0.400000
0.000000
0.000000
-0.300000
0.500000
-0.300000
0.100000
0.000000
-0.300000
-0.300000
0.500000
0.500000
-0.300000
0.200000
-0.100000
0.300000
-0.100000
0.000000
0.200000
0.100000
0.400000
-0.200000
0.200000
-0.200000
0.300000
0.200000
0.400000
-0.300000
-0.100000
-0.100000
0.400000
0.400000
-0.300000
-0.400000
0.500000
-0.100000
-0.400000
0.300000
0.300000
0.200000
-0.100000
0.300000
0.100000
0.100000
0.200000
0.500000
-0.400000
-0.400000
-0.400000
0.100000
-0.100000
-0.200000
-0.400000
0.500000
0.300000
-0.200000
-0.400000
0.300000
0.300000
-0.100000
-0.200000
-0.200000
0.500000
0.000000
-0.200000
0.300000
-0.300000
0.400000
-0.400000
0.400000
0.300000
-0.400000
-0.100000
0.400000
-0.100000
-0.300000
-0.200000
0.500000
0.300000
-0.300000
0.300000
-0.300000
-0.100000
0.200000
0.200000
0.300000
0.500000
-0.200000
0.200000
0.500000
-0.200000
-0.400000
-0.100000
0.300000
-0.100000
0.400000
0.300000
0.400000
0.100000
0.000000
0.100000
0.200000
-0.300000
-0.100000
0.200000
0.300000
0.500000
-0.100000
-0.100000
0.200000
0.400000
-0.300000
0.500000
0.400000
-0.300000
-0.300000
-0.300000
0.300000
0.200000
0.000000
0.400000
0.100000
0.000000
-0.100000
0.300000
0.000000
0.400000
0.400000
0.500000
0.000000
0.200000
-0.300000
0.200000
-0.100000
-0.100000
-0.300000
-0.100000
0.300000
-0.100000
0.500000
-0.200000
-0.400000
0.300000
0.200000
0.100000
0.300000
-0.200000
-0.400000
0.100000
0.300000
0.400000
0.000000
0.400000
0.100000
0.500000
-0.100000
0.300000
-0.300000
-0.200000
-0.400000
-0.100000
-0.300000
0.000000
0.200000
-0.200000
0.500000
-0.300000
0.400000
-0.100000
-0.300000
0.000000
0.500000
0.100000
0.100000
0.200000
0.500000
0.500000
0.500000
-0.200000
0.100000
-0.300000
0.100000
0.300000
0.100000
0.300000
0.400000
0.200000
-0.400000
0.400000
-0.100000
-0.100000
0.500000
0.000000
-0.400000
-0.100000
-0.100000
0.000000
0.400000
0.500000
-0.100000
0.300000
0.500000
-0.200000
0.400000
0.000000
0.100000
0.300000
-0.400000
0.000000
-0.400000
0.100000
0.200000
-0.300000
-0.200000
-0.300000
0.300000
-0.200000
0.000000
0.200000
0.200000
0.300000
0.500000
0.000000
0.300000
-0.300000
0.400000
0.400000
-0.100000
-0.100000
0.000000
-0.200000
0.400000
0.200000
0.500000
-0.200000
0.100000
0.400000
0.000000
0.500000
-0.100000
0.400000
-0.100000
0.400000
0.200000
-0.200000
0.300000
0.500000
0.200000
0.200000
-0.400000
0.300000
-0.400000
0.500000
0.400000
-0.300000
0.000000
0.500000
0.500000
-0.200000
0.500000
0.200000
-0.400000
0.500000
0.500000
0.100000
-0.100000
0.500000
0.400000
-0.200000
0.200000
0.500000
-0.100000
0.500000
0.500000
0.200000
0.400000
0.000000
0.500000
0.300000
-0.200000
0.000000
-0.300000
0.100000
-0.200000
-0.400000
0.200000
0.100000
-0.100000
0.300000
0.400000
0.500000
0.400000
-0.200000
0.300000
-0.200000
-0.300000
0.200000
0.100000
0.300000
0.300000
0.000000
-0.300000
-0.100000
0.400000
-0.200000
0.400000
-0.300000
-0.200000
0.200000
-0.200000
-0.400000
0.400000
-0.100000
-0.300000
0.000000
0.000000
-0.300000
-0.100000
-0.100000
0.300000
0.100000
-0.200000
0.000000
0.400000
0.500000
0.000000
0.400000
0.400000
0.000000
-0.300000
0.400000
0.000000
0.000000
-0.400000
0.200000
0.000000
0.400000
0.000000
-0.200000
0.200000
0.300000
0.400000
0.300000
0.100000
0.000000
0.300000
-0.400000
-0.200000
0.500000
0.500000
0.300000
0.500000
-0.200000
0.300000
0.300000
-0.100000
-0.400000
0.100000
0.300000
-0.100000
0.000000
0.500000
-0.300000
0.400000
-0.300000
-0.400000
-0.400000
0.400000
0.500000
0.400000
0.100000
0.000000
-0.300000
-0.100000
0.000000
0.100000
0.500000
-0.400000
0.000000
0.500000
0.300000
0.000000
-0.100000
-0.400000
-0.300000
0.300000
0.200000
0.300000
0.200000
-0.100000
-0.300000
-0.200000
0.100000
0.500000
0.100000
0.300000
0.100000
0.400000
0.300000
0.000000
-0.100000
-0.100000
0.000000
0.100000
0.400000
0.300000
0.300000
0.400000
-0.100000
-0.400000
0.300000
-0.400000
0.000000
-0.400000
0.500000
-0.100000
0.100000
0.100000
0.100000
0.400000
-0.400000
0.400000
0.200000
0.100000
-0.200000
0.100000
-0.400000
0.500000
0.500000
0.400000
0.100000
-0.200000
-0.300000
0.000000
0.300000
0.500000
-0.100000
-0.400000
0.400000
0.400000
0.200000
-0.100000
0.100000
0.100000
0.100000
0.100000
0.100000
0.500000
0.100000
0.200000
0.200000
0.200000
0.100000
0.200000
0.000000
0.500000
-0.100000
-0.200000
0.300000
-0.100000
0.100000
0.400000
-0.100000
-0.300000
-0.300000
0.000000
0.400000
0.000000
0.400000
-0.200000
0.300000
-0.400000
0.200000
-0.400000
0.500000
0.000000
0.500000
0.100000
0.000000
0.300000
0.200000
0.300000
0.100000
-0.300000
0.200000
0.500000
0.200000
0.000000
0.500000
0.100000
-0.200000
0.300000
0.300000
0.100000
-0.300000
-0.100000
-0.400000
0.300000
-0.100000
-0.300000
0.400000
0.100000
0.100000
0.500000
0.400000
-0.100000
-0.100000
-0.300000
-0.400000
0.400000
-0.300000
-0.200000
-0.100000
-0.400000
0.200000
0.000000
0.400000
-0.200000
0.400000
0.100000
-0.400000
-0.100000
0.300000
-0.400000
0.400000
0.000000
-0.400000
0.500000
0.200000
0.500000
-0.300000
0.400000
-0.400000
0.500000
0.000000
-0.300000
-0.100000
-0.200000
-0.100000
0.300000
0.300000
0.500000
-0.400000
0.000000
-0.300000
0.000000
0.000000
-0.400000
0.400000
-0.300000
0.100000
0.400000
0.300000
-0.400000
0.200000
0.300000
-0.100000
0.300000
0.200000
0.100000
0.300000
0.500000
0.000000
0.200000
-0.100000
0.500000
0.200000
0.400000
0.300000
0.500000
0.300000
0.400000
-0.100000
-0.300000
-0.400000
0.100000
0.500000
0.200000
-0.300000
0.500000
-0.300000
0.000000
0.000000
-0.100000
-0.200000
-0.400000
-0.100000
0.100000
-0.200000
0.500000
0.200000
-0.100000
0.100000
0.000000
-0.100000
0.300000
-0.400000
-0.400000
0.500000
0.200000
0.400000
0.300000
-0.300000
-0.400000
0.100000
0.300000
0.500000
0.300000
-0.100000
-0.400000
0.400000
0.300000
0.500000
0.400000
0.300000
0.100000
0.200000
0.000000
-0.200000
0.000000
0.500000
0.500000
0.400000
-0.200000
0.400000
-0.200000
-0.300000
0.100000
0.000000
-0.100000
-0.100000
0.400000
0.100000
0.200000
-0.300000
-0.400000
-0.200000
-0.100000
-0.300000
-0.100000
-0.200000
0.500000
0.000000
0.300000
0.500000
0.400000
-0.400000
-0.400000
0.400000
0.100000
-0.100000
0.400000
-0.100000
0.500000
0.000000
0.400000
-0.300000
-0.200000
0.400000
0.100000
-0.400000
0.400000
0.200000
-0.400000
-0.200000
-0.100000
0.400000
0.300000
-0.300000
-0.100000
-0.400000
-0.300000
0.300000
0.500000
0.300000
-0.300000
-0.200000
-0.400000
-0.100000
0.000000
0.500000
0.400000
-0.100000
-0.300000
0.000000
0.400000
0.100000
-0.400000
0.100000
0.100000
0.000000
0.100000
0.100000
0.300000
0.000000
-0.400000
-0.400000
-0.300000
0.200000
-0.100000
-0.100000
-0.400000
0.000000
-0.100000
0.300000
0.100000
-0.300000
0.500000
0.500000
0.300000
0.400000
-0.200000
0.200000
-0.300000
0.200000
-0.200000
-0.300000
0.100000
0.400000
0.400000
-0.100000
0.500000
0.300000
0.000000
-0.100000
0.500000
-0.300000
0.300000
0.300000
0.500000
-0.400000
0.000000
0.500000
0.100000
0.300000
-0.300000
0.100000
-0.200000
-0.200000
0.200000
-0.300000
-0.200000
0.400000
-0.400000
0.100000
0.200000
0.000000
0.400000
-0.100000
-0.200000
-0.100000
0.400000
0.500000
0.100000
-0.100000
0.000000
0.100000
0.300000
0.300000
-0.400000
-0.100000
0.500000
-0.100000
0.500000
0.400000
0.300000
-0.200000
-0.300000
-0.200000
0.400000
0.000000
-0.200000
-0.400000
-0.100000
0.200000
-0.200000
0.100000
0.500000
0.100000
-0.400000
0.300000
0.000000
-0.100000
0.500000
-0.200000
0.200000
-0.100000
-0.100000
0.200000
0.000000
0.200000
-0.300000
0.000000
-0.100000
0.500000
-0.400000
0.000000
-0.200000
-0.100000
0.000000
-0.100000
-0.300000
0.000000
0.500000
-0.100000
0.000000
-0.200000
0.100000
0.000000
0.400000
0.500000
0.200000
-0.200000
0.400000
-0.200000
0.100000
-0.100000
0.400000
0.300000
-0.400000
0.500000
-0.400000
-0.100000
0.000000
-0.200000
-0.100000
0.200000
-0.300000
-0.400000
-0.200000
0.500000
-0.100000
-0.200000
0.000000
0.200000
0.200000
0.200000
-0.400000
-0.100000
0.500000
-0.200000
0.300000
-0.400000
0.500000
-0.100000
-0.400000
0.400000
0.200000
0.100000
-0.300000
-0.200000
0.300000
-0.300000
0.500000
-0.200000
0.400000
0.400000
0.100000
0.000000
0.400000
-0.300000
-0.300000
0.300000
-0.100000
0.000000
-0.200000
0.200000
0.100000
-0.400000
-0.200000
0.500000
-0.100000
-0.400000
0.300000
0.400000
-0.100000
0.300000
0.000000
0.500000
0.000000
-0.100000
-0.400000
0.400000
-0.400000
0.100000
0.300000
-0.100000
0.300000
0.100000
0.300000
0.300000
0.200000
-0.200000
0.300000
0.300000
0.200000
0.000000
-0.400000
-0.200000
0.300000
-0.100000
0.100000
-0.200000
0.100000
0.500000
0.100000
-0.200000
-0.200000
0.000000
-0.300000
-0.300000
-0.200000
0.300000
-0.300000
-0.200000
0.400000
-0.200000
0.200000
0.200000
0.500000
0.500000
0.400000
-0.200000
0.200000
0.400000
0.000000
-0.300000
0.200000
0.100000
0.100000
0.400000
-0.400000
0.000000
0.000000
-0.400000
0.100000
-0.200000
0.200000
0.300000
-0.300000
0.100000
0.200000
0.400000
0.500000
0.400000
-0.400000
0.200000
0.500000
0.000000
-0.200000
0.500000
0.400000
0.100000
0.500000
0.100000
0.000000
0.200000
0.400000
0.400000
0.000000
0.200000
0.500000
0.400000
0.000000
-0.200000
-0.300000
-0.300000
-0.400000
-0.200000
0.000000
-0.100000
-0.200000
0.300000
0.000000
0.200000
0.100000
0.200000
0.500000
0.300000
0.100000
-0.400000
-0.200000
0.500000
-0.100000
-0.300000
0.300000
0.200000
-0.200000
0.300000
0.100000
0.300000
0.400000
0.000000
0.200000
-0.200000
-0.400000
0.200000
0.200000
0.200000
0.400000
-0.300000
0.200000
0.300000
0.500000
0.500000
0.500000
-0.100000
-0.400000
0.000000
-0.300000
0.300000
0.100000
-0.400000
0.300000
-0.100000
-0.200000
-0.300000
-0.400000
0.100000
0.000000
0.300000
0.100000
0.400000
0.000000
0.000000
0.300000
0.000000
0.200000
0.100000
0.000000
0.500000
0.200000
0.500000
0.500000
0.500000
-0.200000
0.400000
-0.300000
-0.300000
0.300000
0.000000
0.000000
-0.100000
0.000000
-0.200000
0.200000
0.300000
0.500000
0.100000
0.400000
0.000000
-0.300000
0.300000
-0.100000
-0.200000
-0.300000
-0.300000
-0.100000
0.400000
-0.300000
-0.300000
0.400000
-0.100000
-0.400000
0.400000
-0.300000
0.100000
0.400000
0.500000
-0.200000
0.300000
-0.200000
0.500000
-0.100000
0.500000
0.200000
-0.100000
0.500000
-0.200000
-0.400000
-0.300000
-0.200000
0.300000
0.100000
0.400000
0.400000
0.300000
0.100000
-0.100000
-0.300000
0.300000
-0.100000
0.500000
-0.400000
0.300000
-0.400000
0.500000
0.400000
0.300000
0.200000
0.300000
0.500000
-0.300000
-0.100000
0.400000
-0.300000
0.200000
0.100000
-0.400000
0.300000
-0.200000
0.100000
-0.200000
-0.300000
0.000000
-0.400000
-0.100000
0.500000
0.300000
-0.100000
0.300000
0.100000
-0.300000
-0.400000
0.500000
0.300000
-0.100000
0.500000
0.200000
-0.300000
-0.300000
0.400000
-0.400000
-0.200000
0.100000
0.100000
-0.300000
-0.400000
0.000000
-0.100000
-0.100000
0.000000
-0.300000
-0.300000
0.200000
0.000000
0.300000
0.100000
-0.300000
0.200000
-0.400000
0.500000
-0.100000
0.100000
0.200000
0.500000
0.400000
-0.200000
0.100000
0.300000
-0.300000
-0.100000
-0.200000
0.200000
0.300000
0.500000
0.100000
-0.400000
-0.200000
0.100000
0.100000
-0.200000
-0.400000
0.100000
-0.300000
-0.100000
0.300000
0.400000
-0.400000
0.100000
0.500000
0.300000
0.200000
-0.300000
0.300000
0.300000
0.400000
-0.400000
0.400000
-0.300000
0.100000
0.000000
-0.400000
-0.200000
0.400000
-0.400000
0.200000
0.100000
-0.300000
-0.400000
-0.400000
0.500000
0.300000
0.200000
-0.200000
0.500000
-0.400000
-0.200000
0.300000
-0.300000
-0.200000
0.200000
-0.400000
0.100000
0.500000
0.200000
0.200000
0.100000
-0.100000
0.300000
0.100000
0.300000
-0.300000
-0.100000
-0.400000
0.500000
-0.200000
-0.100000
0.300000
0.000000
0.200000
-0.200000
-0.300000
-0.400000
-0.400000
-0.100000
-0.100000
0.200000
-0.200000
-0.400000
-0.300000
0.300000
0.100000
-0.200000
-0.100000
0.500000
0.100000
0.200000
0.100000
-0.300000
-0.100000
0.400000
-0.300000
-0.100000
-0.200000
-0.200000
0.500000
0.500000
-0.300000
0.000000
-0.300000
0.500000
0.500000
0.100000
-0.400000
0.500000
0.200000
-0.400000
-0.200000
0.500000
-0.400000
-0.300000
-0.400000
0.500000
0.400000
-0.200000
0.500000
-0.400000
0.100000
0.300000
-0.400000
-0.100000
0.200000
-0.400000
0.500000
0.500000
0.300000
-0.300000
-0.400000
-0.100000
0.500000
-0.300000
-0.100000
0.100000
0.400000
-0.100000
-0.200000
0.300000
0.100000
0.200000
0.100000
0.000000
-0.200000
0.200000
0.100000
-0.400000
0.200000
0.400000
0.400000
-0.400000
0.300000
0.200000
0.000000
-0.100000
0.100000
-0.400000
0.500000
0.400000
0.400000
-0.300000
0.300000
-0.100000
0.000000
0.400000
-0.400000
-0.400000
0.200000
0.400000
0.000000
0.000000
0.000000
-0.200000
0.000000
-0.200000
-0.300000
0.500000
0.300000
0.000000
-0.100000
0.200000
0.500000
0.100000
0.200000
-0.100000
-0.100000
0.500000
-0.400000
-0.200000
-0.100000
0.100000
-0.200000
-0.300000
0.100000
0.100000
-0.200000
-0.100000
-0.100000
0.500000
0.500000
-0.400000
-0.300000
0.100000
0.500000
0.400000
0.300000
-0.400000
-0.200000
-0.400000
-0.400000
0.400000
0.100000
0.400000
-0.300000
-0.300000
0.500000
0.200000
-0.400000
-0.400000
0.500000
-0.200000
-0.400000
0.400000
0.300000
0.500000
0.500000
-0.400000
0.300000
0.100000
-0.400000
0.300000
-0.300000
-0.300000
0.000000
-0.300000
0.200000
0.100000
0.400000
0.000000
0.100000
-0.200000
0.400000
-0.100000
-0.100000
0.100000
-0.100000
0.400000
-0.400000
0.400000
-0.300000
0.300000
0.400000
0.500000
-0.400000
0.300000
0.100000
0.100000
0.400000
0.100000
0.000000
-0.200000
-0.300000
-0.300000
-0.200000
0.200000
-0.400000
0.000000
0.500000
-0.100000
0.200000
0.500000
-0.400000
-0.100000
0.000000
0.500000
0.300000
-0.200000
0.400000
0.400000
0.500000
-0.200000
0.100000
-0.300000
-0.100000
-0.300000
-0.400000
-0.100000
0.200000
0.100000
0.100000
0.100000
0.200000
0.000000
-0.400000
-0.100000
0.000000
-0.400000
-0.200000
-0.400000
0.400000
0.000000
0.400000
-0.400000
0.000000
0.200000
0.000000
-0.400000
0.200000
0.500000
0.300000
-0.100000
-0.200000
-0.400000
-0.300000
-0.200000
0.200000
0.400000
0.500000
-0.100000
0.400000
0.500000
-0.300000
0.000000
-0.100000
-0.400000
0.400000
-0.100000
-0.300000
0.300000
0.400000
-0.400000
0.100000
0.100000
-0.100000
0.300000
0.200000
-0.300000
-0.100000
-0.100000
-0.400000
0.000000
-0.100000
-0.300000
0.500000
0.200000
0.000000
0.000000
-0.300000
-0.300000
0.200000
0.400000
-0.200000
0.300000
0.100000
0.500000
0.000000
0.000000
0.400000
0.400000
-0.100000
0.100000
-0.100000
-0.300000
0.200000
0.000000
-0.300000
0.300000
0.400000
0.400000
-0.400000
-0.100000
0.400000
0.100000
-0.400000
0.400000
0.100000
-0.200000
0.300000
0.400000
0.200000
0.400000
-0.200000
0.000000
0.400000
0.500000
0.500000
0.500000
0.100000
0.500000
0.300000
-0.100000
-0.100000
0.200000
0.200000
0.500000
-0.300000
-0.100000
-0.100000
0.100000
0.100000
0.200000
-0.200000
-0.100000
-0.200000
-0.300000
-0.100000
0.100000
0.000000
-0.400000
-0.400000
0.300000
-0.100000
0.500000
0.100000
0.300000
0.100000
-0.400000
-0.400000
0.200000
-0.200000
-0.400000
0.400000
0.400000
0.300000
0.300000
0.200000
0.300000
-0.100000
0.400000
-0.200000
-0.100000
0.500000
0.300000
-0.400000
0.200000
-0.400000
0.200000
0.500000
0.100000
-0.400000
0.000000
0.400000
0.100000
0.100000
0.500000
0.000000
0.500000
0.200000
-0.100000
0.100000
0.000000
-0.100000
-0.200000
0.300000
-0.200000
0.200000
-0.300000
0.000000
-0.200000
0.400000
0.400000
0.500000
0.500000
-0.400000
0.300000
-0.400000
0.000000
0.000000
-0.400000
-0.100000
-0.100000
0.100000
-0.200000
-0.300000
0.100000
-0.400000
-0.400000
0.200000
-0.400000
0.500000
0.100000
-0.100000
0.200000
0.100000
0.100000
0.000000
-0.400000
0.500000
-0.200000
0.500000
-0.300000
0.200000
-0.200000
0.500000
-0.400000
0.200000
0.300000
0.500000
0.300000
-0.300000
0.200000
0.000000
-0.100000
-0.100000
0.300000
-0.200000
-0.400000
-0.200000
0.200000
-0.200000
-0.200000
0.000000
-0.200000
-0.300000
-0.100000
0.200000
0.100000
0.000000
0.200000
0.100000
-0.200000
0.000000
0.000000
-0.300000
0.400000
0.200000
-0.300000
0.100000
0.000000
0.300000
-0.200000
0.100000
0.100000
-0.300000
0.500000
-0.400000
-0.400000
0.100000
-0.400000
0.100000
-0.400000
-0.400000
0.300000
0.100000
-0.400000
-0.200000
0.100000
0.500000
0.200000
0.500000
-0.300000
-0.100000
0.500000
0.500000
-0.100000
0.500000
-0.400000
0.100000
0.500000
-0.100000
0.200000
0.100000
-0.400000
0.300000
0.500000
-0.300000
0.200000
0.200000
-0.200000
-0.300000
0.400000
0.100000
-0.100000
-0.400000
0.500000
0.400000
0.200000
-0.100000
-0.100000
0.200000
0.100000
0.400000
-0.400000
0.300000
-0.400000
-0.100000
0.400000
-0.400000
0.400000
0.200000
0.100000
-0.200000
-0.100000
0.100000
0.100000
0.000000
0.200000
0.300000
-0.100000
0.500000
-0.100000
-0.300000
0.300000
0.400000
0.100000
0.200000
0.200000
0.200000
-0.100000
0.500000
-0.400000
-0.200000
0.500000
-0.400000
0.500000
-0.200000
-0.100000
0.000000
0.100000
0.400000
0.500000
-0.100000
0.100000
0.400000
-0.300000
0.400000
0.000000
0.400000
-0.300000
-0.400000
-0.300000
-0.300000
0.000000
0.100000
0.300000
0.200000
-0.200000
-0.200000
-0.300000
-0.200000
0.200000
-0.300000
0.200000
-0.100000
-0.300000
-0.400000
0.300000
0.500000
0.200000
0.100000
-0.200000
0.400000
0.100000
0.100000
0.300000
0.400000
0.200000
0.100000
-0.200000
-0.100000
0.200000
-0.200000
0.000000
0.300000
-0.300000
-0.400000
0.300000
-0.400000
-0.300000
0.500000
0.300000
-0.200000
-0.300000
0.100000
0.400000
-0.300000
0.300000
0.500000
0.300000
-0.200000
0.000000
0.000000
0.200000
0.300000
0.400000
-0.200000
-0.200000
0.000000
0.300000
0.000000
-0.300000
0.100000
-0.300000
0.400000
-0.100000
-0.300000
0.400000
-0.400000
0.200000
-0.400000
0.200000
-0.100000
0.300000
-0.300000
-0.200000
0.000000
0.300000
-0.400000
-0.400000
-0.200000
-0.300000
0.400000
0.200000
0.100000
0.200000
-0.300000
0.500000
0.000000
0.500000
-0.100000
-0.300000
-0.200000
-0.200000
0.400000
0.200000
0.500000
0.300000
-0.400000
-0.400000
0.400000
-0.200000
0.000000
0.100000
-0.300000
-0.100000
-0.300000
-0.100000
-0.100000
0.300000
0.400000
0.200000
-0.200000
0.300000
0.100000
0.400000
0.000000
-0.100000
-0.300000
0.300000
-0.100000
-0.400000
-0.400000
-0.200000
-0.300000
-0.400000
0.000000
0.200000
0.000000
0.400000
-0.300000
0.500000
-0.200000
-0.300000
-0.300000
-0.400000
0.500000
-0.300000
0.400000
0.200000
0.500000
-0.100000
0.000000
0.500000
0.300000
-0.400000
-0.300000
0.200000
-0.400000
0.300000
0.500000
0.000000
-0.400000
0.000000
-0.100000
0.400000
0.000000
-0.300000
-0.300000
0.400000
0.200000
-0.100000
0.500000
-0.300000
0.500000
0.400000
-0.400000
-0.400000
0.100000
0.200000
0.400000
0.100000
0.500000
-0.200000
0.200000
-0.200000
-0.200000
-0.100000
0.400000
-0.100000
-0.100000
-0.200000
0.300000
0.400000
0.500000
-0.200000
-0.200000
0.100000
0.300000
0.000000
-0.200000
-0.400000
0.000000
-0.400000
-0.300000
0.200000
0.200000
0.000000
-0.400000
0.200000
0.200000
0.500000
-0.200000
0.200000
-0.100000
0.200000
-0.400000
0.300000
0.000000
0.100000
-0.200000
0.500000
0.100000
0.300000
-0.100000
-0.200000
-0.100000
0.400000
-0.400000
0.200000
0.500000
-0.200000
0.500000
-0.400000
0.100000
-0.300000
0.100000
-0.300000
0.000000
0.000000
-0.200000
0.200000
-0.100000
0.500000
-0.400000
0.500000
-0.400000
0.000000
0.500000
0.400000
0.000000
-0.300000
0.000000
0.000000
0.200000
-0.300000
0.400000
0.400000
0.400000
0.100000
0.200000
0.400000
-0.100000
0.100000
0.000000
0.400000
0.500000
0.300000
0.200000
0.100000
-0.200000
-0.100000
0.000000
0.400000
0.200000
-0.100000
0.100000
0.000000
0.400000
0.000000
0.100000
0.500000
-0.300000
-0.300000
-0.200000
0.400000
0.100000
-0.300000
0.400000
-0.200000
-0.300000
-0.200000
0.400000
0.100000
-0.200000
0.500000
0.300000
0.300000
0.100000
0.000000
-0.400000
-0.200000
-0.200000
0.100000
0.200000
-0.200000
0.300000
0.100000
0.500000
0.500000
-0.200000
0.300000
0.500000
-0.300000
-0.200000
-0.300000
0.300000
-0.200000
0.300000
0.100000
-0.400000
0.200000
0.300000
0.300000
0.100000
-0.100000
-0.300000
-0.300000
-0.400000
-0.300000
0.000000
-0.200000
0.400000
-0.400000
-0.100000
0.000000
0.300000
0.300000
0.300000
-0.100000
-0.300000
-0.400000
-0.400000
0.400000
-0.200000
0.300000
-0.200000
0.000000
0.000000
0.100000
0.100000
0.100000
0.100000
0.300000
-0.100000
0.000000
-0.300000
-0.200000
0.000000
0.000000
0.300000
-0.400000
0.500000
0.500000
-0.200000
0.300000
-0.100000
0.100000
0.500000
-0.300000
-0.200000
0.200000
0.300000
0.100000
0.500000
-0.100000
0.400000
0.500000
-0.300000
0.500000
-0.300000
-0.100000
0.400000
0.500000
0.500000
0.000000
-0.400000
0.000000
-0.400000
-0.100000
0.200000
0.100000
0.200000
0.100000
-0.300000
0.000000
-0.300000
0.400000
0.500000
0.300000
-0.300000
-0.400000
-0.100000
0.500000
0.300000
0.300000
0.400000
0.100000
-0.400000
0.100000
0.200000
0.400000
0.400000
0.200000
0.400000
0.500000
-0.300000
-0.100000
0.300000
0.000000
-0.200000
-0.400000
0.300000
-0.200000
0.000000
-0.300000
-0.100000
0.000000
-0.100000
-0.400000
-0.100000
0.200000
-0.400000
0.100000
0.100000
-0.200000
0.100000
0.100000
0.400000
-0.200000
0.200000
-0.300000
0.300000
-0.200000
-0.300000
0.000000
-0.300000
0.100000
-0.400000
-0.200000
0.000000
-0.300000
-0.100000
0.100000
0.000000
0.400000
0.500000
0.000000
0.000000
0.100000
0.100000
0.200000
0.000000
0.100000
-0.300000
0.400000
0.300000
0.400000
0.500000
-0.100000
-0.200000
0.500000
-0.300000
0.000000
0.400000
0.000000
0.200000
0.000000
0.200000
0.500000
-0.300000
0.100000
0.000000
0.300000
0.000000
0.100000
-0.100000
0.000000
0.200000
0.400000
0.100000
0.300000
-0.100000
0.100000
-0.100000
0.500000
-0.300000
-0.200000
0.200000
-0.100000
0.200000
0.100000
0.200000
0.300000
0.300000
0.300000
-0.400000
0.200000
0.400000
-0.200000
0.500000
-0.100000
0.300000
0.100000
0.300000
-0.100000
-0.300000
0.400000
0.300000
-0.400000
0.200000
0.000000
0.100000
0.200000
0.400000
-0.400000
0.200000
-0.400000
0.400000
0.400000
0.300000
0.200000
0.200000
0.400000
0.300000
0.400000
0.300000
0.400000
0.200000
-0.200000
-0.300000
0.200000
0.100000
-0.300000
0.200000
-0.100000
0.500000
0.200000
0.100000
0.500000
0.100000
0.300000
-0.300000
0.400000
0.400000
0.300000
0.000000
0.000000
-0.200000
-0.400000
-0.300000
-0.100000
-0.300000
-0.200000
0.000000
0.200000
0.500000
-0.100000
-0.200000
0.500000
0.300000
0.300000
-0.300000
0.100000
0.100000
-0.100000
0.100000
0.500000
-0.100000
-0.400000
-0.200000
0.300000
0.500000
-0.100000
-0.100000
-0.200000
0.300000
0.200000
0.400000
0.200000
0.500000
0.200000
-0.200000
0.300000
0.200000
0.500000
-0.400000
0.100000
0.000000
-0.300000
0.300000
0.400000
-0.400000
-0.200000
0.100000
0.200000
-0.400000
0.300000
-0.200000
-0.100000
0.000000
0.400000
-0.300000
0.500000
-0.200000
-0.100000
-0.400000
0.200000
0.500000
0.500000
-0.200000
0.100000
-0.400000
0.400000
0.000000
-0.200000
0.100000
-0.400000
0.500000
-0.100000
0.500000
0.400000
-0.300000
0.200000
-0.100000
0.000000
-0.300000
-0.300000
-0.300000
-0.100000
-0.300000
0.300000
-0.300000
0.200000
-0.400000
0.500000
-0.400000
0.300000
0.400000
0.500000
-0.100000
0.100000
-0.200000
0.300000
-0.100000
0.400000
-0.300000
0.000000
0.500000
0.200000
-0.300000
-0.300000
-0.300000
0.100000
-0.400000
0.500000
-0.400000
-0.400000
0.200000
-0.400000
0.500000
-0.200000
0.200000
-0.200000
0.300000
-0.300000
-0.100000
0.300000
-0.200000
0.200000
0.000000
-0.400000
-0.200000
0.500000
0.000000
0.200000
0.100000
-0.400000
-0.400000
0.300000
-0.300000
-0.200000
0.000000
0.400000
0.300000
0.300000
0.300000
0.500000
-0.300000
-0.200000
0.100000
0.400000
-0.300000
0.500000
0.300000
0.000000
-0.200000
0.400000
-0.300000
-0.100000
-0.400000
0.100000
-0.400000
0.300000
0.500000
0.500000
0.400000
0.100000
-0.100000
0.300000
-0.200000
0.300000
-0.200000
-0.400000
0.100000
-0.400000
0.200000
0.200000
-0.200000
-0.100000
0.500000
-0.400000
0.400000
0.500000
0.500000
-0.400000
0.400000
0.300000
0.100000
0.100000
0.500000
0.300000
-0.100000
0.400000
0.400000
0.200000
0.100000
0.100000
-0.100000
0.200000
0.200000
0.200000
-0.100000
-0.400000
-0.300000
0.400000
-0.200000
0.100000
0.200000
-0.300000
-0.300000
0.300000
0.300000
-0.300000
0.000000
-0.300000
0.400000
0.100000
-0.100000
0.200000
0.300000
-0.200000
-0.100000
-0.300000
0.000000
0.000000
-0.400000
0.500000
0.000000
-0.200000
0.100000
-0.300000
0.300000
-0.300000
0.400000
0.100000
0.500000
-0.300000
0.400000
-0.300000
0.500000
-0.400000
0.400000
-0.200000
-0.400000
-0.400000
0.100000
0.000000
0.300000
0.000000
-0.200000
-0.100000
0.300000
-0.200000
0.200000
-0.100000
-0.400000
0.000000
0.200000
-0.300000
-0.100000
-0.200000
0.100000
-0.100000
-0.200000
-0.400000
-0.300000
-0.300000
0.300000
0.000000
0.100000
0.300000
-0.100000
0.000000
-0.100000
-0.200000
-0.100000
0.000000
0.000000
0.500000
-0.100000
-0.400000
0.400000
0.300000
-0.400000
0.100000
-0.400000
0.000000
0.400000
0.500000
-0.200000
0.400000
0.100000
0.500000
-0.300000
0.200000
0.200000
0.500000
0.000000
0.400000
0.400000
0.500000
0.000000
-0.100000
0.100000
0.400000
-0.200000
0.300000
-0.200000
0.300000
0.100000
0.100000
0.500000
0.500000
0.500000
-0.200000
0.100000
-0.100000
0.100000
-0.100000
-0.300000
0.100000
0.200000
-0.400000
0.300000
0.100000
0.400000
0.300000
-0.100000
0.200000
0.200000
-0.400000
-0.200000
0.300000
0.300000
0.100000
-0.200000
0.200000
0.500000
0.000000
0.100000
-0.100000
0.400000
0.400000
-0.200000
-0.300000
0.000000
-0.400000
0.500000
-0.200000
-0.300000
0.400000
0.400000
0.400000
-0.400000
-0.200000
-0.400000
0.300000
-0.200000
-0.200000
-0.100000
0.300000
-0.300000
-0.200000
-0.400000
-0.300000
0.400000
-0.200000
0.100000
0.300000
0.200000
0.100000
-0.300000
-0.200000
-0.300000
-0.400000
0.300000
0.500000
0.000000
0.200000
0.100000
-0.100000
-0.200000
0.300000
-0.300000
0.500000
0.400000
-0.300000
-0.300000
0.200000
0.100000
0.300000
0.100000
-0.200000
-0.300000
-0.200000
0.500000
0.300000
0.100000
-0.100000
-0.100000
-0.100000
0.500000
-0.300000
0.200000
-0.400000
-0.200000
0.300000
0.000000
-0.200000
-0.300000
-0.400000
0.400000
0.500000
0.400000
0.500000
0.100000
0.100000
-0.300000
0.500000
0.500000
-0.200000
0.500000
0.300000
-0.200000
0.500000
0.400000
0.200000
-0.200000
-0.400000
0.000000
-0.200000
0.200000
-0.300000
0.300000
0.200000
-0.100000
0.300000
0.300000
-0.400000
0.400000
-0.400000
0.500000
0.300000
0.200000
-0.400000
0.500000
-0.200000
-0.300000
0.000000
0.300000
0.400000
0.100000
0.500000
-0.100000
0.400000
-0.100000
0.400000
0.400000
-0.100000
-0.400000
0.500000
0.200000
0.100000
0.400000
-0.200000
0.400000
0.000000
-0.100000
0.000000
0.400000
-0.100000
0.100000
-0.200000
0.100000
-0.100000
0.200000
0.200000
-0.300000
-0.200000
0.200000
0.500000
-0.300000
-0.300000
0.400000
0.500000
0.300000
0.200000
-0.300000
0.500000
-0.200000
0.300000
0.200000
0.200000
0.300000
0.300000
-0.400000
0.400000
0.400000
0.000000
0.300000
0.400000
-0.400000
0.200000
0.300000
0.000000
0.200000
0.400000
0.300000
-0.300000
-0.300000
-0.400000
0.100000
0.500000
-0.400000
-0.400000
0.000000
0.100000
0.200000
0.000000
0.400000
-0.200000
0.000000
0.400000
0.100000
-0.200000
-0.200000
0.000000
0.200000
0.400000
0.300000
0.200000
0.200000
-0.400000
-0.100000
0.000000
0.100000
0.300000
-0.200000
-0.100000
0.200000
0.000000
-0.100000
0.400000
0.100000
-0.200000
0.400000
-0.100000
0.200000
-0.100000
0.100000
0.200000
0.000000
0.300000
-0.100000
0.100000
-0.300000
0.300000
-0.100000
0.200000
0.500000
0.100000
-0.300000
0.500000
0.500000
0.200000
0.300000
0.100000
-0.200000
0.200000
0.200000
0.400000
0.200000
-0.100000
-0.400000
0.200000
-0.100000
-0.100000
-0.100000
0.000000
0.300000
0.500000
-0.400000
0.400000
0.200000
0.500000
0.300000
-0.200000
-0.300000
0.000000
0.100000
-0.300000
0.400000
-0.100000
0.200000
0.100000
0.100000
0.500000
0.400000
0.000000
0.400000
0.100000
0.200000
0.100000
0.400000
-0.200000
-0.300000
-0.300000
0.500000
-0.100000
0.400000
0.200000
-0.200000
-0.200000
-0.300000
-0.100000
-0.400000
-0.100000
-0.300000
0.400000
-0.400000
0.000000
0.000000
-0.200000
0.400000
0.100000
0.000000
0.400000
-0.200000
0.500000
0.200000
-0.200000
-0.100000
0.300000
0.000000
-0.100000
-0.100000
-0.200000
-0.200000
0.100000
-0.400000
-0.200000
-0.100000
-0.200000
0.400000
0.100000
-0.400000
0.200000
-0.100000
-0.400000
-0.100000
-0.100000
0.300000
-0.300000
0.200000
-0.200000
0.200000
-0.400000
0.400000
-0.300000
0.500000
-0.100000
-0.300000
0.200000
0.200000
0.500000
0.000000
-0.200000
-0.100000
0.500000
-0.300000
0.500000
0.300000
0.300000
-0.300000
-0.400000
-0.200000
-0.400000
0.100000
0.100000
-0.200000
0.200000
-0.300000
0.100000
0.500000
0.400000
-0.400000
-0.300000
-0.300000
0.400000
0.400000
0.400000
-0.300000
-0.400000
-0.300000
0.400000
-0.300000
0.200000
-0.200000
-0.400000
0.100000
-0.400000
0.100000
-0.100000
-0.100000
0.500000
0.000000
0.400000
-0.300000
-0.200000
-0.100000
0.400000
-0.400000
0.500000
0.000000
0.300000
0.500000
-0.100000
0.400000
0.300000
-0.200000
-0.400000
0.200000
-0.100000
0.300000
0.200000
0.000000
0.000000
0.100000
0.400000
-0.200000
-0.200000
0.100000
0.200000
-0.200000
0.300000
-0.300000
-0.400000
-0.300000
-0.400000
0.100000
-0.100000
-0.300000
-0.100000
-0.200000
-0.400000
0.400000
-0.100000
-0.200000
0.500000
-0.300000
-0.400000
0.500000
-0.200000
0.200000
0.400000
0.200000
-0.200000
0.500000
0.000000
0.200000
0.100000
-0.100000
0.500000
-0.100000
0.500000
0.500000
-0.200000
-0.400000
0.400000
0.000000
-0.300000
0.100000
0.400000
-0.100000
0.400000
-0.200000
0.400000
0.000000
0.100000
0.000000
0.100000
-0.100000
-0.300000
0.100000
0.300000
0.200000
0.000000
0.500000
0.200000
-0.400000
0.200000
0.000000
-0.400000
0.500000
0.100000
-0.200000
0.000000
0.200000
0.000000
0.500000
0.400000
0.300000
0.500000
-0.400000
0.200000
-0.400000
-0.300000
0.500000
-0.100000
0.200000
-0.200000
0.200000
0.200000
-0.100000
-0.200000
0.300000
0.200000
0.400000
0.200000
0.300000
-0.300000
-0.400000
-0.200000
0.300000
0.400000
-0.300000
0.000000
0.100000
0.200000
0.000000
0.100000
-0.300000
-0.300000
-0.400000
-0.400000
-0.100000
0.100000
0.200000
0.000000
-0.200000
0.000000
-0.100000
-0.300000
-0.400000
0.000000
0.100000
0.300000
0.200000
-0.300000
0.200000
-0.200000
-0.200000
0.400000
0.000000
0.200000
0.500000
0.300000
0.400000
0.400000
0.100000
0.000000
-0.300000
0.000000
-0.300000
0.200000
-0.200000
0.100000
0.100000
0.200000
0.500000
0.300000
0.400000
0.000000
0.100000
0.400000
-0.100000
-0.300000
-0.300000
0.200000
0.500000
-0.300000
-0.200000
0.400000
0.300000
-0.100000
0.400000
0.200000
0.300000
0.400000
0.000000
-0.300000
0.300000
-0.400000
0.100000
0.500000
0.300000
-0.100000
-0.100000
-0.100000
-0.300000
0.000000
0.100000
0.000000
0.300000
-0.100000
-0.400000
-0.100000
0.300000
0.500000
0.100000
0.300000
0.100000
0.200000
0.100000
-0.400000
-0.400000
-0.100000
-0.200000
0.400000
-0.400000
-0.200000
0.500000
0.100000
0.300000
-0.400000
-0.200000
0.200000
0.400000
-0.200000
-0.400000
0.200000
0.200000
0.300000
0.200000
-0.100000
0.500000
0.200000
0.000000
-0.200000
0.500000
-0.400000
-0.100000
-0.100000
0.500000
0.500000
-0.100000
-0.100000
-0.400000
0.500000
0.300000
-0.300000
0.100000
-0.300000
0.500000
-0.200000
-0.200000
-0.100000
0.100000
0.400000
-0.300000
0.100000
0.000000
0.200000
0.100000
-0.400000
-0.200000
0.100000
0.200000
0.000000
-0.100000
-0.300000
0.400000
-0.400000
0.200000
0.300000
0.400000
-0.300000
-0.100000
0.200000
0.300000
-0.300000
0.000000
0.000000
-0.400000
0.200000
-0.400000
-0.100000
0.500000
-0.400000
0.200000
0.200000
0.300000
-0.200000
-0.300000
-0.200000
0.100000
0.200000
0.200000
-0.300000
-0.200000
0.500000
0.000000
0.500000
0.400000
0.400000
0.400000
-0.200000
0.300000
0.200000
0.400000
0.300000
0.100000
0.200000
-0.300000
0.000000
-0.400000
-0.400000
0.300000
0.500000
0.400000
-0.400000
0.400000
0.000000
0.100000
0.100000
-0.300000
0.000000
-0.200000
0.300000
0.000000
-0.300000
-0.400000
0.000000
0.100000
-0.300000
-0.200000
-0.300000
0.400000
0.000000
0.400000
0.100000
0.200000
-0.400000
0.200000
0.400000
0.500000
0.100000
0.000000
0.500000
0.000000
-0.100000
-0.100000
0.300000
0.400000
-0.200000
-0.400000
0.400000
0.400000
-0.200000
0.100000
0.200000
0.100000
-0.300000
-0.100000
-0.400000
-0.300000
-0.300000
-0.400000
-0.200000
0.200000
0.500000
-0.400000
-0.100000
-0.100000
-0.300000
0.100000
0.200000
0.400000
0.300000
0.100000
-0.300000
0.500000
-0.100000
-0.300000
-0.300000
0.200000
-0.100000
-0.300000
-0.300000
0.000000
0.000000
-0.100000
0.100000
0.000000
0.000000
0.100000
-0.100000
0.000000
0.300000
0.500000
0.500000
0.300000
0.300000
-0.200000
-0.200000
-0.200000
-0.100000
0.000000
-0.100000
-0.400000
0.300000
0.000000
0.100000
0.500000
-0.200000
0.300000
-0.400000
0.300000
0.500000
0.000000
-0.200000
-0.100000
-0.100000
0.500000
0.500000
-0.300000
0.200000
0.500000
0.100000
0.300000
0.100000
-0.100000
0.000000
0.500000
0.100000
0.300000
-0.300000
-0.200000
-0.400000
0.100000
0.300000
-0.100000
0.300000
0.300000
0.200000
0.000000
0.400000
0.500000
0.000000
0.200000
-0.400000
-0.200000
-0.300000
-0.100000
0.000000
-0.400000
-0.300000
-0.200000
0.300000
0.100000
0.300000
0.200000
0.200000
0.100000
0.200000
-0.200000
0.200000
0.400000
-0.300000
-0.300000
0.000000
0.000000
0.300000
0.500000
0.300000
0.500000
-0.100000
0.000000
-0.100000
0.300000
0.100000
0.000000
0.200000
0.100000
0.000000
0.100000
0.300000
-0.300000
-0.100000
0.400000
0.100000
-0.100000
0.400000
0.300000
0.500000
0.200000
-0.200000
-0.300000
-0.200000
0.300000
0.400000
-0.400000
-0.200000
-0.400000
-0.400000
0.400000
-0.400000
0.400000
0.500000
0.100000
0.000000
0.400000
0.500000
0.400000
0.400000
0.500000
0.300000
0.300000
-0.400000
0.100000
0.000000
0.200000
0.300000
-0.100000
-0.100000
0.300000
0.000000
0.100000
-0.100000
0.400000
0.100000
0.500000
-0.200000
0.500000
0.000000
-0.100000
0.200000
-0.300000
-0.100000
0.500000
0.400000
-0.200000
-0.300000
-0.400000
-0.400000
-0.400000
0.300000
-0.100000
0.100000
-0.300000
0.500000
0.000000
0.500000
0.000000
-0.400000
0.200000
0.100000
-0.200000
0.500000
-0.100000
0.200000
-0.400000
0.500000
-0.400000
0.200000
0.400000
0.300000
0.300000
-0.100000
-0.400000
0.200000
-0.400000
0.200000
-0.100000
0.000000
0.200000
0.200000
0.300000
-0.400000
0.400000
-0.300000
0.100000
0.100000
-0.100000
-0.200000
-0.300000
0.000000
-0.200000
-0.200000
0.300000
0.200000
-0.400000
0.100000
0.100000
0.100000
0.100000
0.100000
0.300000
0.100000
0.400000
0.300000
0.000000
-0.300000
-0.400000
0.400000
0.000000
-0.300000
0.500000
0.000000
0.500000
-0.400000
0.200000
0.400000
0.500000
0.000000
0.500000
-0.100000
0.100000
-0.100000
-0.200000
-0.200000
-0.400000
0.400000
-0.300000
0.400000
-0.400000
0.400000
-0.400000
-0.200000
0.000000
-0.400000
0.100000
0.200000
0.200000
0.200000
-0.400000
0.500000
0.200000
-0.300000
-0.200000
-0.300000
0.200000
0.000000
0.100000
0.400000
0.300000
-0.400000
-0.300000
0.100000
-0.200000
0.100000
-0.400000
-0.400000
0.400000
0.500000
0.200000
0.000000
0.300000
0.000000
0.400000
0.000000
-0.300000
0.100000
-0.200000
0.200000
0.200000
0.500000
0.400000
0.500000
0.100000
0.500000
0.200000
0.000000
0.400000
-0.300000
0.400000
-0.300000
0.100000
0.000000
-0.200000
0.300000
0.400000
0.100000
0.500000
-0.100000
-0.300000
-0.300000
-0.300000
0.200000
-0.200000
0.300000
-0.200000
0.300000
-0.200000
0.400000
-0.400000
0.300000
0.000000
-0.300000
-0.200000
-0.100000
0.500000
0.300000
0.300000
0.100000
-0.300000
-0.400000
0.100000
0.000000
0.000000
-0.300000
0.100000
0.400000
0.100000
-0.400000
0.000000
0.100000
0.300000
0.300000
0.500000
-0.200000
0.100000
0.500000
0.100000
-0.100000
-0.400000
0.200000
0.100000
-0.100000
0.200000
0.300000
0.300000
0.400000
-0.400000
0.300000
-0.400000
0.400000
-0.300000
-0.400000
-0.100000
0.400000
0.200000
-0.100000
0.300000
0.300000
0.100000
0.000000
-0.200000
0.300000
0.000000
0.400000
-0.300000
-0.300000
0.200000
0.400000
0.400000
-0.300000
0.500000
-0.100000
0.400000
-0.400000
0.400000
0.300000
-0.300000
0.000000
-0.200000
0.500000
0.100000
0.200000
-0.200000
0.100000
-0.300000
0.300000
-0.200000
-0.200000
0.500000
-0.400000
0.200000
0.100000
0.400000
0.000000
-0.200000
0.400000
0.500000
-0.300000
-0.200000
0.300000
-0.300000
-0.400000
-0.100000
0.100000
-0.200000
-0.400000
0.100000
0.500000
0.300000
-0.400000
0.000000
-0.200000
0.100000
0.400000
0.200000
0.500000
0.400000
0.200000
0.500000
0.500000
-0.200000
-0.300000
-0.400000
0.300000
-0.300000
0.000000
0.400000
0.300000
0.100000
0.100000
-0.100000
-0.100000
0.500000
0.000000
0.400000
0.500000
0.200000
0.300000
0.300000
0.400000
0.000000
-0.300000
-0.100000
0.400000
-0.200000
0.000000
0.000000
-0.100000
0.100000
0.000000
-0.100000
-0.400000
-0.400000
-0.300000
0.400000
-0.100000
0.200000
0.400000
0.500000
0.200000
0.000000
0.000000
-0.200000
0.400000
0.200000
-0.200000
0.200000
0.300000
0.100000
0.500000
0.500000
0.000000
-0.100000
0.100000
0.100000
0.100000
-0.300000
-0.100000
0.400000
0.300000
0.100000
-0.300000
-0.200000
0.500000
0.000000
0.100000
-0.200000
0.500000
0.100000
0.200000
0.500000
0.100000
0.500000
0.200000
-0.100000
-0.400000
-0.200000
0.100000
-0.100000
0.200000
0.000000
-0.100000
0.500000
-0.300000
0.100000
0.100000
0.300000
0.400000
0.300000
0.000000
-0.200000
0.500000
0.500000
0.400000
0.200000
-0.200000
-0.300000
0.300000
-0.400000
0.500000
0.500000
0.500000
-0.100000
0.400000
0.400000
0.000000
0.100000
-0.400000
-0.400000
0.300000
-0.300000
0.400000
0.000000
-0.200000
-0.200000
0.400000
0.300000
0.000000
0.100000
0.200000
0.400000
0.500000
0.000000
-0.200000
0.500000
0.400000
-0.300000
-0.200000
0.200000
-0.200000
-0.400000
0.200000
-0.400000
-0.400000
-0.300000
-0.300000
0.200000
-0.100000
0.000000
0.000000
0.500000
-0.100000
0.300000
0.500000
-0.100000
0.100000
0.200000
0.500000
0.400000
0.000000
-0.300000
0.500000
0.300000
0.500000
0.400000
0.000000
0.000000
-0.100000
-0.200000
0.000000
-0.200000
0.300000
0.200000
0.000000
0.200000
-0.100000
-0.100000
0.500000
-0.300000
-0.200000
-0.300000
-0.400000
-0.100000
-0.400000
0.000000
-0.400000
0.400000
-0.200000
0.500000
-0.400000
0.500000
-0.300000
-0.300000
-0.100000
-0.400000
-0.100000
-0.400000
-0.200000
0.200000
0.000000
-0.100000
-0.200000
-0.400000
-0.400000
-0.200000
0.200000
0.200000
0.300000
0.300000
0.300000
-0.100000
0.500000
0.000000
0.500000
0.200000
-0.400000
0.400000
0.300000
0.200000
0.300000
0.400000
0.400000
-0.200000
0.400000
0.500000
0.100000
0.200000
0.300000
0.200000
0.200000
-0.100000
0.500000
0.200000
0.200000
0.100000
-0.200000
-0.200000
0.000000
0.500000
0.500000
-0.100000
0.100000
-0.400000
0.000000
-0.400000
0.100000
0.500000
-0.100000
0.000000
-0.200000
0.000000
0.500000
-0.300000
0.300000
0.400000
0.200000
0.300000
0.300000
0.100000
-0.400000
-0.300000
0.400000
-0.200000
0.300000
-0.100000
-0.400000
0.300000
0.000000
-0.100000
-0.200000
-0.100000
-0.100000
-0.200000
0.100000
-0.100000
-0.200000
0.500000
-0.400000
-0.200000
0.000000
-0.200000
0.300000
-0.100000
-0.300000
-0.100000
-0.200000
0.400000
0.100000
-0.400000
-0.100000
0.400000
0.100000
-0.400000
0.300000
-0.400000
0.100000
0.000000
0.500000
0.300000
0.000000
0.500000
-0.300000
-0.200000
-0.100000
-0.400000
-0.100000
0.000000
0.400000
0.200000
0.300000
0.200000
0.400000
0.200000
0.300000
0.200000
0.300000
0.100000
0.300000
0.500000
-0.400000
0.400000
0.300000
0.200000
0.400000
-0.100000
-0.100000
0.100000
0.500000
-0.100000
-0.300000
0.200000
0.400000
0.000000
-0.100000
0.100000
0.500000
-0.400000
0.300000
0.000000
-0.200000
-0.300000
0.100000
-0.100000
0.200000
0.000000
-0.300000
-0.400000
-0.200000
0.100000
0.400000
0.200000
0.000000
-0.400000
0.000000
0.000000
-0.200000
-0.100000
0.100000
-0.100000
-0.400000
-0.400000
-0.200000
-0.100000
0.300000
0.400000
-0.300000
0.200000
0.200000
-0.300000
0.400000
0.100000
0.500000
0.500000
-0.400000
0.300000
0.100000
0.000000
-0.300000
0.300000
0.300000
0.200000
0.200000
0.000000
0.000000
0.500000
-0.100000
-0.100000
0.500000
0.000000
0.500000
0.500000
0.500000
0.300000
-0.300000
-0.100000
-0.200000
-0.100000
-0.100000
-0.400000
0.000000
-0.300000
-0.300000
0.200000
-0.400000
0.300000
0.400000
-0.300000
-0.100000
-0.300000
-0.300000
0.000000
0.400000
-0.300000
0.300000
0.400000
0.000000
0.500000
-0.400000
-0.200000
0.400000
0.400000
0.300000
0.300000
-0.200000
0.400000
-0.300000
-0.300000
0.200000
-0.100000
0.100000
-0.400000
-0.300000
-0.200000
0.000000
0.400000
-0.300000
-0.200000
0.100000
-0.200000
-0.200000
0.500000
0.500000
-0.100000
-0.400000
0.100000
-0.200000
0.200000
0.000000
0.400000
0.100000
-0.200000
0.200000
0.500000
0.200000
-0.400000
-0.100000
-0.200000
-0.200000
0.400000
0.200000
0.200000
-0.200000
-0.100000
-0.100000
0.200000
0.100000
-0.400000
-0.100000
-0.100000
0.200000
-0.200000
0.500000
0.300000
0.400000
0.500000
0.200000
0.500000
0.300000
0.500000
0.000000
-0.200000
-0.200000
-0.300000
-0.300000
-0.400000
0.000000
0.000000
0.400000
-0.100000
0.000000
-0.100000
-0.400000
0.400000
0.400000
0.000000
-0.100000
0.500000
-0.300000
0.100000
0.100000
0.400000
0.100000
-0.100000
-0.100000
0.400000
0.300000
0.400000
0.400000
0.500000
-0.200000
0.300000
0.400000
0.300000
-0.400000
0.200000
0.400000
-0.100000
0.500000
0.500000
0.100000
0.000000
-0.400000
-0.300000
-0.400000
-0.100000
-0.300000
-0.200000
0.500000
-0.200000
0.300000
0.200000
0.300000
-0.200000
-0.200000
0.400000
-0.400000
0.400000
0.400000
0.500000
0.500000
0.000000
-0.200000
0.300000
0.400000
0.400000
0.000000
0.400000
-0.100000
-0.100000
0.300000
0.300000
-0.400000
0.200000
0.200000
0.400000
0.300000
-0.400000
0.000000
0.200000
-0.300000
-0.400000
-0.400000
0.400000
-0.200000
-0.300000
0.200000
0.300000
0.500000
-0.300000
0.500000
0.300000
0.000000
-0.200000
0.300000
-0.300000
0.300000
-0.300000
-0.200000
0.000000
0.500000
-0.300000
0.100000
0.400000
0.500000
-0.100000
0.000000
-0.100000
0.200000
-0.300000
-0.400000
0.000000
-0.300000
0.300000
0.200000
-0.300000
0.400000
0.400000
-0.100000
-0.300000
0.300000
0.500000
-0.400000
-0.400000
0.100000
-0.100000
0.300000
0.100000
0.200000
0.100000
0.200000
0.100000
0.300000
0.300000
-0.200000
0.100000
-0.200000
0.500000
0.000000
0.300000
0.300000
0.100000
0.000000
0.300000
-0.200000
0.400000
-0.100000
0.400000
0.400000
0.300000
0.400000
-0.300000
0.200000
0.000000
-0.200000
-0.100000
-0.400000
0.100000
0.300000
0.500000
0.000000
0.400000
0.200000
-0.400000
0.500000
0.100000
-0.200000
-0.100000
0.300000
-0.100000
0.100000
0.500000
0.100000
0.300000
-0.200000
0.100000
-0.300000
-0.100000
-0.300000
-0.300000
0.300000
0.300000
0.100000
0.200000
-0.300000
0.500000
-0.300000
-0.200000
0.000000
0.200000
0.300000
0.400000
0.100000
-0.300000
-0.200000
0.400000
0.400000
0.500000
-0.300000
0.000000
0.100000
0.500000
0.000000
-0.200000
0.100000
0.000000
0.200000
-0.200000
0.100000
-0.200000
0.400000
-0.400000
-0.300000
0.300000
0.200000
0.500000
0.300000
0.500000
0.300000
-0.400000
0.400000
0.400000
0.300000
0.200000
-0.300000
-0.400000
0.100000
-0.100000
0.300000
0.100000
0.100000
0.300000
-0.300000
0.000000
-0.300000
0.100000
0.500000
-0.300000
0.400000
-0.300000
0.400000
0.100000
0.400000
-0.400000
-0.300000
0.100000
0.000000
0.100000
-0.400000
-0.200000
-0.300000
0.500000
0.100000
0.100000
0.400000
-0.100000
-0.300000
0.500000
0.000000
0.200000
0.400000
-0.300000
-0.100000
0.000000
0.400000
0.200000
0.000000
-0.100000
-0.200000
0.400000
-0.400000
0.100000
0.200000
0.400000
0.300000
0.000000
0.500000
0.200000
-0.300000
0.500000
0.400000
0.300000
0.100000
0.000000
0.500000
0.500000
0.400000
-0.300000
-0.400000
0.100000
0.300000
0.500000
0.400000
-0.300000
0.000000
0.100000
0.400000
0.400000
0.500000
0.400000
-0.100000
0.400000
0.500000
0.400000
-0.200000
0.200000
0.400000
-0.400000
0.200000
0.000000
0.000000
-0.100000
0.200000
-0.200000
-0.200000
0.400000
0.200000
-0.200000
-0.200000
-0.100000
-0.100000
0.200000
0.000000
0.400000
-0.200000
0.400000
0.200000
0.300000
0.400000
-0.400000
0.300000
0.300000
0.000000
-0.400000
-0.300000
-0.200000
0.300000
-0.100000
0.000000
0.200000
-0.300000
-0.200000
0.300000
0.200000
0.300000
-0.100000
0.400000
0.300000
0.200000
0.100000
0.000000
0.000000
-0.400000
0.100000
0.000000
-0.400000
-0.200000
0.200000
-0.300000
-0.300000
0.000000
0.400000
-0.200000
0.200000
0.100000
-0.400000
0.000000
0.200000
0.000000
-0.200000
0.500000
-0.100000
0.300000
-0.400000
-0.400000
0.100000
0.200000
0.200000
0.500000
0.400000
0.400000
0.200000
0.200000
0.300000
-0.300000
0.500000
-0.300000
0.200000
0.200000
-0.100000
0.500000
0.100000
0.100000
-0.400000
-0.200000
-0.300000
-0.300000
0.100000
0.000000
-0.200000
-0.300000
-0.200000
0.100000
0.100000
-0.400000
-0.300000
-0.400000
0.300000
0.400000
-0.200000
-0.200000
0.300000
0.400000
-0.300000
0.300000
0.500000
0.200000
0.400000
0.500000
0.400000
-0.300000
0.300000
0.300000
-0.200000
0.000000
0.300000
0.200000
-0.300000
0.500000
-0.300000
0.200000
0.300000
0.200000
-0.100000
0.300000
0.300000
0.400000
0.400000
0.500005
0.500288
0.500352
-0.288665
-0.100720
-0.103224
-0.397037
-0.200368
-0.102667
0.200003
-0.099562
-0.000171
-0.100010
-0.200000
-0.399403
0.399825
-0.303753
-0.199275
0.300028
0.100043
0.298632
-0.300000
-0.403064
-0.410802
-0.399999
-0.000001
0.300861
-0.099633
0.099978
-0.200000
0.499924
-0.198923
0.300000
0.198706
-0.100003
0.199954
-0.300021
-0.002261
-0.000001
-0.300010
0.199394
0.398219
0.400000
0.092738
0.502252
0.091830
-0.196155
-0.199992
0.303340
0.498858
0.104327
0.100008
-0.300964
0.099998
-0.298967
-0.300255
0.191461
-0.405218
-0.000041
0.399997
-0.300303
-0.100492
0.099873
0.200177
0.309918
0.093567
-0.299952
-0.099984
0.199416
-0.102743
-0.099468
0.500006
-0.100000
-0.405433
0.299999
-0.096094
0.374752
-0.299999
0.400077
0.491301
-0.000003
0.400780
-0.204011
-0.005069
0.199443
-0.298479
-0.397322
0.399887
-0.099448
0.400000
0.299957
-0.401389
-0.405774
0.299989
-0.399808
-0.200000
0.104159
0.500770
0.199494
0.303937
-0.400064
0.300006
0.299336
0.499999
0.502666
-0.010421
0.200000
0.400000
-0.399932
-0.299999
-0.198437
0.097963
0.297674
-0.196572
-0.103524
0.200905
0.101883
-0.400007
0.499953
0.400063
0.199994
-0.299018
-0.100661
0.300024
-0.199438
0.494949
-0.100011
-0.300011
0.299530
-0.399816
0.000447
0.199957
0.200005
-0.307955
-0.000000
-0.296844
-0.000105
0.498930
0.301340
0.399415
0.299886
0.395320
0.403795
0.500003
0.200141
0.421439
0.300955
-0.300405
-0.007308
0.199966
0.297706
0.310512
0.500986
-0.001533
-0.100264
-0.092547
0.300005
0.006335
0.300000
0.298462
0.199987
0.097812
0.192097
-0.400013
0.199997
0.201625
0.000013
0.406587
-0.000006
-0.400001
0.100055
0.187875
-0.020283
0.300002
-0.299960
-0.300007
0.100655
-0.300081
0.000001
0.500001
0.499958
-0.196784
0.103848
-0.409458
0.200008
0.100018
-0.401456
-0.100577
0.203788
0.199983
0.299999
0.300105
0.199997
0.002619
-0.092421
0.101387
0.500234
0.500035
0.012615
0.395276
0.300005
0.000288
0.300352
-0.188665
0.099280
0.096776
-0.397037
0.499632
-0.002667
0.500003
0.100438
-0.400171
-0.200010
-0.100000
-0.099403
-0.100175
-0.203753
0.500725
0.200028
0.100043
-0.301368
-0.200000
-0.303064
0.289198
0.200001
0.099999
0.300861
0.300367
0.099978
-0.300000
0.299924
-0.298923
0.100000
0.398706
-0.000003
0.199954
0.199979
0.097739
0.499999
0.499990
0.099394
-0.001781
0.100000
-0.407262
0.402252
-0.008170
0.203845
0.000008
0.303340
-0.101142
0.404327
-0.099992
-0.300964
0.099998
-0.298967
-0.200255
-0.208539
-0.105218
0.099959
0.299997
-0.400303
0.399508
-0.400127
-0.099823
-0.290082
0.093567
0.400048
0.400016
-0.000584
0.397257
0.300532
0.300006
-0.200000
-0.305433
-0.400001
0.103906
-0.225248
0.400001
-0.099923
0.291301
-0.300003
-0.399220
0.195989
-0.105069
0.199443
0.401521
0.202678
0.299887
-0.199448
0.500000
-0.200043
-0.101389
0.494226
0.499989
0.300192
0.400000
0.204159
-0.199230
-0.000506
0.003937
0.499936
0.200006
0.099336
0.099999
-0.297334
-0.210421
-0.400000
0.200000
0.200068
0.400001
-0.398437
0.397963
-0.302326
0.303428
0.096476
-0.299095
0.201883
0.199993
-0.300047
0.000063
0.299994
0.300982
-0.200661
-0.399976
0.000562
0.494949
0.199989
0.399989
0.199530
-0.299816
-0.399553
-0.400043
-0.099995
0.192045
0.300000
-0.096844
-0.000105
0.398930
0.001340
-0.300585
-0.000114
0.295320
0.403795
0.400003
-0.099859
-0.078561
0.000955
0.099595
-0.207308
-0.400034
-0.102294
0.010512
-0.299014
-0.401533
-0.100264
0.407453
0.100005
0.506335
-0.000000
0.298462
0.299987
-0.102188
-0.207903
0.199987
-0.100003
-0.198375
0.200013
-0.193413
-0.300006
-0.000001
0.200055
-0.012125
0.379717
0.100002
0.400040
-0.200007
0.500655
0.299919
0.100001
0.300001
-0.400042
0.503216
0.503848
0.290542
0.300008
0.200018
-0.401456
0.199423
-0.396212
0.199983
0.399999
-0.199895
-0.000003
-0.097381
-0.192421
0.401387
0.400234
0.300035
-0.387385
-0.204724
0.000000
0.500000
-0.200000
-0.300000
-0.100000
-0.100000
-0.200000
-0.200000
-0.200000
-0.200000
0.100000
0.200000
-0.400000
0.000000
0.100000
0.400000
0.300000
0.400000
-0.200000
-0.400000
0.400000
0.100000
0.000000
0.100000
0.500000
0.000000
-0.300000
-0.100000
0.400000
-0.100000
0.400000
0.400000
0.400000
-0.400000
0.400000
0.000000
0.100000
-0.100000
-0.400000
-0.300000
-0.200000
0.100000
0.000000
-0.400000
-0.100000
0.500000
0.300000
0.300000
0.500000
0.000000
0.000000
-0.300000
0.000000
-0.300000
0.300000
-0.400000
-0.200000
-0.100000
0.500000
0.100000
0.300000
-0.200000
-0.100000
0.200000
0.200000
-0.300000
0.100000
-0.300000
0.000000
-0.100000
0.300000
-0.300000
-0.300000
0.200000
-0.100000
-0.200000
-0.200000
0.500000
0.000000
0.100000
-0.400000
-0.100000
0.500000
0.300000
0.200000
-0.400000
0.200000
0.100000
-0.400000
-0.300000
-0.200000
0.100000
0.500000
-0.400000
0.300000
-0.300000
0.000000
0.500000
0.100000
0.400000
0.300000
-0.400000
-0.200000
0.000000
-0.400000
0.000000
0.300000
0.500000
0.500000
0.200000
-0.100000
0.100000
0.400000
0.200000
0.500000
0.100000
0.200000
0.100000
0.500000
-0.200000
-0.300000
0.500000
0.300000
0.000000
0.200000
-0.400000
0.300000
-0.100000
0.000000
-0.400000
0.500000
0.200000
0.100000
-0.100000
0.400000
0.000000
0.000000
0.000000
0.400000
-0.100000
0.400000
0.000000
0.200000
-0.400000
0.100000
0.400000
-0.400000
0.300000
0.400000
-0.400000
-0.100000
-0.100000
0.300000
-0.100000
0.500000
0.000000
-0.200000
0.000000
0.400000
-0.300000
-0.300000
-0.100000
0.400000
0.300000
-0.400000
-0.200000
0.000000
-0.300000
0.300000
-0.100000
0.500000
-0.200000
0.500000
-0.400000
0.500000
-0.300000
-0.400000
0.000000
0.300000
0.400000
-0.300000
0.400000
0.500000
-0.400000
-0.100000
-0.200000
-0.400000
0.500000
0.100000
0.400000
0.400000
0.500000
0.100000
0.000000
0.100000
-0.400000
0.000000
0.500000
0.400000
0.200000
-0.099999
0.399680
0.306268
0.500003
0.200694
-0.300058
0.500009
-0.000628
0.098379
-0.198841
-0.099851
-0.385142
0.198447
0.300002
0.100014
-0.200006
0.193137
0.199990
0.300006
0.200000
-0.400749
0.400000
-0.399723
-0.202264
-0.200000
0.200000
0.400000
-0.000003
0.000001
-0.300000
0.400000
0.100000
-0.199998
0.196570
-0.000006
-0.296720
-0.400074
0.290666
-0.200000
0.199999
0.399996
0.499956
0.400000
-0.185657
-0.301474
0.195585
-0.403176
0.200003
-0.104035
-0.101077
-0.199878
-0.299999
0.399991
-0.100000
0.300000
0.199991
-0.305361
0.395313
-0.100424
0.300000
-0.000002
0.199989
-0.300138
-0.299993
-0.081458
0.000000
0.300024
-0.199521
-0.188603
-0.121624
0.399796
-0.299549
-0.400000
0.201882
0.099613
-0.300000
0.374850
0.399985
0.300002
0.400759
0.299966
0.400005
0.398779
0.300003
0.380922
0.022359
0.509083
-0.000165
0.199999
-0.000000
0.199980
-0.303377
-0.399682
-0.100001
0.200006
0.500000
-0.000006
-0.199996
-0.300047
0.500002
-0.200000
-0.100000
-0.100005
0.300000
-0.199997
0.378614
-0.300000
0.200000
0.300182
0.099998
0.405905
-0.305264
0.305942
-0.197577
0.000409
-0.177915
-0.000034
0.399999
0.499989
-0.200000
0.300000
-0.099989
0.299999
-0.199986
0.000115
0.472622
0.299994
0.100001
0.300077
-0.099724
0.200189
-0.000000
-0.000001
0.190715
0.200000
-0.099998
0.400153
-0.102357
-0.000018
-0.200048
0.299999
0.196702
-0.299982
-0.299996
-0.199977
0.300073
0.002496
-0.300001
-0.200306
-0.400659
0.499788
0.199984
0.299912
-0.116249
0.000394
-0.400014
0.100000
0.105637
0.300001
0.499596
0.500001
-0.001526
-0.215134
-0.300005
-0.200000
-0.199990
0.000000
0.200020
-0.199982
0.099996
0.099994
-0.107989
-0.042155
-0.100000
0.500001
0.200000
-0.254646
0.500000
-0.100000
0.400001
0.300000
0.399704
-0.399589
-0.203173
0.000000
0.100007
0.399916
0.399778
-0.400133
-0.000001
-0.300001
-0.299998
-0.400017
-0.198154
-0.200271
0.200012
-0.099135
0.400000
-0.199996
-0.300836
0.400001
-0.402529
0.215494
0.400160
-0.199759
0.099924
0.100438
0.399155
0.296964
-0.092762
-0.198169
-0.082700
0.198430
-0.399997
0.300016
0.000078
0.091299
0.297989
-0.199971
-0.200000
0.296519
0.300000
-0.098262
0.095880
0.100011
0.199979
0.100234
-0.100052
-0.398995
-0.099995
0.000003
-0.099983
0.400122
-0.403871
-0.200108
-0.295292
-0.002238
0.371959
-0.199994
0.099989
-0.000307
-0.099100
-0.000007
0.420840
0.398116
0.077261
-0.204007
0.500023
-0.206348
-0.405089
0.100137
-0.200006
0.399884
0.299989
0.199996
-0.300023
-0.008719
-0.105686
0.002937
-0.200004
0.499992
-0.200066
-0.000197
0.400021
0.321413
-0.199967
-0.399969
-0.386790
-0.167920
-0.332641
-0.096393
0.000814
-0.400001
-0.399873
-0.300549
-0.399952
0.174121
-0.100900
-0.299988
-0.000003
-0.100051
0.508238
-0.305534
-0.200088
0.280891
0.427608
-0.284877
-0.297540
0.100005
-0.000004
-0.100620
-0.103809
-0.207939
-0.000019
-0.099978
0.400000
-0.199660
0.400791
-0.400104
-0.098552
-0.299998
-0.099992
0.199829
0.299995
0.500085
-0.421833
0.500000
0.300001
-0.099641
0.099997
0.513029
0.492945
-0.290274
0.303296
0.001923
0.424332
-0.100010
0.099992
0.399655
-0.000000
0.099999
-0.199589
0.499885
0.300018
-0.099752
-0.339581
-0.400042
0.400007
-0.099783
0.300279
-0.299636
-0.000000
0.499992
0.188758
-0.300001
-0.100001
0.200075
0.498326
0.099985
-0.000203
-0.400001
-0.213935
0.200071
0.500004
-0.200135
-0.098780
0.107390
0.399909
-0.010985
-0.001287
0.201001
0.400061
0.400074
0.178770
-0.090725
-0.199614
0.500000
0.005453
0.499961
0.390838
-0.000001
0.098380
0.357987
0.499975
0.000002
-0.399813
-0.099998
0.302054
0.000052
-0.300007
-0.200699
0.279767
0.346520
0.500001
0.000025
-0.000000
0.460191
0.499996
0.300060
-0.399999
0.200001
0.497022
0.100944
0.297290
0.100000
0.400016
0.099893
-0.300297
0.399776
-0.300040
0.100046
0.400026
-0.000026
-0.397826
0.486061
-0.399633
-0.100250
0.400001
-0.099954
0.099085
0.500001
-0.002285
-0.183634
-0.099839
-0.197472
0.299965
0.299991
-0.401308
-0.005007
0.406518
0.501855
0.423565
-0.002325
-0.099996
0.199848
-0.299924
0.384048
0.298331
0.400099
0.300145
0.192282
0.400000
0.301992
0.189914
0.100011
0.499977
0.300234
0.499846
-0.398970
-0.399993
-0.299998
0.100017
-0.299877
-0.102508
0.399811
-0.387629
-0.401809
-0.240771
-0.199992
0.299983
0.099693
0.401568
0.399994
-0.177954
0.497889
0.470673
-0.008399
0.400025
0.091202
-0.204893
-0.199473
0.399997
-0.000406
0.399991
-0.300025
0.399976
0.490227
0.091491
0.304938
0.199995
-0.000026
0.099925
0.399741
-0.299976
0.226981
0.499989
0.500032
-0.387776
-0.365435
0.457735
0.106939
0.500871
-0.400002
0.200984
0.399303
0.100048
-0.329539
-0.104524
0.100047
-0.198052
-0.100095
0.012411
0.391381
0.399838
0.071859
-0.166478
-0.387615
-0.396848
0.100025
0.399991
0.499360
0.189432
0.290140
0.199981
-0.299963
-0.300000
0.300445
0.101682
-0.100107
0.401476
0.400002
0.400008
0.299791
-0.200079
0.400119
-0.437523
-0.300000
0.500001
-0.398681
-0.300008
0.215340
-0.306324
0.015414
0.004733
-0.097673
-0.172056
-0.300442
-0.300008
0.499661
-0.000000
0.000115
-0.199509
0.399680
0.500005
0.500208
0.348288
-0.000055
-0.399993
0.001489
0.100384
-0.299419
-0.100000
-0.299964
-0.219488
-0.300001
0.100000
0.200018
-0.301285
-0.200015
0.499346
0.499999
-0.033421
0.500116
0.000005
0.199897
0.101948
-0.085424
0.099903
-0.217622
0.398482
0.201791
-0.300051
0.100317
-0.025015
-0.384522
0.300441
0.100002
-0.395249
0.499975
0.386981
-0.099999
0.397242
0.343212
0.099916
0.100036
-0.299826
-0.399998
-0.197969
0.500049
-0.400053
-0.400721
-0.030519
-0.065727
0.200002
0.300040
0.499999
-0.115724
-0.400010
-0.399928
0.100001
-0.299999
0.296999
0.001480
-0.106881
0.400000
-0.199984
-0.000263
0.199575
0.100649
0.499825
0.100053
0.500084
-0.100069
0.102213
0.381421
0.100084
0.416726
0.000001
0.000056
-0.200704
0.400000
0.300244
0.100872
0.400002
-0.297712
-0.199959
-0.100447
-0.300463
0.298029
-0.100721
-0.099975
0.106265
0.199245
0.000001
0.499832
0.399998
0.092748
0.500341
-0.299930
0.400145
0.395764
-0.200000
0.500254
-0.405966
0.500000
0.499997
-0.300000
-0.100103
-0.099974
-0.199998
0.499999
-0.200000
0.200001
0.401363
0.199920
0.107663
-0.199571
-0.112730
0.300002
-0.300006
0.100000
-0.299333
0.500000
0.501206
-0.300227
-0.206588
0.395608
-0.199998
-0.402450
0.000197
0.100390
-0.299998
0.199710
-0.199998
-0.400021
-0.300001
0.498947
-0.102823
-0.198000
-0.300001
0.499982
0.399990
0.499938
0.400004
-0.094432
-0.200044
-0.199999
0.199014
-0.197515
0.390376
0.203332
0.100057
-0.400001
0.500858
-0.300148
0.300000
-0.003660
-0.303624
-0.199965
-0.098049
0.099956
0.404173
-0.303085
0.099925
0.090968
0.105914
-0.102738
0.100691
0.100021
-0.300006
-0.400020
0.293242
0.198079
0.500000
0.200014
-0.000000
0.500105
0.300891
0.299997
-0.299972
0.200001
0.400000
-0.300038
-0.300074
0.000034
0.184310
0.400000
-0.099999
0.400960
0.399995
-0.097689
-0.299269
0.405688
0.001438
0.500405
0.103611
0.399568
-0.400000
0.200006
0.500000
-0.399885
-0.399920
-0.000205
0.099987
-0.000039
-0.112131
-0.000013
0.200000
0.201272
0.200105
0.500216
-0.100000
0.200044
0.191754
0.400000
0.400001
-0.300057
0.100389
-0.199999
-0.300451
0.400000
0.380514
-0.199955
-0.399999
0.100032
0.300729
-0.192814
-0.300006
0.093363
-0.200231
-0.299210
0.299887
-0.199758
-0.003785
-0.093796
0.100055
0.000001
-0.100701
-0.099986
-0.003857
0.300002
-0.401138
-0.314775
-0.000059
0.000034
0.099987
-0.400000
0.099977
-0.000004
-0.100046
0.099978
-0.310286
0.287753
0.100002
-0.299985
-0.000000
0.424085
0.199994
0.500012
-0.100000
0.000000
-0.400022
0.500536
-0.404171
-0.300000
-0.199999
0.299844
0.299872
-0.199127
-0.200134
0.100007
0.100058
0.299957
-0.399961
0.195359
-0.100283
0.016976
0.300000
0.400010
0.200211
0.200000
-0.099756
-0.199197
0.100002
-0.197695
0.499999
0.100020
0.299275
-0.301308
-0.299822
-0.199970
0.106256
0.099247
-0.099999
-0.099990
0.399998
0.492726
0.400148
0.000054
0.100019
-0.403677
0.500000
0.200287
-0.105460
-0.400000
0.499999
0.100000
-0.200022
-0.299984
-0.300000
-0.400000
0.200001
0.500001
-0.199442
-0.400078
-0.393597
-0.200042
0.290022
0.100000
0.399994
0.499998
0.500628
0.200000
0.301494
-0.300546
-0.006846
0.196015
0.400004
-0.103878
0.299903
0.500382
0.300001
-0.000288
0.500002
0.299976
-0.300001
-0.201262
-0.202410
-0.299509
0.099999
0.099984
0.499993
-0.300060
0.500004
-0.094462
-0.000027
0.400001
0.399569
0.402486
0.294785
0.001677
0.300057
0.099999
-0.099927
-0.200146
-0.299998
-0.102958
-0.201767
0.000017
0.400674
-0.000045
0.000791
0.497717
-0.000061
0.091190
0.505897
0.499542
0.100669
-0.099993
-0.000005
-0.200020
-0.005917
0.198961
0.499998
0.100013
-0.100000
-0.199957
-0.399098
0.399997
0.400008
0.100001
0.400000
-0.400076
-0.000068
-0.399977
-0.014349
0.400000
-0.299999
-0.099223
-0.400005
0.102175
-0.200273
-0.394253
-0.298564
0.400414
-0.196389
0.399992
-0.400000
0.100003
0.400000
0.000000
-0.199920
0.399799
0.199996
0.499998
-0.407918
0.099987
-0.200000
0.299958
-0.399909
-0.199796
0.500000
-0.400002
0.493628
0.100000
-0.099999
-0.000036
-0.299870
0.500000
0.299992
0.100000
0.383149
0.500045
0.400001
-0.299969
-0.199271
0.305477
0.499995
-0.103229
-0.300140
-0.099153
0.199889
-0.099760
-0.404586
0.205598
0.500052
0.100001
0.499849
0.000012
-0.403331
0.400001
0.398939
0.186797
-0.300050
-0.099998
-0.400003
-0.100000
0.200052
0.499996
-0.100046
-0.400005
0.390693
0.089227
0.300000
-0.399992
-0.000000
-0.076723
0.199996
0.500005
0.300000
0.000000
-0.300026
-0.299471
-0.003547
0.000000
-0.299999
0.499854
-0.000128
-0.199817
0.199998
-0.199999
0.100030
-0.100042
-0.299901
-0.204638
0.200007
-0.190572
0.500000
0.000010
0.100154
0.000000
-0.299571
0.100252
0.000000
-0.400024
0.099997
-0.199982
-0.000123
0.098687
0.500016
0.400002
-0.399994
-0.100001
-0.200000
0.400000
-0.000000
-0.200183
0.400006
0.300005
0.400000
-0.000156
-0.100000
-0.199989
-0.101528
-0.400000
0.200000
0.200000
-0.100004
-0.400000
0.000000
-0.200000
0.000000
-0.200000
0.099855
0.500000
-0.199968
0.299998
-0.202612
0.000000
-0.000000
0.100000
0.199993
0.500000
0.500158
-0.300936
0.295187
0.099194
0.100002
0.300504
0.200035
-0.299998
-0.300000
0.399999
0.300000
-0.200032
0.199999
-0.301454
0.498756
-0.300059
-0.300000
0.300000
-0.100000
-0.000001
-0.400000
-0.395990
-0.200026
-0.399999
-0.099955
0.201889
0.098368
0.499979
-0.299999
0.500000
-0.200332
-0.300000
-0.099998
-0.301143
-0.300001
0.500000
0.499887
-0.000000
-0.399999
-0.000541
-0.300050
0.399531
0.403206
0.100145
0.099993
0.500001
-0.300000
-0.000000
-0.003511
0.300145
-0.100000
0.300000
-0.100000
-0.299990
0.000719
-0.100001
0.100001
0.300000
-0.300000
0.199969
0.100000
0.400019
-0.211065
0.000000
-0.400000
-0.299999
0.300000
0.200640
-0.101587
-0.097579
0.500000
-0.399471
-0.199917
-0.399998
-0.300000
0.200000
-0.200000
-0.100000
0.400000
0.400000
0.500000
0.300008
-0.001996
-0.400001
-0.300000
0.399897
0.000035
-0.099949
0.200000
-0.400000
0.398227
-0.100000
0.400002
-0.099957
0.098613
-0.100000
0.300000
0.100000
0.397716
0.400002
-0.300000
0.000000
-0.399269
0.199744
0.199999
-0.001071
0.299999
-0.200312
-0.100000
-0.200000
-0.101767
0.100003
0.199999
-0.200000
-0.299972
-0.300001
-0.401840
0.400000
0.400000
-0.406809
0.499998
0.100000
0.300044
0.500000
-0.199951
-0.000000
0.400000
-0.200000
0.195007
-0.301727
0.100000
-0.300000
-0.300000
0.004771
0.300000
-0.300000
0.300000
-0.100000
0.300547
-0.099880
-0.401241
0.200000
0.200000
-0.000001
-0.300001
0.400170
-0.400001
-0.400000
0.400000
-0.000000
0.300063
-0.002892
-0.099982
-0.300377
0.400000
-0.399997
-0.299700
0.300000
-0.200000
0.200000
0.300000
-0.300000
-0.100000
-0.100000
0.100000
0.400000
0.300000
0.500000
-0.100000
-0.400000
-0.400000
0.500000
-0.100000
-0.300000
-0.200000
-0.300000
-0.400000
0.500000
0.300000
0.200000
0.100000
0.300000
-0.400000
0.400000
-0.200000
0.100000
0.000000
0.400000
-0.100000
0.200000
0.200000
0.400000
0.000000
-0.200000
0.400000
0.200000
-0.300000
-0.400000
0.100000
-0.300000
0.100000
0.500000
-0.300000
0.100000
-0.400000
0.400000
0.400000
0.500000
0.100000
-0.300000
0.100000
0.400000
0.500000
-0.100000
-0.100000
0.000000
0.100000
0.100000
0.100000
-0.300000
0.200000
0.400000
-0.400000
0.400000
-0.100000
0.300000
-0.300000
-0.300000
-0.200000
0.300000
0.000000
0.000000
-0.300000
-0.200000
-0.300000
0.400000
-0.100000
-0.300000
0.100000
0.300000
-0.400000
0.200000
0.300000
0.300000
-0.200000
-0.200000
0.500000
-0.200000
0.000000
-0.300000
0.200000
-0.400000
0.200000
0.400000
-0.300000
-0.300000
0.400000
0.000000
0.000000
0.100000
0.500000
0.000000
0.100000
0.200000
0.100000
-0.100000
-0.200000
-0.100000
0.500000
-0.200000
-0.200000
0.100000
-0.300000
-0.300000
-0.300000
0.100000
0.000000
0.400000
0.200000
0.400000
-0.300000
-0.200000
-0.200000
0.100000
-0.400000
-0.300000
0.000000
-0.300000
-0.400000
0.500000
-0.100000
-0.100000
-0.400000
0.200000
0.100000
0.300000
-0.300000
0.300000
-0.100000
-0.200000
-0.200000
0.200000
0.500000
0.000000
0.000000
0.300000
-0.300000
-0.300000
-0.200000
0.000000
0.500000
0.300000
0.400000
-0.400000
0.400000
-0.400000
-0.200000
-0.400000
-0.400000
0.100000
-0.300000
0.100000
0.100000
0.500000
-0.400000
0.300000
0.100000
-0.400000
-0.100000
0.400000
-0.400000
0.400000
0.200000
0.300000
-0.100000
-0.400000
0.200000
0.400000
0.200000
-0.200000
-0.200000
-0.400000
-0.200000
-0.200000
0.100000
0.300000
0.500000
-0.200000
-0.300000
0.500000
-0.400000
0.400000
-0.400000
0.400000
0.500000
0.400000
0.500000
0.000000
-0.200000
-0.400000
-0.300000
0.400000
0.100000
0.000000
-0.400000
0.400000
-0.400000
0.200000
-0.100000
-0.400000
0.000000
0.400000
-0.400000
0.400000
0.400000
0.300000
0.400000
0.400000
0.100000
0.400000
0.400000
0.200000
-0.100000
0.300000
-0.200000
0.000000
0.500000
0.500000
0.100000
0.100000
0.500000
0.000000
0.100000
-0.200000
-0.300000
0.400000
0.300000
0.300000
0.500000
0.100000
-0.100000
-0.200000
0.000000
-0.400000
0.200000
0.500000
-0.200000
-0.200000
-0.100000
0.500000
-0.300000
-0.400000
-0.100000
-0.300000
-0.200000
-0.200000
0.100000
0.200000
0.100000
0.000000
0.000000
0.400000
0.200000
-0.400000
-0.200000
0.100000
-0.300000
-0.400000
-0.400000
-0.400000
-0.200000
0.100000
-0.200000
0.400000
0.300000
0.000000
0.000000
0.200000
0.300000
-0.100000
0.300000
0.300000
0.400000
0.500000
0.000000
0.200000
0.300000
0.300000
-0.100000
0.000000
0.200000
0.100000
0.000000
0.000000
0.400000
0.300000
0.400000
0.100000
-0.300000
0.300000
-0.200000
-0.200000
0.200000
0.500000
0.200000
0.400000
-0.200000
0.400000
-0.200000
0.100000
-0.400000
0.300000
-0.200000
0.200000
0.300000
-0.200000
0.000000
0.200000
0.100000
-0.400000
0.400000
-0.100000
-0.400000
0.500000
0.500000
0.300000
0.400000
0.000000
-0.200000
0.200000
0.300000
0.400000
-0.300000
0.300000
0.200000
0.000000
0.500000
0.500000
-0.200000
0.300000
-0.400000
-0.400000
0.300000
0.400000
0.500000
0.000000
0.300000
-0.100000
-0.400000
0.200000
-0.400000
0.300000
-0.200000
-0.100000
0.400000
-0.300000
0.400000
0.500000
-0.300000
-0.300000
-0.300000
-0.100000
-0.200000
0.100000
0.300000
-0.100000
-0.400000
0.400000
0.300000
0.300000
-0.200000
0.100000
-0.100000
-0.400000
0.500000
-0.400000
0.300000
0.000000
-0.300000
-0.300000
0.000000
0.100000
0.300000
0.200000
-0.200000
-0.200000
0.200000
-0.100000
0.300000
-0.200000
-0.200000
-0.300000
-0.300000
-0.200000
-0.400000
0.300000
0.100000
-0.100000
0.300000
0.200000
0.300000
0.200000
-0.100000
0.200000
0.500000
0.100000
0.500000
0.000000
0.300000
0.000000
-0.200000
-0.200000
0.100000
0.100000
-0.400000
0.200000
-0.400000
0.500000
-0.200000
0.200000
-0.300000
0.500000
-0.400000
-0.400000
-0.400000
0.300000
-0.400000
-0.100000
-0.100000
-0.300000
0.300000
0.100000
-0.300000
0.300000
0.500000
-0.200000
0.200000
-0.100000
0.000000
0.500000
-0.200000
0.000000
0.100000
0.100000
-0.100000
0.400000
0.500000
0.000000
-0.300000
0.400000
0.400000
0.100000
0.500000
-0.100000
-0.400000
-0.300000
0.400000
-0.200000
-0.300000
0.000000
-0.200000
-0.300000
0.500000
0.100000
0.300000
0.400000
-0.300000
0.000000
-0.200000
-0.200000
0.400000
-0.300000
-0.200000
-0.100000
-0.300000
0.100000
0.400000
0.500000
0.000000
0.500000
0.500000
-0.300000
0.000000
0.000000
0.500000
-0.400000
-0.200000
-0.400000
0.500000
0.000000
0.200000
0.400000
-0.100000
0.400000
0.300000
0.200000
-0.100000
0.000000
-0.400000
0.500000
0.100000
0.100000
0.100000
0.000000
0.200000
-0.200000
0.400000
0.200000
0.000000
-0.100000
-0.400000
0.300000
0.100000
0.500000
0.100000
-0.200000
-0.100000
0.400000
0.100000
-0.200000
0.000000
0.000000
-0.200000
0.500000
-0.400000
-0.100000
-0.400000
-0.100000
-0.300000
0.500000
0.300000
-0.200000
-0.100000
0.300000
0.300000
0.100000
-0.300000
0.100000
-0.100000
-0.300000
0.300000
0.100000
0.500000
0.400000
0.300000
0.000000
-0.200000
-0.200000
0.300000
-0.200000
0.500000
0.200000
-0.300000
0.200000
0.000000
0.200000
-0.300000
0.000000
-0.300000
0.300000
0.300000
0.500000
0.500000
0.300000
0.000000
0.200000
-0.400000
0.000000
-0.100000
0.200000
-0.100000
0.100000
0.500000
0.100000
0.100000
0.500000
0.400000
-0.400000
-0.400000
0.200000
0.500000
0.000000
0.200000
-0.200000
0.200000
0.000000
-0.100000
-0.400000
-0.300000
0.300000
0.300000
-0.300000
0.500000
0.500000
0.500000
0.400000
0.200000
-0.400000
0.100000
0.100000
0.100000
0.300000
0.300000
0.200000
-0.100000
-0.100000
0.000000
-0.300000
-0.200000
-0.400000
-0.300000
0.100000
-0.200000
0.000000
0.500000
0.100000
0.300000
-0.400000
0.100000
-0.200000
0.400000
-0.200000
-0.100000
-0.400000
-0.100000
0.500000
-0.200000
0.200000
0.500000
0.500000
-0.400000
0.400000
-0.300000
-0.400000
0.000000
0.200000
0.300000
0.100000
0.100000
-0.100000
-0.200000
-0.200000
0.200000
-0.200000
0.000000
0.100000
0.500000
0.400000
0.400000
0.300000
-0.100000
-0.200000
0.300000
-0.100000
0.500000
0.000000
0.100000
0.300000
-0.100000
-0.400000
0.400000
0.200000
0.400000
0.000000
0.500000
-0.400000
0.100000
-0.100000
0.000000
0.300000
0.500000
-0.300000
0.400000
0.300000
0.200000
-0.100000
-0.300000
-0.300000
-0.200000
-0.400000
0.500000
0.100000
0.100000
-0.100000
-0.400000
-0.400000
-0.400000
0.500000
-0.400000
0.000000
-0.100000
0.000000
-0.100000
-0.300000
0.500000
-0.400000
-0.300000
0.400000
-0.300000
-0.100000
0.100000
-0.100000
-0.300000
0.500000
0.500000
0.200000
0.000000
-0.400000
0.300000
0.200000
-0.200000
-0.100000
0.000000
-0.400000
0.100000
0.200000
0.200000
0.300000
-0.400000
0.000000
0.400000
0.100000
0.200000
-0.300000
0.400000
0.400000
0.500000
0.200000
-0.100000
0.200000
0.100000
0.200000
-0.400000
0.100000
0.200000
-0.100000
-0.100000
0.200000
0.300000
0.400000
-0.400000
0.100000
0.400000
0.100000
-0.300000
-0.300000
0.000000
0.100000
0.300000
-0.300000
0.300000
0.400000
0.500000
0.400000
0.300000
-0.200000
-0.100000
0.000000
0.500000
0.000000
-0.200000
0.000000
0.400000
0.200000
0.500000
-0.400000
0.000000
-0.100000
0.200000
0.300000
-0.100000
-0.200000
0.400000
-0.400000
-0.200000
0.500000
0.400000
-0.300000
0.300000
-0.200000
-0.300000
0.500000
-0.200000
0.100000
0.500000
-0.100000
0.500000
0.100000
-0.200000
0.200000
0.200000
-0.200000
-0.200000
0.000000
0.000000
0.100000
0.400000
0.500000
-0.300000
-0.100000
-0.400000
-0.200000
0.100000
0.500000
-0.100000
0.100000
0.300000
0.200000
-0.200000
0.400000
0.400000
-0.400000
-0.100000
0.200000
0.200000
-0.200000
0.200000
0.200000
0.500000
-0.300000
0.100000
-0.400000
0.000000
0.100000
-0.400000
0.300000
-0.200000
0.500000
0.300000
0.000000
0.000000
0.100000
0.500000
0.000000
0.100000
-0.200000
-0.100000
-0.100000
0.400000
-0.200000
0.300000
0.000000
0.100000
0.000000
0.500000
0.200000
-0.400000
-0.400000
-0.200000
-0.300000
0.000000
0.100000
0.400000
0.400000
0.100000
-0.100000
-0.300000
0.000000
0.100000
-0.400000
-0.300000
0.500000
-0.100000
0.300000
0.100000
-0.100000
-0.200000
-0.300000
0.400000
0.300000
0.400000
0.200000
0.200000
-0.400000
0.500000
0.500000
-0.200000
0.400000
0.300000
-0.300000
-0.100000
0.500000
-0.200000
-0.300000
0.400000
0.500000
-0.400000
0.400000
0.500000
-0.100000
-0.400000
0.400000
-0.200000
0.300000
-0.300000
0.300000
0.200000
-0.300000
-0.200000
-0.200000
0.000000
0.300000
0.000000
-0.100000
-0.400000
0.200000
-0.200000
-0.300000
0.000000
-0.200000
0.300000
-0.300000
0.000000
0.100000
0.000000
-0.300000
-0.300000
-0.100000
-0.300000
-0.100000
-0.200000
0.200000
0.200000
0.500000
0.300000
0.400000
0.300000
0.000000
-0.300000
-0.300000
-0.400000
-0.200000
-0.400000
0.500000
-0.300000
0.300000
-0.100000
-0.200000
-0.300000
0.000000
0.000000
0.000000
-0.200000
-0.100000
-0.100000
-0.100000
0.200000
-0.400000
-0.100000
0.400000
0.300000
0.300000
0.200000
-0.300000
0.500000
-0.200000
0.200000
0.200000
0.000000
-0.100000
0.200000
0.500000
0.500000
-0.400000
0.200000
0.400000
-0.400000
0.300000
0.500000
0.200000
0.100000
0.000000
0.000000
0.500000
0.500000
0.500000
-0.200000
0.500000
-0.300000
0.200000
-0.200000
0.000000
0.500000
0.000000
0.300000
0.400000
0.000000
-0.400000
0.000000
-0.200000
0.100000
0.500000
0.100000
-0.300000
0.100000
0.200000
0.400000
0.000000
0.100000
-0.400000
0.300000
0.500000
-0.100000
-0.100000
0.200000
-0.300000
-0.400000
-0.300000
-0.100000
0.500000
-0.300000
-0.300000
-0.400000
-0.200000
0.400000
0.400000
0.400000
0.400000
0.300000
-0.400000
-0.100000
0.200000
0.300000
0.400000
0.000000
-0.200000
0.500000
0.100000
0.400000
0.500000
0.500000
0.400000
-0.100000
0.400000
-0.400000
0.500000
-0.400000
-0.400000
-0.400000
0.500000
-0.200000
-0.400000
0.500000
-0.100000
0.300000
0.300000
0.500000
-0.400000
-0.200000
0.400000
-0.100000
0.000000
-0.300000
0.400000
0.500000
0.500000
-0.100000
0.300000
0.300000
-0.200000
0.000000
-0.300000
-0.200000
0.000000
-0.400000
-0.300000
0.100000
0.400000
0.400000
-0.200000
0.400000
-0.200000
0.100000
-0.100000
0.200000
-0.300000
0.500000
0.500000
-0.300000
0.100000
0.300000
0.000000
-0.400000
0.000000
0.300000
-0.300000
0.100000
0.200000
-0.200000
0.500000
0.200000
0.100000
-0.300000
0.300000
-0.100000
0.100000
-0.400000
0.400000
-0.300000
0.200000
-0.100000
-0.400000
-0.300000
0.200000
-0.200000
-0.200000
0.500000
0.500000
-0.200000
0.000000
-0.100000
0.400000
0.200000
0.200000
0.300000
0.100000
0.300000
-0.300000
0.000000
0.500000
0.500000
0.100000
0.400000
-0.100000
0.200000
0.300000
0.400000
-0.300000
0.000000
0.300000
0.000000
0.500000
0.200000
0.300000
-0.200000
-0.200000
-0.300000
0.100000
-0.100000
0.000000
-0.200000
-0.400000
0.100000
-0.200000
-0.100000
-0.100000
0.100000
-0.200000
-0.400000
0.100000
-0.300000
0.400000
-0.200000
0.200000
0.200000
0.500000
-0.100000
-0.100000
0.300000
-0.400000
-0.400000
0.100000
0.300000
-0.400000
0.100000
-0.100000
0.500000
0.500000
0.200000
-0.200000
-0.200000
0.500000
0.200000
0.200000
0.400000
0.300000
0.200000
-0.300000
-0.300000
0.100000
-0.100000
-0.100000
-0.300000
0.400000
0.200000
0.100000
0.300000
0.300000
-0.300000
-0.100000
0.000000
-0.100000
0.400000
0.200000
0.200000
0.400000
0.300000
-0.400000
0.300000
0.000000
-0.400000
-0.400000
0.300000
0.100000
-0.200000
0.300000
0.100000
0.100000
0.500000
0.200000
0.400000
-0.100000
-0.200000
-0.100000
0.300000
-0.100000
0.300000
-0.300000
0.400000
0.300000
-0.400000
-0.100000
0.400000
0.300000
-0.200000
-0.200000
0.500000
-0.200000
-0.200000
